~o
<STREAMINFO> 1 39
<VECSIZE> 39<NULLD><MFCC_D_A_0><DIAGC>
~s "silst"
<MEAN> 39
 -9.801274e+000 -2.158757e+000 -2.214027e-001 2.892438e+000 6.297246e+000 9.775479e-001 8.481079e+000 6.407802e+000 6.068162e+000 2.626547e+000 2.653627e+000 -1.941864e+000 4.165316e+001 -9.851107e-002 -7.975530e-002 4.195224e-002 6.676543e-003 1.187984e-001 1.302295e-001 9.608857e-002 1.254087e-001 6.017943e-002 6.357764e-002 -1.004657e-001 5.203379e-002 -3.265349e-002 1.948404e-001 6.290708e-002 -1.793440e-002 -1.656062e-001 -2.327601e-001 -2.199804e-001 -2.924396e-001 -2.185729e-001 -2.357197e-001 -1.626986e-001 -1.499857e-001 -1.411336e-001 2.113111e-001
<VARIANCE> 39
 4.193071e+001 8.040639e+001 6.189699e+001 5.755347e+001 6.301950e+001 7.070834e+001 1.225336e+002 1.369902e+002 8.795447e+001 7.404974e+001 5.824934e+001 6.552275e+001 1.325036e+002 1.807020e+000 1.955734e+000 2.643240e+000 3.495838e+000 4.135173e+000 4.749570e+000 5.959000e+000 6.141304e+000 5.657117e+000 5.454877e+000 4.916949e+000 4.224935e+000 1.151519e+000 3.436945e-001 3.571705e-001 4.853963e-001 6.496504e-001 7.522743e-001 8.818493e-001 1.096612e+000 1.128747e+000 1.042941e+000 1.090560e+000 9.694355e-001 8.343925e-001 2.575982e-001
<GCONST> 1.398034e+002
~h "b"
<BEGINHMM>
<NUMSTATES> 5
<STATE> 2
<MEAN> 39
 5.438293e+000 6.839642e+000 3.010813e+000 -6.456956e-001 -1.999416e+000 -4.037265e+000 -5.635016e+000 -7.689310e+000 -6.316532e+000 -7.354295e+000 -7.266798e+000 -7.657042e+000 5.753111e+001 1.201613e+000 -1.638360e+000 -1.606470e+000 -2.171610e+000 -1.078129e+000 2.474698e-001 -5.364003e-001 -3.286668e-003 8.612326e-001 6.081346e-001 -1.000923e-001 -8.442010e-002 3.824018e+000 -4.450491e-001 -6.520339e-001 -3.092729e-001 -3.692189e-001 3.436740e-002 2.146676e-001 3.162273e-001 3.977859e-001 3.533024e-001 1.180749e-001 1.954034e-001 1.605368e-001 4.928058e-001
<VARIANCE> 39
 1.021517e+002 9.683836e+001 9.351931e+001 1.089421e+002 6.780218e+001 8.344099e+001 7.576268e+001 7.943274e+001 7.378397e+001 9.162818e+001 8.756444e+001 5.452286e+001 1.518782e+002 6.427553e+000 1.213032e+001 8.414990e+000 9.798032e+000 6.666243e+000 8.198648e+000 7.859205e+000 8.142569e+000 1.032909e+001 1.208690e+001 8.040287e+000 9.961502e+000 8.803758e+000 7.938111e-001 1.277822e+000 1.244552e+000 1.545472e+000 1.069389e+000 1.222316e+000 1.217039e+000 1.232498e+000 1.434707e+000 1.950921e+000 1.170423e+000 1.308054e+000 1.366381e+000
<GCONST> 1.611846e+002
<STATE> 3
<MEAN> 39
 2.130448e+000 -8.109523e+000 -8.225320e+000 -1.295021e+001 -5.896566e+000 -1.895120e+000 -4.363089e+000 -1.344476e+000 2.531808e+000 -3.622392e+000 -6.691611e+000 -8.278564e+000 7.878027e+001 -1.350780e+000 -1.786022e+000 -7.018223e-001 -4.507019e-001 2.362758e-001 3.319849e-001 9.532043e-001 1.624832e+000 2.983348e-001 -1.313629e+000 -3.017736e-001 -7.522979e-002 2.652070e+000 -1.830237e-001 6.743749e-001 6.973206e-001 1.028993e+000 4.403938e-001 4.526807e-002 3.031639e-001 -1.013349e-001 -7.619966e-001 -3.420205e-001 1.089047e-001 1.225173e-003 -1.181273e+000
<VARIANCE> 39
 7.871870e+001 5.535088e+001 8.128137e+001 6.518221e+001 6.411907e+001 1.477639e+002 1.110989e+002 8.170303e+001 7.035133e+001 1.635956e+002 1.234381e+002 1.741438e+002 8.464532e+001 4.576159e+000 3.668379e+000 3.513223e+000 4.239410e+000 4.877139e+000 4.497362e+000 6.258659e+000 4.709858e+000 5.164250e+000 5.848959e+000 5.492189e+000 5.763134e+000 4.462724e+000 6.431511e-001 6.313640e-001 6.450087e-001 8.434671e-001 6.758434e-001 1.112419e+000 1.157730e+000 8.377075e-001 9.947116e-001 1.473776e+000 1.298264e+000 1.259642e+000 4.846961e-001
<GCONST> 1.493429e+002
<STATE> 4
<MEAN> 39
 -5.072340e+000 -5.517039e+000 -8.284082e+000 -1.287099e+001 -6.370653e+000 -2.620897e+000 -4.320376e+000 -3.781087e+000 -8.817962e-001 -1.081692e+001 -7.690505e+000 -2.519833e+000 8.259734e+001 -3.956155e-001 -1.133125e-001 2.190215e-001 3.895897e-001 2.618953e-002 4.596134e-002 3.265398e-001 1.663835e-001 -5.795395e-001 -3.093581e-001 3.525626e-001 2.818338e-002 8.076969e-002 1.608099e-001 1.621527e-001 1.899118e-001 6.354934e-002 -7.329044e-002 -1.469676e-001 -1.052241e-001 -1.206544e-001 -7.372023e-003 2.894877e-001 8.959886e-002 -6.347619e-002 -3.801062e-001
<VARIANCE> 39
 6.001149e+001 7.792571e+001 9.789133e+001 7.787870e+001 1.166633e+002 8.468305e+001 1.253640e+002 9.025932e+001 6.450417e+001 1.238449e+002 7.921946e+001 1.119174e+002 6.654453e+001 7.065411e-001 9.788153e-001 1.128262e+000 1.641508e+000 2.481570e+000 2.373319e+000 2.736442e+000 2.300837e+000 2.641763e+000 2.685729e+000 3.008608e+000 2.013647e+000 6.892452e-001 1.903606e-001 1.733674e-001 2.448559e-001 2.836129e-001 3.682012e-001 4.036484e-001 5.686351e-001 4.910874e-001 4.313595e-001 5.466316e-001 4.469159e-001 4.073165e-001 1.488437e-001
<GCONST> 1.228079e+002
<TRANSP> 5
 0.000000e+000 1.000000e+000 0.000000e+000 0.000000e+000 0.000000e+000
 0.000000e+000 7.840807e-001 2.159192e-001 0.000000e+000 0.000000e+000
 0.000000e+000 0.000000e+000 6.101522e-001 3.898478e-001 0.000000e+000
 0.000000e+000 0.000000e+000 0.000000e+000 7.017680e-001 2.982320e-001
 0.000000e+000 0.000000e+000 0.000000e+000 0.000000e+000 0.000000e+000
<ENDHMM>
~h "d"
<BEGINHMM>
<NUMSTATES> 5
<STATE> 2
<MEAN> 39
 2.000057e+000 5.761798e+000 6.159077e+000 2.411575e+000 -1.207114e+000 -5.994355e+000 -3.204490e+000 -4.777160e+000 -5.138794e+000 -7.374841e+000 -6.668496e+000 -8.875302e+000 5.376329e+001 1.847859e-001 -1.031559e+000 -2.987191e-001 -5.559701e-001 4.357960e-002 -8.069935e-001 -8.667996e-001 6.867360e-001 1.014651e+000 3.254577e-001 1.774705e-002 -3.489409e-001 1.989767e+000 -1.098517e-001 -7.153910e-001 -1.266861e-001 -5.678380e-001 -4.511414e-001 -2.275111e-001 -2.323615e-001 2.466137e-001 1.591306e-001 1.608760e-001 2.615275e-001 4.222873e-002 8.638369e-001
<VARIANCE> 39
 1.157204e+002 8.148398e+001 8.854837e+001 7.639648e+001 1.101191e+002 8.518837e+001 6.141188e+001 7.778731e+001 8.805654e+001 7.856425e+001 7.549788e+001 5.270265e+001 1.506827e+002 5.769527e+000 9.783182e+000 8.049792e+000 8.643418e+000 1.006978e+001 7.706821e+000 8.125272e+000 8.890651e+000 8.633204e+000 6.638184e+000 7.687341e+000 6.588921e+000 7.017023e+000 7.568341e-001 1.314120e+000 1.076172e+000 1.297545e+000 1.539847e+000 1.414525e+000 1.408780e+000 1.571120e+000 1.536872e+000 1.223983e+000 1.306077e+000 1.096930e+000 8.152539e-001
<GCONST> 1.589298e+002
<STATE> 3
<MEAN> 39
 1.202920e+000 -5.834425e+000 5.262411e+000 -5.805728e+000 -6.063120e+000 -9.914396e+000 -9.554220e+000 1.463718e+000 5.660434e-001 -2.936607e+000 -3.841355e+000 -9.299282e+000 7.073544e+001 -4.147441e-001 -2.288049e+000 -8.772517e-001 -2.257662e+000 -1.838787e+000 3.777114e-002 -4.534991e-001 1.032194e+000 6.928424e-001 2.450807e-001 8.852720e-001 2.273993e-001 3.487605e+000 3.756293e-002 6.475378e-001 -4.030775e-001 4.198430e-001 3.137682e-001 7.495632e-001 8.870180e-001 -3.189204e-001 -4.139003e-001 -3.701341e-001 -1.040671e-001 2.534487e-002 -6.497725e-001
<VARIANCE> 39
 1.175541e+002 7.372173e+001 9.447901e+001 1.119060e+002 1.387608e+002 7.148635e+001 9.985010e+001 1.818398e+002 1.103951e+002 6.351816e+001 8.723824e+001 9.652144e+001 1.131327e+002 4.753892e+000 9.146713e+000 5.594487e+000 7.259889e+000 7.579646e+000 8.956489e+000 1.125152e+001 9.559662e+000 6.671729e+000 7.046175e+000 6.953308e+000 5.658813e+000 6.492200e+000 5.168950e-001 1.060957e+000 1.279203e+000 1.229040e+000 1.862684e+000 1.394784e+000 1.380027e+000 1.763220e+000 1.232597e+000 9.915799e-001 1.222109e+000 1.054954e+000 8.370592e-001
<GCONST> 1.593803e+002
<STATE> 4
<MEAN> 39
 1.109338e+000 -4.129568e+000 5.381155e-001 -8.057487e+000 -6.650814e+000 -5.814227e+000 -6.620434e+000 -3.378449e+000 -3.929533e+000 -6.308918e+000 -1.697155e+000 -6.332744e+000 7.226102e+001 -1.755502e-001 -4.413792e-001 -1.078793e+000 -4.502329e-001 -1.136153e-001 6.152666e-001 1.079450e+000 3.597493e-001 -5.316976e-002 -3.877474e-001 1.583156e-001 1.255444e-001 7.528633e-001 1.692707e-001 1.496389e-001 1.141407e-001 2.391642e-001 3.178346e-001 4.206189e-002 4.644270e-002 -5.571378e-002 -1.700914e-001 -9.109793e-002 -2.784265e-001 -1.790643e-001 -4.204271e-001
<VARIANCE> 39
 1.485731e+002 9.832225e+001 8.588001e+001 1.055743e+002 1.049668e+002 9.785626e+001 1.193219e+002 2.142021e+002 1.804009e+002 1.112892e+002 1.062911e+002 1.134047e+002 1.694607e+002 2.350019e+000 3.247563e+000 4.581509e+000 4.484413e+000 5.482007e+000 5.340992e+000 6.555763e+000 5.767804e+000 4.940224e+000 5.848465e+000 4.736066e+000 3.927250e+000 3.327305e+000 4.859312e-001 6.210580e-001 7.064204e-001 8.729047e-001 9.411051e-001 9.920152e-001 1.146928e+000 1.016377e+000 1.044537e+000 8.598726e-001 8.497919e-001 7.740517e-001 5.875623e-001
<GCONST> 1.511003e+002
<TRANSP> 5
 0.000000e+000 1.000000e+000 0.000000e+000 0.000000e+000 0.000000e+000
 0.000000e+000 7.175655e-001 2.824346e-001 0.000000e+000 0.000000e+000
 0.000000e+000 0.000000e+000 4.981616e-001 5.018384e-001 0.000000e+000
 0.000000e+000 0.000000e+000 0.000000e+000 5.137979e-001 4.862021e-001
 0.000000e+000 0.000000e+000 0.000000e+000 0.000000e+000 0.000000e+000
<ENDHMM>
~h "f"
<BEGINHMM>
<NUMSTATES> 5
<STATE> 2
<MEAN> 39
 3.815509e+000 -8.957844e+000 1.242624e+001 -5.372482e+000 -1.885764e+001 -1.262526e+001 -2.015111e+000 -4.952041e-001 -4.554658e+000 5.110552e+000 3.199477e+000 -8.500589e+000 6.336983e+001 -1.431772e-001 3.923114e-001 -2.999268e-001 1.475931e-001 2.300128e-001 3.643180e-001 6.536359e-001 1.203242e-001 6.790034e-001 6.709782e-001 5.220774e-001 2.825544e-001 -5.214698e-001 -1.498597e-001 1.200927e-002 -1.105863e-001 2.661787e-001 4.204612e-001 9.131239e-002 8.708266e-002 2.953848e-002 1.364563e-001 -6.864329e-002 -2.206795e-001 8.319913e-002 -1.545918e-001
<VARIANCE> 39
 1.454475e+001 2.593269e+001 1.678978e+001 2.455019e+001 3.914613e+001 3.370075e+001 2.777086e+001 2.867113e+001 2.531457e+001 4.395040e+001 2.824568e+001 2.573462e+001 1.972919e+001 4.197333e-001 9.125518e-001 1.161947e+000 2.780813e+000 3.586261e+000 1.776992e+000 1.673713e+000 2.065989e+000 2.437201e+000 1.856758e+000 2.743274e+000 1.801392e+000 7.069499e-001 9.595042e-002 2.146095e-001 1.660700e-001 2.713749e-001 3.556187e-001 3.544094e-001 3.630975e-001 4.309922e-001 4.290513e-001 3.392674e-001 3.779521e-001 2.862540e-001 3.919620e-002
<GCONST> 1.018493e+002
<STATE> 3
<MEAN> 39
 -4.894430e+000 -8.303662e+000 3.886840e+000 1.412011e+000 -4.617798e+000 -7.734881e+000 7.210903e+000 5.930384e+000 6.543341e+000 7.433902e+000 2.922800e+000 -4.957168e+000 5.444339e+001 -1.719684e+000 -9.810188e-001 -1.415369e+000 3.976712e-001 2.231182e+000 1.322623e+000 1.550476e+000 1.803374e+000 1.435331e+000 1.015202e-001 -5.023781e-002 2.685554e-001 -9.882687e-001 1.764713e-001 2.829559e-002 1.351506e-001 -9.892028e-002 -1.518909e-001 1.727287e-002 -1.056485e-001 -6.036283e-002 -2.682472e-001 -8.000673e-002 1.487079e-002 -1.261235e-001 1.130670e-001
<VARIANCE> 39
 2.548618e+001 2.961892e+001 2.956251e+001 2.417281e+001 3.836818e+001 4.986647e+001 7.132010e+001 6.661483e+001 4.249267e+001 6.240009e+001 2.478215e+001 2.793342e+001 2.462040e+001 1.026742e+000 1.016846e+000 9.703312e-001 1.812151e+000 2.828191e+000 2.729856e+000 3.840693e+000 3.276207e+000 3.792087e+000 3.091644e+000 2.086257e+000 1.662527e+000 2.187570e-001 2.101655e-001 2.831077e-001 2.192434e-001 4.057129e-001 3.910998e-001 4.993404e-001 6.624817e-001 5.704999e-001 6.355492e-001 5.801989e-001 4.335537e-001 3.471250e-001 3.440554e-002
<GCONST> 1.117851e+002
<STATE> 4
<MEAN> 39
 -8.872118e+000 -1.033734e+001 -3.417636e+000 5.983639e+000 8.395956e+000 1.714511e+000 1.615780e+001 1.696486e+001 1.175156e+001 6.940348e+000 3.592445e+000 -5.287555e+000 4.915012e+001 -1.204576e-001 5.607710e-002 -4.234443e-001 2.940563e-001 8.025343e-001 4.761633e-001 4.393091e-001 4.686897e-001 7.718517e-002 -6.345762e-002 7.805757e-003 -1.557864e-001 -3.099799e-001 3.316930e-002 1.489063e-002 4.353621e-002 -6.939975e-002 -1.249116e-001 -1.109238e-001 -5.185250e-002 -8.483160e-002 -9.381899e-002 5.682430e-003 -1.450855e-002 -1.069236e-002 4.576772e-002
<VARIANCE> 39
 7.172569e+000 1.663537e+001 2.557229e+001 2.131548e+001 4.522466e+001 4.328987e+001 5.601542e+001 7.074579e+001 3.435040e+001 3.423164e+001 2.305708e+001 2.770465e+001 1.645126e+001 4.292398e-001 5.472837e-001 1.111425e+000 1.474339e+000 2.093045e+000 2.130392e+000 2.001546e+000 2.205673e+000 2.099155e+000 1.989383e+000 1.959144e+000 2.014102e+000 2.991361e-001 7.989530e-002 8.832300e-002 1.900985e-001 2.495291e-001 3.078942e-001 3.425216e-001 3.445376e-001 3.879957e-001 4.009956e-001 3.715202e-001 3.863717e-001 3.801808e-001 4.170212e-002
<GCONST> 9.931121e+001
<TRANSP> 5
 0.000000e+000 1.000000e+000 0.000000e+000 0.000000e+000 0.000000e+000
 0.000000e+000 8.694625e-001 1.305374e-001 0.000000e+000 0.000000e+000
 0.000000e+000 0.000000e+000 7.475606e-001 2.524395e-001 0.000000e+000
 0.000000e+000 0.000000e+000 0.000000e+000 8.668457e-001 1.331543e-001
 0.000000e+000 0.000000e+000 0.000000e+000 0.000000e+000 0.000000e+000
<ENDHMM>
~h "g"
<BEGINHMM>
<NUMSTATES> 5
<STATE> 2
<MEAN> 39
 -8.566670e-001 -1.052120e-001 3.783521e+000 7.416976e+000 3.289554e+000 -4.768352e+000 2.460489e+000 7.807072e-002 -3.560404e+000 -8.119584e+000 -9.158107e+000 -1.167603e+001 5.168132e+001 2.780220e-001 6.829712e-002 3.074553e-001 9.462876e-001 9.563178e-001 3.881226e-001 -8.525790e-002 -3.517408e-001 -6.680783e-001 -5.853698e-001 -2.870413e-001 -1.150688e-001 2.975613e-001 6.983392e-002 -2.192266e-001 -3.580568e-002 -2.247071e-001 -3.366196e-001 -2.160029e-001 -2.286075e-001 -2.409813e-001 -4.378047e-002 3.297876e-001 2.218989e-001 1.135002e-001 2.838188e-001
<VARIANCE> 39
 2.420652e+001 4.125422e+001 2.701745e+001 4.169944e+001 8.825556e+001 5.107322e+001 5.507085e+001 6.410941e+001 6.136552e+001 5.953860e+001 4.742689e+001 3.106421e+001 5.652922e+001 1.545215e+000 2.898581e+000 2.515435e+000 2.905249e+000 5.698925e+000 4.300861e+000 4.980499e+000 6.891879e+000 6.858457e+000 5.595981e+000 3.937481e+000 3.146035e+000 1.187588e+000 2.636873e-001 3.733295e-001 4.328446e-001 4.214506e-001 9.007769e-001 7.120672e-001 9.448673e-001 1.264605e+000 1.216962e+000 8.349996e-001 6.041400e-001 6.309414e-001 2.074060e-001
<GCONST> 1.314789e+002
<STATE> 3
<MEAN> 39
 2.804983e+000 4.667567e+000 6.187443e+000 6.753379e+000 1.813153e+000 -6.121333e+000 -4.328572e+000 -7.790219e+000 -6.688477e+000 -6.295475e+000 -6.169015e+000 -8.890461e+000 5.563461e+001 1.096029e+000 -1.254277e+000 5.095946e-002 -6.030360e-001 -1.190496e+000 -4.314435e-001 -1.766151e+000 -1.459422e+000 -3.883410e-001 7.901497e-001 9.665658e-001 5.160227e-002 2.448720e+000 -7.134482e-002 -2.154327e-001 2.211649e-001 -6.822464e-001 -5.978363e-001 -3.671172e-002 -2.221650e-001 1.928295e-001 1.885951e-001 4.893186e-003 2.994121e-001 1.202251e-001 3.836879e-001
<VARIANCE> 39
 8.696368e+001 1.292976e+002 1.403542e+002 4.901680e+001 9.813087e+001 7.390231e+001 1.138353e+002 6.075970e+001 8.582900e+001 6.470764e+001 8.238419e+001 5.038471e+001 1.143899e+002 3.836478e+000 9.233276e+000 1.148771e+001 6.476561e+000 1.160964e+001 8.259429e+000 9.925422e+000 8.951966e+000 5.778207e+000 7.214484e+000 5.326302e+000 6.917977e+000 4.699769e+000 5.215992e-001 1.391768e+000 1.542969e+000 1.175376e+000 1.658218e+000 1.108626e+000 1.653572e+000 1.554495e+000 1.399685e+000 1.253626e+000 9.647579e-001 8.649225e-001 6.453981e-001
<GCONST> 1.568477e+002
<STATE> 4
<MEAN> 39
 2.853251e+000 -3.999579e+000 8.218406e+000 -2.583469e+000 -7.705602e+000 -6.942227e+000 -1.228948e+001 -8.626921e+000 -3.295721e+000 -6.720305e+000 1.871392e+000 -7.865478e+000 7.167460e+001 -1.008220e-001 -1.039184e+000 7.541028e-001 -2.054712e+000 -1.900025e+000 -1.043615e-001 -1.272109e+000 1.756431e-001 3.251419e-001 -1.578667e-001 5.250171e-001 4.783558e-001 2.391040e+000 -2.115792e-001 3.523268e-001 -1.592752e-001 1.458395e-001 3.451868e-001 1.034138e-001 3.694648e-001 3.134629e-001 7.576815e-002 -4.521734e-003 -3.704570e-001 -2.497620e-003 -5.402683e-001
<VARIANCE> 39
 6.935349e+001 9.814861e+001 3.095320e+002 9.285276e+001 1.070165e+002 1.662184e+002 1.240850e+002 1.081855e+002 8.377685e+001 1.188442e+002 1.232880e+002 1.292225e+002 7.422504e+001 2.852478e+000 7.600098e+000 7.498565e+000 7.150682e+000 5.538070e+000 9.805854e+000 9.438794e+000 1.052024e+001 5.902079e+000 8.046702e+000 5.354863e+000 6.281502e+000 4.230664e+000 4.616352e-001 1.126199e+000 1.409515e+000 1.111541e+000 1.086369e+000 1.601494e+000 1.665873e+000 2.123605e+000 1.181557e+000 1.102844e+000 9.394574e-001 1.117952e+000 3.691081e-001
<GCONST> 1.586480e+002
<TRANSP> 5
 0.000000e+000 1.000000e+000 0.000000e+000 0.000000e+000 0.000000e+000
 0.000000e+000 8.116506e-001 1.883494e-001 0.000000e+000 0.000000e+000
 0.000000e+000 0.000000e+000 6.642268e-001 3.357732e-001 0.000000e+000
 0.000000e+000 0.000000e+000 0.000000e+000 6.582510e-001 3.417489e-001
 0.000000e+000 0.000000e+000 0.000000e+000 0.000000e+000 0.000000e+000
<ENDHMM>
~h "k"
<BEGINHMM>
<NUMSTATES> 5
<STATE> 2
<MEAN> 39
 -7.114091e+000 -8.702629e-001 1.001850e+000 -2.038548e+000 -5.820287e+000 -8.926661e+000 -1.441654e+000 -2.502890e+000 -2.974248e+000 -4.415769e+000 -1.464258e+000 -5.229383e+000 5.436243e+001 -5.599791e-001 -1.428187e-001 -5.356382e-001 6.406338e-001 1.087900e+000 5.860434e-001 5.285423e-001 5.465835e-001 5.897940e-001 7.291983e-001 3.126711e-001 3.285040e-001 -6.273864e-001 -7.908142e-002 -1.462821e-001 -5.205696e-002 -1.234123e-001 -7.155281e-002 -1.528243e-002 4.246719e-002 1.313860e-001 7.323153e-002 4.907738e-002 -1.030535e-002 3.934138e-002 5.049724e-001
<VARIANCE> 39
 6.157286e+001 5.147447e+001 9.760421e+001 5.141294e+001 7.450349e+001 8.623768e+001 7.105983e+001 1.064537e+002 9.881282e+001 8.435593e+001 4.933711e+001 4.045468e+001 1.087797e+002 1.625799e+000 2.043143e+000 2.383220e+000 2.965178e+000 4.244532e+000 4.052885e+000 4.130702e+000 4.789032e+000 4.676064e+000 3.969996e+000 3.630660e+000 2.709084e+000 2.089784e+000 4.011284e-001 4.442968e-001 5.985198e-001 6.454927e-001 8.908246e-001 8.881196e-001 8.743467e-001 1.008839e+000 9.407514e-001 7.866874e-001 7.985743e-001 6.062195e-001 4.854783e-001
<GCONST> 1.374204e+002
<STATE> 3
<MEAN> 39
 -7.971583e+000 -1.924611e+000 1.527224e+000 4.786082e-001 -6.921837e-001 -5.983623e+000 2.943682e+000 1.472445e+000 -4.546697e-001 -4.858376e-001 1.474659e+000 -3.781368e+000 4.923436e+001 -3.972094e-001 -3.044125e-001 -5.813172e-001 -1.636556e-002 5.099077e-001 2.632036e-001 4.511137e-001 2.937741e-001 3.604483e-001 3.199231e-001 -2.576978e-001 1.241353e-001 8.759579e-001 1.873644e-001 4.556392e-002 4.573409e-002 -3.964466e-001 -5.183005e-001 -4.274973e-001 -3.900069e-001 -2.988126e-001 -2.383397e-001 -3.053834e-001 -2.598524e-001 -1.718141e-001 6.444819e-001
<VARIANCE> 39
 5.389093e+001 6.505299e+001 1.086103e+002 5.947721e+001 8.990347e+001 9.587771e+001 1.391030e+002 1.500436e+002 1.145459e+002 8.513473e+001 5.960962e+001 4.747284e+001 1.375524e+002 3.070879e+000 3.287796e+000 5.589557e+000 5.735726e+000 8.309701e+000 6.951408e+000 7.764044e+000 8.079144e+000 6.297092e+000 6.236007e+000 6.197594e+000 4.487414e+000 2.928095e+000 6.423187e-001 4.981890e-001 9.099013e-001 8.908764e-001 1.445956e+000 1.141351e+000 1.381091e+000 1.476408e+000 1.189527e+000 1.050303e+000 1.077244e+000 7.827074e-001 4.777191e-001
<GCONST> 1.509004e+002
<STATE> 4
<MEAN> 39
 -6.178597e+000 -2.365194e+000 9.163430e-001 -3.171361e+000 -5.713623e+000 -1.075473e+001 -4.444961e+000 -4.339283e+000 -4.468318e+000 -5.639695e+000 -2.182176e+000 -5.591918e+000 6.237186e+001 4.034643e-001 -2.877949e-001 -2.082098e-001 -5.582041e-001 -5.279103e-001 -4.662620e-001 -2.053597e-001 1.088433e-001 -1.166572e-001 -2.932690e-001 -2.005391e-001 -4.189892e-001 2.008183e+000 1.271748e-001 1.063272e-001 2.404418e-001 -1.079428e-001 -1.281261e-001 4.800373e-002 -4.361188e-002 4.101169e-003 -5.468915e-002 -1.119139e-001 1.708733e-002 -4.571836e-002 -4.552581e-002
<VARIANCE> 39
 1.591244e+002 1.067882e+002 1.869764e+002 1.035996e+002 1.401031e+002 1.303068e+002 1.382202e+002 1.377343e+002 1.083383e+002 9.708064e+001 9.234577e+001 9.224467e+001 1.570745e+002 7.863307e+000 7.417934e+000 1.059141e+001 8.769104e+000 1.343354e+001 9.183240e+000 9.429600e+000 9.337536e+000 9.604463e+000 7.973161e+000 8.076384e+000 6.422414e+000 7.250825e+000 1.048134e+000 1.155594e+000 1.407250e+000 1.544415e+000 1.832246e+000 1.598586e+000 1.632510e+000 1.518698e+000 1.668405e+000 1.238348e+000 1.406716e+000 1.112937e+000 1.195159e+000
<GCONST> 1.667845e+002
<TRANSP> 5
 0.000000e+000 1.000000e+000 0.000000e+000 0.000000e+000 0.000000e+000
 0.000000e+000 5.562949e-001 4.437051e-001 0.000000e+000 0.000000e+000
 0.000000e+000 0.000000e+000 4.356730e-001 5.643270e-001 0.000000e+000
 0.000000e+000 0.000000e+000 0.000000e+000 6.563387e-001 3.436613e-001
 0.000000e+000 0.000000e+000 0.000000e+000 0.000000e+000 0.000000e+000
<ENDHMM>
~h "l"
<BEGINHMM>
<NUMSTATES> 5
<STATE> 2
<MEAN> 39
 -4.149710e+000 -7.680627e-001 -1.088618e+001 -9.331873e+000 -4.643966e+000 -4.076587e+000 -8.581325e+000 -6.511879e+000 -1.164492e+000 -8.976069e+000 -4.618851e+000 -3.889606e+000 7.612510e+001 -8.487688e-002 6.203280e-002 1.188931e-001 -1.250475e-001 -2.455882e-001 5.376252e-001 3.620987e-001 5.471620e-002 -1.827857e-001 3.187629e-001 1.477465e-001 -7.027432e-002 -4.050606e-001 -5.577981e-002 1.987920e-002 6.073344e-002 4.246049e-002 -7.717133e-002 -4.234115e-002 1.207068e-001 1.200747e-001 1.191774e-002 1.810098e-002 1.973439e-002 5.417244e-003 -2.512300e-002
<VARIANCE> 39
 5.599089e+001 7.860556e+001 1.278322e+002 8.168592e+001 1.461872e+002 9.058401e+001 1.081182e+002 5.997526e+001 7.341508e+001 1.049851e+002 5.849709e+001 6.582501e+001 1.052357e+002 7.805685e-001 1.703583e+000 1.667222e+000 1.847602e+000 2.995750e+000 3.380078e+000 3.011765e+000 2.447638e+000 2.626190e+000 2.542132e+000 2.276596e+000 2.239755e+000 1.525192e+000 1.700568e-001 1.912233e-001 2.534399e-001 3.069754e-001 4.875452e-001 4.929624e-001 5.988820e-001 5.114123e-001 4.637625e-001 4.249582e-001 3.790519e-001 3.890198e-001 1.226149e-001
<GCONST> 1.248978e+002
<STATE> 3
<MEAN> 39
 -4.109306e-001 -6.459425e+000 -7.049104e+000 -6.200543e+000 -2.470972e+000 -3.649850e+000 2.473856e+000 4.333197e+000 3.087224e+000 3.613291e-001 -1.895526e+000 -9.192591e+000 6.000018e+001 1.705231e-001 5.033354e-001 -2.064086e-001 -7.698430e-001 -1.070930e+000 4.813339e-001 4.795521e-001 1.005213e-001 -3.370961e-001 1.293966e-001 1.002027e-001 3.111928e-001 1.537716e-001 2.526762e-001 -1.566932e-002 -1.609214e-001 -4.226232e-001 -1.684352e-001 1.152095e-001 -1.098098e-001 -2.706501e-001 -3.663446e-001 -2.436955e-001 -7.938622e-003 -1.632257e-002 5.344916e-001
<VARIANCE> 39
 8.591833e+001 5.576422e+001 8.359420e+001 6.896919e+001 8.613611e+001 6.346149e+001 1.421998e+002 1.252518e+002 8.973355e+001 9.850957e+001 7.902812e+001 6.203082e+001 1.161818e+002 3.448982e+000 2.441384e+000 3.512032e+000 6.744364e+000 6.185132e+000 4.167463e+000 5.899327e+000 7.024730e+000 6.027425e+000 4.411606e+000 3.673766e+000 3.716970e+000 4.725098e+000 5.527635e-001 3.744238e-001 6.171857e-001 9.584027e-001 9.542029e-001 7.907776e-001 9.296428e-001 1.117278e+000 9.260482e-001 6.424913e-001 6.577436e-001 5.576658e-001 5.357282e-001
<GCONST> 1.447715e+002
<STATE> 4
<MEAN> 39
 5.412302e+000 -7.219341e+000 -9.433376e+000 -1.598382e+001 -6.128347e+000 1.101130e+000 4.201332e-001 -2.651229e+000 -5.174620e+000 -2.048596e+000 -1.249508e+000 -9.083484e+000 7.227866e+001 3.966205e-001 -3.155822e-001 -3.808785e-001 -2.760728e-001 -4.073878e-002 1.809909e-001 -5.422716e-001 -2.553438e-001 -4.569900e-001 -1.731446e-002 3.340449e-002 -3.247172e-002 1.487385e-001 -1.469627e-001 -5.196684e-002 7.078591e-002 3.240547e-001 3.205210e-001 -1.082715e-001 -6.223672e-002 1.571159e-001 2.396573e-001 2.721607e-002 -5.553654e-003 -5.689296e-002 -2.902492e-001
<VARIANCE> 39
 8.090313e+001 8.652438e+001 9.264220e+001 1.132947e+002 7.868203e+001 9.440479e+001 9.147422e+001 6.748183e+001 4.906149e+001 7.253498e+001 5.392490e+001 4.363868e+001 1.224619e+002 4.941607e+000 2.639400e+000 3.672195e+000 7.801187e+000 4.881640e+000 5.392374e+000 6.055887e+000 5.065674e+000 4.035873e+000 4.206003e+000 3.213235e+000 2.740211e+000 6.758250e+000 6.747694e-001 4.626418e-001 4.983301e-001 1.197163e+000 7.692519e-001 8.051585e-001 8.842303e-001 8.598715e-001 7.621369e-001 8.669501e-001 6.536185e-001 5.630716e-001 4.664848e-001
<GCONST> 1.431038e+002
<TRANSP> 5
 0.000000e+000 1.000000e+000 0.000000e+000 0.000000e+000 0.000000e+000
 0.000000e+000 7.609189e-001 2.390811e-001 0.000000e+000 0.000000e+000
 0.000000e+000 0.000000e+000 5.509550e-001 4.490450e-001 0.000000e+000
 0.000000e+000 0.000000e+000 0.000000e+000 6.656481e-001 3.343519e-001
 0.000000e+000 0.000000e+000 0.000000e+000 0.000000e+000 0.000000e+000
<ENDHMM>
~h "m"
<BEGINHMM>
<NUMSTATES> 5
<STATE> 2
<MEAN> 39
 3.051052e+000 8.780736e+000 4.522015e+000 4.121219e-001 -2.637355e+000 -7.298285e+000 -8.096996e+000 -9.630930e+000 -1.007728e+001 -7.871064e+000 -6.774639e+000 -7.780615e+000 5.701054e+001 1.295840e+000 9.221870e-001 6.210945e-001 8.947718e-001 -4.067663e-001 -5.768972e-001 -9.435129e-001 -1.056466e+000 -1.061803e+000 -2.707439e-001 -6.615965e-001 -5.857891e-001 2.590871e-001 -2.970729e-001 -4.619040e-001 -1.478282e-001 -2.735872e-001 -1.595490e-001 1.324233e-001 3.373689e-001 3.952628e-001 5.137026e-001 2.256055e-001 1.858189e-001 1.776551e-001 2.277576e-001
<VARIANCE> 39
 8.829397e+001 6.783860e+001 6.387738e+001 5.635106e+001 8.498221e+001 6.313148e+001 6.431649e+001 6.275282e+001 6.580712e+001 7.160982e+001 5.732522e+001 3.955610e+001 1.081042e+002 7.205357e+000 3.194537e+000 2.547571e+000 2.543001e+000 4.576841e+000 4.088231e+000 5.312763e+000 4.645919e+000 5.654027e+000 4.532362e+000 3.470953e+000 3.470957e+000 3.851999e+000 4.127947e-001 5.609862e-001 5.018255e-001 4.935701e-001 7.175357e-001 7.588924e-001 8.309819e-001 9.631716e-001 9.466054e-001 8.892752e-001 7.297079e-001 6.377190e-001 2.833245e-001
<GCONST> 1.386555e+002
<STATE> 3
<MEAN> 39
 5.802740e+000 8.214339e+000 5.917252e+000 2.302350e+000 -4.118257e+000 -8.389099e+000 -8.858068e+000 -9.205643e+000 -9.599291e+000 -7.585133e+000 -6.972103e+000 -8.912682e+000 5.659024e+001 -2.462391e-001 -2.023022e-001 8.432006e-002 7.348405e-002 -2.849687e-001 8.986606e-002 3.983677e-001 3.472704e-001 4.940004e-001 2.720218e-001 -2.408417e-002 -7.347157e-002 -9.085262e-002 -2.807880e-001 -4.413269e-001 -1.074968e-001 -4.124701e-001 -1.576108e-001 2.558713e-001 3.539227e-001 4.436411e-001 3.304687e-001 9.905249e-002 1.496834e-001 9.396973e-002 2.906882e-001
<VARIANCE> 39
 6.161404e+001 6.333267e+001 4.822100e+001 4.711415e+001 5.862395e+001 5.487579e+001 5.679329e+001 6.818005e+001 5.655935e+001 6.102085e+001 4.831865e+001 3.073186e+001 7.625946e+001 2.212630e+000 1.903480e+000 1.924182e+000 2.052018e+000 4.004531e+000 3.214552e+000 3.630385e+000 4.045871e+000 3.407775e+000 3.162144e+000 2.586829e+000 2.182232e+000 1.566998e+000 2.728421e-001 4.450161e-001 5.106962e-001 5.459529e-001 6.735514e-001 6.380756e-001 7.484658e-001 7.991941e-001 7.038220e-001 6.159011e-001 5.168133e-001 4.843845e-001 2.689392e-001
<GCONST> 1.281288e+002
<STATE> 4
<MEAN> 39
 5.729099e+000 5.175000e+000 1.030505e+001 -2.422293e-001 -1.010872e+001 -6.994324e+000 -4.301152e+000 -4.736340e+000 -7.167934e+000 -4.846675e+000 -5.922113e+000 -1.025741e+001 6.083901e+001 -1.324372e+000 -2.186601e+000 1.278858e+000 -2.100653e+000 -1.670934e+000 1.033745e+000 1.005516e+000 1.557858e+000 5.478485e-001 3.100283e-001 6.037915e-001 -7.081131e-002 1.928558e+000 -3.303851e-001 -1.178996e-001 -6.681491e-002 -6.303253e-001 1.503724e-001 2.424792e-001 -1.304678e-001 1.639108e-001 -4.236567e-002 -1.410111e-001 1.681088e-001 9.660849e-002 2.518329e-001
<VARIANCE> 39
 8.358338e+001 8.465758e+001 1.610496e+002 9.349494e+001 1.438686e+002 7.736444e+001 1.140085e+002 1.328494e+002 6.780687e+001 8.370010e+001 7.447634e+001 7.954298e+001 1.094722e+002 3.878605e+000 5.932960e+000 1.087157e+001 7.991844e+000 1.021181e+001 6.709084e+000 8.682879e+000 9.151245e+000 6.641792e+000 6.353181e+000 3.940040e+000 5.340981e+000 3.699816e+000 5.251063e-001 1.279218e+000 1.317228e+000 1.229004e+000 1.436373e+000 1.119105e+000 1.339802e+000 1.397829e+000 1.029891e+000 9.323525e-001 7.261673e-001 7.744097e-001 6.281058e-001
<GCONST> 1.555352e+002
<TRANSP> 5
 0.000000e+000 1.000000e+000 0.000000e+000 0.000000e+000 0.000000e+000
 0.000000e+000 3.439829e-001 6.560171e-001 0.000000e+000 0.000000e+000
 0.000000e+000 0.000000e+000 5.926610e-001 4.073391e-001 0.000000e+000
 0.000000e+000 0.000000e+000 0.000000e+000 5.659560e-001 4.340440e-001
 0.000000e+000 0.000000e+000 0.000000e+000 0.000000e+000 0.000000e+000
<ENDHMM>
~h "n"
<BEGINHMM>
<NUMSTATES> 5
<STATE> 2
<MEAN> 39
 -4.915231e-002 -2.077291e+000 5.663103e+000 -8.645364e+000 -8.042548e+000 -6.238772e+000 -2.615113e+000 -3.406437e+000 -9.783993e+000 -1.140749e+001 -5.559564e+000 -8.023094e+000 7.095043e+001 9.686679e-001 2.030164e+000 -4.936057e-002 1.412982e+000 -2.889073e-001 -2.962322e-001 -4.117550e-001 -7.362772e-001 -2.535000e-001 2.185819e-001 -7.425321e-001 3.999980e-002 -1.862502e+000 -1.554760e-002 6.835676e-003 -1.940942e-001 1.131853e-001 9.119464e-002 -1.327937e-001 -4.975706e-002 -3.149419e-002 2.365356e-001 1.602757e-001 -7.698736e-002 3.636278e-002 -5.625848e-003
<VARIANCE> 39
 1.077557e+002 9.563331e+001 8.646969e+001 1.269854e+002 8.005518e+001 8.597736e+001 7.157637e+001 1.428965e+002 8.285495e+001 8.632928e+001 4.617349e+001 6.272431e+001 9.146397e+001 1.227030e+000 1.889989e+000 2.824193e+000 3.510413e+000 2.805675e+000 2.615475e+000 3.808717e+000 2.947394e+000 2.941373e+000 3.381881e+000 2.710978e+000 2.508367e+000 7.105432e-001 1.500486e-001 2.595147e-001 3.398378e-001 4.642665e-001 3.876242e-001 4.144683e-001 5.628406e-001 4.900603e-001 5.337354e-001 4.538769e-001 4.208537e-001 4.161351e-001 9.351764e-002
<GCONST> 1.273341e+002
<STATE> 3
<MEAN> 39
 7.931716e+000 2.429266e+000 5.225813e+000 9.353603e-001 -7.690723e+000 -8.144795e+000 -4.665385e+000 1.591046e-001 -4.962303e+000 -6.928388e+000 -8.300146e+000 -8.971917e+000 6.317151e+001 1.335051e-001 1.567623e+000 3.723115e-003 8.022209e-001 3.347902e-001 -4.561445e-001 -2.072238e-001 -6.967579e-001 1.984688e-001 1.659688e-001 -2.277694e-001 3.689176e-001 -1.338134e+000 -2.440373e-001 -2.514752e-001 8.049373e-002 -2.236970e-001 1.469146e-001 1.197828e-001 3.121381e-002 1.136248e-001 -1.016523e-001 -6.840499e-002 1.464814e-001 -3.461572e-002 1.503958e-001
<VARIANCE> 39
 7.856878e+001 7.616071e+001 7.219958e+001 5.638076e+001 7.251949e+001 1.000900e+002 5.998302e+001 1.335721e+002 6.994681e+001 6.145959e+001 5.299704e+001 5.311320e+001 6.083818e+001 6.303124e-001 1.256212e+000 2.018484e+000 1.977439e+000 2.485995e+000 2.236887e+000 2.653712e+000 2.764707e+000 2.516785e+000 2.672877e+000 2.339279e+000 2.019831e+000 4.352938e-001 9.506980e-002 1.885279e-001 2.882362e-001 3.484298e-001 3.863872e-001 3.837079e-001 4.667718e-001 5.353198e-001 4.366377e-001 4.409268e-001 4.183261e-001 3.515938e-001 6.423036e-002
<GCONST> 1.185427e+002
<STATE> 4
<MEAN> 39
 -4.154585e-001 6.272911e+000 4.908080e+000 2.159367e+000 -3.420953e+000 -6.608383e+000 -6.616324e+000 -7.765091e+000 -1.017141e+001 -1.131692e+001 -8.797011e+000 -7.706253e+000 5.828116e+001 -6.133994e-001 -1.167028e-001 -7.641605e-002 1.987172e-001 5.614571e-001 1.252183e-001 2.251713e-001 2.254776e-001 2.274563e-001 1.851346e-001 1.698874e-001 -1.424637e-002 -6.660888e-001 -1.535284e-001 -1.976856e-001 -2.028363e-002 -2.019922e-001 -9.517903e-003 6.090190e-002 8.834686e-002 1.807112e-001 1.086082e-001 2.331634e-002 1.059677e-001 1.970594e-002 1.473683e-001
<VARIANCE> 39
 5.669698e+001 3.705668e+001 4.502953e+001 3.194976e+001 4.760478e+001 5.518088e+001 4.494264e+001 6.843510e+001 6.971285e+001 6.568607e+001 4.388518e+001 4.028310e+001 9.220660e+001 7.583939e-001 1.142275e+000 1.257465e+000 1.630087e+000 2.101746e+000 2.139639e+000 2.744899e+000 2.641897e+000 2.478663e+000 2.523216e+000 2.478740e+000 2.197975e+000 4.180785e-001 1.732099e-001 2.004309e-001 2.996277e-001 3.688476e-001 3.877628e-001 4.376335e-001 4.851170e-001 4.603311e-001 4.544229e-001 4.866666e-001 4.554218e-001 4.242665e-001 9.146591e-002
<GCONST> 1.152691e+002
<TRANSP> 5
 0.000000e+000 1.000000e+000 0.000000e+000 0.000000e+000 0.000000e+000
 0.000000e+000 5.333537e-001 4.666463e-001 0.000000e+000 0.000000e+000
 0.000000e+000 0.000000e+000 6.523615e-001 3.476385e-001 0.000000e+000
 0.000000e+000 0.000000e+000 0.000000e+000 8.053621e-001 1.946379e-001
 0.000000e+000 0.000000e+000 0.000000e+000 0.000000e+000 0.000000e+000
<ENDHMM>
~h "p"
<BEGINHMM>
<NUMSTATES> 5
<STATE> 2
<MEAN> 39
 -1.487650e+000 -2.170303e+000 4.752771e-001 -4.882242e+000 -8.847279e+000 -8.063393e+000 -2.630092e+000 -3.572623e+000 -3.486245e+000 -3.864521e+000 -3.392340e+000 -4.440527e+000 6.135628e+001 1.513147e+000 -6.423621e-001 9.346907e-001 -2.305912e+000 -3.102946e+000 -1.425138e+000 -1.269297e+000 -1.272823e+000 -1.299116e+000 -3.257743e-001 -4.424137e-001 -4.945755e-003 4.192293e+000 -1.679103e-001 -1.283550e-001 -5.769949e-002 -5.476131e-001 1.283943e-001 5.162602e-001 6.968332e-002 8.597849e-002 9.031759e-002 4.330806e-002 7.656050e-002 1.433607e-002 1.795040e-001
<VARIANCE> 39
 8.664362e+001 6.074402e+001 2.195677e+002 1.351519e+002 1.332848e+002 1.283697e+002 9.676060e+001 1.109725e+002 7.858564e+001 7.409584e+001 7.666965e+001 6.196463e+001 1.650388e+002 5.246318e+000 5.797556e+000 1.553803e+001 1.196806e+001 1.761131e+001 1.164544e+001 8.176021e+000 1.086767e+001 8.592643e+000 7.673428e+000 7.822433e+000 6.363978e+000 1.183348e+001 1.125883e+000 8.495478e-001 1.615101e+000 1.713132e+000 2.359925e+000 2.023782e+000 1.162466e+000 1.595817e+000 1.343058e+000 1.244315e+000 1.483033e+000 1.045397e+000 1.912643e+000
<GCONST> 1.655879e+002
<STATE> 3
<MEAN> 39
 -1.855503e+000 -3.246201e+000 -1.819214e+000 -1.633850e+001 -1.723915e+001 -5.170679e+000 -7.922091e+000 -8.691403e+000 -4.523426e+000 -2.860945e+000 -2.699065e+000 -2.636942e+000 7.540791e+001 -4.901077e-001 7.383876e-002 5.199644e-001 -1.132664e+000 -4.906728e-002 5.677562e-001 -5.836983e-001 -2.429199e-001 2.284285e-001 -1.094244e-001 2.816376e-002 -7.450882e-002 1.067916e+000 -3.471354e-001 1.716616e-001 -1.178110e-001 9.414703e-001 1.057406e+000 1.661488e-001 3.626717e-001 3.979056e-001 2.469536e-001 -2.021006e-001 -6.560023e-002 -1.808488e-001 -1.021311e+000
<VARIANCE> 39
 7.071960e+001 7.157816e+001 3.083962e+002 8.080096e+001 1.510656e+002 1.461197e+002 9.054399e+001 1.131393e+002 7.937918e+001 1.205956e+002 9.370031e+001 5.756695e+001 7.813620e+001 2.013550e+000 2.629732e+000 3.880100e+000 7.422520e+000 7.681801e+000 7.175024e+000 3.777381e+000 3.922669e+000 4.400905e+000 4.340159e+000 4.815148e+000 2.722482e+000 5.661788e+000 3.956271e-001 4.640982e-001 1.009439e+000 9.237524e-001 1.822051e+000 1.138685e+000 7.621998e-001 1.023314e+000 8.411997e-001 9.760809e-001 7.901967e-001 5.418425e-001 6.358380e-001
<GCONST> 1.478923e+002
<STATE> 4
<MEAN> 39
 -7.818524e+000 1.281434e+000 -3.581825e+000 -1.305923e+001 -1.067901e+001 -6.089894e+000 -8.304543e+000 -9.156103e+000 -2.789202e+000 -8.530022e+000 -4.191905e+000 -3.535914e+000 7.159968e+001 -3.255513e-001 7.540540e-002 3.235664e-001 8.296052e-001 5.324727e-001 1.503788e-001 2.030192e-001 2.668654e-001 -6.073312e-002 -9.450696e-002 -1.011727e-001 -2.222310e-001 -1.106496e+000 5.602125e-002 -9.321430e-002 -6.312227e-002 1.499359e-001 -8.072469e-003 -6.754314e-002 5.944122e-002 6.461532e-002 -6.212901e-002 1.339017e-001 5.580799e-002 2.651352e-002 -1.498546e-001
<VARIANCE> 39
 5.322433e+001 6.055342e+001 1.175574e+002 7.794992e+001 9.045547e+001 9.049860e+001 5.902143e+001 5.775163e+001 5.037260e+001 1.011414e+002 5.617675e+001 3.340515e+001 1.011223e+002 9.402668e-001 2.097019e+000 1.692418e+000 2.970015e+000 3.538403e+000 2.822456e+000 2.987211e+000 2.478071e+000 2.990344e+000 4.208159e+000 3.165478e+000 2.057468e+000 2.139464e+000 1.935848e-001 3.416722e-001 2.847417e-001 5.199249e-001 5.061723e-001 5.850829e-001 4.860650e-001 4.855197e-001 5.556197e-001 6.587552e-001 5.674417e-001 3.815374e-001 3.509305e-001
<GCONST> 1.276061e+002
<TRANSP> 5
 0.000000e+000 1.000000e+000 0.000000e+000 0.000000e+000 0.000000e+000
 0.000000e+000 6.384777e-001 3.615223e-001 0.000000e+000 0.000000e+000
 0.000000e+000 0.000000e+000 5.236162e-001 4.763838e-001 0.000000e+000
 0.000000e+000 0.000000e+000 0.000000e+000 8.012878e-001 1.987122e-001
 0.000000e+000 0.000000e+000 0.000000e+000 0.000000e+000 0.000000e+000
<ENDHMM>
~h "r"
<BEGINHMM>
<NUMSTATES> 5
<STATE> 2
<MEAN> 39
 5.937952e+000 -1.045093e+001 3.202153e+000 -3.555131e-001 -1.163983e+001 -1.289380e+001 -9.676799e+000 2.107321e+000 -4.579797e+000 -7.031213e+000 -2.563601e+000 -8.053984e+000 7.152699e+001 -2.826814e-001 -1.121600e+000 1.473055e+000 -8.262907e-001 -1.001659e+000 -2.208477e-003 -7.996620e-002 1.295298e+000 -5.852983e-001 -3.415112e-001 4.884418e-001 -1.323462e-001 1.083044e+000 -3.723796e-001 3.292767e-001 1.822867e-001 -3.173451e-001 3.759993e-001 3.490883e-001 2.129693e-001 -1.785301e-001 -1.156375e-001 6.072252e-002 1.220731e-001 -8.821766e-003 -2.457697e-001
<VARIANCE> 39
 7.712894e+001 1.139436e+002 1.679402e+002 9.315572e+001 1.208032e+002 1.122739e+002 9.947643e+001 1.428522e+002 9.972856e+001 9.760829e+001 7.433178e+001 8.448186e+001 9.171643e+001 4.015970e+000 5.164973e+000 6.037513e+000 6.712759e+000 4.999067e+000 6.105499e+000 6.849385e+000 7.369882e+000 6.430959e+000 6.690117e+000 5.378491e+000 4.326952e+000 2.892554e+000 5.702849e-001 7.539341e-001 7.997885e-001 1.034874e+000 8.440834e-001 1.039656e+000 1.133447e+000 1.350232e+000 1.155211e+000 1.089563e+000 9.361342e-001 8.021008e-001 3.210608e-001
<GCONST> 1.520548e+002
<STATE> 3
<MEAN> 39
 1.647160e+000 -1.114206e+001 6.517389e+000 -4.242743e+000 -1.698057e+001 -1.114691e+001 -9.283916e+000 4.194822e+000 -4.396235e+000 -8.174307e+000 -1.178106e+000 -7.155986e+000 7.534653e+001 -5.184041e-001 6.719211e-001 1.440129e+000 -9.668725e-001 -1.265800e-001 4.158733e-001 3.731425e-001 -3.347672e-001 -6.292309e-001 2.435646e-001 3.075555e-001 -3.202282e-002 -1.089617e-001 -7.117863e-002 3.607309e-001 -9.921495e-002 1.295055e-001 3.039475e-001 -2.063864e-002 -3.649200e-002 -2.429547e-001 1.592561e-001 1.266366e-001 -2.400535e-001 2.884860e-002 -1.960166e-001
<VARIANCE> 39
 4.606060e+001 7.924607e+001 2.143568e+002 6.825966e+001 1.150336e+002 1.168774e+002 9.119547e+001 1.427347e+002 9.606945e+001 1.070071e+002 7.613102e+001 9.859933e+001 5.444310e+001 7.986356e-001 1.592466e+000 2.055218e+000 2.949511e+000 2.816901e+000 4.054832e+000 3.129558e+000 3.740781e+000 3.101385e+000 3.326394e+000 3.180765e+000 3.083777e+000 6.330011e-001 1.717301e-001 2.035713e-001 3.250761e-001 4.115179e-001 4.755761e-001 4.758801e-001 5.660672e-001 6.054201e-001 6.036463e-001 5.187460e-001 5.657446e-001 4.912735e-001 8.718318e-002
<GCONST> 1.289045e+002
<STATE> 4
<MEAN> 39
 -3.792505e-002 -4.266342e+000 1.743623e+001 -6.452234e+000 -1.375075e+001 -1.425674e+001 -8.950148e+000 2.608252e+000 -1.110582e+001 -8.900992e+000 -2.188885e-003 -8.815798e+000 7.048191e+001 1.246238e-002 1.340480e+000 1.925351e-001 1.182255e-001 2.303080e-001 3.977519e-001 -9.477159e-002 -8.909429e-001 3.066337e-002 6.911404e-002 -1.727943e-001 3.419771e-001 -1.152156e+000 5.463231e-002 -4.215220e-002 -2.527723e-001 1.755712e-001 6.281450e-002 2.559526e-003 -5.217599e-002 2.002413e-002 8.437434e-002 -4.653428e-002 -3.723894e-002 -1.700463e-003 -1.095773e-001
<VARIANCE> 39
 6.886419e+001 8.536893e+001 2.670998e+002 1.337268e+002 1.118042e+002 9.229584e+001 1.094552e+002 1.624999e+002 1.130318e+002 9.135287e+001 5.851097e+001 7.255325e+001 9.805795e+001 7.678875e-001 1.247697e+000 2.295627e+000 2.084133e+000 2.726099e+000 2.496204e+000 2.488995e+000 3.390425e+000 2.534586e+000 2.521623e+000 2.343917e+000 2.066112e+000 8.192769e-001 1.019216e-001 1.682176e-001 2.930208e-001 3.817374e-001 4.367712e-001 3.855634e-001 4.716046e-001 5.230994e-001 4.680302e-001 4.495320e-001 4.325119e-001 3.800637e-001 6.848922e-002
<GCONST> 1.253723e+002
<TRANSP> 5
 0.000000e+000 1.000000e+000 0.000000e+000 0.000000e+000 0.000000e+000
 0.000000e+000 5.795358e-001 4.204642e-001 0.000000e+000 0.000000e+000
 0.000000e+000 0.000000e+000 6.902919e-001 3.097081e-001 0.000000e+000
 0.000000e+000 0.000000e+000 0.000000e+000 7.522147e-001 2.477853e-001
 0.000000e+000 0.000000e+000 0.000000e+000 0.000000e+000 0.000000e+000
<ENDHMM>
~h "s"
<BEGINHMM>
<NUMSTATES> 5
<STATE> 2
<MEAN> 39
 -4.902234e+000 2.945822e+000 -1.334224e-001 -8.348895e+000 3.375516e+000 -1.369722e+001 -2.535456e+000 -2.775056e+000 -1.718188e+000 -3.934010e+000 -4.466837e-001 -9.255400e+000 6.214885e+001 -3.555329e+000 2.534901e+000 -9.606337e-001 -5.457962e-001 2.979845e+000 -2.219549e+000 2.185935e+000 -4.973613e-001 9.067302e-001 -4.529862e-001 4.758400e-001 -1.925971e-001 5.578022e-001 -4.507033e-001 5.123701e-002 -2.706587e-002 -1.778642e-001 3.751842e-004 2.394302e-001 1.209068e-001 -1.843665e-002 2.177282e-002 -6.584114e-002 4.656244e-002 -9.439098e-002 2.125630e-001
<VARIANCE> 39
 1.588836e+002 9.894101e+001 1.466415e+002 1.335431e+002 2.347498e+002 2.408265e+002 1.509856e+002 1.468076e+002 1.079984e+002 1.194696e+002 8.652689e+001 9.971049e+001 1.239944e+002 4.894195e+000 3.889882e+000 5.916668e+000 5.133447e+000 7.024538e+000 8.631934e+000 6.157071e+000 7.947072e+000 6.513244e+000 6.140040e+000 4.007274e+000 4.001894e+000 3.355414e+000 9.499320e-001 7.285611e-001 7.226795e-001 8.374525e-001 1.465532e+000 1.681270e+000 1.289643e+000 1.356175e+000 1.047298e+000 1.038347e+000 7.801406e-001 6.905925e-001 3.859153e-001
<GCONST> 1.566525e+002
<STATE> 3
<MEAN> 39
 -2.451293e+001 1.173900e+001 -4.218499e+000 -8.177779e+000 9.685554e+000 -1.269487e+001 2.907508e+000 -2.785827e+000 -1.923018e-001 -5.865473e+000 1.423352e+000 -7.149505e+000 6.671851e+001 -8.571423e-001 3.217926e-001 -3.219931e-002 -8.662091e-002 5.424973e-001 3.489462e-001 2.435276e-001 5.081825e-002 3.077710e-001 6.058680e-002 1.380174e-001 3.380751e-002 -4.692267e-001 4.831921e-001 -2.533927e-001 8.880566e-002 5.798199e-002 -2.887725e-001 3.862790e-002 -1.718333e-001 -1.589011e-002 -4.462130e-002 2.529304e-002 -8.234508e-002 -9.196748e-003 -1.407793e-001
<VARIANCE> 39
 5.168730e+001 5.271958e+001 9.604391e+001 1.371037e+002 1.859712e+002 1.625325e+002 8.917655e+001 5.869744e+001 8.185115e+001 6.367041e+001 5.599228e+001 8.460925e+001 5.534705e+001 3.190500e+000 2.058832e+000 1.920932e+000 2.180836e+000 2.845930e+000 3.002454e+000 3.067438e+000 2.868812e+000 2.697254e+000 2.514368e+000 2.218417e+000 2.017570e+000 1.239027e+000 2.973599e-001 2.953481e-001 2.836182e-001 3.888108e-001 4.864029e-001 6.542739e-001 5.891359e-001 5.065770e-001 5.033892e-001 4.789269e-001 3.914924e-001 3.874926e-001 1.661021e-001
<GCONST> 1.281552e+002
<STATE> 4
<MEAN> 39
 -1.846123e+001 9.409355e+000 -8.079135e-001 -1.036725e+001 1.335415e+001 -1.526954e+001 4.851184e+000 -2.829772e+000 2.644994e+000 -3.449832e+000 3.986177e-001 -9.546170e+000 5.605179e+001 1.759147e+000 -6.694245e-001 -4.561874e-002 1.349527e-001 -7.603692e-001 1.984386e-001 -2.676429e-002 -1.942545e-001 -1.987876e-001 1.640500e-001 -2.861807e-001 -1.613991e-001 -1.601974e-001 2.937683e-001 -1.851030e-001 -2.698923e-002 -1.971551e-002 -2.169400e-001 1.265505e-001 -9.334547e-002 -7.909184e-003 -1.048834e-001 4.865892e-003 -4.313431e-002 -3.348457e-003 2.536109e-001
<VARIANCE> 39
 8.377649e+001 9.168501e+001 1.107821e+002 1.091546e+002 2.046241e+002 1.421120e+002 1.502460e+002 1.098461e+002 1.232476e+002 9.725397e+001 8.042413e+001 7.463039e+001 1.808265e+002 7.555398e+000 5.042126e+000 3.480205e+000 5.440204e+000 6.208467e+000 7.019376e+000 5.770633e+000 6.649535e+000 5.929864e+000 4.547215e+000 4.840509e+000 4.093861e+000 4.319901e+000 1.111677e+000 8.084733e-001 5.911077e-001 7.465195e-001 1.181638e+000 1.125031e+000 9.714323e-001 1.172331e+000 9.312544e-001 7.744686e-001 8.654819e-001 7.228045e-001 5.037912e-001
<GCONST> 1.530577e+002
<TRANSP> 5
 0.000000e+000 1.000000e+000 0.000000e+000 0.000000e+000 0.000000e+000
 0.000000e+000 6.691402e-001 3.308598e-001 0.000000e+000 0.000000e+000
 0.000000e+000 0.000000e+000 8.601460e-001 1.398539e-001 0.000000e+000
 0.000000e+000 0.000000e+000 0.000000e+000 7.916682e-001 2.083318e-001
 0.000000e+000 0.000000e+000 0.000000e+000 0.000000e+000 0.000000e+000
<ENDHMM>
~h "t"
<BEGINHMM>
<NUMSTATES> 5
<STATE> 2
<MEAN> 39
 -5.249320e+000 -1.552080e+000 -3.108566e+000 -8.602017e+000 8.994126e-001 -8.155915e+000 -2.411278e+000 -1.400913e+000 6.229936e-001 -2.126087e+000 -2.247807e+000 -7.809576e+000 6.038889e+001 4.643093e-001 -5.338269e-001 -2.820859e-001 -1.087039e+000 -8.144360e-001 -5.487385e-001 -6.654873e-001 -1.312931e-001 -4.404097e-001 -4.619711e-001 -5.369590e-001 -6.649688e-001 3.122891e+000 3.117557e-001 -5.670751e-003 1.288658e-001 -3.104147e-002 -3.103068e-001 1.353633e-001 -1.422420e-001 -1.251805e-001 -2.533654e-001 -1.915608e-001 8.959525e-002 -2.604259e-002 1.766264e-001
<VARIANCE> 39
 1.660803e+002 8.744364e+001 1.045295e+002 1.208742e+002 1.198255e+002 1.482155e+002 1.636286e+002 1.424690e+002 1.047580e+002 9.678970e+001 1.218185e+002 1.178503e+002 1.800437e+002 1.110239e+001 8.081527e+000 8.708071e+000 9.915620e+000 1.179008e+001 1.156670e+001 1.108901e+001 1.177430e+001 1.074545e+001 8.276808e+000 9.348145e+000 8.766366e+000 1.022654e+001 1.681552e+000 1.144656e+000 1.226031e+000 1.826740e+000 1.694852e+000 1.798368e+000 1.969425e+000 1.975822e+000 1.719275e+000 1.526501e+000 1.786265e+000 1.514499e+000 1.532593e+000
<GCONST> 1.708184e+002
<STATE> 3
<MEAN> 39
 -6.876085e+000 -7.688745e-001 -4.074149e+000 -9.879270e+000 -8.026912e+000 -8.995486e+000 -5.053379e+000 -3.727917e+000 -3.317671e+000 -6.919454e+000 -2.761324e+000 -5.242467e+000 7.267734e+001 1.711058e+000 -6.975035e-002 2.242730e-001 -9.511594e-001 -1.682596e+000 -4.865917e-001 -8.355235e-001 -4.615416e-001 -5.831698e-001 -1.334147e+000 -2.305547e-001 -9.894892e-002 1.406255e+000 1.490478e-001 -1.571632e-001 2.083418e-002 1.628124e-001 5.661508e-001 4.572390e-001 2.189329e-001 7.695058e-002 1.164013e-001 1.327593e-001 -1.617129e-002 -3.307927e-002 -6.080384e-001
<VARIANCE> 39
 1.755597e+002 9.039701e+001 1.017915e+002 6.940514e+001 1.039529e+002 1.137786e+002 1.059039e+002 1.250150e+002 7.831465e+001 1.119859e+002 6.585606e+001 9.778901e+001 9.836129e+001 5.917065e+000 3.536530e+000 4.846038e+000 5.041115e+000 8.099012e+000 7.082429e+000 9.039372e+000 6.832112e+000 5.868917e+000 7.149913e+000 5.669757e+000 3.914578e+000 3.630316e+000 1.150847e+000 6.185561e-001 7.261963e-001 7.906074e-001 1.197443e+000 1.281402e+000 1.129782e+000 1.145714e+000 1.057590e+000 1.016152e+000 9.480621e-001 7.693463e-001 6.669100e-001
<GCONST> 1.531976e+002
<STATE> 4
<MEAN> 39
 -3.577755e+000 -3.876429e+000 -5.387724e+000 -1.390381e+001 -5.884714e+000 -8.685747e+000 -5.040194e+000 -6.624870e+000 -4.020618e+000 -1.206781e+001 -4.145780e+000 -4.554083e+000 7.600311e+001 8.026186e-001 -2.570371e-001 -7.102767e-002 6.880519e-003 3.309688e-001 6.251099e-001 -2.001803e-001 2.315626e-002 -6.727860e-002 -1.000921e-001 -6.192046e-002 -1.553514e-001 -4.237703e-002 -2.265323e-001 1.172216e-001 2.280317e-002 3.444845e-001 2.841204e-001 1.808987e-001 1.474423e-001 6.094210e-002 3.216957e-002 3.147087e-001 1.134210e-001 -2.224572e-002 -4.376196e-001
<VARIANCE> 39
 1.163296e+002 8.959744e+001 1.077708e+002 8.275179e+001 1.166868e+002 1.286165e+002 1.039818e+002 1.328608e+002 7.394997e+001 1.945701e+002 7.653813e+001 9.935035e+001 1.164621e+002 2.275612e+000 2.649037e+000 2.548230e+000 3.579298e+000 4.672078e+000 4.277066e+000 4.771827e+000 4.019969e+000 3.806411e+000 3.577761e+000 3.585648e+000 3.131887e+000 2.471045e+000 4.721473e-001 4.377283e-001 4.980026e-001 6.082488e-001 1.023387e+000 7.146734e-001 8.994265e-001 8.789250e-001 7.476582e-001 7.629329e-001 6.262343e-001 5.721213e-001 3.501195e-001
<GCONST> 1.423773e+002
<TRANSP> 5
 0.000000e+000 1.000000e+000 0.000000e+000 0.000000e+000 0.000000e+000
 0.000000e+000 6.383614e-001 3.616387e-001 0.000000e+000 0.000000e+000
 0.000000e+000 0.000000e+000 4.548010e-001 5.451990e-001 0.000000e+000
 0.000000e+000 0.000000e+000 0.000000e+000 5.359020e-001 4.640980e-001
 0.000000e+000 0.000000e+000 0.000000e+000 0.000000e+000 0.000000e+000
<ENDHMM>
~h "v"
<BEGINHMM>
<NUMSTATES> 5
<STATE> 2
<MEAN> 39
 2.704797e+000 -3.136307e+000 -6.275417e+000 -1.452377e+001 -2.521079e+000 8.586072e-001 1.435228e+000 -3.376922e+000 -2.683097e+000 -2.045162e+000 1.054441e-001 -7.203722e+000 6.171951e+001 -1.587896e+000 -1.466608e-001 -5.185357e-001 1.172972e+000 8.271470e-001 -3.063565e-001 1.511025e+000 9.977641e-001 1.635393e+000 4.587713e-005 1.051534e-001 2.566723e-001 -1.063160e+000 -2.890691e-001 -2.090224e-001 2.761108e-002 -1.332850e-001 7.648353e-003 -1.179024e-001 -8.367203e-002 1.189311e-001 5.216633e-002 -5.150999e-002 4.008624e-002 -6.732377e-003 1.484268e-001
<VARIANCE> 39
 7.181626e+001 6.218729e+001 1.605934e+002 2.214210e+002 6.197070e+001 1.186070e+002 9.292250e+001 6.087674e+001 6.960469e+001 5.572865e+001 4.913203e+001 4.848446e+001 6.359341e+001 1.590515e+000 1.721266e+000 2.962738e+000 2.898014e+000 3.638129e+000 4.549925e+000 3.459978e+000 5.500302e+000 4.812766e+000 3.571146e+000 3.225097e+000 2.405139e+000 6.024405e-001 2.248972e-001 1.583572e-001 3.649748e-001 4.909596e-001 4.998004e-001 5.409217e-001 6.378139e-001 7.966319e-001 7.862588e-001 6.443797e-001 4.427638e-001 4.392020e-001 8.647054e-002
<GCONST> 1.297861e+002
<STATE> 3
<MEAN> 39
 -6.483734e+000 -6.588634e+000 1.959110e-001 -7.537996e-001 -7.046247e-001 -3.840451e+000 8.931119e+000 5.547233e+000 4.615840e+000 2.469403e+000 1.040358e+000 -6.659568e+000 5.713958e+001 -1.179337e+000 -5.760928e-001 -3.937847e-001 4.976213e-001 9.570019e-001 3.592670e-001 9.446126e-001 1.058170e+000 5.196789e-001 -1.408822e-002 -8.728334e-002 1.448224e-001 -4.339700e-001 4.973884e-001 4.715999e-002 2.190458e-001 -1.523286e-001 -5.206687e-001 -3.063375e-001 -3.627303e-001 -4.327268e-001 -6.230731e-001 -6.056812e-002 -2.267319e-002 -1.763977e-001 2.182459e-001
<VARIANCE> 39
 3.907231e+001 4.602695e+001 7.469294e+001 1.032443e+002 5.324755e+001 8.085449e+001 8.475880e+001 8.959557e+001 5.477312e+001 6.871507e+001 4.211298e+001 3.191198e+001 6.028918e+001 2.185420e+000 1.166125e+000 2.166147e+000 1.792584e+000 3.429861e+000 3.528592e+000 3.298249e+000 4.522007e+000 4.603942e+000 2.845384e+000 1.856362e+000 1.730318e+000 7.212386e-001 2.872978e-001 2.143098e-001 3.049272e-001 3.583808e-001 8.172990e-001 9.485809e-001 6.922008e-001 9.170694e-001 8.991240e-001 5.954379e-001 4.025918e-001 3.273766e-001 1.623189e-001
<GCONST> 1.256815e+002
<STATE> 4
<MEAN> 39
 -6.194171e+000 -5.403232e+000 -6.232336e+000 -1.164053e+001 2.913304e+000 1.957158e+000 9.428969e+000 4.818767e+000 3.109934e+000 -2.205693e-001 2.817667e+000 -7.596402e+000 4.970719e+001 -2.673668e-001 2.575209e-001 5.383841e-001 8.851087e-001 5.160603e-002 -2.090673e-001 -3.330867e-002 -8.925525e-002 -1.818662e-001 1.952160e-002 -2.402717e-001 1.218324e-001 -6.515250e-001 2.549840e-001 3.310630e-002 8.552705e-002 -1.118006e-002 -2.361149e-001 -1.456217e-001 -1.731505e-001 -1.741112e-001 -1.851448e-001 -4.461434e-002 -5.056819e-002 -5.682181e-003 8.614834e-002
<VARIANCE> 39
 4.577758e+001 4.634961e+001 8.123096e+001 1.361665e+002 7.041782e+001 9.319073e+001 1.077180e+002 1.218801e+002 6.395430e+001 6.988760e+001 6.655807e+001 6.551881e+001 1.427493e+002 1.826089e+000 1.422507e+000 1.931164e+000 2.979200e+000 3.917730e+000 4.198251e+000 3.766639e+000 4.383922e+000 4.220954e+000 3.521075e+000 3.407738e+000 3.287743e+000 1.214784e+000 2.114201e-001 2.033602e-001 3.416743e-001 5.327926e-001 7.438173e-001 8.398027e-001 7.290198e-001 7.971366e-001 8.078972e-001 6.302741e-001 6.599101e-001 6.292042e-001 1.278575e-001
<GCONST> 1.328107e+002
<TRANSP> 5
 0.000000e+000 1.000000e+000 0.000000e+000 0.000000e+000 0.000000e+000
 0.000000e+000 6.638741e-001 3.361259e-001 0.000000e+000 0.000000e+000
 0.000000e+000 0.000000e+000 5.904495e-001 4.095505e-001 0.000000e+000
 0.000000e+000 0.000000e+000 0.000000e+000 7.502251e-001 2.497749e-001
 0.000000e+000 0.000000e+000 0.000000e+000 0.000000e+000 0.000000e+000
<ENDHMM>
~h "w"
<BEGINHMM>
<NUMSTATES> 5
<STATE> 2
<MEAN> 39
 3.292920e+000 3.395588e+000 -1.418388e+001 -1.319546e+001 -8.076476e+000 1.156490e+000 -1.087502e+001 -7.090676e+000 -5.551941e+000 -4.286053e+000 -7.877841e+000 -3.266461e+000 7.153731e+001 -5.189875e-001 -1.457170e+000 -6.804102e-001 -1.836950e-001 1.206705e+000 3.756190e-001 1.707973e-001 5.285670e-001 1.362909e+000 -7.766287e-001 -1.258707e+000 1.061575e-001 1.238572e+000 -1.956048e-001 -1.727611e-001 2.658522e-001 2.288021e-001 4.806836e-002 -1.859213e-001 2.437380e-001 1.154788e-001 1.964129e-002 -2.790180e-001 1.081113e-001 7.066684e-002 1.411128e-002
<VARIANCE> 39
 3.551234e+001 6.186036e+001 1.309833e+002 6.224647e+001 7.441239e+001 1.084679e+002 9.832526e+001 8.596947e+001 8.227297e+001 6.764298e+001 9.049618e+001 4.663194e+001 6.682010e+001 1.193346e+000 1.889065e+000 3.601204e+000 3.752223e+000 5.883152e+000 6.530456e+000 5.683582e+000 3.618540e+000 4.551596e+000 5.125479e+000 4.096870e+000 3.833933e+000 7.765808e-001 1.574814e-001 3.393600e-001 4.771559e-001 4.807619e-001 9.448933e-001 9.221557e-001 9.410968e-001 6.105123e-001 8.507462e-001 8.285347e-001 9.692270e-001 6.512520e-001 1.121002e-001
<GCONST> 1.352385e+002
<STATE> 3
<MEAN> 39
 -4.346853e+000 -7.367033e+000 -9.255714e+000 -1.201279e+001 3.668223e+000 -6.136456e+000 -4.107192e+000 -5.258064e+000 -3.074059e+000 -1.643166e+001 -1.365758e+001 9.099757e-001 7.864683e+001 -4.443349e-001 -1.590145e-001 7.659741e-001 1.621788e-001 -8.400322e-001 -7.206165e-002 9.571576e-001 7.772450e-001 -3.926111e-001 -9.197877e-001 7.587822e-001 3.384760e-001 3.572610e-001 3.220456e-002 1.296815e-001 8.705396e-002 -3.125474e-002 -2.623817e-001 2.162921e-001 -2.569565e-002 -9.922277e-002 -2.081243e-001 3.949476e-001 2.608720e-001 -2.096860e-001 -1.013091e-001
<VARIANCE> 39
 8.480163e+001 6.009173e+001 9.598550e+001 6.018952e+001 1.360033e+002 5.638803e+001 7.028754e+001 6.326862e+001 6.645051e+001 7.795145e+001 7.150385e+001 4.817822e+001 9.798843e+001 6.584262e-001 1.243822e+000 1.946972e+000 3.110841e+000 4.515354e+000 2.874368e+000 2.973537e+000 2.045763e+000 2.198740e+000 2.923919e+000 2.469725e+000 2.502073e+000 8.399181e-001 1.302081e-001 2.116042e-001 1.998204e-001 2.805445e-001 4.703176e-001 3.974607e-001 5.293616e-001 4.099342e-001 3.501601e-001 4.307403e-001 4.371856e-001 4.234558e-001 8.234879e-002
<GCONST> 1.212270e+002
<STATE> 4
<MEAN> 39
 9.606797e+000 -5.955276e-001 -5.890685e+000 -1.741846e+001 -1.074834e+001 2.476087e+000 3.125051e+000 1.019032e+000 -6.088714e+000 -8.171462e+000 -2.656891e+000 -6.366400e+000 6.811406e+001 -1.075053e+000 -1.940029e+000 3.365935e-001 -1.061227e+000 -1.873821e-001 1.749933e+000 4.554807e-001 6.382404e-002 -4.086560e-001 1.141644e+000 1.446223e+000 -1.010524e+000 1.905911e+000 -2.514830e-001 -1.916727e-001 7.588595e-002 6.824554e-001 5.620283e-001 -2.429769e-001 -3.650123e-001 -3.332246e-001 5.725132e-002 1.966009e-001 -6.599232e-002 -2.552211e-001 -1.684560e-002
<VARIANCE> 39
 1.141788e+002 8.015024e+001 1.311498e+002 1.407099e+002 5.828166e+001 1.623482e+002 7.586459e+001 7.240414e+001 5.359218e+001 8.083108e+001 6.612974e+001 6.873747e+001 9.168435e+001 3.809579e+000 4.902198e+000 3.891567e+000 6.333734e+000 7.239664e+000 5.905196e+000 5.573611e+000 3.784708e+000 3.934459e+000 3.500279e+000 3.144684e+000 4.346425e+000 4.178933e+000 4.332113e-001 4.348949e-001 4.515980e-001 1.116108e+000 7.205714e-001 1.413524e+000 8.485570e-001 6.487967e-001 7.034918e-001 6.500914e-001 7.188230e-001 6.780846e-001 2.804709e-001
<GCONST> 1.436012e+002
<TRANSP> 5
 0.000000e+000 1.000000e+000 0.000000e+000 0.000000e+000 0.000000e+000
 0.000000e+000 7.288787e-001 2.711212e-001 0.000000e+000 0.000000e+000
 0.000000e+000 0.000000e+000 7.235714e-001 2.764286e-001 0.000000e+000
 0.000000e+000 0.000000e+000 0.000000e+000 5.671837e-001 4.328163e-001
 0.000000e+000 0.000000e+000 0.000000e+000 0.000000e+000 0.000000e+000
<ENDHMM>
~h "z"
<BEGINHMM>
<NUMSTATES> 5
<STATE> 2
<MEAN> 39
 1.519416e-001 9.329988e-001 -6.499296e+000 -1.906599e+001 -4.924403e+000 2.748445e+000 -2.720860e-001 -5.129133e+000 -6.089676e+000 -4.676687e+000 -1.115352e+000 -4.763438e+000 6.237066e+001 -1.555053e+000 5.276036e-001 3.025900e-001 2.640862e-001 9.256403e-001 -3.747085e-001 6.860464e-001 2.938728e-001 4.265482e-001 4.218282e-002 6.397432e-003 -6.305739e-002 -6.177558e-001 -4.312421e-001 1.411199e-001 -2.501954e-002 -6.036403e-002 2.716092e-001 -1.437540e-001 7.012074e-002 4.582852e-002 1.420337e-001 -5.137147e-002 9.311675e-002 3.909009e-002 3.069933e-001
<VARIANCE> 39
 1.312478e+002 5.425338e+001 1.134996e+002 2.309335e+002 7.261040e+001 1.512977e+002 1.184863e+002 7.546447e+001 5.641582e+001 4.695237e+001 3.424653e+001 4.624752e+001 5.789137e+001 5.601949e+000 2.216335e+000 3.975487e+000 4.284615e+000 5.861146e+000 4.420825e+000 6.302760e+000 4.785408e+000 4.181086e+000 4.155706e+000 4.012617e+000 3.632500e+000 3.810148e+000 5.208156e-001 3.165290e-001 5.378402e-001 5.026204e-001 6.683120e-001 6.642812e-001 8.313686e-001 8.414910e-001 7.018057e-001 7.373624e-001 7.419813e-001 6.027319e-001 3.060844e-001
<GCONST> 1.403927e+002
<STATE> 3
<MEAN> 39
 -2.044537e+001 8.386349e+000 -1.638025e+000 -1.723706e+001 6.517488e+000 -9.476664e+000 7.830463e+000 -2.934450e+000 2.517851e+000 -5.569506e+000 3.200624e+000 -7.124746e+000 6.216422e+001 -1.743745e+000 8.047354e-001 -6.275017e-001 1.210768e+000 1.956944e+000 -3.712079e-001 8.460800e-001 2.003224e-001 3.885173e-001 9.705748e-002 2.738966e-001 1.314857e-001 -1.533158e-001 5.554931e-001 -2.212223e-001 -1.255264e-002 2.547029e-001 -4.360905e-001 1.808901e-001 -8.120220e-002 -1.674886e-001 -1.041112e-001 1.456360e-002 -1.300157e-001 5.597063e-002 -2.579296e-001
<VARIANCE> 39
 6.718124e+001 1.176999e+002 1.365345e+002 2.247103e+002 1.210067e+002 1.805872e+002 2.817032e+002 1.624881e+002 1.318164e+002 1.002708e+002 1.043146e+002 6.756448e+001 5.529089e+001 4.527017e+000 3.474993e+000 3.462784e+000 3.471656e+000 5.109755e+000 6.728319e+000 6.382645e+000 6.288494e+000 4.072143e+000 4.403326e+000 4.022665e+000 1.845289e+000 1.900683e+000 3.600902e-001 4.240651e-001 5.305647e-001 6.082252e-001 7.360815e-001 8.362975e-001 1.159544e+000 1.178704e+000 8.138420e-001 7.376669e-001 7.784466e-001 4.519853e-001 2.089825e-001
<GCONST> 1.457721e+002
<STATE> 4
<MEAN> 39
 -2.509333e+001 1.363779e+001 -6.522074e+000 -3.414893e+000 6.075667e+000 -7.758217e+000 2.774947e+000 -5.326959e+000 -9.110856e-001 -6.353363e+000 2.231512e-001 -2.200604e+000 6.343079e+001 1.707325e-001 -2.230271e-001 3.544518e-002 2.112983e-001 -3.981604e-002 8.074380e-002 8.479869e-002 1.486864e-001 1.350239e-001 1.962244e-001 5.822780e-002 1.135046e-001 -5.428734e-001 1.223537e-001 -6.608859e-002 6.485162e-002 -6.601201e-002 -5.546064e-002 2.620093e-002 -3.786116e-002 9.388710e-003 -3.679750e-003 1.773285e-002 7.252324e-003 1.071343e-003 -2.957092e-002
<VARIANCE> 39
 2.392375e+001 3.761504e+001 5.466665e+001 9.503590e+001 1.555061e+002 1.137182e+002 1.984857e+002 4.015485e+001 5.099944e+001 5.157729e+001 3.953909e+001 3.878112e+001 6.680970e+001 1.039872e+000 8.808903e-001 1.298883e+000 1.678584e+000 1.756608e+000 2.220937e+000 2.131384e+000 2.354979e+000 2.656644e+000 2.005867e+000 1.932763e+000 1.750238e+000 6.240786e-001 1.139578e-001 1.497284e-001 2.064820e-001 2.758794e-001 3.178601e-001 3.974628e-001 4.130552e-001 3.855736e-001 4.865601e-001 3.691027e-001 3.867207e-001 3.058407e-001 5.589433e-002
<GCONST> 1.137192e+002
<TRANSP> 5
 0.000000e+000 1.000000e+000 0.000000e+000 0.000000e+000 0.000000e+000
 0.000000e+000 8.211487e-001 1.788513e-001 0.000000e+000 0.000000e+000
 0.000000e+000 0.000000e+000 7.677843e-001 2.322157e-001 0.000000e+000
 0.000000e+000 0.000000e+000 0.000000e+000 9.226351e-001 7.736490e-002
 0.000000e+000 0.000000e+000 0.000000e+000 0.000000e+000 0.000000e+000
<ENDHMM>
~h "aa"
<BEGINHMM>
<NUMSTATES> 5
<STATE> 2
<MEAN> 39
 -1.070154e+000 -5.601463e+000 -3.147639e+000 -1.297097e+001 -3.790249e+000 -2.565318e+000 6.048085e+000 -5.444079e-001 -2.223470e+000 -8.401454e-001 -2.344844e+000 -1.160159e+001 6.513313e+001 1.258766e+000 -1.026914e+000 -1.135655e+000 -1.544611e+000 1.485487e-001 1.931877e+000 -4.373021e-001 6.727769e-001 -3.853602e-001 -3.553821e-001 -1.038414e-001 -5.549629e-001 1.978871e+000 -9.202137e-002 -2.786269e-002 -7.624807e-003 4.026463e-002 1.623002e-001 2.370267e-002 -2.132769e-001 5.433520e-003 -1.173344e-001 -5.585318e-002 7.551187e-002 8.615891e-002 9.050163e-002
<VARIANCE> 39
 1.153130e+002 9.949847e+001 1.275857e+002 2.034539e+002 8.455305e+001 1.509798e+002 1.863672e+002 1.677817e+002 1.151843e+002 1.125505e+002 5.405184e+001 9.374207e+001 2.384052e+002 1.043685e+001 6.495287e+000 8.350687e+000 1.675529e+001 7.559471e+000 1.065556e+001 1.435392e+001 1.050065e+001 9.252563e+000 6.189907e+000 4.596455e+000 5.248655e+000 1.094693e+001 1.659382e+000 1.155637e+000 1.515223e+000 3.354934e+000 1.193844e+000 2.000304e+000 2.713597e+000 2.128936e+000 1.725802e+000 1.379499e+000 7.711146e-001 8.815091e-001 1.222224e+000
<GCONST> 1.682380e+002
<STATE> 3
<MEAN> 39
 3.422388e+000 -1.435737e+001 -7.209929e+000 -1.546418e+001 1.578609e-002 7.082754e+000 3.971092e+000 3.018287e+000 -3.015358e+000 -2.020065e+000 -1.846255e+000 -1.458353e+001 7.557526e+001 8.363703e-001 -2.741231e-001 1.153830e-001 5.062708e-001 1.074942e-001 7.431116e-002 -6.387534e-001 1.439435e-002 -2.459574e-001 -2.012067e-001 -1.000885e-001 1.719790e-001 -4.011216e-001 1.531496e-001 2.302534e-001 2.119639e-002 1.096613e-001 -7.074774e-002 -2.407406e-001 -1.331605e-001 -1.629395e-001 4.865347e-002 7.564060e-002 -1.066426e-004 1.455935e-001 -2.889631e-001
<VARIANCE> 39
 4.265965e+001 4.129883e+001 1.145301e+002 9.221081e+001 7.627068e+001 7.178040e+001 7.015307e+001 6.637880e+001 6.015673e+001 8.432788e+001 4.630853e+001 5.300727e+001 1.273130e+002 1.429400e+000 1.595527e+000 1.670323e+000 3.524484e+000 3.796015e+000 3.493855e+000 2.973282e+000 2.968913e+000 2.913312e+000 3.246247e+000 1.758021e+000 2.252821e+000 1.949352e+000 1.833097e-001 2.101987e-001 2.973046e-001 4.976013e-001 5.863616e-001 5.898867e-001 5.053648e-001 5.698167e-001 5.415855e-001 5.100750e-001 3.487425e-001 3.664551e-001 1.914937e-001
<GCONST> 1.258345e+002
<STATE> 4
<MEAN> 39
 8.099552e+000 -1.019255e+001 -6.566477e+000 -1.086774e+001 -1.500450e+000 3.000395e+000 -2.229765e-001 7.485415e-001 -3.166582e+000 -2.669827e+000 -1.934301e+000 -9.676763e+000 6.510555e+001 2.771081e-001 1.133288e+000 -4.222290e-002 8.880081e-001 1.559389e-001 -6.214712e-001 -3.595902e-001 -2.477172e-001 7.586348e-002 -3.919958e-002 -1.762749e-001 4.259441e-001 -1.473867e+000 -1.709916e-001 1.237553e-001 1.443119e-002 -6.041815e-002 -1.755549e-002 1.450415e-002 1.584325e-001 -4.970116e-002 -1.572574e-002 -8.309777e-002 -7.563532e-002 -1.139181e-001 8.330764e-002
<VARIANCE> 39
 7.609611e+001 7.327851e+001 9.813638e+001 1.407843e+002 8.171793e+001 6.836256e+001 6.077227e+001 6.011627e+001 6.382551e+001 5.420221e+001 6.270974e+001 5.329821e+001 1.189610e+002 1.749858e+000 1.829001e+000 2.672285e+000 3.908435e+000 3.128244e+000 4.130595e+000 3.787051e+000 3.235730e+000 3.198805e+000 3.793439e+000 2.546692e+000 2.580942e+000 1.317019e+000 1.589718e-001 3.418873e-001 4.164789e-001 5.820737e-001 6.002768e-001 6.974566e-001 7.004353e-001 6.485760e-001 5.266156e-001 4.905696e-001 4.564757e-001 4.146779e-001 2.231281e-001
<GCONST> 1.304321e+002
<TRANSP> 5
 0.000000e+000 1.000000e+000 0.000000e+000 0.000000e+000 0.000000e+000
 0.000000e+000 6.867326e-001 3.132674e-001 0.000000e+000 0.000000e+000
 0.000000e+000 0.000000e+000 7.590455e-001 2.409544e-001 0.000000e+000
 0.000000e+000 0.000000e+000 0.000000e+000 6.617423e-001 3.382577e-001
 0.000000e+000 0.000000e+000 0.000000e+000 0.000000e+000 0.000000e+000
<ENDHMM>
~h "ae"
<BEGINHMM>
<NUMSTATES> 5
<STATE> 2
<MEAN> 39
 -7.688509e-001 -7.138674e+000 -1.629217e+000 -9.001463e+000 -3.969354e+000 -6.556675e+000 1.009322e+000 2.318769e+000 -1.696876e+000 -4.019434e+000 -4.863771e+000 -1.078660e+001 6.416515e+001 1.335033e+000 -2.930796e+000 4.466229e-001 -1.837649e+000 -2.104874e+000 1.242847e-001 -2.447908e-001 1.435360e+000 -7.609829e-001 -8.629888e-001 -7.186469e-001 -9.543911e-001 3.974823e+000 -3.726456e-001 1.977847e-001 2.365753e-001 2.569067e-001 1.371000e-001 1.539518e-003 7.333228e-002 5.060131e-002 1.116393e-003 1.350496e-001 3.741593e-001 2.872741e-001 -1.378890e-001
<VARIANCE> 39
 1.101181e+002 1.425084e+002 1.206526e+002 1.328260e+002 1.766820e+002 1.053552e+002 1.625252e+002 2.569681e+002 1.014772e+002 1.130322e+002 1.138639e+002 1.505181e+002 2.620382e+002 1.028173e+001 1.087056e+001 8.062034e+000 1.088006e+001 1.564080e+001 1.183900e+001 1.002447e+001 1.376607e+001 9.490299e+000 1.013361e+001 9.173480e+000 8.283856e+000 7.109814e+000 1.228444e+000 2.018721e+000 1.220621e+000 1.826538e+000 2.314948e+000 1.458435e+000 1.759900e+000 2.238828e+000 1.468441e+000 1.553336e+000 1.487765e+000 1.376604e+000 1.577432e+000
<GCONST> 1.726492e+002
<STATE> 3
<MEAN> 39
 2.110197e+000 -1.520540e+001 2.538767e+000 -8.378599e+000 -9.812777e+000 -6.627705e+000 6.277381e+000 1.267231e+001 -1.249636e+000 -4.594617e+000 -4.782590e+000 -1.180171e+001 6.990130e+001 3.930253e-001 3.871422e-001 4.177947e-001 7.099744e-002 -7.106856e-001 -5.428896e-001 -2.891691e-001 -6.423674e-001 -1.419872e-001 2.688244e-001 2.554304e-001 4.011542e-001 1.797137e-001 -9.840620e-002 4.597747e-001 -1.109390e-001 3.952525e-001 4.320759e-001 -6.874137e-004 -1.905394e-001 -3.092453e-001 2.315905e-001 2.865010e-001 7.281277e-002 1.192437e-001 -5.972334e-001
<VARIANCE> 39
 3.429827e+001 4.302153e+001 9.498018e+001 4.163237e+001 6.843598e+001 6.030311e+001 9.004518e+001 1.278438e+002 8.133851e+001 9.421752e+001 7.117564e+001 5.484216e+001 1.217636e+002 1.758677e+000 2.406238e+000 2.462482e+000 2.686314e+000 3.895375e+000 4.031773e+000 3.310676e+000 4.948922e+000 4.610797e+000 4.038301e+000 2.473749e+000 2.389719e+000 2.008678e+000 3.117487e-001 3.947651e-001 3.410236e-001 4.507383e-001 6.381136e-001 6.608567e-001 4.780799e-001 8.138552e-001 8.603592e-001 7.879337e-001 4.890264e-001 4.713446e-001 3.090954e-001
<GCONST> 1.324243e+002
<STATE> 4
<MEAN> 39
 5.123590e+000 -1.057730e+001 1.209660e+001 -4.356043e+000 -1.379441e+001 -1.553697e+001 6.093450e-002 1.059612e+001 -8.906709e+000 -5.997667e+000 -3.848975e+000 -1.010817e+001 6.803667e+001 -7.440269e-002 1.128881e+000 3.980434e-001 7.730455e-001 1.833239e-001 -2.008721e-001 -6.507308e-001 -6.940883e-001 2.688852e-001 -3.834119e-002 2.282957e-001 2.822232e-001 -1.118853e+000 -1.021139e-001 1.983592e-002 -9.098002e-002 8.013496e-003 1.209682e-001 1.135879e-001 1.451722e-001 3.853241e-002 1.597188e-002 -1.283190e-002 -4.436966e-002 -1.319963e-001 -1.199092e-001
<VARIANCE> 39
 5.128974e+001 6.803034e+001 2.333970e+002 8.761559e+001 1.013298e+002 1.544195e+002 8.613551e+001 1.371140e+002 1.269765e+002 9.877090e+001 5.598067e+001 5.387239e+001 1.122826e+002 1.248727e+000 3.137191e+000 6.776041e+000 5.893378e+000 6.008788e+000 4.443205e+000 4.011085e+000 5.295332e+000 6.754014e+000 4.378513e+000 3.292633e+000 3.503771e+000 3.830462e+000 2.518471e-001 5.571104e-001 1.211518e+000 1.030813e+000 1.035349e+000 7.940941e-001 8.030153e-001 9.233273e-001 1.231929e+000 7.779270e-001 5.330991e-001 6.432620e-001 5.955469e-001
<GCONST> 1.456654e+002
<TRANSP> 5
 0.000000e+000 1.000000e+000 0.000000e+000 0.000000e+000 0.000000e+000
 0.000000e+000 6.570799e-001 3.429201e-001 0.000000e+000 0.000000e+000
 0.000000e+000 0.000000e+000 7.463768e-001 2.536232e-001 0.000000e+000
 0.000000e+000 0.000000e+000 0.000000e+000 7.112656e-001 2.887344e-001
 0.000000e+000 0.000000e+000 0.000000e+000 0.000000e+000 0.000000e+000
<ENDHMM>
~h "ah"
<BEGINHMM>
<NUMSTATES> 5
<STATE> 2
<MEAN> 39
 2.772427e+000 -1.227597e+001 -6.562748e+000 -1.441466e+001 6.115844e-001 2.545693e+000 -1.593680e+000 2.525198e+000 -2.407977e+000 -2.167245e+000 -5.068267e+000 -1.414809e+001 7.873014e+001 9.965926e-002 -1.097238e+000 4.886080e-002 6.515424e-001 1.010029e+000 2.840297e-001 -4.900303e-001 1.110573e-001 -2.650428e-001 4.633033e-001 -4.384970e-001 -9.082863e-001 7.457383e-001 2.134116e-001 4.040138e-001 1.712005e-001 2.029485e-001 -1.640759e-002 -1.195679e-001 -1.020290e-001 -1.174391e-001 -7.343601e-003 -3.040637e-002 -6.176157e-002 2.023946e-001 -5.501794e-001
<VARIANCE> 39
 8.000637e+001 6.321737e+001 6.948551e+001 7.537453e+001 8.223017e+001 1.332188e+002 1.449730e+002 8.335483e+001 6.071086e+001 1.053491e+002 1.138353e+002 1.451423e+002 9.565633e+001 3.621518e+000 3.471195e+000 3.881888e+000 4.394920e+000 4.588299e+000 4.345715e+000 5.221446e+000 4.477038e+000 3.831749e+000 4.479995e+000 4.880638e+000 4.595834e+000 4.146441e+000 5.574753e-001 5.746341e-001 5.279296e-001 7.590918e-001 7.468568e-001 6.899276e-001 9.293190e-001 8.698569e-001 6.635839e-001 7.902958e-001 8.842312e-001 8.086117e-001 3.555644e-001
<GCONST> 1.444520e+002
<STATE> 3
<MEAN> 39
 -4.855170e-001 -1.098953e+001 -9.683295e+000 -1.136166e+001 -1.310045e+000 -4.484761e-001 -5.264664e+000 -5.256746e-001 -2.406544e+000 -5.863018e+000 -4.054004e+000 -1.109418e+001 7.969218e+001 3.823598e-001 1.532840e-001 -3.528409e-005 2.140069e-001 2.058050e-001 2.083365e-001 -1.877383e-001 -1.229685e-001 -3.458101e-001 1.173461e-002 5.987113e-002 2.617515e-003 -4.802891e-001 7.499687e-002 1.712385e-001 1.195368e-001 2.085191e-002 -6.996389e-002 -1.717728e-001 2.193879e-002 -2.868425e-002 -3.538970e-002 5.589278e-003 1.010022e-002 1.336394e-001 -1.946301e-001
<VARIANCE> 39
 6.025652e+001 7.966191e+001 6.031889e+001 5.149856e+001 6.757673e+001 8.247302e+001 1.663276e+002 8.979159e+001 8.252057e+001 9.589588e+001 8.182928e+001 9.873914e+001 7.822949e+001 6.771974e-001 1.015162e+000 1.315631e+000 1.514250e+000 2.172089e+000 2.275044e+000 1.974363e+000 2.148077e+000 2.348752e+000 1.928026e+000 1.912024e+000 1.971950e+000 6.334909e-001 8.273499e-002 1.435884e-001 1.856767e-001 2.157022e-001 3.135520e-001 2.927505e-001 3.537904e-001 3.717903e-001 3.626640e-001 3.630424e-001 3.234843e-001 3.266155e-001 5.394838e-002
<GCONST> 1.152411e+002
<STATE> 4
<MEAN> 39
 1.171506e+001 -9.389246e+000 -9.550655e+000 -9.382260e+000 4.846942e+000 1.852500e+000 -4.536947e+000 -1.381203e+000 -4.389659e+000 -2.283308e+000 -7.362076e+000 -1.645487e+001 6.415974e+001 7.099384e-003 1.242517e+000 -2.471585e-002 4.044984e-001 -9.395674e-002 -3.423581e-001 1.957207e-001 -4.841878e-001 1.183619e-001 -2.923409e-001 -2.293034e-001 4.760370e-001 -1.619614e+000 -2.264266e-001 8.503068e-002 4.838569e-002 -3.780235e-003 1.350717e-002 -1.380538e-002 1.566654e-001 1.149704e-002 1.107576e-001 6.895879e-003 4.220944e-002 1.177790e-002 4.939891e-003
<VARIANCE> 39
 5.643164e+001 6.973510e+001 6.748448e+001 8.977394e+001 7.707825e+001 1.083233e+002 6.417654e+001 8.834798e+001 7.589915e+001 6.866243e+001 6.421548e+001 7.072746e+001 1.034846e+002 1.475808e+000 1.703534e+000 3.011558e+000 2.336191e+000 2.487545e+000 2.640575e+000 3.598065e+000 3.942420e+000 3.411656e+000 3.314556e+000 2.385884e+000 2.363978e+000 5.173390e-001 1.558316e-001 2.275908e-001 3.702883e-001 3.954749e-001 4.562992e-001 4.424314e-001 5.855338e-001 6.743391e-001 6.297072e-001 5.744294e-001 4.706598e-001 4.022344e-001 6.201125e-002
<GCONST> 1.256085e+002
<TRANSP> 5
 0.000000e+000 1.000000e+000 0.000000e+000 0.000000e+000 0.000000e+000
 0.000000e+000 6.490422e-001 3.509579e-001 0.000000e+000 0.000000e+000
 0.000000e+000 0.000000e+000 8.276509e-001 1.723491e-001 0.000000e+000
 0.000000e+000 0.000000e+000 0.000000e+000 8.150941e-001 1.849059e-001
 0.000000e+000 0.000000e+000 0.000000e+000 0.000000e+000 0.000000e+000
<ENDHMM>
~h "ao"
<BEGINHMM>
<NUMSTATES> 5
<STATE> 2
<MEAN> 39
 7.537295e+000 -7.451168e+000 -1.767262e+001 -1.491668e+001 -3.405123e+000 6.816746e-001 -2.413049e+000 -7.074683e+000 -3.804027e+000 6.515984e-001 1.020390e+000 -8.156988e+000 5.934567e+001 -6.736131e-001 2.541221e-001 5.390412e-001 4.948728e-001 3.692297e-001 -2.373233e-001 3.401268e-001 5.267960e-001 3.752375e-001 3.123165e-001 3.926026e-001 3.458414e-001 -1.213559e+000 -1.508266e-001 4.346367e-002 2.418438e-001 -7.687607e-002 5.646514e-003 -8.509640e-002 -4.413238e-002 2.298737e-001 -3.771448e-002 -1.541203e-001 3.004827e-002 -1.010060e-002 1.320540e-001
<VARIANCE> 39
 8.997151e+001 4.011694e+001 6.437881e+001 6.849829e+001 5.208511e+001 7.075870e+001 9.218206e+001 8.096288e+001 7.141567e+001 6.641649e+001 9.773461e+001 4.751688e+001 1.091039e+002 1.177505e+000 1.529114e+000 2.800213e+000 3.200336e+000 3.346982e+000 4.145819e+000 4.086159e+000 4.435083e+000 4.631213e+000 5.153209e+000 4.175714e+000 3.169052e+000 7.981308e-001 1.931854e-001 2.528623e-001 4.015222e-001 4.879313e-001 6.239660e-001 7.507699e-001 7.131774e-001 8.913791e-001 8.469235e-001 9.714675e-001 8.613278e-001 6.652014e-001 2.149947e-001
<GCONST> 1.326785e+002
<STATE> 3
<MEAN> 39
 -2.052879e+000 -5.049326e+000 -8.688593e+000 -1.184004e+001 1.406771e+000 -7.475185e-001 -1.618569e+000 2.347812e+000 2.697169e-001 1.414663e+000 2.433064e+000 -6.632655e+000 5.504966e+001 -1.025800e+000 2.789322e-001 2.119714e+000 -1.030628e-001 7.425426e-001 -9.748164e-001 -1.058819e+000 1.528938e+000 -9.798866e-002 -5.593998e-001 -4.528678e-001 -6.342961e-001 7.915538e-001 2.799594e-001 3.014332e-001 -8.540396e-002 -1.437190e-001 -3.624433e-001 -4.496208e-001 -4.454946e-001 -5.938821e-001 -4.301298e-001 -2.551138e-001 -2.207471e-001 -1.864961e-002 6.178891e-001
<VARIANCE> 39
 6.324360e+001 4.177631e+001 5.458981e+001 1.425932e+002 6.556786e+001 5.688848e+001 1.099283e+002 1.371440e+002 7.222334e+001 1.119177e+002 1.105386e+002 5.286806e+001 1.036273e+002 3.658056e+000 2.737308e+000 4.113814e+000 7.647230e+000 6.355422e+000 5.417713e+000 8.296413e+000 1.263567e+001 6.995538e+000 7.505586e+000 6.783776e+000 5.846020e+000 2.468941e+000 8.254085e-001 6.735972e-001 5.799971e-001 1.371498e+000 1.011202e+000 1.107767e+000 1.242294e+000 2.554492e+000 1.420773e+000 1.290342e+000 1.197374e+000 8.689519e-001 4.356827e-001
<GCONST> 1.514292e+002
<STATE> 4
<MEAN> 39
 -1.080236e+001 1.250590e+000 -3.540649e+000 -1.003376e+001 -8.116456e+000 -1.413881e+001 -6.828346e+000 -8.208021e+000 -8.807267e+000 -1.267468e+001 -5.520277e+000 -1.791677e+000 6.886837e+001 -2.085663e-001 4.682010e-001 3.891705e-001 -2.230488e-001 -2.373223e-001 -6.982515e-001 -1.605813e-001 -8.867983e-002 -1.911550e-001 -2.318634e-001 1.552842e-001 3.047825e-001 5.000595e-001 1.629561e-001 -3.737595e-002 -1.421925e-001 -1.119315e-001 -5.108333e-003 -3.250336e-002 6.297776e-004 -8.523235e-002 6.785123e-002 -1.056021e-001 -1.586366e-001 7.018282e-002 1.258147e-001
<VARIANCE> 39
 7.288358e+001 3.677521e+001 2.709001e+001 4.572802e+001 6.115049e+001 8.607241e+001 6.023923e+001 5.615825e+001 6.702429e+001 1.103366e+002 7.550733e+001 7.208259e+001 8.980361e+001 6.641067e+000 3.977282e+000 2.522199e+000 6.008849e+000 5.879457e+000 7.975799e+000 6.056174e+000 5.541109e+000 7.167554e+000 8.883710e+000 8.728765e+000 6.881074e+000 9.064380e+000 1.130035e+000 6.385572e-001 4.578356e-001 1.029528e+000 1.167010e+000 1.212546e+000 1.066381e+000 8.522377e-001 1.399267e+000 1.660338e+000 1.727287e+000 1.169232e+000 1.167563e+000
<GCONST> 1.500769e+002
<TRANSP> 5
 0.000000e+000 1.000000e+000 0.000000e+000 0.000000e+000 0.000000e+000
 0.000000e+000 7.843654e-001 2.156346e-001 0.000000e+000 0.000000e+000
 0.000000e+000 0.000000e+000 4.431573e-001 5.568427e-001 0.000000e+000
 0.000000e+000 0.000000e+000 0.000000e+000 8.198885e-001 1.801115e-001
 0.000000e+000 0.000000e+000 0.000000e+000 0.000000e+000 0.000000e+000
<ENDHMM>
~h "aw"
<BEGINHMM>
<NUMSTATES> 5
<STATE> 2
<MEAN> 39
 3.197415e+000 -4.527093e+000 -1.491539e+001 -1.321456e+001 -6.216506e+000 2.355335e+000 -7.849069e+000 -7.059570e+000 -4.680013e+000 -8.190035e+000 -6.073762e+000 -6.556115e+000 7.398090e+001 3.871980e-001 1.125197e-001 -3.124804e-002 3.015772e-001 -3.732803e-001 -1.321376e-001 -1.538300e-001 -1.820976e-001 -3.105336e-001 4.881240e-001 2.739624e-001 -1.233354e-002 -2.962436e-001 -5.019392e-002 1.432517e-002 5.477101e-002 8.074377e-002 -4.321878e-002 -2.072141e-001 7.094971e-003 9.073681e-002 7.050040e-002 -5.606771e-003 1.180550e-002 3.270217e-002 -1.952465e-002
<VARIANCE> 39
 8.407356e+001 7.289831e+001 4.727094e+001 4.822693e+001 6.899192e+001 1.199614e+002 1.298146e+002 7.183192e+001 6.784246e+001 1.586523e+002 1.079999e+002 6.209678e+001 5.647293e+001 5.908104e-001 1.649512e+000 1.297202e+000 1.757633e+000 1.833571e+000 2.930938e+000 2.558013e+000 3.193179e+000 3.223520e+000 2.803551e+000 2.462842e+000 2.426234e+000 6.670282e-001 9.310548e-002 2.343615e-001 1.942302e-001 2.422258e-001 2.645427e-001 3.733833e-001 4.015184e-001 4.366215e-001 5.305734e-001 4.748239e-001 3.859437e-001 4.137749e-001 1.065613e-001
<GCONST> 1.201945e+002
<STATE> 3
<MEAN> 39
 1.410110e+001 -9.158554e+000 -1.779341e+001 -3.274687e+000 -2.362656e+000 -6.592215e+000 -5.942163e+000 -1.344025e+000 -5.153964e+000 -2.682073e+000 1.349534e+000 -5.076590e+000 6.836162e+001 -1.318416e-002 4.328037e-001 2.904891e-001 3.204996e-001 1.159097e-001 -7.840809e-001 -5.612468e-001 1.292481e-002 4.325310e-001 -1.877920e-001 -1.500456e-001 3.722655e-001 -6.539460e-001 -9.103485e-002 2.318021e-001 1.875878e-001 -2.352742e-001 -1.159748e-002 2.085966e-001 1.324394e-001 -1.531966e-001 -3.191049e-002 1.497878e-002 -4.839492e-002 -3.707396e-002 -1.245365e-001
<VARIANCE> 39
 8.753917e+001 5.013523e+001 4.222581e+001 5.342292e+001 9.095135e+001 7.564017e+001 8.084919e+001 5.739872e+001 8.844758e+001 5.296537e+001 4.793016e+001 4.587895e+001 4.599207e+001 8.772973e-001 2.449373e+000 1.911230e+000 3.334373e+000 2.201438e+000 3.732241e+000 3.039736e+000 4.081871e+000 3.900591e+000 2.966601e+000 2.627788e+000 2.206901e+000 8.724968e-001 1.531320e-001 2.386112e-001 2.553922e-001 3.606025e-001 3.389341e-001 4.189451e-001 4.681441e-001 6.127021e-001 6.488624e-001 4.612386e-001 4.551570e-001 3.935085e-001 8.603058e-002
<GCONST> 1.220774e+002
<STATE> 4
<MEAN> 39
 6.672696e+000 -4.045289e+000 -1.074776e+001 -7.161799e+000 -4.267825e+000 -6.041958e+000 -7.872425e+000 -2.260902e+000 -2.323035e+000 -2.031050e+000 -1.022017e+000 -6.917952e+000 6.389455e+001 -6.711982e-001 9.907931e-001 1.124138e+000 -2.063470e-001 5.421293e-002 -4.249620e-001 6.140897e-001 -1.585174e-001 -2.626764e-001 -1.822210e-001 6.523424e-002 -8.998941e-002 -9.555388e-001 -1.297270e-001 9.184070e-002 -1.220135e-001 -4.884786e-003 2.055444e-001 1.445472e-001 1.502529e-001 -7.421346e-002 -1.464313e-001 -7.439032e-002 -2.178585e-002 -6.345319e-002 -2.453596e-002
<VARIANCE> 39
 8.110062e+001 3.775156e+001 4.431271e+001 5.594898e+001 1.558275e+002 6.536217e+001 1.132105e+002 6.878259e+001 1.053927e+002 8.181790e+001 6.337866e+001 6.062265e+001 8.254518e+001 1.265439e+000 1.973587e+000 2.614197e+000 3.711543e+000 4.804928e+000 3.952898e+000 4.079276e+000 4.934706e+000 5.191358e+000 3.656850e+000 3.509372e+000 2.944585e+000 8.958037e-001 2.447648e-001 2.969820e-001 3.852856e-001 6.069230e-001 9.474235e-001 7.038932e-001 8.273095e-001 9.138064e-001 1.034913e+000 7.954437e-001 6.813361e-001 5.467012e-001 1.307626e-001
<GCONST> 1.337648e+002
<TRANSP> 5
 0.000000e+000 1.000000e+000 0.000000e+000 0.000000e+000 0.000000e+000
 0.000000e+000 9.236175e-001 7.638249e-002 0.000000e+000 0.000000e+000
 0.000000e+000 0.000000e+000 8.134624e-001 1.865376e-001 0.000000e+000
 0.000000e+000 0.000000e+000 0.000000e+000 6.839656e-001 3.160345e-001
 0.000000e+000 0.000000e+000 0.000000e+000 0.000000e+000 0.000000e+000
<ENDHMM>
~h "ax"
<BEGINHMM>
<NUMSTATES> 5
<STATE> 2
<MEAN> 39
 1.341163e+000 2.890688e+000 -4.914785e+000 -9.854374e+000 -7.123640e+000 -8.965589e+000 -1.054377e+001 -6.798935e+000 -7.459872e+000 -9.256074e+000 -5.498398e+000 -7.523503e+000 6.771365e+001 -8.966614e-002 1.359865e+000 4.138005e-001 1.034745e+000 2.818221e-001 8.010237e-001 4.999493e-001 -6.213548e-001 -5.569031e-001 3.693168e-001 -2.778004e-001 -4.794078e-001 -1.708509e+000 -1.938943e-001 -3.007817e-001 -1.265861e-002 7.319248e-002 4.374101e-002 6.851939e-004 1.602225e-001 1.422570e-001 1.543433e-001 7.081087e-002 8.680617e-003 2.409348e-001 3.414625e-002
<VARIANCE> 39
 1.242260e+002 5.305249e+001 5.174721e+001 4.650637e+001 9.539175e+001 9.653040e+001 7.305012e+001 5.892963e+001 7.596920e+001 1.278389e+002 6.818730e+001 6.214462e+001 5.860416e+001 2.072183e+000 2.678035e+000 2.438922e+000 3.409417e+000 5.470802e+000 3.641299e+000 4.430217e+000 3.987834e+000 4.410991e+000 4.601109e+000 3.746280e+000 4.291453e+000 1.657780e+000 3.484337e-001 3.620728e-001 3.804021e-001 4.697838e-001 6.813100e-001 6.511333e-001 7.130666e-001 6.591582e-001 6.303612e-001 7.960717e-001 6.085487e-001 5.928368e-001 2.551247e-001
<GCONST> 1.349090e+002
<STATE> 3
<MEAN> 39
 9.701297e+000 5.107430e+000 -3.551624e+000 -6.062489e+000 -1.924009e+000 -3.769946e+000 -7.339017e+000 -6.033971e+000 -6.804608e+000 -3.865940e+000 -3.429712e+000 -7.852025e+000 6.031174e+001 -5.330889e-001 4.795238e-001 5.128760e-001 8.351400e-001 -3.820791e-002 -2.040081e-002 4.629343e-001 -3.283010e-001 3.728977e-002 -1.588198e-001 -9.039946e-002 4.036562e-001 -1.160869e+000 -1.187118e-001 -1.927095e-001 -5.411038e-002 -1.097044e-001 -3.455849e-002 -1.217591e-001 -8.402190e-002 1.166801e-001 1.383133e-001 2.599250e-002 1.825734e-002 4.080397e-002 1.252438e-001
<VARIANCE> 39
 1.189064e+002 8.557840e+001 5.011773e+001 5.889482e+001 6.238435e+001 8.512256e+001 8.318361e+001 7.490214e+001 7.163817e+001 6.613680e+001 5.346150e+001 5.879638e+001 7.383252e+001 1.006319e+000 1.320861e+000 1.877187e+000 2.244870e+000 2.388247e+000 3.010439e+000 3.661812e+000 2.960260e+000 2.878147e+000 2.932344e+000 2.651462e+000 2.232887e+000 6.805288e-001 1.084497e-001 1.845945e-001 2.521723e-001 3.106606e-001 4.094013e-001 4.743655e-001 4.725452e-001 5.482516e-001 5.283886e-001 4.592603e-001 4.416479e-001 4.490406e-001 1.086679e-001
<GCONST> 1.219326e+002
<STATE> 4
<MEAN> 39
 -3.468394e+000 3.200411e+000 -3.510203e+000 -5.108917e+000 -7.423844e+000 -7.501210e+000 -8.251994e+000 -7.005813e+000 -5.996537e+000 -8.105917e+000 -6.499225e+000 -4.806795e+000 6.445235e+001 -5.588338e-001 -5.352638e-002 2.983519e-001 2.430551e-001 2.932242e-001 2.283346e-001 3.510687e-001 3.132006e-002 5.995178e-002 3.037535e-001 3.004580e-001 2.037782e-001 -4.452901e-001 -1.092874e-001 -8.554562e-002 -8.078191e-002 -1.860002e-001 5.447790e-002 -3.118008e-002 -6.569663e-002 5.969902e-002 8.491255e-002 1.631860e-002 4.840120e-002 4.353796e-002 2.664283e-001
<VARIANCE> 39
 7.910255e+001 6.368690e+001 3.501876e+001 3.463710e+001 5.306633e+001 4.433471e+001 4.421466e+001 4.024571e+001 6.243772e+001 9.242550e+001 5.834972e+001 3.126398e+001 6.560603e+001 1.188815e+000 1.476874e+000 1.309542e+000 1.565721e+000 2.254768e+000 1.944145e+000 2.417626e+000 2.537098e+000 2.497689e+000 2.754852e+000 2.563003e+000 2.015661e+000 1.093361e+000 2.272776e-001 2.722924e-001 2.576707e-001 3.090157e-001 3.836076e-001 3.878328e-001 4.669222e-001 4.638076e-001 5.307827e-001 5.298049e-001 4.860616e-001 4.289500e-001 2.519635e-001
<GCONST> 1.181729e+002
<TRANSP> 5
 0.000000e+000 1.000000e+000 0.000000e+000 0.000000e+000 0.000000e+000
 0.000000e+000 4.485963e-001 5.514037e-001 0.000000e+000 0.000000e+000
 0.000000e+000 0.000000e+000 6.533422e-001 3.466578e-001 0.000000e+000
 0.000000e+000 0.000000e+000 0.000000e+000 7.604940e-001 2.395060e-001
 0.000000e+000 0.000000e+000 0.000000e+000 0.000000e+000 0.000000e+000
<ENDHMM>
~h "ay"
<BEGINHMM>
<NUMSTATES> 5
<STATE> 2
<MEAN> 39
 -7.100164e+000 -1.101083e+001 -8.610763e+000 -8.736097e+000 -5.507648e+000 -4.142215e+000 7.045844e-001 5.155940e-001 -3.101157e+000 -1.152783e+001 -6.436392e+000 -3.642562e+000 8.564182e+001 -6.955387e-002 5.367589e-002 8.502058e-001 -2.891678e-001 -1.184748e+000 -3.134539e-001 4.742447e-002 8.613812e-002 -4.586229e-001 4.499018e-001 2.014989e-002 -2.352183e-001 -1.655288e-001 1.057301e-001 1.694900e-001 2.425831e-001 -2.163593e-001 -2.144372e-001 -8.624690e-002 -2.338838e-001 -1.085291e-001 8.095380e-002 2.511691e-001 -2.603265e-003 1.676682e-002 -1.465465e-001
<VARIANCE> 39
 6.827234e+001 5.300995e+001 5.409109e+001 3.122381e+001 1.078804e+002 5.103278e+001 7.379495e+001 8.282332e+001 8.047712e+001 1.117550e+002 4.712314e+001 1.394118e+002 7.713988e+001 4.456720e-001 1.094414e+000 1.478155e+000 1.766538e+000 2.975922e+000 2.269797e+000 2.828807e+000 2.377652e+000 2.354789e+000 3.471839e+000 2.793720e+000 2.087910e+000 2.448499e-001 6.212390e-002 1.298610e-001 1.606473e-001 2.062729e-001 3.116135e-001 3.098803e-001 4.900931e-001 4.148513e-001 4.786442e-001 5.599203e-001 4.890231e-001 3.563896e-001 2.232123e-002
<GCONST> 1.143666e+002
<STATE> 3
<MEAN> 39
 3.325186e-002 -1.175332e+001 7.672038e+000 -1.217222e+001 -1.460708e+001 -9.196486e+000 -4.525431e+000 4.031180e+000 -5.722288e+000 -1.843681e+000 -3.999599e+000 -8.601228e+000 7.839777e+001 2.553346e-001 9.555634e-001 1.519274e+000 -1.291391e-001 -7.794157e-001 -3.396674e-001 -1.101417e+000 -8.916208e-001 -3.433223e-001 3.729830e-001 2.788516e-001 4.099451e-001 -9.990302e-001 6.501608e-003 1.609494e-001 -2.589572e-001 2.212183e-001 2.892901e-001 8.506461e-002 7.987897e-002 -4.742266e-002 1.215555e-001 -2.605405e-001 -1.150708e-001 -3.423584e-002 -1.217938e-001
<VARIANCE> 39
 7.949368e+001 1.386285e+002 1.194821e+002 5.076637e+001 1.282955e+002 7.484592e+001 7.906281e+001 1.465305e+002 7.060234e+001 7.494846e+001 5.003525e+001 9.053366e+001 5.494317e+001 7.511843e-001 2.243508e+000 2.306371e+000 1.898033e+000 2.514076e+000 2.611938e+000 3.161048e+000 3.772145e+000 3.678788e+000 3.031984e+000 2.546340e+000 2.009976e+000 3.791475e-001 1.027515e-001 1.825717e-001 2.893935e-001 2.833170e-001 4.815161e-001 4.496251e-001 5.736052e-001 6.120990e-001 5.804341e-001 5.027179e-001 5.082359e-001 4.050934e-001 4.646144e-002
<GCONST> 1.237193e+002
<STATE> 4
<MEAN> 39
 -2.502374e+000 2.808580e+000 5.854658e+000 -6.649980e+000 -1.371421e+001 -7.860949e+000 -7.708977e+000 -4.822782e+000 -4.370424e+000 -6.769672e+000 -5.792220e+000 -5.427504e+000 6.805121e+001 -4.346771e-003 7.421457e-001 -3.413112e-001 1.065886e+000 1.101275e+000 8.860496e-002 4.646187e-001 5.071076e-002 2.120477e-001 -1.893908e-001 -7.451373e-002 -2.347719e-001 -1.362337e+000 -7.394057e-002 -1.313595e-001 -1.509527e-001 4.404917e-002 1.386581e-001 2.832436e-002 1.277255e-001 1.334793e-001 1.924427e-002 8.682447e-002 6.960127e-002 -1.720557e-002 5.783677e-002
<VARIANCE> 39
 1.272242e+002 9.667899e+001 6.408894e+001 9.046091e+001 8.201938e+001 1.006769e+002 7.495807e+001 1.213086e+002 5.440283e+001 7.919088e+001 5.592823e+001 6.264999e+001 8.981521e+001 1.221651e+000 2.079358e+000 1.454206e+000 2.490676e+000 3.446998e+000 2.879996e+000 3.050148e+000 3.194137e+000 3.388312e+000 3.250175e+000 2.473636e+000 2.688891e+000 8.579477e-001 1.614503e-001 2.177349e-001 2.821607e-001 4.290071e-001 5.065097e-001 4.794233e-001 6.067722e-001 6.304764e-001 5.705252e-001 5.133208e-001 4.487767e-001 4.551030e-001 1.053085e-001
<GCONST> 1.269500e+002
<TRANSP> 5
 0.000000e+000 1.000000e+000 0.000000e+000 0.000000e+000 0.000000e+000
 0.000000e+000 8.440911e-001 1.559089e-001 0.000000e+000 0.000000e+000
 0.000000e+000 0.000000e+000 8.387296e-001 1.612704e-001 0.000000e+000
 0.000000e+000 0.000000e+000 0.000000e+000 8.500842e-001 1.499159e-001
 0.000000e+000 0.000000e+000 0.000000e+000 0.000000e+000 0.000000e+000
<ENDHMM>
~h "ch"
<BEGINHMM>
<NUMSTATES> 5
<STATE> 2
<MEAN> 39
 -1.178865e+001 5.241853e+000 7.141309e+000 -9.368312e+000 5.072422e+000 -8.256161e+000 -2.384410e+000 1.954889e+000 -1.219300e+000 -4.666843e+000 -1.606184e+000 -8.005139e+000 6.098379e+001 -2.805021e+000 4.883277e-001 9.678048e-001 -1.965518e+000 5.917210e-001 -6.506734e-001 4.471666e-001 -1.224424e-001 3.742177e-001 -8.527315e-001 1.233417e-001 -4.547502e-001 2.552027e+000 3.830362e-002 -3.109122e-001 1.254794e-001 1.274965e-001 -5.414566e-001 2.571413e-002 1.202665e-001 -2.496196e-001 -5.189297e-002 -1.374462e-001 1.196233e-001 -3.362681e-002 2.253606e-001
<VARIANCE> 39
 2.097355e+002 7.113880e+001 1.171810e+002 1.440151e+002 1.182957e+002 1.766656e+002 8.716134e+001 1.533648e+002 1.077480e+002 8.801839e+001 1.057190e+002 9.405020e+001 1.652128e+002 1.808418e+001 8.460509e+000 4.951652e+000 1.230544e+001 1.358645e+001 9.982779e+000 5.917737e+000 1.122796e+001 6.339052e+000 6.705229e+000 7.820886e+000 6.874050e+000 6.236799e+000 2.473885e+000 1.138792e+000 8.645910e-001 2.225694e+000 1.666408e+000 1.683095e+000 1.071761e+000 2.087462e+000 1.142245e+000 1.187643e+000 1.444632e+000 1.105914e+000 9.393647e-001
<GCONST> 1.659875e+002
<STATE> 3
<MEAN> 39
 -2.103946e+001 9.436440e-001 1.069981e+001 -1.166491e+001 -1.124475e+000 -1.258963e+001 1.218666e+000 -1.384130e+000 6.280375e-001 -7.502476e+000 8.239975e-001 -8.536075e+000 7.145989e+001 8.813061e-001 -1.189727e+000 -1.645531e-001 2.223957e-001 -1.207366e+000 1.537503e-001 1.519708e-002 1.563675e-001 2.539043e-002 -9.403540e-002 -2.102420e-001 -3.667699e-001 8.116732e-001 3.204115e-001 -6.453411e-002 -2.730096e-001 1.139904e-001 1.337014e-001 1.801132e-001 -4.841017e-002 2.151096e-001 7.086965e-002 1.192698e-001 -3.939580e-002 -2.548020e-002 -2.536504e-001
<VARIANCE> 39
 1.527296e+002 1.327411e+002 1.210080e+002 4.764279e+001 1.823059e+002 1.862872e+002 8.989088e+001 1.029841e+002 7.090059e+001 1.013279e+002 8.562872e+001 5.473225e+001 8.954966e+001 1.074172e+001 5.510910e+000 4.186638e+000 4.352122e+000 7.393602e+000 6.491202e+000 6.465732e+000 6.371242e+000 4.383821e+000 4.736893e+000 4.656964e+000 3.383033e+000 2.258515e+000 1.579875e+000 8.959456e-001 5.206867e-001 7.379436e-001 1.406268e+000 1.268445e+000 1.063635e+000 1.131932e+000 8.118960e-001 8.873563e-001 8.279830e-001 6.380635e-001 3.235799e-001
<GCONST> 1.508859e+002
<STATE> 4
<MEAN> 39
 -2.564996e+001 3.718801e+000 9.790274e+000 -1.053668e+001 -2.030235e+000 1.905189e+000 -3.450580e+000 -2.701348e+000 2.070667e+000 -6.582129e+000 -1.298419e+000 -4.090463e+000 7.131772e+001 5.613712e-001 -7.229339e-001 -3.905573e-001 3.009637e-001 -1.816183e-001 3.463793e-001 2.108542e-001 4.026813e-002 2.441520e-001 -3.858030e-002 1.555139e-001 1.594216e-001 -7.111996e-001 1.385390e-001 7.004858e-002 -2.356202e-002 1.114853e-001 1.343713e-001 -9.508792e-002 -7.561096e-003 -1.886133e-002 -1.178690e-001 1.220579e-002 -7.204226e-003 1.697108e-002 -2.044910e-001
<VARIANCE> 39
 1.281313e+002 8.619705e+001 6.780618e+001 2.889191e+001 1.058341e+002 9.069247e+001 1.134138e+002 5.166444e+001 5.924502e+001 7.667487e+001 4.294885e+001 5.087454e+001 8.622048e+001 1.970465e+000 1.047148e+000 1.136269e+000 1.258742e+000 2.165662e+000 1.970166e+000 2.037924e+000 2.483652e+000 2.691387e+000 2.310126e+000 1.865328e+000 1.857208e+000 1.362438e+000 3.207111e-001 2.245465e-001 2.068762e-001 2.361028e-001 3.182273e-001 3.080027e-001 3.391586e-001 4.044909e-001 4.378127e-001 4.430946e-001 3.396516e-001 4.344663e-001 1.095026e-001
<GCONST> 1.187894e+002
<TRANSP> 5
 0.000000e+000 1.000000e+000 0.000000e+000 0.000000e+000 0.000000e+000
 0.000000e+000 7.927230e-001 2.072770e-001 0.000000e+000 0.000000e+000
 0.000000e+000 0.000000e+000 8.221073e-001 1.778927e-001 0.000000e+000
 0.000000e+000 0.000000e+000 0.000000e+000 8.105180e-001 1.894820e-001
 0.000000e+000 0.000000e+000 0.000000e+000 0.000000e+000 0.000000e+000
<ENDHMM>
~h "eh"
<BEGINHMM>
<NUMSTATES> 5
<STATE> 2
<MEAN> 39
 -9.777245e+000 -5.924764e+000 -6.144791e+000 -1.552941e+001 -9.606748e+000 -1.441781e+001 1.719533e+000 -5.256736e+000 -1.419181e+000 -1.986346e+001 -4.481915e+000 -2.425356e+000 8.422498e+001 1.348916e-001 -3.665885e-001 -2.713311e-002 8.748339e-002 3.238391e-001 -1.185618e-002 1.924319e-002 2.757580e-001 6.469615e-002 -1.240286e-001 -8.629319e-002 8.794743e-003 1.138663e-002 1.275889e-002 1.650434e-001 9.295389e-002 1.176765e-001 -3.124249e-002 -5.885779e-002 -1.526473e-001 -8.013893e-002 -9.100318e-002 1.174128e-001 -7.203613e-003 6.648756e-003 -2.392868e-001
<VARIANCE> 39
 3.841989e+001 5.321977e+001 4.910590e+001 4.304982e+001 9.128427e+001 6.610954e+001 7.880791e+001 7.752807e+001 6.891978e+001 1.435057e+002 6.857679e+001 5.267980e+001 3.175912e+001 3.931441e-001 1.010783e+000 1.107492e+000 9.523910e-001 2.554910e+000 2.064262e+000 3.362002e+000 2.243321e+000 2.028481e+000 1.840197e+000 1.686443e+000 1.487989e+000 4.527647e-001 1.297283e-001 1.852082e-001 1.537109e-001 2.336050e-001 4.094330e-001 3.992616e-001 6.096573e-001 3.458282e-001 3.518620e-001 2.887909e-001 3.003817e-001 2.736832e-001 1.374932e-001
<GCONST> 1.122953e+002
<STATE> 3
<MEAN> 39
 1.616623e+000 -1.046963e+001 -4.149363e+000 -8.135085e+000 -7.642663e+000 -4.724444e+000 -2.800259e+000 6.993865e+000 1.956921e+000 -4.741621e+000 -5.789738e+000 -1.217771e+001 7.631806e+001 4.639274e-001 -9.322039e-002 2.944218e-001 2.640678e-001 5.894262e-001 2.408989e-001 -3.775482e-001 -6.913643e-002 -3.090706e-001 1.642837e-001 -2.278802e-003 -1.020735e-001 -5.287306e-001 5.568622e-002 1.405157e-001 3.528638e-002 8.228046e-002 8.790762e-002 -7.472604e-003 1.341104e-003 -9.859386e-002 -9.523134e-002 4.416574e-002 3.951897e-002 2.587869e-002 -2.709369e-001
<VARIANCE> 39
 3.952591e+001 1.029962e+002 8.751135e+001 2.916983e+001 1.336514e+002 7.041904e+001 1.218677e+002 8.117990e+001 6.581005e+001 9.248993e+001 5.509254e+001 7.897638e+001 8.083092e+001 9.028704e-001 8.750582e-001 1.185354e+000 1.209602e+000 2.745797e+000 1.938004e+000 2.520150e+000 2.171034e+000 2.612738e+000 2.350181e+000 1.805323e+000 1.590564e+000 9.483901e-001 1.398270e-001 2.090998e-001 2.250663e-001 2.461278e-001 4.304878e-001 4.156639e-001 4.040438e-001 4.151171e-001 4.846259e-001 4.473819e-001 3.681489e-001 3.291069e-001 1.481760e-001
<GCONST> 1.184997e+002
<STATE> 4
<MEAN> 39
 7.666735e+000 -1.243007e+001 -1.122164e+000 -6.151134e+000 -1.371556e+000 -7.013109e+000 -3.637496e+000 5.428377e+000 -2.636218e+000 -3.074412e+000 -3.867747e+000 -1.458209e+001 7.030585e+001 4.702818e-001 1.008438e+000 -3.482552e-001 8.236334e-001 2.194661e-001 -3.135917e-002 -3.476038e-001 -4.709743e-001 -2.689388e-001 1.604807e-001 -1.151250e-001 1.602326e-001 -2.148508e+000 -2.421571e-001 1.938094e-001 -1.490750e-001 -4.122290e-002 -1.802613e-001 7.973934e-002 1.977870e-001 6.168385e-002 1.733912e-001 5.222842e-003 -8.746786e-002 5.875073e-002 -9.398681e-002
<VARIANCE> 39
 7.867538e+001 7.195866e+001 9.125890e+001 5.210527e+001 1.017375e+002 1.131987e+002 5.816692e+001 9.093685e+001 6.421867e+001 1.196591e+002 6.329854e+001 8.520052e+001 5.886046e+001 1.536889e+000 2.142002e+000 2.263148e+000 2.485621e+000 3.652938e+000 3.556766e+000 2.668909e+000 3.637096e+000 3.560340e+000 3.258641e+000 3.211842e+000 2.857176e+000 1.418625e+000 1.455467e-001 3.162175e-001 3.458925e-001 3.850208e-001 5.701640e-001 6.984767e-001 4.446507e-001 6.409387e-001 5.410771e-001 5.273482e-001 5.350713e-001 4.728523e-001 1.633961e-001
<GCONST> 1.293885e+002
<TRANSP> 5
 0.000000e+000 1.000000e+000 0.000000e+000 0.000000e+000 0.000000e+000
 0.000000e+000 8.283476e-001 1.716524e-001 0.000000e+000 0.000000e+000
 0.000000e+000 0.000000e+000 7.795548e-001 2.204452e-001 0.000000e+000
 0.000000e+000 0.000000e+000 0.000000e+000 7.482635e-001 2.517365e-001
 0.000000e+000 0.000000e+000 0.000000e+000 0.000000e+000 0.000000e+000
<ENDHMM>
~h "er"
<BEGINHMM>
<NUMSTATES> 5
<STATE> 2
<MEAN> 39
 3.055461e+000 -1.268729e+001 3.629714e-001 -7.225052e+000 -1.040929e+001 -1.103406e+001 -7.608876e+000 3.896975e+000 -4.144865e-001 -4.345025e+000 -1.819318e+000 -9.021869e+000 7.557938e+001 7.362910e-001 -4.351864e-001 -1.131349e+000 7.807457e-001 1.870782e-002 -1.235776e-001 -2.515728e-001 5.535746e-001 -1.341646e-001 -2.517925e-001 -1.420061e-001 3.938149e-001 -1.785262e-001 -1.417941e-001 3.355491e-001 1.955176e-001 1.354038e-001 1.143668e-001 -1.358404e-004 -2.233269e-002 -2.194743e-001 2.209626e-002 -8.679042e-002 -7.712618e-002 1.565925e-001 -2.972630e-001
<VARIANCE> 39
 9.261652e+001 8.053835e+001 1.273394e+002 7.664510e+001 1.190406e+002 6.844289e+001 8.007017e+001 1.317986e+002 1.020021e+002 7.488208e+001 6.614982e+001 6.302073e+001 7.345679e+001 8.889905e-001 2.301365e+000 2.783014e+000 1.974783e+000 2.653018e+000 3.956063e+000 2.833060e+000 4.466096e+000 3.218173e+000 2.987363e+000 2.682387e+000 3.520010e+000 1.384000e+000 1.560628e-001 3.253924e-001 2.909870e-001 3.256586e-001 4.996451e-001 5.042606e-001 4.772125e-001 6.344277e-001 5.070006e-001 4.543733e-001 5.441231e-001 6.151885e-001 1.436905e-001
<GCONST> 1.293526e+002
<STATE> 3
<MEAN> 39
 5.868208e+000 -8.025423e+000 -2.495115e+000 -2.313573e-001 -8.420530e+000 -1.353792e+001 -1.085635e+001 4.009095e+000 -1.895748e+000 -9.143460e+000 -4.738430e+000 -6.699001e+000 6.776704e+001 -1.958234e-001 8.777128e-001 1.337188e-001 4.756643e-001 2.199929e-001 -1.437052e-001 -4.944742e-002 -5.252116e-001 5.312682e-003 6.143409e-002 -1.506482e-001 8.604551e-002 -1.160476e+000 -1.377797e-001 2.443152e-002 1.266555e-001 -8.420984e-002 5.863628e-002 3.932929e-002 1.155530e-001 -2.266240e-003 -1.565946e-002 6.824938e-002 5.089973e-002 -6.872208e-002 -4.201975e-002
<VARIANCE> 39
 1.041316e+002 5.882921e+001 8.607820e+001 8.012863e+001 6.837965e+001 1.476694e+002 8.615443e+001 5.550631e+001 1.053338e+002 7.915436e+001 5.057668e+001 3.764975e+001 1.425014e+002 7.151029e-001 1.212862e+000 1.374723e+000 1.860993e+000 2.447888e+000 2.565841e+000 2.399880e+000 3.029180e+000 2.938007e+000 2.496522e+000 2.480729e+000 1.521434e+000 6.166430e-001 8.204048e-002 1.540075e-001 1.821141e-001 3.117892e-001 3.383350e-001 4.523129e-001 4.128397e-001 5.397269e-001 5.143121e-001 4.310221e-001 4.595080e-001 2.493737e-001 3.965877e-002
<GCONST> 1.184057e+002
<STATE> 4
<MEAN> 39
 -4.005699e+000 5.175055e-001 -6.662249e-001 1.564373e+000 -2.444334e+000 -1.061182e+001 -4.532137e+000 -1.507144e-001 1.189864e+000 -3.715127e+000 -2.202787e+000 -4.569245e+000 5.635041e+001 -1.168539e+000 4.588391e-001 4.919594e-001 6.569566e-002 7.718794e-001 6.028084e-001 8.378562e-001 1.268976e-001 5.314085e-002 1.844830e-001 2.320815e-001 2.220979e-001 -8.200300e-001 -2.964879e-002 -1.156431e-001 -2.047118e-002 -1.631526e-001 -4.755578e-002 7.073059e-002 -2.782283e-004 1.347735e-001 9.305259e-002 6.466889e-002 5.969700e-002 -2.731453e-002 1.137969e-001
<VARIANCE> 39
 1.398862e+002 5.660574e+001 3.786426e+001 5.439484e+001 7.839250e+001 8.428475e+001 8.389619e+001 5.161142e+001 7.747375e+001 7.681716e+001 5.218047e+001 5.764218e+001 2.343115e+002 1.840357e+000 1.743549e+000 1.911194e+000 2.616882e+000 3.275718e+000 2.581127e+000 3.165564e+000 3.650149e+000 3.408444e+000 3.623864e+000 3.188031e+000 2.938315e+000 4.775732e-001 2.561326e-001 2.363326e-001 2.969868e-001 5.677186e-001 4.670541e-001 4.899954e-001 4.983616e-001 7.568163e-001 5.829009e-001 6.861385e-001 6.876451e-001 4.823986e-001 7.967754e-002
<GCONST> 1.273960e+002
<TRANSP> 5
 0.000000e+000 1.000000e+000 0.000000e+000 0.000000e+000 0.000000e+000
 0.000000e+000 8.473126e-001 1.526874e-001 0.000000e+000 0.000000e+000
 0.000000e+000 0.000000e+000 8.768455e-001 1.231545e-001 0.000000e+000
 0.000000e+000 0.000000e+000 0.000000e+000 7.762908e-001 2.237093e-001
 0.000000e+000 0.000000e+000 0.000000e+000 0.000000e+000 0.000000e+000
<ENDHMM>
~h "ey"
<BEGINHMM>
<NUMSTATES> 5
<STATE> 2
<MEAN> 39
 1.814948e-001 -9.068697e+000 9.457579e+000 -7.023023e-001 -1.347011e+001 -1.403004e+001 -1.541257e+000 1.569228e+000 -4.297382e+000 -3.406135e+000 1.072861e-001 -8.523098e+000 6.858717e+001 1.129002e+000 -7.530318e-001 4.286679e-001 -8.828978e-001 -1.808419e+000 -5.085427e-001 -7.065508e-001 -1.215037e-001 -9.998569e-001 4.953863e-002 4.080041e-001 -1.705858e-001 7.222967e-001 -1.847499e-001 1.448970e-001 -1.739653e-003 -6.507974e-002 3.041198e-001 3.137273e-001 1.743130e-002 1.895443e-001 2.192290e-001 1.359200e-002 1.473564e-002 1.422446e-001 -2.595893e-001
