~o
<STREAMINFO> 1 39
<VECSIZE> 39<NULLD><MFCC_D_A_0><DIAGC>
~s "silst"
<MEAN> 39
 -9.088150e+000 -3.628405e+000 -1.238087e+000 3.424651e+000 7.405185e+000 1.799431e+000 1.109297e+001 9.506578e+000 7.753506e+000 3.891414e+000 2.919450e+000 -2.717059e+000 4.182536e+001 -1.780230e-001 -1.409170e-001 -1.179868e-002 6.502085e-002 1.796896e-001 2.460892e-001 2.213571e-001 2.202599e-001 1.485106e-001 1.216164e-001 -2.439208e-002 7.047420e-002 -1.233838e-001 1.596790e-001 5.516714e-002 1.230293e-002 -1.298735e-001 -1.796088e-001 -1.651714e-001 -2.357854e-001 -2.212805e-001 -2.252951e-001 -1.592828e-001 -1.250630e-001 -1.229059e-001 1.414874e-001
<VARIANCE> 39
 3.737806e+001 7.959804e+001 6.282701e+001 5.814533e+001 5.926186e+001 6.416518e+001 1.107962e+002 1.296765e+002 7.550906e+001 5.989413e+001 5.067793e+001 6.342584e+001 1.030045e+002 1.385922e+000 1.507309e+000 2.199756e+000 3.119821e+000 3.695966e+000 4.117077e+000 5.204281e+000 5.433186e+000 4.842388e+000 4.726640e+000 4.335411e+000 3.740361e+000 6.689830e-001 2.474171e-001 2.763264e-001 3.954988e-001 5.632469e-001 6.369587e-001 7.413201e-001 9.445649e-001 9.717540e-001 9.026052e-001 9.400491e-001 8.417322e-001 7.296205e-001 1.323209e-001
<GCONST> 1.333687e+002
~h "b"
<BEGINHMM>
<NUMSTATES> 5
<STATE> 2
<MEAN> 39
 4.785796e+000 8.585329e+000 4.322623e+000 1.272629e+000 -1.235792e+000 -4.592460e+000 -5.683168e+000 -7.989247e+000 -7.448418e+000 -8.494854e+000 -7.932223e+000 -8.059901e+000 5.560251e+001 1.528910e+000 -1.131083e+000 -1.429811e+000 -1.866951e+000 -1.012614e+000 2.065106e-001 -6.248965e-001 -1.734558e-001 6.759648e-001 6.299784e-001 -1.808562e-001 -7.759693e-002 3.306009e+000 -3.534094e-001 -8.364996e-001 -5.136282e-001 -5.896857e-001 -7.873742e-002 2.430496e-001 2.700748e-001 3.779062e-001 5.057918e-001 2.890341e-001 2.508263e-001 2.370472e-001 6.642603e-001
<VARIANCE> 39
 9.629326e+001 7.803042e+001 7.474874e+001 7.867760e+001 6.255909e+001 6.169460e+001 6.790849e+001 6.563188e+001 6.153523e+001 7.583431e+001 7.079827e+001 4.490422e+001 1.194317e+002 4.983575e+000 1.118183e+001 7.745856e+000 9.548422e+000 6.358872e+000 7.739399e+000 7.831797e+000 7.558330e+000 9.777599e+000 1.155290e+001 7.886653e+000 8.909272e+000 8.078767e+000 7.193943e-001 9.568349e-001 9.565907e-001 1.158209e+000 9.591486e-001 1.055053e+000 1.176817e+000 1.125554e+000 1.221127e+000 1.743837e+000 1.033437e+000 1.250853e+000 1.078947e+000
<GCONST> 1.557171e+002
<STATE> 3
<MEAN> 39
 3.225466e+000 -7.164042e+000 -7.934698e+000 -1.278224e+001 -6.177351e+000 -1.992537e+000 -5.142920e+000 -2.846984e+000 2.160066e+000 -3.171387e+000 -6.265937e+000 -7.489847e+000 7.749643e+001 -1.290400e+000 -2.250126e+000 -1.138441e+000 -1.081538e+000 -2.516563e-002 3.574163e-001 7.941295e-001 1.587268e+000 8.008292e-001 -9.717224e-001 -2.409019e-001 -6.037228e-002 3.351610e+000 -3.490317e-001 6.519888e-001 7.388970e-001 1.066244e+000 4.935231e-001 3.299903e-002 3.837472e-001 5.109143e-002 -7.237076e-001 -4.858269e-001 4.792751e-002 -6.449141e-002 -1.092175e+000
<VARIANCE> 39
 8.697425e+001 5.440683e+001 8.273106e+001 7.180439e+001 6.800992e+001 1.601495e+002 1.104537e+002 8.886099e+001 7.200291e+001 1.569211e+002 1.367221e+002 1.594812e+002 8.342930e+001 5.128191e+000 5.424689e+000 4.622695e+000 6.045562e+000 5.779646e+000 5.038576e+000 6.948249e+000 4.969161e+000 5.967614e+000 7.612850e+000 5.875264e+000 7.568339e+000 6.559763e+000 6.956338e-001 6.975227e-001 6.458474e-001 8.878419e-001 7.830366e-001 1.276864e+000 1.197995e+000 9.652680e-001 1.084653e+000 1.544395e+000 1.408580e+000 1.266317e+000 5.395427e-001
<GCONST> 1.534671e+002
<STATE> 4
<MEAN> 39
 -4.486310e+000 -5.715476e+000 -8.121541e+000 -1.280091e+001 -6.238493e+000 -1.973633e+000 -4.085284e+000 -3.178262e+000 -2.810353e-001 -1.012656e+001 -7.497191e+000 -3.345070e+000 8.248017e+001 -5.004053e-001 -2.107995e-001 1.386403e-001 3.967757e-001 2.424758e-002 1.228358e-001 4.427015e-001 1.807724e-001 -6.058536e-001 -4.386510e-001 2.946003e-001 7.050157e-002 2.295269e-001 1.647910e-001 1.716505e-001 2.178689e-001 6.185172e-002 -1.212807e-001 -1.958166e-001 -1.350413e-001 -1.574289e-001 -1.316409e-002 3.285073e-001 1.195095e-001 -4.373623e-002 -3.749306e-001
<VARIANCE> 39
 6.081289e+001 7.853175e+001 9.975854e+001 7.881415e+001 1.171440e+002 8.469102e+001 1.309734e+002 9.242580e+001 6.164903e+001 1.247398e+002 7.813380e+001 1.189993e+002 7.101598e+001 5.726038e-001 8.690447e-001 1.039323e+000 1.524553e+000 2.307253e+000 2.347655e+000 2.593144e+000 2.247907e+000 2.574795e+000 2.699400e+000 2.939723e+000 1.964272e+000 4.606064e-001 2.069086e-001 1.767545e-001 2.520570e-001 2.852314e-001 3.109528e-001 3.620687e-001 5.837172e-001 4.968711e-001 4.239999e-001 5.818870e-001 4.281366e-001 4.182086e-001 1.523182e-001
<GCONST> 1.218378e+002
<TRANSP> 5
 0.000000e+000 1.000000e+000 0.000000e+000 0.000000e+000 0.000000e+000
 0.000000e+000 7.625647e-001 2.374353e-001 0.000000e+000 0.000000e+000
 0.000000e+000 0.000000e+000 6.653340e-001 3.346660e-001 0.000000e+000
 0.000000e+000 0.000000e+000 0.000000e+000 6.962613e-001 3.037386e-001
 0.000000e+000 0.000000e+000 0.000000e+000 0.000000e+000 0.000000e+000
<ENDHMM>
~h "d"
<BEGINHMM>
<NUMSTATES> 5
<STATE> 2
<MEAN> 39
 1.008799e+000 5.853859e+000 6.325083e+000 2.485806e+000 -1.354509e+000 -5.340405e+000 -3.089329e+000 -5.414671e+000 -5.837899e+000 -7.882410e+000 -6.323699e+000 -8.241544e+000 5.217509e+001 1.114727e-001 -7.700832e-001 -2.862700e-001 -4.057358e-001 2.046954e-001 -6.865040e-001 -7.522543e-001 6.255861e-001 1.020737e+000 2.783293e-001 -2.540019e-002 -2.144172e-001 1.608035e+000 -1.198666e-001 -7.294131e-001 -1.519122e-001 -5.596173e-001 -4.334418e-001 -3.328467e-001 -2.601655e-001 2.866342e-001 2.419320e-001 1.968542e-001 2.291951e-001 2.151689e-003 9.165712e-001
<VARIANCE> 39
 1.140135e+002 7.668772e+001 8.202958e+001 6.365902e+001 1.006299e+002 7.717950e+001 5.605494e+001 7.137679e+001 7.865433e+001 7.636572e+001 7.017952e+001 5.282738e+001 1.554252e+002 5.155707e+000 7.948048e+000 7.144007e+000 7.150284e+000 9.311594e+000 7.586585e+000 7.480485e+000 8.288416e+000 7.626194e+000 6.457011e+000 7.256156e+000 6.141157e+000 5.785936e+000 7.046177e-001 1.215176e+000 9.480623e-001 1.095365e+000 1.507320e+000 1.216833e+000 1.348656e+000 1.438829e+000 1.381227e+000 1.164430e+000 1.231957e+000 1.058807e+000 7.135789e-001
<GCONST> 1.555665e+002
<STATE> 3
<MEAN> 39
 1.847838e+000 -5.348625e+000 5.446220e+000 -4.932115e+000 -4.284794e+000 -9.826239e+000 -9.769337e+000 1.294181e+000 1.144809e+000 -2.651426e+000 -4.285755e+000 -1.030345e+001 6.924089e+001 -3.612145e-001 -2.514928e+000 -8.906897e-001 -2.316559e+000 -1.887745e+000 -2.638414e-001 -8.397927e-001 9.642105e-001 7.727222e-001 4.858712e-001 9.453915e-001 9.170171e-003 3.877771e+000 6.749173e-002 5.969872e-001 -3.405598e-001 3.210407e-001 1.020635e-001 7.561956e-001 8.541901e-001 -3.178393e-001 -5.118175e-001 -3.873014e-001 -1.816078e-002 1.232657e-001 -5.579649e-001
<VARIANCE> 39
 1.178502e+002 7.120357e+001 9.869276e+001 1.121026e+002 1.345488e+002 7.615822e+001 9.408598e+001 1.753233e+002 1.010022e+002 6.291138e+001 9.077282e+001 9.346669e+001 1.170232e+002 5.330288e+000 1.071326e+001 6.465127e+000 7.795331e+000 8.607003e+000 9.737143e+000 1.076011e+001 1.058046e+001 8.060882e+000 6.923272e+000 7.091650e+000 6.445993e+000 7.243049e+000 5.728476e-001 1.125550e+000 1.380942e+000 1.298422e+000 1.946429e+000 1.638921e+000 1.466875e+000 1.897358e+000 1.300203e+000 1.082859e+000 1.252977e+000 1.116810e+000 8.498750e-001
<GCONST> 1.613311e+002
<STATE> 4
<MEAN> 39
 -2.187288e+000 -3.366212e+000 -9.182523e-001 -8.420044e+000 -8.182424e+000 -8.449379e+000 -7.171835e+000 -3.196644e+000 -4.007226e+000 -6.578610e+000 -2.058214e+000 -4.624855e+000 7.378846e+001 -1.622343e-001 -6.780798e-001 -1.124555e+000 -3.548807e-001 -7.193455e-002 4.886954e-001 1.065759e+000 4.902312e-001 7.127367e-002 -7.034518e-001 -5.763024e-002 1.223794e-001 8.373524e-001 2.305416e-001 1.408808e-001 1.082275e-001 3.026521e-001 4.351382e-001 1.618009e-001 1.996362e-002 -1.326848e-001 -1.965739e-001 -1.481981e-001 -3.485526e-001 -1.936660e-001 -4.982831e-001
<VARIANCE> 39
 1.522633e+002 9.484826e+001 7.139839e+001 9.025728e+001 1.027572e+002 1.013768e+002 1.312172e+002 1.729245e+002 1.721757e+002 1.026017e+002 8.480889e+001 1.196114e+002 1.626695e+002 2.195590e+000 3.204812e+000 4.511031e+000 4.491143e+000 6.615526e+000 5.513821e+000 7.268557e+000 5.302876e+000 4.442096e+000 5.921537e+000 5.559903e+000 3.737311e+000 2.947084e+000 5.093832e-001 6.000158e-001 7.263916e-001 8.837482e-001 1.012545e+000 9.748501e-001 1.247229e+000 1.049390e+000 1.061152e+000 9.728370e-001 9.671652e-001 7.824413e-001 6.007830e-001
<GCONST> 1.508665e+002
<TRANSP> 5
 0.000000e+000 1.000000e+000 0.000000e+000 0.000000e+000 0.000000e+000
 0.000000e+000 7.128037e-001 2.871963e-001 0.000000e+000 0.000000e+000
 0.000000e+000 0.000000e+000 5.167807e-001 4.832193e-001 0.000000e+000
 0.000000e+000 0.000000e+000 0.000000e+000 5.471407e-001 4.528594e-001
 0.000000e+000 0.000000e+000 0.000000e+000 0.000000e+000 0.000000e+000
<ENDHMM>
~h "f"
<BEGINHMM>
<NUMSTATES> 5
<STATE> 2
<MEAN> 39
 3.859885e+000 -9.376340e+000 1.246327e+001 -5.539682e+000 -1.887523e+001 -1.291370e+001 -2.437613e+000 -5.061061e-001 -5.061207e+000 4.726480e+000 2.822007e+000 -8.724192e+000 6.372674e+001 -3.005201e-002 3.547883e-001 -2.060328e-001 -1.126166e-001 -1.334372e-001 3.013046e-001 6.233408e-001 1.137036e-001 5.410551e-001 7.420198e-001 7.311981e-001 1.764680e-001 -3.752347e-001 -1.087022e-001 7.084651e-002 -8.001002e-002 3.049213e-001 4.137173e-001 9.480495e-002 5.784721e-002 -4.722920e-002 1.174986e-001 -5.452313e-002 -2.190801e-001 8.728920e-002 -1.672330e-001
<VARIANCE> 39
 1.415098e+001 2.450630e+001 1.745963e+001 2.357191e+001 3.778473e+001 3.455803e+001 2.785164e+001 2.974277e+001 2.767373e+001 4.540709e+001 3.372118e+001 2.570731e+001 1.747023e+001 2.726154e-001 9.367661e-001 1.016240e+000 3.120554e+000 3.402888e+000 1.755756e+000 1.595099e+000 2.120232e+000 2.078574e+000 1.876762e+000 3.112886e+000 1.849646e+000 7.223279e-001 7.385816e-002 1.665487e-001 1.675706e-001 2.500241e-001 3.587179e-001 3.453921e-001 3.516655e-001 4.125225e-001 4.312393e-001 3.394488e-001 4.100648e-001 2.958784e-001 3.876158e-002
<GCONST> 1.009125e+002
<STATE> 3
<MEAN> 39
 -3.332354e+000 -7.430426e+000 4.990975e+000 1.130042e+000 -6.367903e+000 -8.645974e+000 6.036312e+000 4.385602e+000 5.281172e+000 7.423630e+000 3.141605e+000 -5.058126e+000 5.522931e+001 -1.830961e+000 -9.204547e-001 -1.457603e+000 5.510142e-001 2.390771e+000 1.282334e+000 1.645279e+000 1.811606e+000 1.623245e+000 1.504738e-001 -6.307215e-002 3.592299e-001 -1.084699e+000 4.559174e-002 -1.021325e-001 8.192758e-002 -1.535714e-001 -8.597158e-002 5.929051e-002 -4.627318e-002 4.345854e-002 -2.190672e-001 -6.417797e-002 -1.101711e-002 -1.258171e-001 1.153724e-001
<VARIANCE> 39
 3.131049e+001 2.834794e+001 2.846573e+001 2.395305e+001 4.385011e+001 4.762264e+001 7.003918e+001 6.662841e+001 4.595103e+001 6.134691e+001 2.378619e+001 2.695901e+001 2.252564e+001 8.302000e-001 1.103524e+000 9.361693e-001 2.068345e+000 2.867701e+000 2.817871e+000 3.906211e+000 3.158798e+000 3.818327e+000 2.864996e+000 1.978634e+000 1.713087e+000 2.380333e-001 2.897345e-001 3.405861e-001 2.320177e-001 4.191103e-001 4.402426e-001 5.418484e-001 7.193832e-001 6.375934e-001 6.925557e-001 5.586544e-001 4.124842e-001 3.655938e-001 3.229319e-002
<GCONST> 1.128248e+002
<STATE> 4
<MEAN> 39
 -8.819149e+000 -1.044761e+001 -3.316865e+000 5.723105e+000 7.963018e+000 1.464400e+000 1.593702e+001 1.670168e+001 1.167585e+001 7.023733e+000 3.582902e+000 -5.314161e+000 4.925349e+001 -1.412179e-001 5.352913e-002 -4.445117e-001 3.316233e-001 8.733067e-001 5.462184e-001 4.812002e-001 5.166450e-001 1.260580e-001 -7.316598e-002 2.189015e-002 -1.256786e-001 -3.298333e-001 4.336384e-002 2.873585e-002 5.191131e-002 -5.855896e-002 -1.170296e-001 -1.051375e-001 -5.589996e-002 -8.251284e-002 -8.869973e-002 8.573714e-003 -2.486744e-002 -1.397192e-002 4.495952e-002
<VARIANCE> 39
 7.093882e+000 1.613261e+001 2.538299e+001 2.195660e+001 4.858194e+001 4.330512e+001 5.639730e+001 6.871603e+001 3.449846e+001 3.436892e+001 2.382161e+001 2.761138e+001 1.518968e+001 4.280241e-001 5.161110e-001 1.101690e+000 1.492633e+000 2.141094e+000 2.237395e+000 2.076395e+000 2.231415e+000 2.203145e+000 2.048578e+000 1.997386e+000 2.011249e+000 3.019556e-001 8.415701e-002 9.084586e-002 1.889125e-001 2.535011e-001 3.139306e-001 3.572718e-001 3.520880e-001 3.989548e-001 4.031362e-001 3.819709e-001 3.996443e-001 3.715909e-001 4.135851e-002
<GCONST> 9.970263e+001
<TRANSP> 5
 0.000000e+000 1.000000e+000 0.000000e+000 0.000000e+000 0.000000e+000
 0.000000e+000 8.696927e-001 1.303072e-001 0.000000e+000 0.000000e+000
 0.000000e+000 0.000000e+000 7.508385e-001 2.491615e-001 0.000000e+000
 0.000000e+000 0.000000e+000 0.000000e+000 8.733020e-001 1.266980e-001
 0.000000e+000 0.000000e+000 0.000000e+000 0.000000e+000 0.000000e+000
<ENDHMM>
~h "g"
<BEGINHMM>
<NUMSTATES> 5
<STATE> 2
<MEAN> 39
 -2.146263e-001 1.187925e-001 4.072567e+000 7.778287e+000 3.349199e+000 -5.602479e+000 2.184345e+000 -1.023087e-001 -3.893312e+000 -8.230323e+000 -9.488271e+000 -1.199991e+001 5.172774e+001 1.823402e-001 2.099164e-001 3.550701e-001 9.047710e-001 1.092823e+000 5.176766e-001 1.126355e-001 -1.864468e-001 -7.041309e-001 -6.760067e-001 -3.665285e-001 -2.075831e-001 1.741469e-001 5.698907e-002 -2.549272e-001 -1.618619e-002 -1.942045e-001 -3.229476e-001 -1.317803e-001 -1.264106e-001 -1.505716e-001 -2.388826e-003 3.347311e-001 2.392934e-001 9.719283e-002 2.312839e-001
<VARIANCE> 39
 2.889835e+001 3.597246e+001 2.727141e+001 3.566439e+001 7.246015e+001 4.688292e+001 4.357814e+001 5.839647e+001 5.564874e+001 5.066867e+001 3.597351e+001 2.977592e+001 3.641845e+001 9.730717e-001 2.178643e+000 1.734571e+000 2.199190e+000 4.326042e+000 3.480359e+000 3.878618e+000 5.546224e+000 5.231672e+000 4.913739e+000 3.450818e+000 2.710093e+000 8.278480e-001 1.711992e-001 2.658945e-001 3.707370e-001 3.737337e-001 7.339408e-001 6.150542e-001 7.817948e-001 1.062957e+000 9.881247e-001 6.982927e-001 5.316299e-001 5.017433e-001 1.377076e-001
<GCONST> 1.234345e+002
<STATE> 3
<MEAN> 39
 1.100064e+000 6.600801e+000 6.125847e+000 4.505538e+000 2.677297e+000 -5.449989e+000 -3.363960e+000 -6.130823e+000 -5.098063e+000 -6.649532e+000 -5.158276e+000 -7.909657e+000 5.350438e+001 1.114617e+000 -1.423616e+000 -1.131471e-001 -8.613661e-002 -5.671464e-001 -2.629960e-001 -1.587519e+000 -1.335861e+000 -4.739006e-001 5.883597e-001 8.902450e-001 -8.566045e-003 2.370345e+000 -1.826347e-003 -3.385723e-001 1.153864e-001 -6.037066e-001 -5.831596e-001 -1.113206e-001 -4.195743e-001 -9.357519e-002 7.882070e-002 5.168644e-002 2.700207e-001 6.340685e-002 6.169501e-001
<VARIANCE> 39
 1.073927e+002 1.191257e+002 1.106666e+002 6.788171e+001 1.367899e+002 1.022504e+002 1.238840e+002 7.899324e+001 9.503054e+001 7.454512e+001 9.974181e+001 5.081199e+001 1.318642e+002 4.899103e+000 9.511665e+000 1.236532e+001 8.191896e+000 1.329822e+001 8.438402e+000 1.042458e+001 1.006947e+001 8.368402e+000 8.789189e+000 6.537291e+000 7.275357e+000 5.281384e+000 7.325706e-001 1.373362e+000 1.533640e+000 1.335752e+000 1.879896e+000 1.324857e+000 1.805420e+000 1.888744e+000 1.560609e+000 1.506961e+000 1.048615e+000 1.079515e+000 6.158356e-001
<GCONST> 1.620855e+002
<STATE> 4
<MEAN> 39
 2.640688e+000 -4.721597e+000 6.217371e+000 -3.017517e+000 -6.522770e+000 -5.787332e+000 -1.098737e+001 -7.578132e+000 -3.110981e+000 -5.296560e+000 1.901295e+000 -8.112465e+000 7.202325e+001 -1.278971e-001 -9.196126e-001 6.093061e-001 -1.835098e+000 -2.021725e+000 -5.379448e-001 -1.176982e+000 1.877117e-001 2.465352e-001 -8.333967e-002 5.697177e-001 3.595330e-001 2.506072e+000 -1.583575e-001 4.454322e-001 -4.860404e-003 1.174147e-001 2.160558e-001 6.181305e-002 3.270287e-001 2.228868e-001 6.051300e-002 -4.603004e-002 -3.585977e-001 5.497479e-002 -5.764181e-001
<VARIANCE> 39
 7.291148e+001 8.548291e+001 3.388115e+002 1.195910e+002 1.098289e+002 1.791953e+002 1.257213e+002 1.113971e+002 8.389430e+001 1.260253e+002 1.150763e+002 1.176483e+002 7.243980e+001 3.548705e+000 7.783043e+000 7.909460e+000 8.395280e+000 5.796939e+000 1.024716e+001 1.033542e+001 1.157994e+001 6.512265e+000 7.509211e+000 4.923625e+000 5.977649e+000 3.777740e+000 5.028443e-001 1.125651e+000 1.660825e+000 1.324998e+000 1.181586e+000 1.715284e+000 1.716354e+000 2.123990e+000 1.385682e+000 1.087107e+000 9.050484e-001 1.050186e+000 3.386558e-001
<GCONST> 1.600011e+002
<TRANSP> 5
 0.000000e+000 1.000000e+000 0.000000e+000 0.000000e+000 0.000000e+000
 0.000000e+000 8.120345e-001 1.879655e-001 0.000000e+000 0.000000e+000
 0.000000e+000 0.000000e+000 6.871910e-001 3.128090e-001 0.000000e+000
 0.000000e+000 0.000000e+000 0.000000e+000 6.820076e-001 3.179924e-001
 0.000000e+000 0.000000e+000 0.000000e+000 0.000000e+000 0.000000e+000
<ENDHMM>
~h "k"
<BEGINHMM>
<NUMSTATES> 5
<STATE> 2
<MEAN> 39
 -6.824618e+000 -4.698422e-001 1.403824e+000 -2.019832e+000 -5.813546e+000 -8.822569e+000 -1.583095e+000 -2.573241e+000 -3.113303e+000 -4.833613e+000 -2.030939e+000 -5.650012e+000 5.415273e+001 -5.746682e-001 -1.161461e-001 -5.191379e-001 6.713175e-001 1.089357e+000 5.395666e-001 5.760529e-001 5.497500e-001 5.884333e-001 6.576175e-001 2.444071e-001 2.807571e-001 -7.081869e-001 -9.101700e-002 -1.513686e-001 -5.766745e-002 -1.462206e-001 -5.428695e-002 -1.016578e-002 4.558405e-002 1.344471e-001 1.036049e-001 8.920362e-002 3.842328e-002 6.999917e-002 4.956418e-001
<VARIANCE> 39
 5.964347e+001 5.158653e+001 9.394637e+001 5.026834e+001 7.512556e+001 8.289268e+001 6.892873e+001 1.008985e+002 8.881574e+001 7.947958e+001 4.589608e+001 4.135424e+001 1.013299e+002 1.492566e+000 1.735025e+000 2.267133e+000 2.848535e+000 3.847643e+000 3.712487e+000 3.840400e+000 4.186347e+000 4.233842e+000 3.878631e+000 3.196069e+000 2.710816e+000 1.594590e+000 3.719957e-001 4.125105e-001 5.832223e-001 6.029516e-001 8.151438e-001 8.422717e-001 8.411242e-001 9.541044e-001 8.888411e-001 7.638510e-001 7.378901e-001 5.915694e-001 3.964045e-001
<GCONST> 1.348026e+002
<STATE> 3
<MEAN> 39
 -8.046266e+000 -1.621307e+000 2.364118e+000 6.699957e-001 -9.732306e-001 -5.927114e+000 3.176618e+000 1.055560e+000 -1.099481e+000 -7.211884e-001 1.761157e+000 -3.735058e+000 4.848352e+001 -3.751753e-001 -2.689975e-001 -4.878113e-001 -3.361461e-002 4.747711e-001 2.397039e-001 3.465590e-001 1.618990e-001 2.639267e-001 2.838033e-001 -1.862759e-001 1.066358e-001 7.336153e-001 2.044818e-001 3.192838e-002 4.522688e-002 -3.616360e-001 -5.092984e-001 -4.312860e-001 -4.092855e-001 -2.914627e-001 -2.328593e-001 -2.714484e-001 -2.466844e-001 -1.764171e-001 6.371705e-001
<VARIANCE> 39
 5.126885e+001 5.936831e+001 1.126914e+002 5.960854e+001 9.511950e+001 8.864095e+001 1.343828e+002 1.477860e+002 1.194261e+002 8.563475e+001 6.395640e+001 4.654032e+001 1.334870e+002 2.866614e+000 3.075300e+000 5.200830e+000 5.284062e+000 7.706325e+000 6.514825e+000 7.676564e+000 8.088633e+000 6.198286e+000 6.191173e+000 5.706915e+000 4.306376e+000 2.514642e+000 6.308707e-001 5.007151e-001 9.392210e-001 9.007697e-001 1.480866e+000 1.140825e+000 1.432895e+000 1.503861e+000 1.217440e+000 1.085557e+000 1.113992e+000 7.763898e-001 4.675112e-001
<GCONST> 1.502240e+002
<STATE> 4
<MEAN> 39
 -6.210873e+000 -3.427675e+000 1.481164e+000 -2.741567e+000 -5.653856e+000 -1.169161e+001 -4.503509e+000 -3.630889e+000 -4.019282e+000 -5.457459e+000 -1.885147e+000 -5.951233e+000 6.165574e+001 4.581059e-001 -3.650940e-001 -2.901189e-001 -5.231194e-001 -4.622689e-001 -3.994067e-001 -2.533913e-001 2.988909e-002 -9.967762e-002 -2.721062e-001 -2.700763e-001 -4.496678e-001 1.998853e+000 1.254719e-001 1.296337e-001 2.247813e-001 -1.096682e-001 -1.122218e-001 8.425976e-002 -8.728426e-003 8.738113e-004 -7.871380e-002 -9.326635e-002 2.979099e-002 -2.969383e-002 -5.447396e-003
<VARIANCE> 39
 1.478028e+002 1.041221e+002 1.971691e+002 9.681426e+001 1.374913e+002 1.470735e+002 1.338254e+002 1.303344e+002 1.073531e+002 9.581050e+001 9.501070e+001 9.105496e+001 1.543164e+002 7.894864e+000 7.624792e+000 1.141745e+001 8.700244e+000 1.388696e+001 9.593274e+000 9.811676e+000 9.764047e+000 1.009790e+001 8.017479e+000 8.328711e+000 6.441571e+000 7.398622e+000 1.062332e+000 1.150835e+000 1.431548e+000 1.475907e+000 1.821561e+000 1.601350e+000 1.554498e+000 1.526020e+000 1.693814e+000 1.214034e+000 1.423477e+000 1.123172e+000 1.257744e+000
<GCONST> 1.670306e+002
<TRANSP> 5
 0.000000e+000 1.000000e+000 0.000000e+000 0.000000e+000 0.000000e+000
 0.000000e+000 5.619366e-001 4.380633e-001 0.000000e+000 0.000000e+000
 0.000000e+000 0.000000e+000 4.772548e-001 5.227453e-001 0.000000e+000
 0.000000e+000 0.000000e+000 0.000000e+000 6.757669e-001 3.242330e-001
 0.000000e+000 0.000000e+000 0.000000e+000 0.000000e+000 0.000000e+000
<ENDHMM>
~h "l"
<BEGINHMM>
<NUMSTATES> 5
<STATE> 2
<MEAN> 39
 -4.086239e+000 2.829952e-001 -9.232777e+000 -7.823332e+000 -7.695593e+000 -4.039586e+000 -8.518271e+000 -5.118586e+000 -6.189950e-001 -8.584090e+000 -4.930302e+000 -3.123274e+000 7.565102e+001 -1.421054e-001 3.254279e-002 2.770040e-001 -8.183300e-003 5.106908e-002 4.626265e-001 4.834220e-001 -6.124953e-003 -2.475417e-001 3.052225e-001 1.587688e-001 -4.881269e-002 -5.467288e-001 -5.033670e-002 4.355384e-003 2.453419e-002 3.471531e-002 -4.112858e-002 -2.950001e-002 8.172373e-002 9.060595e-002 2.943806e-003 1.489312e-002 2.027819e-002 1.388282e-003 -3.565912e-002
<VARIANCE> 39
 4.023992e+001 6.495415e+001 1.133183e+002 7.720049e+001 1.521868e+002 7.898109e+001 1.111955e+002 5.813915e+001 7.760217e+001 9.107778e+001 4.918577e+001 5.501380e+001 8.369051e+001 6.934694e-001 1.322705e+000 1.619230e+000 1.771204e+000 3.759763e+000 3.086044e+000 3.287825e+000 2.319725e+000 2.485831e+000 2.410899e+000 2.145843e+000 2.076430e+000 1.525472e+000 1.346243e-001 1.604422e-001 2.366183e-001 2.831944e-001 5.541447e-001 4.691525e-001 6.111629e-001 4.570760e-001 4.391210e-001 4.055699e-001 3.655332e-001 3.703533e-001 1.232822e-001
<GCONST> 1.221628e+002
<STATE> 3
<MEAN> 39
 -8.394760e-001 -6.332593e+000 -6.561818e+000 -5.514122e+000 -1.612885e+000 -3.315381e+000 3.118924e+000 4.253232e+000 3.086033e+000 8.698698e-001 -1.643615e+000 -9.017407e+000 5.934921e+001 2.482096e-001 5.240544e-001 -3.424812e-001 -7.750300e-001 -1.025192e+000 3.703828e-001 1.592149e-001 -7.992939e-002 -5.060610e-001 7.061910e-002 2.472256e-002 2.957056e-001 2.185896e-001 3.248437e-001 4.326458e-002 -2.526708e-001 -5.292621e-001 -2.846255e-001 1.537149e-001 -1.733805e-001 -2.940055e-001 -3.804373e-001 -2.538918e-001 -2.624442e-002 6.567666e-003 5.828736e-001
<VARIANCE> 39
 8.974826e+001 5.321383e+001 7.895555e+001 6.655529e+001 7.305533e+001 6.001614e+001 1.251685e+002 1.162214e+002 8.955614e+001 9.074080e+001 7.248487e+001 6.152542e+001 1.008447e+002 3.513069e+000 2.353104e+000 3.592436e+000 6.736392e+000 6.097594e+000 4.700782e+000 6.287583e+000 6.709605e+000 6.188454e+000 4.426712e+000 3.804182e+000 3.792244e+000 4.885352e+000 5.640349e-001 3.831546e-001 6.471463e-001 9.424477e-001 9.513601e-001 8.226000e-001 9.156640e-001 1.065842e+000 9.642218e-001 6.538639e-001 6.313835e-001 5.319217e-001 5.131724e-001
<GCONST> 1.441523e+002
<STATE> 4
<MEAN> 39
 5.177315e+000 -6.485044e+000 -9.801505e+000 -1.573114e+001 -7.429549e+000 1.058977e+000 1.363906e-001 -3.150440e+000 -5.864250e+000 -2.276223e+000 -1.410559e+000 -8.235907e+000 7.276022e+001 5.536999e-001 -3.484573e-001 -6.435166e-001 -5.782617e-001 -2.112677e-001 5.082937e-001 -7.580333e-001 -4.011792e-001 -5.708299e-001 -3.587577e-003 1.830027e-001 -6.561732e-003 5.082446e-001 -2.138116e-001 -1.054154e-001 9.492753e-002 4.115351e-001 4.057090e-001 -7.510372e-002 -6.542580e-002 2.164719e-001 3.739777e-001 5.558570e-002 7.331203e-003 -1.030865e-001 -3.419236e-001
<VARIANCE> 39
 8.234184e+001 9.107392e+001 9.840556e+001 1.056492e+002 7.511008e+001 1.003067e+002 9.353210e+001 6.327768e+001 4.646297e+001 6.890417e+001 5.094130e+001 4.948952e+001 1.124038e+002 5.341534e+000 2.865645e+000 4.194516e+000 8.565607e+000 5.472743e+000 6.915869e+000 6.086918e+000 5.174721e+000 4.433473e+000 4.388698e+000 3.121426e+000 3.191025e+000 7.263872e+000 7.332689e-001 5.004339e-001 5.551946e-001 1.246618e+000 7.948806e-001 9.788749e-001 9.060810e-001 8.999810e-001 8.179793e-001 9.201691e-001 6.434449e-001 6.343599e-001 4.947456e-001
<GCONST> 1.450217e+002
<TRANSP> 5
 0.000000e+000 1.000000e+000 0.000000e+000 0.000000e+000 0.000000e+000
 0.000000e+000 8.245828e-001 1.754172e-001 0.000000e+000 0.000000e+000
 0.000000e+000 0.000000e+000 6.118090e-001 3.881910e-001 0.000000e+000
 0.000000e+000 0.000000e+000 0.000000e+000 6.550353e-001 3.449647e-001
 0.000000e+000 0.000000e+000 0.000000e+000 0.000000e+000 0.000000e+000
<ENDHMM>
~h "m"
<BEGINHMM>
<NUMSTATES> 5
<STATE> 2
<MEAN> 39
 2.256164e+000 9.092737e+000 4.645556e+000 7.680166e-001 -2.390579e+000 -7.492634e+000 -8.053704e+000 -9.694122e+000 -9.942003e+000 -8.332516e+000 -6.924773e+000 -7.793253e+000 5.615205e+001 1.496366e+000 1.034556e+000 6.517366e-001 8.738790e-001 -3.148884e-001 -6.132707e-001 -1.034117e+000 -1.055535e+000 -1.071162e+000 -3.072467e-001 -7.720261e-001 -7.311181e-001 4.450296e-001 -2.705760e-001 -5.004238e-001 -1.586529e-001 -3.174215e-001 -2.376098e-001 9.732434e-002 3.555589e-001 4.172431e-001 5.458050e-001 2.881417e-001 2.232109e-001 2.466007e-001 3.463878e-001
<VARIANCE> 39
 8.140642e+001 6.054485e+001 6.400334e+001 5.217028e+001 8.887041e+001 6.417645e+001 6.838786e+001 6.322900e+001 6.616245e+001 7.060316e+001 5.502316e+001 4.043275e+001 1.168880e+002 8.333042e+000 3.435550e+000 2.827832e+000 3.037163e+000 5.120498e+000 4.635929e+000 6.641919e+000 5.262233e+000 6.311993e+000 4.904067e+000 3.830439e+000 3.764231e+000 4.140687e+000 5.024682e-001 5.704176e-001 5.528660e-001 5.458275e-001 7.868527e-001 8.179510e-001 9.165949e-001 9.974656e-001 9.533871e-001 9.162102e-001 7.629914e-001 7.339888e-001 3.560737e-001
<GCONST> 1.412542e+002
<STATE> 3
<MEAN> 39
 5.008767e+000 7.979347e+000 5.773726e+000 2.690027e+000 -3.812012e+000 -8.779407e+000 -8.761947e+000 -8.758619e+000 -9.357306e+000 -7.993697e+000 -7.186429e+000 -9.177351e+000 5.644812e+001 -1.939307e-001 -2.977433e-001 8.771322e-003 -1.274209e-002 -3.779387e-001 1.562499e-001 5.616816e-001 4.609869e-001 5.983607e-001 4.348969e-001 -2.468118e-003 -4.291342e-002 9.014634e-002 -2.940255e-001 -5.046054e-001 -8.979665e-002 -4.361590e-001 -2.212189e-001 2.398739e-001 3.990137e-001 4.420795e-001 3.117824e-001 1.263655e-001 1.638328e-001 1.240885e-001 3.293020e-001
<VARIANCE> 39
 5.767834e+001 6.310769e+001 4.783251e+001 4.506221e+001 5.660087e+001 4.788695e+001 5.451932e+001 6.518358e+001 5.859195e+001 5.895794e+001 4.644309e+001 3.076598e+001 7.758108e+001 2.590607e+000 1.643457e+000 1.915642e+000 2.100669e+000 4.153509e+000 3.118189e+000 3.604262e+000 4.401637e+000 3.785564e+000 3.464474e+000 2.871171e+000 2.559137e+000 1.597285e+000 2.839089e-001 5.178114e-001 5.734905e-001 5.604524e-001 6.930030e-001 6.843523e-001 7.944213e-001 8.383280e-001 7.702588e-001 6.322968e-001 5.244886e-001 5.706911e-001 3.212893e-001
<GCONST> 1.293336e+002
<STATE> 4
<MEAN> 39
 5.730461e+000 4.583872e+000 1.041889e+001 -6.456274e-001 -1.072720e+001 -7.909003e+000 -4.200425e+000 -4.907373e+000 -8.064792e+000 -5.208988e+000 -6.039889e+000 -9.973145e+000 6.228623e+001 -1.420150e+000 -2.669860e+000 1.461036e+000 -2.543371e+000 -1.833113e+000 1.111914e+000 1.024649e+000 1.646696e+000 4.443782e-001 1.680751e-001 6.224123e-001 4.001328e-002 2.478716e+000 -3.737794e-001 -7.024984e-002 -4.321830e-002 -6.979192e-001 2.219534e-001 3.197572e-001 -1.550975e-001 1.669454e-001 -1.961117e-002 -2.070133e-001 1.750972e-001 5.680863e-002 2.372958e-001
<VARIANCE> 39
 8.457370e+001 9.216357e+001 1.693020e+002 1.038417e+002 1.365270e+002 7.666756e+001 1.155505e+002 1.423951e+002 6.519971e+001 9.115716e+001 8.948515e+001 9.312780e+001 1.087713e+002 4.216050e+000 6.553706e+000 1.153787e+001 7.767358e+000 9.663721e+000 7.466859e+000 8.940330e+000 1.021330e+001 6.810028e+000 6.525466e+000 4.130740e+000 6.151515e+000 3.524544e+000 5.722517e-001 1.454247e+000 1.416347e+000 1.223737e+000 1.387336e+000 1.159361e+000 1.335749e+000 1.459480e+000 1.032466e+000 9.985394e-001 8.097060e-001 8.619685e-001 7.328771e-001
<GCONST> 1.575504e+002
<TRANSP> 5
 0.000000e+000 1.000000e+000 0.000000e+000 0.000000e+000 0.000000e+000
 0.000000e+000 3.092695e-001 6.907305e-001 0.000000e+000 0.000000e+000
 0.000000e+000 0.000000e+000 5.891020e-001 4.108980e-001 0.000000e+000
 0.000000e+000 0.000000e+000 0.000000e+000 5.494872e-001 4.505128e-001
 0.000000e+000 0.000000e+000 0.000000e+000 0.000000e+000 0.000000e+000
<ENDHMM>
~h "n"
<BEGINHMM>
<NUMSTATES> 5
<STATE> 2
<MEAN> 39
 -1.016428e+000 5.835838e-001 5.132205e+000 -9.306017e+000 -8.736126e+000 -6.350852e+000 -3.355118e+000 -5.501875e+000 -1.002732e+001 -1.209249e+001 -6.138380e+000 -7.139940e+000 7.035868e+001 1.020095e+000 2.090431e+000 -1.968021e-001 1.622567e+000 -2.715081e-001 -3.950278e-001 -3.655010e-001 -6.907600e-001 -2.889560e-001 2.908172e-001 -8.967004e-001 -5.273838e-002 -1.971170e+000 -3.217296e-002 -6.137681e-002 -2.021051e-001 9.397044e-002 1.253104e-001 -1.022950e-001 5.321628e-004 -1.987647e-002 2.377322e-001 1.715231e-001 -4.344904e-002 1.659749e-002 2.743670e-002
<VARIANCE> 39
 9.910204e+001 8.348109e+001 8.960722e+001 1.293183e+002 7.296772e+001 7.944208e+001 7.054755e+001 1.301794e+002 8.524876e+001 8.066370e+001 4.888715e+001 5.598242e+001 8.966452e+001 1.340581e+000 2.143336e+000 3.030781e+000 3.412903e+000 2.965389e+000 2.589789e+000 4.278047e+000 3.049318e+000 3.824610e+000 3.712435e+000 2.826750e+000 2.712181e+000 6.778013e-001 1.776485e-001 3.029807e-001 3.732546e-001 4.986521e-001 3.818305e-001 4.012656e-001 5.995728e-001 5.029000e-001 5.697946e-001 4.842100e-001 4.630744e-001 4.406913e-001 1.160449e-001
<GCONST> 1.286834e+002
<STATE> 3
<MEAN> 39
 1.011801e+001 1.510728e+000 6.685007e+000 2.573937e+000 -6.094598e+000 -9.067723e+000 -3.989915e+000 2.089798e+000 -3.867727e+000 -6.866890e+000 -8.045240e+000 -9.871656e+000 6.073252e+001 -3.917755e-002 1.570732e+000 1.178886e-002 6.991291e-001 3.335658e-001 -3.124164e-001 -1.290304e-001 -7.774469e-001 1.423500e-001 1.331353e-001 -1.204068e-001 4.500600e-001 -1.388143e+000 -2.446142e-001 -2.360641e-001 7.283604e-002 -2.321226e-001 1.517677e-001 1.200959e-001 3.749452e-003 1.028541e-001 -1.181016e-001 -2.929250e-002 1.552372e-001 -3.479885e-002 1.458708e-001
<VARIANCE> 39
 6.547446e+001 7.536882e+001 7.848960e+001 5.075486e+001 7.039629e+001 9.892200e+001 5.832843e+001 1.295419e+002 6.516541e+001 6.982294e+001 5.664631e+001 5.147880e+001 6.594026e+001 7.645158e-001 1.329870e+000 2.077837e+000 2.026519e+000 2.542365e+000 2.369188e+000 2.858104e+000 3.157659e+000 2.550077e+000 2.706856e+000 2.433400e+000 2.126862e+000 3.974291e-001 9.842493e-002 1.872979e-001 2.933283e-001 3.633976e-001 4.012309e-001 4.049107e-001 5.120298e-001 5.978004e-001 4.448983e-001 4.560395e-001 4.162494e-001 3.979596e-001 6.370024e-002
<GCONST> 1.195625e+002
<STATE> 4
<MEAN> 39
 -1.080355e+000 6.708799e+000 4.486862e+000 1.660424e+000 -4.188593e+000 -6.522017e+000 -7.274078e+000 -8.635074e+000 -1.088770e+001 -1.164942e+001 -9.057666e+000 -7.470402e+000 5.984682e+001 -5.358102e-001 -1.077516e-001 -6.607717e-002 1.975399e-001 5.501963e-001 6.352346e-002 1.559506e-001 2.350328e-001 2.023495e-001 1.962423e-001 1.181209e-001 -7.945344e-002 -6.188569e-001 -1.713503e-001 -2.091825e-001 -8.711289e-004 -2.196389e-001 -6.128958e-005 6.951834e-002 9.748280e-002 1.862016e-001 1.106950e-001 8.259336e-003 1.186039e-001 2.433155e-002 1.647562e-001
<VARIANCE> 39
 4.920082e+001 3.485299e+001 4.226604e+001 3.187020e+001 4.592829e+001 5.029910e+001 4.158115e+001 6.075723e+001 6.518934e+001 6.073036e+001 4.099113e+001 3.832744e+001 8.493689e+001 7.465343e-001 1.145102e+000 1.248270e+000 1.615081e+000 2.017050e+000 2.039771e+000 2.639210e+000 2.438459e+000 2.393221e+000 2.511058e+000 2.364208e+000 2.090695e+000 3.763371e-001 1.915600e-001 2.056134e-001 3.127356e-001 3.834151e-001 3.912123e-001 4.304607e-001 4.758722e-001 4.423763e-001 4.546148e-001 4.798343e-001 4.504396e-001 4.166149e-001 1.043841e-001
<GCONST> 1.140790e+002
<TRANSP> 5
 0.000000e+000 1.000000e+000 0.000000e+000 0.000000e+000 0.000000e+000
 0.000000e+000 4.852583e-001 5.147417e-001 0.000000e+000 0.000000e+000
 0.000000e+000 0.000000e+000 6.471773e-001 3.528227e-001 0.000000e+000
 0.000000e+000 0.000000e+000 0.000000e+000 7.937307e-001 2.062693e-001
 0.000000e+000 0.000000e+000 0.000000e+000 0.000000e+000 0.000000e+000
<ENDHMM>
~h "p"
<BEGINHMM>
<NUMSTATES> 5
<STATE> 2
<MEAN> 39
 -1.162887e+000 -2.432441e+000 7.481223e-001 -3.953008e+000 -8.495190e+000 -7.554353e+000 -2.640869e+000 -2.960842e+000 -3.376576e+000 -3.561378e+000 -3.019583e+000 -4.950325e+000 6.027732e+001 1.572958e+000 -7.672564e-001 1.248459e+000 -2.001616e+000 -3.046848e+000 -1.739857e+000 -1.265693e+000 -1.078694e+000 -1.270549e+000 -3.310282e-001 -4.992201e-001 -1.546864e-001 4.097009e+000 -1.795891e-001 -1.669700e-001 -1.731390e-002 -6.699886e-001 7.055465e-002 4.576778e-001 8.012411e-002 6.376252e-002 8.815784e-002 4.876867e-002 7.505006e-002 6.460266e-002 2.863363e-001
<VARIANCE> 39
 8.790852e+001 6.155841e+001 2.206647e+002 1.264907e+002 1.310136e+002 1.391792e+002 1.067555e+002 9.347976e+001 7.562082e+001 7.701697e+001 7.844244e+001 6.029277e+001 1.650080e+002 5.585166e+000 5.695981e+000 1.579283e+001 1.242553e+001 1.892977e+001 1.160185e+001 8.548800e+000 1.182810e+001 8.693372e+000 7.784921e+000 7.679443e+000 6.673573e+000 1.291886e+001 1.146051e+000 8.533071e-001 1.589675e+000 1.534755e+000 2.316669e+000 2.155990e+000 1.196331e+000 1.561182e+000 1.322591e+000 1.298001e+000 1.581873e+000 1.041712e+000 1.872402e+000
<GCONST> 1.659943e+002
<STATE> 3
<MEAN> 39
 -2.056653e+000 -3.289741e+000 -9.627622e-001 -1.668509e+001 -1.734214e+001 -5.989711e+000 -8.194591e+000 -9.568604e+000 -3.728802e+000 -2.203092e+000 -3.131232e+000 -2.622509e+000 7.556747e+001 -5.608142e-001 -8.192505e-002 7.043877e-001 -1.555742e+000 8.682692e-002 2.212651e-001 -5.037913e-001 -4.104670e-001 3.053000e-001 -6.963052e-002 -2.902317e-001 9.161251e-003 1.532099e+000 -4.026521e-001 2.045701e-001 -1.351884e-001 9.753174e-001 1.124264e+000 2.603302e-001 3.876980e-001 4.839336e-001 1.751873e-001 -2.774411e-001 -2.274750e-002 -1.902464e-001 -1.085438e+000
<VARIANCE> 39
 7.546150e+001 6.478763e+001 3.024739e+002 8.782247e+001 1.662572e+002 1.278590e+002 9.514402e+001 1.299871e+002 7.750818e+001 1.117140e+002 9.779877e+001 6.258103e+001 6.888276e+001 1.942966e+000 2.625692e+000 4.266109e+000 8.659970e+000 9.664468e+000 6.606552e+000 3.957511e+000 4.180055e+000 4.466036e+000 4.469245e+000 5.072021e+000 2.798117e+000 7.674107e+000 4.117201e-001 4.468332e-001 1.135889e+000 9.400914e-001 1.899080e+000 1.093955e+000 7.721217e-001 1.130983e+000 8.294349e-001 9.702076e-001 7.296428e-001 6.079200e-001 6.555687e-001
<GCONST> 1.491662e+002
<STATE> 4
<MEAN> 39
 -8.153747e+000 9.557635e-001 -2.802849e+000 -1.319236e+001 -1.014469e+001 -6.886765e+000 -7.927832e+000 -9.166872e+000 -2.785299e+000 -8.817132e+000 -4.275220e+000 -3.592391e+000 7.177509e+001 -3.545171e-001 9.179936e-002 3.510688e-001 7.933688e-001 5.057598e-001 1.173168e-001 2.579797e-001 3.606789e-001 -1.558566e-001 -1.981113e-001 -6.225888e-002 -1.979961e-001 -1.142865e+000 7.732633e-002 -6.270442e-002 -1.007589e-001 1.632155e-001 -4.300064e-002 -2.324035e-002 4.053822e-002 4.713072e-002 -5.275019e-002 1.380534e-001 7.732937e-002 3.290215e-002 -1.812087e-001
<VARIANCE> 39
 5.268854e+001 6.555151e+001 1.067511e+002 8.269658e+001 9.635871e+001 7.395071e+001 5.028818e+001 6.157187e+001 4.849644e+001 1.042392e+002 5.922203e+001 3.398620e+001 1.001557e+002 1.053349e+000 2.160220e+000 1.755502e+000 3.132898e+000 3.555411e+000 2.608139e+000 3.010511e+000 2.541468e+000 2.870842e+000 4.177484e+000 3.195450e+000 2.036979e+000 2.241210e+000 1.933742e-001 3.477460e-001 2.919989e-001 5.140805e-001 5.168653e-001 5.409577e-001 4.801482e-001 4.839393e-001 5.570163e-001 6.520792e-001 5.644127e-001 3.807088e-001 3.616603e-001
<GCONST> 1.276180e+002
<TRANSP> 5
 0.000000e+000 1.000000e+000 0.000000e+000 0.000000e+000 0.000000e+000
 0.000000e+000 5.946190e-001 4.053810e-001 0.000000e+000 0.000000e+000
 0.000000e+000 0.000000e+000 5.250811e-001 4.749189e-001 0.000000e+000
 0.000000e+000 0.000000e+000 0.000000e+000 7.842166e-001 2.157834e-001
 0.000000e+000 0.000000e+000 0.000000e+000 0.000000e+000 0.000000e+000
<ENDHMM>
~h "r"
<BEGINHMM>
<NUMSTATES> 5
<STATE> 2
<MEAN> 39
 6.696025e+000 -9.594026e+000 2.667502e+000 -4.515059e-001 -1.123115e+001 -1.290126e+001 -1.002147e+001 1.946461e+000 -5.409575e+000 -6.068679e+000 -2.831431e+000 -8.323088e+000 7.079602e+001 -3.057254e-001 -9.951609e-001 1.479370e+000 -8.311166e-001 -1.024083e+000 9.842835e-002 -4.033667e-002 1.269561e+000 -5.704921e-001 -3.157265e-001 3.180458e-001 -2.726339e-001 1.177326e+000 -3.714553e-001 2.616614e-001 1.775002e-001 -2.868426e-001 3.608889e-001 3.444480e-001 2.129230e-001 -1.005300e-001 -9.102447e-002 1.832719e-002 9.968453e-002 1.112466e-002 -2.134397e-001
<VARIANCE> 39
 6.784187e+001 1.198820e+002 1.850472e+002 9.993040e+001 1.145736e+002 1.154409e+002 1.028046e+002 1.578121e+002 1.038990e+002 9.275603e+001 6.961352e+001 8.506200e+001 9.201109e+001 3.726704e+000 5.431419e+000 6.520372e+000 7.118503e+000 4.965489e+000 6.099516e+000 6.867836e+000 7.506451e+000 6.729637e+000 6.533152e+000 5.375052e+000 4.400506e+000 2.881480e+000 5.149611e-001 7.939188e-001 8.209956e-001 1.091902e+000 8.908454e-001 1.036984e+000 1.149413e+000 1.334028e+000 1.190447e+000 1.094708e+000 9.126763e-001 8.321015e-001 3.576205e-001
<GCONST> 1.525815e+002
<STATE> 3
<MEAN> 39
 1.059543e+000 -1.060967e+001 5.720861e+000 -4.540440e+000 -1.799180e+001 -1.005824e+001 -8.389935e+000 2.416539e+000 -4.129458e+000 -8.215044e+000 -1.525178e+000 -6.551242e+000 7.517235e+001 -5.799963e-001 6.702211e-001 1.353757e+000 -1.037937e+000 -1.028089e-001 5.286896e-001 4.221677e-001 -4.237115e-001 -5.763555e-001 2.779796e-001 3.110924e-001 -8.614543e-002 -5.631933e-002 -6.668711e-002 3.474305e-001 -1.048101e-001 1.124026e-001 3.176286e-001 -4.551810e-002 -6.788225e-002 -1.940662e-001 1.594715e-001 1.402943e-001 -2.198659e-001 3.041595e-002 -1.865139e-001
<VARIANCE> 39
 4.568055e+001 7.715881e+001 1.995947e+002 6.987086e+001 1.102536e+002 1.188108e+002 9.643278e+001 1.334008e+002 9.267238e+001 1.096180e+002 7.835867e+001 9.349167e+001 5.536604e+001 7.205974e-001 1.497512e+000 1.830182e+000 2.715293e+000 2.783236e+000 3.719736e+000 3.073307e+000 3.582148e+000 3.033480e+000 3.357305e+000 3.128490e+000 2.941089e+000 5.722026e-001 1.592379e-001 1.935873e-001 3.025935e-001 3.805569e-001 4.579813e-001 4.456531e-001 5.558786e-001 6.009997e-001 5.895957e-001 5.388201e-001 5.602437e-001 4.843748e-001 8.458577e-002
<GCONST> 1.276194e+002
<STATE> 4
<MEAN> 39
 5.471653e-003 -4.060802e+000 1.922172e+001 -7.360652e+000 -1.339773e+001 -1.470663e+001 -9.449917e+000 3.389168e+000 -1.143445e+001 -8.736670e+000 1.863297e-001 -9.293564e+000 7.040859e+001 3.975383e-002 1.392156e+000 1.948896e-001 1.187305e-001 2.916550e-001 4.465726e-001 -1.650376e-001 -8.966433e-001 7.572494e-002 3.407476e-002 -1.753663e-001 4.246370e-001 -1.185714e+000 6.768081e-002 -4.255572e-002 -2.740721e-001 2.085551e-001 5.970503e-002 -1.384324e-002 -7.184406e-002 -1.095380e-002 7.358433e-002 -6.345538e-002 -3.347729e-002 -2.344712e-003 -1.208920e-001
<VARIANCE> 39
 6.934018e+001 8.385825e+001 2.659557e+002 1.412118e+002 1.111435e+002 9.225916e+001 1.110800e+002 1.735675e+002 1.074983e+002 8.767505e+001 5.683788e+001 7.734662e+001 9.825269e+001 7.620659e-001 1.206404e+000 2.485651e+000 2.106727e+000 2.739907e+000 2.552304e+000 2.504372e+000 3.413468e+000 2.500638e+000 2.525896e+000 2.347761e+000 2.102951e+000 7.903072e-001 1.022865e-001 1.692576e-001 2.973022e-001 3.878427e-001 4.389327e-001 3.992205e-001 4.850139e-001 5.341396e-001 4.493390e-001 4.497917e-001 4.205706e-001 3.800367e-001 7.025434e-002
<GCONST> 1.255782e+002
<TRANSP> 5
 0.000000e+000 1.000000e+000 0.000000e+000 0.000000e+000 0.000000e+000
 0.000000e+000 6.207364e-001 3.792637e-001 0.000000e+000 0.000000e+000
 0.000000e+000 0.000000e+000 7.101246e-001 2.898754e-001 0.000000e+000
 0.000000e+000 0.000000e+000 0.000000e+000 7.415370e-001 2.584631e-001
 0.000000e+000 0.000000e+000 0.000000e+000 0.000000e+000 0.000000e+000
<ENDHMM>
~h "s"
<BEGINHMM>
<NUMSTATES> 5
<STATE> 2
<MEAN> 39
 -7.705038e+000 4.857425e+000 -5.710536e-001 -8.839851e+000 5.160254e+000 -1.515700e+001 -1.424693e+000 -3.255434e+000 -1.426692e+000 -4.725050e+000 -2.565737e-001 -9.649247e+000 6.253752e+001 -3.638983e+000 2.397791e+000 -8.622493e-001 -6.227979e-001 2.820008e+000 -1.839433e+000 1.990430e+000 -3.598227e-001 7.660143e-001 -4.641406e-001 4.083325e-001 -2.536817e-001 6.379527e-001 -2.185698e-001 -9.068117e-002 3.980871e-002 -1.081255e-001 -1.412803e-001 3.771559e-001 -1.410341e-002 2.059456e-002 1.967906e-003 -1.150681e-002 2.137580e-002 -2.179037e-002 1.001901e-001
<VARIANCE> 39
 1.537945e+002 9.857153e+001 1.478116e+002 1.391985e+002 2.436518e+002 2.470167e+002 1.506292e+002 1.372195e+002 1.139632e+002 1.194735e+002 8.860038e+001 9.779533e+001 1.275143e+002 4.182465e+000 3.745402e+000 5.509211e+000 5.228341e+000 7.010765e+000 8.922210e+000 6.034045e+000 7.811215e+000 6.372271e+000 5.953754e+000 4.018665e+000 3.902491e+000 3.089763e+000 1.037827e+000 7.355443e-001 6.975763e-001 8.398904e-001 1.440930e+000 1.578653e+000 1.281745e+000 1.309986e+000 1.028093e+000 1.010091e+000 7.429333e-001 6.829169e-001 4.207250e-001
<GCONST> 1.562577e+002
<STATE> 3
<MEAN> 39
 -2.524908e+001 1.202294e+001 -4.744119e+000 -7.865710e+000 9.024769e+000 -1.086009e+001 2.154777e+000 -2.869072e+000 -4.851736e-001 -5.855486e+000 4.985416e-001 -6.774183e+000 6.593739e+001 -5.129665e-001 1.091266e-001 9.359663e-002 1.138560e-001 4.044356e-001 3.729088e-001 1.736433e-001 4.033166e-002 2.540241e-001 1.418087e-001 1.043400e-001 1.360918e-001 -6.595164e-001 3.967539e-001 -1.863828e-001 4.999717e-002 4.706186e-002 -2.097387e-001 -4.460485e-002 -1.169350e-001 -4.738763e-002 -3.473141e-002 1.644115e-002 -5.650182e-002 -7.172362e-003 -1.003541e-001
<VARIANCE> 39
 3.834977e+001 4.409259e+001 9.197800e+001 1.319388e+002 2.024280e+002 1.328412e+002 1.025717e+002 5.461152e+001 8.465368e+001 5.913350e+001 6.138193e+001 8.043981e+001 6.592694e+001 2.163732e+000 1.659579e+000 1.654485e+000 1.888948e+000 2.390088e+000 2.391201e+000 2.594980e+000 2.585472e+000 2.452210e+000 2.258831e+000 2.120030e+000 1.996512e+000 1.077343e+000 2.420101e-001 2.467263e-001 2.637495e-001 3.321351e-001 4.097268e-001 4.657137e-001 5.029678e-001 4.484209e-001 4.619883e-001 4.336942e-001 3.936436e-001 3.836164e-001 1.309410e-001
<GCONST> 1.239197e+002
<STATE> 4
<MEAN> 39
 -1.781501e+001 8.640009e+000 -5.081822e-001 -8.402029e+000 9.428347e+000 -1.517034e+001 2.470743e+000 -4.051991e+000 1.323849e+000 -4.720038e+000 3.871603e-001 -8.233632e+000 5.926031e+001 2.340654e+000 -9.870830e-001 -2.456198e-001 -1.973144e-001 -1.049022e+000 2.386917e-002 -1.940185e-001 -2.052701e-001 -1.831678e-001 -3.378880e-002 -4.257745e-001 -3.310924e-001 3.387241e-001 3.270287e-001 -2.134648e-001 -2.009599e-002 -8.482026e-002 -2.371647e-001 1.762414e-001 -1.128334e-001 -3.820120e-003 -1.263788e-001 -1.547139e-002 -6.850509e-002 -2.488533e-002 3.651762e-001
<VARIANCE> 39
 9.253285e+001 9.170224e+001 1.019554e+002 1.122366e+002 2.267085e+002 1.555720e+002 1.425417e+002 1.122622e+002 1.133371e+002 8.728904e+001 7.426286e+001 7.337131e+001 1.870771e+002 8.059620e+000 5.657347e+000 3.976183e+000 6.109664e+000 7.082042e+000 8.716215e+000 6.050566e+000 7.022223e+000 6.382973e+000 4.797674e+000 4.906047e+000 4.046684e+000 4.764450e+000 1.450390e+000 9.567972e-001 6.730868e-001 8.411018e-001 1.447722e+000 1.365154e+000 1.040621e+000 1.229665e+000 1.045799e+000 8.019399e-001 9.155160e-001 7.428778e-001 6.792321e-001
<GCONST> 1.558456e+002
<TRANSP> 5
 0.000000e+000 1.000000e+000 0.000000e+000 0.000000e+000 0.000000e+000
 0.000000e+000 7.182217e-001 2.817783e-001 0.000000e+000 0.000000e+000
 0.000000e+000 0.000000e+000 8.803777e-001 1.196223e-001 0.000000e+000
 0.000000e+000 0.000000e+000 0.000000e+000 7.352730e-001 2.647270e-001
 0.000000e+000 0.000000e+000 0.000000e+000 0.000000e+000 0.000000e+000
<ENDHMM>
~h "t"
<BEGINHMM>
<NUMSTATES> 5
<STATE> 2
<MEAN> 39
 -4.293904e+000 -1.957516e+000 -2.962021e+000 -8.735293e+000 1.171724e+000 -8.036880e+000 -2.378070e+000 -1.044952e+000 8.989140e-001 -1.836391e+000 -2.361632e+000 -8.459911e+000 5.971206e+001 4.367857e-001 -5.909381e-001 -2.751277e-001 -1.157784e+000 -7.239830e-001 -4.950354e-001 -7.170188e-001 -1.271465e-001 -4.926253e-001 -3.428334e-001 -5.341741e-001 -6.934074e-001 3.241554e+000 2.242644e-001 -2.712136e-003 1.087093e-001 -3.762800e-002 -2.977096e-001 1.341209e-001 -1.209598e-001 -1.093271e-001 -2.529331e-001 -1.581849e-001 1.400670e-001 2.552895e-002 2.290455e-001
<VARIANCE> 39
 1.535151e+002 8.809477e+001 1.072039e+002 1.211328e+002 1.186919e+002 1.436776e+002 1.634129e+002 1.444734e+002 1.025845e+002 9.412203e+001 1.225304e+002 1.186583e+002 1.691397e+002 1.157280e+001 8.166176e+000 8.734596e+000 1.005422e+001 1.186195e+001 1.163853e+001 1.105699e+001 1.202278e+001 1.095076e+001 7.980611e+000 9.441751e+000 8.954634e+000 1.026966e+001 1.604566e+000 1.162578e+000 1.223377e+000 1.857670e+000 1.705881e+000 1.784993e+000 1.965522e+000 2.008596e+000 1.710822e+000 1.486977e+000 1.803322e+000 1.502503e+000 1.541153e+000
<GCONST> 1.707377e+002
<STATE> 3
<MEAN> 39
 -9.899166e+000 6.073951e-001 -3.587385e+000 -9.156189e+000 -8.585836e+000 -1.013380e+001 -5.752213e+000 -4.755190e+000 -3.770051e+000 -7.729716e+000 -2.340954e+000 -3.341182e+000 7.282184e+001 1.599469e+000 3.296172e-002 1.609022e-001 -1.042223e+000 -1.791745e+000 -7.715377e-001 -8.433383e-001 -4.246514e-001 -5.708786e-001 -1.540473e+000 -2.739716e-001 2.840114e-002 1.636627e+000 2.944176e-001 -1.721807e-001 4.467564e-003 1.153494e-001 5.036151e-001 4.593969e-001 1.947343e-001 6.947917e-002 1.270546e-001 4.282863e-002 -1.106000e-001 -9.345113e-002 -5.910974e-001
<VARIANCE> 39
 1.705844e+002 7.556390e+001 9.817293e+001 6.640595e+001 1.015998e+002 1.014967e+002 1.025629e+002 1.163280e+002 7.712928e+001 1.083398e+002 6.640128e+001 9.269671e+001 8.704542e+001 6.377329e+000 3.552699e+000 4.670513e+000 4.874107e+000 7.923043e+000 7.309183e+000 8.792273e+000 6.756359e+000 5.832479e+000 7.341661e+000 6.177215e+000 3.906667e+000 3.474963e+000 1.261335e+000 6.322057e-001 7.398691e-001 8.490868e-001 1.327728e+000 1.304064e+000 1.197412e+000 1.169829e+000 1.156759e+000 1.180705e+000 1.095900e+000 8.142458e-001 6.590092e-001
<GCONST> 1.533247e+002
<STATE> 4
<MEAN> 39
 -8.740378e-001 -4.040216e+000 -4.957660e+000 -1.468483e+001 -6.175236e+000 -6.022224e+000 -4.689057e+000 -4.530917e+000 -3.857910e+000 -8.052102e+000 -3.100849e+000 -6.489512e+000 7.473103e+001 8.906525e-001 -2.631840e-001 -5.389830e-002 -4.219119e-002 4.415854e-001 7.006739e-001 -1.746094e-001 -5.720512e-002 -1.268265e-001 -1.427847e-001 3.594429e-002 -4.589461e-002 1.367533e-002 -2.400084e-001 1.188168e-001 2.323738e-002 3.976681e-001 3.484274e-001 1.546581e-001 1.846322e-001 4.738262e-002 5.163533e-002 2.950444e-001 1.053258e-001 -1.317204e-002 -4.790649e-001
<VARIANCE> 39
 1.323027e+002 8.905499e+001 1.079555e+002 9.368567e+001 1.116494e+002 1.665436e+002 1.158085e+002 1.278570e+002 7.763650e+001 1.839045e+002 7.302513e+001 1.127320e+002 1.144051e+002 2.623223e+000 2.808012e+000 2.716189e+000 3.705102e+000 4.535505e+000 4.656434e+000 5.099463e+000 4.243034e+000 4.041327e+000 3.693721e+000 3.812021e+000 3.282103e+000 2.627834e+000 6.177595e-001 4.629508e-001 5.373948e-001 6.927796e-001 1.014448e+000 8.363202e-001 9.780143e-001 9.567480e-001 8.025080e-001 8.452406e-001 6.431044e-001 5.984693e-001 4.126587e-001
<GCONST> 1.449563e+002
<TRANSP> 5
 0.000000e+000 1.000000e+000 0.000000e+000 0.000000e+000 0.000000e+000
 0.000000e+000 6.127893e-001 3.872107e-001 0.000000e+000 0.000000e+000
 0.000000e+000 0.000000e+000 4.908326e-001 5.091674e-001 0.000000e+000
 0.000000e+000 0.000000e+000 0.000000e+000 5.144598e-001 4.855402e-001
 0.000000e+000 0.000000e+000 0.000000e+000 0.000000e+000 0.000000e+000
<ENDHMM>
~h "v"
<BEGINHMM>
<NUMSTATES> 5
<STATE> 2
<MEAN> 39
 3.648010e+000 -2.976909e+000 -8.786011e+000 -1.838429e+001 -1.762877e+000 2.352033e+000 1.633245e-001 -4.685026e+000 -3.921134e+000 -2.888494e+000 -7.058740e-001 -7.650884e+000 6.242571e+001 -1.363773e+000 -3.478777e-002 -4.116492e-001 1.183919e+000 4.823831e-001 -5.405893e-001 1.195469e+000 7.185534e-001 1.219808e+000 -1.308099e-001 8.018866e-002 1.105282e-001 -1.103181e+000 -2.522103e-001 -1.985438e-001 8.031965e-003 -3.981461e-002 8.092646e-002 -5.661283e-002 -4.491125e-002 1.648463e-001 9.099365e-002 4.044526e-002 7.205693e-002 -7.039497e-003 1.286893e-001
<VARIANCE> 39
 8.581551e+001 6.085114e+001 1.439192e+002 2.107226e+002 6.897015e+001 1.239146e+002 9.937534e+001 6.299715e+001 7.224224e+001 5.379745e+001 6.212469e+001 5.395010e+001 6.734895e+001 1.812611e+000 1.666749e+000 2.900990e+000 3.096387e+000 3.650628e+000 3.823412e+000 3.583578e+000 5.035245e+000 4.732840e+000 3.440361e+000 3.219502e+000 2.221246e+000 5.995433e-001 2.331543e-001 1.665981e-001 3.605076e-001 5.170147e-001 5.237061e-001 5.659853e-001 6.406052e-001 8.005226e-001 8.126172e-001 6.357780e-001 5.196994e-001 4.159462e-001 8.357559e-002
<GCONST> 1.305347e+002
<STATE> 3
<MEAN> 39
 -7.011303e+000 -6.585756e+000 3.856052e-001 6.859563e-001 2.316378e-001 -3.146582e+000 9.338667e+000 6.817479e+000 5.599197e+000 3.631934e+000 1.270797e+000 -6.232289e+000 5.629596e+001 -1.183281e+000 -6.283222e-001 -5.389788e-001 5.160848e-001 1.181026e+000 7.053489e-001 1.114220e+000 1.241230e+000 8.016654e-001 7.082314e-002 -9.989459e-002 1.305827e-001 -4.711798e-001 4.799272e-001 1.245056e-002 2.224040e-001 -1.395427e-001 -5.471871e-001 -3.170538e-001 -3.023404e-001 -4.480885e-001 -6.452659e-001 -1.219885e-001 -5.806116e-002 -1.932887e-001 2.260302e-001
<VARIANCE> 39
 3.742119e+001 3.680542e+001 6.865327e+001 7.422608e+001 5.092052e+001 7.061679e+001 8.277614e+001 8.146392e+001 5.130634e+001 6.232158e+001 3.990099e+001 3.082343e+001 5.344328e+001 1.595082e+000 8.959641e-001 1.949672e+000 1.366710e+000 2.692633e+000 3.028478e+000 3.098589e+000 3.859593e+000 4.139823e+000 2.812058e+000 1.998494e+000 1.929941e+000 5.147263e-001 2.876454e-001 1.943108e-001 2.683467e-001 3.431042e-001 6.776460e-001 7.884087e-001 6.802183e-001 7.655637e-001 7.231913e-001 6.015136e-001 4.236926e-001 3.369148e-001 1.352624e-001
<GCONST> 1.213376e+002
<STATE> 4
<MEAN> 39
 -6.618633e+000 -4.679883e+000 -5.573909e+000 -1.209795e+001 3.028773e+000 1.174881e+000 8.317137e+000 2.783010e+000 2.234949e+000 -1.588372e+000 2.370000e+000 -8.677290e+000 5.150299e+001 -1.851143e-002 3.550933e-001 6.391715e-001 8.567663e-001 -1.256136e-001 -3.346446e-001 -3.078031e-001 -2.387856e-001 -4.490535e-001 -8.904500e-003 -2.700552e-001 1.810382e-001 -6.972465e-001 2.871539e-001 6.277102e-002 8.523774e-002 -2.722378e-002 -2.673073e-001 -1.098520e-001 -1.695365e-001 -1.389675e-001 -1.377484e-001 1.294548e-003 -1.281315e-002 4.379557e-002 8.628982e-002
<VARIANCE> 39
 5.071670e+001 5.564857e+001 7.722684e+001 1.338884e+002 7.594313e+001 1.035710e+002 1.224233e+002 1.390970e+002 6.332261e+001 6.921207e+001 7.185070e+001 5.842762e+001 1.512632e+002 2.469913e+000 1.635444e+000 1.880844e+000 3.216153e+000 4.170845e+000 4.409213e+000 3.775534e+000 4.909445e+000 4.139441e+000 3.646483e+000 3.161172e+000 3.256227e+000 1.570457e+000 2.573682e-001 2.476874e-001 3.599107e-001 6.133333e-001 8.414117e-001 8.946164e-001 7.246668e-001 8.504534e-001 7.485483e-001 6.422864e-001 5.901871e-001 5.798609e-001 1.613751e-001
<GCONST> 1.351904e+002
<TRANSP> 5
 0.000000e+000 1.000000e+000 0.000000e+000 0.000000e+000 0.000000e+000
 0.000000e+000 7.270300e-001 2.729700e-001 0.000000e+000 0.000000e+000
 0.000000e+000 0.000000e+000 6.726279e-001 3.273721e-001 0.000000e+000
 0.000000e+000 0.000000e+000 0.000000e+000 7.163203e-001 2.836798e-001
 0.000000e+000 0.000000e+000 0.000000e+000 0.000000e+000 0.000000e+000
<ENDHMM>
~h "w"
<BEGINHMM>
<NUMSTATES> 5
<STATE> 2
<MEAN> 39
 4.002099e+000 5.034476e+000 -1.370883e+001 -1.298269e+001 -8.837988e+000 9.752183e-001 -1.145211e+001 -7.852096e+000 -6.595096e+000 -4.373785e+000 -6.675956e+000 -3.540274e+000 7.011981e+001 -3.131494e-001 -1.267212e+000 -7.996637e-001 -3.480674e-001 1.053538e+000 4.702545e-001 -8.095447e-002 4.572404e-001 1.299347e+000 -4.262865e-001 -1.309503e+000 5.494453e-002 1.225761e+000 -2.613380e-001 -3.112891e-001 2.284985e-001 2.246630e-001 9.674922e-002 -2.255873e-001 3.185246e-001 1.962465e-001 1.374692e-001 -2.496804e-001 2.092261e-002 9.840214e-002 8.287369e-002
<VARIANCE> 39
 3.282757e+001 5.035381e+001 1.218473e+002 6.140019e+001 6.993113e+001 1.149880e+002 9.358936e+001 8.954605e+001 7.785157e+001 6.887387e+001 8.003587e+001 4.987776e+001 6.982517e+001 1.439516e+000 2.226708e+000 3.771456e+000 3.950040e+000 6.714832e+000 6.368908e+000 5.355998e+000 4.100067e+000 4.797678e+000 4.994194e+000 4.271373e+000 3.997899e+000 7.525009e-001 1.651221e-001 3.352001e-001 5.275502e-001 5.416221e-001 1.000843e+000 8.658117e-001 9.330767e-001 7.268102e-001 9.044350e-001 9.314597e-001 9.622198e-001 7.006263e-001 1.269076e-001
<GCONST> 1.362912e+002
<STATE> 3
<MEAN> 39
 -4.559299e+000 -6.963020e+000 -9.940115e+000 -1.167842e+001 3.276857e+000 -6.146296e+000 -4.296449e+000 -5.851081e+000 -2.883727e+000 -1.613709e+001 -1.413095e+001 1.119923e+000 7.879919e+001 -4.710534e-001 -1.598553e-001 7.832290e-001 2.416223e-001 -8.447141e-001 -2.825717e-001 1.137898e+000 7.190565e-001 -3.424033e-001 -1.056887e+000 6.671129e-001 3.681655e-001 3.660120e-001 5.780088e-002 1.505004e-001 8.811667e-002 -6.785626e-002 -3.009332e-001 2.233221e-001 -6.131609e-002 -6.557229e-002 -2.099748e-001 3.923566e-001 3.084527e-001 -1.785433e-001 -1.160067e-001
<VARIANCE> 39
 7.574751e+001 6.014161e+001 9.260108e+001 5.828096e+001 1.205688e+002 5.592555e+001 7.002220e+001 6.011351e+001 7.569649e+001 8.270079e+001 6.740866e+001 4.686701e+001 9.375172e+001 7.554116e-001 1.394818e+000 1.910909e+000 2.676710e+000 4.861970e+000 2.463209e+000 2.862959e+000 2.172845e+000 2.253653e+000 3.144805e+000 2.667581e+000 2.541394e+000 7.715732e-001 1.124826e-001 2.169981e-001 1.777178e-001 2.676840e-001 4.175797e-001 4.204557e-001 5.244927e-001 4.422124e-001 3.796610e-001 4.400578e-001 4.771923e-001 4.332104e-001 7.905701e-002
<GCONST> 1.209424e+002
<STATE> 4
<MEAN> 39
 1.123178e+001 1.659427e+000 -5.276050e+000 -1.635489e+001 -1.118902e+001 1.471588e-001 3.233348e+000 1.987715e+000 -6.207621e+000 -8.444177e+000 -3.325546e+000 -6.389970e+000 6.702605e+001 -1.201831e+000 -2.069816e+000 3.622781e-001 -1.094854e+000 -5.106339e-001 1.554081e+000 9.087405e-001 4.961395e-001 -3.445936e-001 1.065586e+000 1.351463e+000 -7.020963e-001 2.313946e+000 -2.893251e-001 -2.528828e-001 1.186268e-001 5.426973e-001 5.782622e-001 3.776829e-003 -2.804118e-001 -3.887667e-001 1.137651e-004 2.040935e-001 1.839234e-002 -2.333267e-001 1.599293e-002
<VARIANCE> 39
 1.055043e+002 7.957710e+001 1.188676e+002 1.565230e+002 4.754044e+001 1.560286e+002 6.575023e+001 6.684964e+001 4.608325e+001 5.943794e+001 6.288595e+001 5.690719e+001 9.694722e+001 4.432056e+000 5.086236e+000 4.544591e+000 8.387259e+000 6.509974e+000 6.632195e+000 4.974767e+000 5.408146e+000 4.174570e+000 3.381178e+000 3.277504e+000 3.995220e+000 4.105632e+000 4.950602e-001 5.955191e-001 5.145913e-001 1.398644e+000 7.020553e-001 1.429273e+000 8.371481e-001 7.165571e-001 7.319320e-001 5.865766e-001 7.251735e-001 6.904732e-001 3.471255e-001
<GCONST> 1.443083e+002
<TRANSP> 5
 0.000000e+000 1.000000e+000 0.000000e+000 0.000000e+000 0.000000e+000
 0.000000e+000 7.276956e-001 2.723044e-001 0.000000e+000 0.000000e+000
 0.000000e+000 0.000000e+000 7.578527e-001 2.421474e-001 0.000000e+000
 0.000000e+000 0.000000e+000 0.000000e+000 6.482759e-001 3.517241e-001
 0.000000e+000 0.000000e+000 0.000000e+000 0.000000e+000 0.000000e+000
<ENDHMM>
~h "z"
<BEGINHMM>
<NUMSTATES> 5
<STATE> 2
<MEAN> 39
 -1.351686e+000 2.480352e+000 -6.231656e+000 -1.489953e+001 -4.943724e+000 5.508836e-001 -8.637983e-001 -6.006372e+000 -5.675537e+000 -4.769261e+000 -1.562905e+000 -4.153198e+000 6.186462e+001 -1.787948e+000 3.622791e-001 6.051093e-001 4.856139e-001 9.395460e-001 -3.281995e-001 6.946426e-001 2.908429e-001 4.413629e-001 7.325593e-002 -1.476795e-002 -2.534514e-001 -4.725994e-001 -5.253291e-001 1.487465e-001 3.057252e-002 -1.714207e-001 3.385100e-001 -1.443092e-001 1.609779e-002 4.566202e-002 1.724021e-001 -8.168142e-002 1.081565e-001 4.453953e-002 3.813537e-001
<VARIANCE> 39
 1.151403e+002 5.168100e+001 1.053997e+002 1.799322e+002 6.831210e+001 1.319966e+002 1.259989e+002 7.144472e+001 5.624162e+001 4.094556e+001 3.434522e+001 4.490482e+001 5.590194e+001 5.195543e+000 2.345354e+000 4.403512e+000 3.916101e+000 5.811459e+000 4.467584e+000 6.670579e+000 4.579115e+000 4.740571e+000 4.146257e+000 4.182764e+000 3.921133e+000 3.649742e+000 5.279821e-001 3.503667e-001 5.289313e-001 4.128827e-001 6.563853e-001 7.113410e-001 8.878778e-001 8.308639e-001 7.248469e-001 6.844095e-001 7.176820e-001 6.437575e-001 3.181946e-001
<GCONST> 1.397383e+002
<STATE> 3
<MEAN> 39
 -2.159896e+001 1.124823e+001 -1.225527e+000 -1.750311e+001 1.019981e+001 -1.117444e+001 8.314088e+000 -4.329569e+000 4.311057e-001 -7.022472e+000 2.684102e+000 -8.074708e+000 6.059534e+001 -1.291409e+000 5.087095e-001 -3.342725e-001 7.653595e-001 1.236720e+000 -4.314964e-001 5.237181e-001 2.693048e-001 4.313456e-001 2.345574e-001 3.397314e-001 1.661452e-001 -3.039885e-001 4.396160e-001 -1.559466e-001 -7.132967e-002 1.674108e-001 -3.085305e-001 1.283930e-001 -3.610411e-002 -7.032809e-002 -7.575997e-002 7.049743e-002 -9.018922e-002 4.114354e-002 -2.260738e-001
<VARIANCE> 39
 5.762397e+001 1.073767e+002 1.315944e+002 2.083943e+002 1.500072e+002 1.877065e+002 2.783235e+002 1.317928e+002 1.437484e+002 8.851102e+001 9.849615e+001 6.711828e+001 6.268391e+001 5.337727e+000 3.170588e+000 3.100188e+000 3.828011e+000 5.459278e+000 5.650779e+000 5.781547e+000 5.823157e+000 4.400058e+000 4.496685e+000 3.926436e+000 2.080924e+000 2.142273e+000 3.476264e-001 3.773482e-001 5.225185e-001 6.357158e-001 6.866950e-001 7.329427e-001 1.030280e+000 1.052763e+000 8.307812e-001 7.766801e-001 7.923684e-001 4.665949e-001 2.000265e-001
<GCONST> 1.450824e+002
<STATE> 4
<MEAN> 39
 -2.515321e+001 1.241010e+001 -7.764640e+000 -3.732080e-001 3.284226e+000 -5.320124e+000 1.308133e+000 -4.701472e+000 -6.918210e-001 -5.306112e+000 -5.895326e-001 -8.433362e-001 6.468891e+001 1.853038e-001 -2.458075e-001 2.271111e-002 1.420681e-001 7.304902e-003 7.702972e-002 1.336845e-001 1.305390e-001 7.538571e-002 1.196889e-001 -1.564164e-002 6.768640e-002 -4.714629e-001 1.118892e-001 -5.498096e-002 7.686582e-002 -6.144622e-002 -3.603090e-002 1.758250e-002 -3.471318e-002 3.261781e-003 1.887874e-003 -1.150705e-003 7.199854e-003 -1.539840e-003 -1.766629e-002
<VARIANCE> 39
 2.188276e+001 3.413706e+001 3.407760e+001 5.364217e+001 1.220432e+002 8.032555e+001 1.546027e+002 2.974012e+001 3.042622e+001 5.026656e+001 3.363411e+001 2.173726e+001 5.284830e+001 8.833731e-001 8.097673e-001 1.077695e+000 1.329113e+000 1.603599e+000 1.801292e+000 1.711649e+000 2.000790e+000 2.016476e+000 1.675523e+000 1.804057e+000 1.510875e+000 5.010995e-001 9.889526e-002 1.343627e-001 1.738130e-001 2.247393e-001 2.914155e-001 3.422230e-001 3.600846e-001 3.389785e-001 4.069153e-001 3.349200e-001 3.731441e-001 2.867617e-001 4.399499e-002
<GCONST> 1.058444e+002
<TRANSP> 5
 0.000000e+000 1.000000e+000 0.000000e+000 0.000000e+000 0.000000e+000
 0.000000e+000 7.959163e-001 2.040837e-001 0.000000e+000 0.000000e+000
 0.000000e+000 0.000000e+000 8.489076e-001 1.510923e-001 0.000000e+000
 0.000000e+000 0.000000e+000 0.000000e+000 9.113408e-001 8.865924e-002
 0.000000e+000 0.000000e+000 0.000000e+000 0.000000e+000 0.000000e+000
<ENDHMM>
~h "aa"
<BEGINHMM>
<NUMSTATES> 5
<STATE> 2
<MEAN> 39
 -6.812730e-001 -3.914615e+000 -2.073918e+000 -1.415402e+001 -3.033013e+000 -1.663688e+000 5.075952e+000 -2.943064e+000 -4.802865e+000 -1.937036e+000 -2.600205e+000 -1.168862e+001 6.439126e+001 1.357535e+000 -1.483113e+000 -1.087438e+000 -2.118667e+000 -2.966833e-001 1.896356e+000 -2.677169e-001 6.308053e-001 -5.272709e-001 -1.512370e-001 -2.237398e-001 -8.723338e-001 2.732046e+000 -1.200294e-001 -4.327266e-002 1.181646e-001 1.405910e-001 1.056557e-001 -5.519194e-002 -1.972575e-001 1.282487e-001 4.467201e-002 -1.686927e-002 7.625746e-002 1.214733e-001 1.350280e-001
<VARIANCE> 39
 1.450129e+002 1.083441e+002 1.391207e+002 2.300908e+002 8.906214e+001 1.786986e+002 1.837511e+002 1.378654e+002 1.058993e+002 1.071346e+002 5.695729e+001 9.315914e+001 2.542509e+002 1.112059e+001 7.507006e+000 1.078579e+001 1.916476e+001 8.376418e+000 1.079714e+001 1.428245e+001 1.150830e+001 9.545081e+000 7.246974e+000 4.869631e+000 5.422258e+000 1.171616e+001 1.879360e+000 1.427141e+000 1.881435e+000 3.784007e+000 1.308056e+000 2.066453e+000 2.626462e+000 2.185104e+000 1.772901e+000 1.463264e+000 7.983919e-001 9.744576e-001 1.704395e+000
<GCONST> 1.712400e+002
<STATE> 3
<MEAN> 39
 3.053538e+000 -1.437711e+001 -7.089468e+000 -1.615760e+001 -6.326929e-001 6.930448e+000 4.181035e+000 3.168454e+000 -3.349238e+000 -2.220163e+000 -1.932341e+000 -1.452295e+001 7.701298e+001 8.100617e-001 -3.033853e-001 2.275860e-001 4.811983e-001 1.364406e-001 3.194350e-002 -5.848962e-001 8.357011e-002 -1.581431e-001 -1.907431e-001 -8.973486e-002 1.958127e-001 -4.075317e-001 1.836063e-001 2.482562e-001 -3.733240e-003 9.119815e-002 -4.457134e-002 -2.080378e-001 -1.413420e-001 -1.617323e-001 2.217060e-002 7.258073e-002 8.750719e-003 1.638412e-001 -3.660970e-001
<VARIANCE> 39
 4.355056e+001 3.485074e+001 1.061889e+002 9.109749e+001 7.760181e+001 7.956548e+001 6.461810e+001 6.219735e+001 5.668673e+001 8.052234e+001 4.251442e+001 4.963595e+001 1.123202e+002 1.470858e+000 1.482208e+000 1.557800e+000 3.594024e+000 3.991284e+000 3.369377e+000 2.726760e+000 2.857215e+000 2.872038e+000 3.217352e+000 1.750299e+000 2.244284e+000 2.021683e+000 1.997500e-001 2.235114e-001 3.145423e-001 5.131303e-001 6.276910e-001 5.578815e-001 4.894410e-001 5.939827e-001 5.638192e-001 5.167657e-001 3.491935e-001 3.789658e-001 2.426419e-001
<GCONST> 1.255684e+002
<STATE> 4
<MEAN> 39
 9.188813e+000 -1.130054e+001 -6.291925e+000 -1.218520e+001 -1.540712e+000 2.953872e+000 -1.498778e+000 1.061681e+000 -3.524673e+000 -2.747231e+000 -1.966191e+000 -1.066449e+001 6.781981e+001 4.725918e-001 1.299088e+000 -1.046558e-001 9.481902e-001 2.481284e-001 -6.166913e-001 -3.869121e-001 -3.772632e-001 -5.736452e-003 -1.126868e-001 -1.854843e-001 5.647100e-001 -1.640258e+000 -1.932562e-001 1.537393e-001 -4.689010e-002 -1.723730e-002 -3.393136e-002 7.471426e-002 2.425587e-001 -7.090304e-002 -3.002602e-002 -4.364030e-002 -7.010464e-002 -1.070820e-001 3.768124e-002
<VARIANCE> 39
 6.698664e+001 6.846474e+001 9.932799e+001 1.918204e+002 7.957613e+001 7.446664e+001 4.960281e+001 5.446270e+001 6.149420e+001 5.210279e+001 5.815859e+001 4.602848e+001 6.170374e+001 1.397694e+000 1.462888e+000 2.617861e+000 3.904563e+000 2.986875e+000 4.048183e+000 3.802983e+000 3.050116e+000 3.306348e+000 3.683184e+000 2.311885e+000 2.661114e+000 1.189757e+000 1.167046e-001 3.420416e-001 3.911504e-001 5.416451e-001 5.798744e-001 6.650473e-001 6.450489e-001 6.011428e-001 4.618912e-001 4.447152e-001 4.264855e-001 4.326689e-001 1.852991e-001
<GCONST> 1.274805e+002
<TRANSP> 5
 0.000000e+000 1.000000e+000 0.000000e+000 0.000000e+000 0.000000e+000
 0.000000e+000 6.938045e-001 3.061955e-001 0.000000e+000 0.000000e+000
 0.000000e+000 0.000000e+000 7.649619e-001 2.350381e-001 0.000000e+000
 0.000000e+000 0.000000e+000 0.000000e+000 6.610849e-001 3.389151e-001
 0.000000e+000 0.000000e+000 0.000000e+000 0.000000e+000 0.000000e+000
<ENDHMM>
~h "ae"
<BEGINHMM>
<NUMSTATES> 5
<STATE> 2
<MEAN> 39
 -8.782545e-001 -8.206903e+000 -1.857709e+000 -1.083642e+001 -4.835282e+000 -6.278099e+000 1.479493e+000 3.272637e+000 -1.426872e+000 -4.336062e+000 -5.129594e+000 -1.073594e+001 6.592666e+001 1.190394e+000 -2.711634e+000 5.049112e-001 -1.772612e+000 -2.133687e+000 1.096195e-001 -2.246401e-001 1.348943e+000 -6.954930e-001 -7.277404e-001 -5.885252e-001 -8.166353e-001 3.810531e+000 -3.893387e-001 3.427712e-001 2.035682e-001 4.278696e-001 2.455138e-001 -3.071429e-002 5.610248e-002 -3.199591e-002 1.432318e-002 1.968339e-001 3.727457e-001 2.939376e-001 -3.203439e-001
<VARIANCE> 39
 9.700873e+001 1.196706e+002 1.211645e+002 1.160216e+002 1.815039e+002 1.071217e+002 1.521468e+002 2.683333e+002 1.033357e+002 1.127050e+002 1.083687e+002 1.579980e+002 2.654511e+002 9.085395e+000 1.027526e+001 7.599664e+000 1.096885e+001 1.592173e+001 1.152025e+001 8.767637e+000 1.219962e+001 9.771635e+000 9.996564e+000 9.034840e+000 8.187876e+000 7.683471e+000 1.157615e+000 1.826922e+000 1.124132e+000 1.698660e+000 2.286001e+000 1.434526e+000 1.522324e+000 2.186125e+000 1.456295e+000 1.536193e+000 1.419859e+000 1.433001e+000 1.604557e+000
<GCONST> 1.713149e+002
<STATE> 3
<MEAN> 39
 1.985592e+000 -1.530864e+001 2.629218e+000 -8.785859e+000 -9.747299e+000 -6.041517e+000 6.367268e+000 1.284835e+001 -1.059722e+000 -4.346598e+000 -4.714648e+000 -1.185504e+001 7.015070e+001 4.216130e-001 3.135968e-001 4.941259e-001 2.260005e-002 -7.346209e-001 -5.392151e-001 -3.263405e-001 -6.702739e-001 -2.345417e-001 3.197691e-001 2.317608e-001 3.475806e-001 2.428234e-001 -7.393969e-002 4.605881e-001 -1.138292e-001 3.988917e-001 4.339471e-001 -3.621020e-002 -1.978083e-001 -3.455409e-001 1.924565e-001 3.034370e-001 7.015514e-002 1.168823e-001 -5.769137e-001
<VARIANCE> 39
 3.305770e+001 4.122596e+001 1.005138e+002 4.270935e+001 6.924712e+001 5.851134e+001 9.371288e+001 1.237468e+002 8.056835e+001 9.016797e+001 7.082281e+001 5.524730e+001 1.239626e+002 1.706780e+000 2.131642e+000 2.226227e+000 2.522314e+000 3.756206e+000 4.047649e+000 3.119909e+000 4.840772e+000 4.443967e+000 3.845244e+000 2.265860e+000 2.410248e+000 1.623357e+000 2.947921e-001 3.551602e-001 3.489789e-001 4.329055e-001 6.256396e-001 5.985302e-001 4.639631e-001 7.701178e-001 8.670688e-001 7.406011e-001 4.689177e-001 4.660333e-001 2.702012e-001
<GCONST> 1.309509e+002
<STATE> 4
<MEAN> 39
 5.671792e+000 -1.081865e+001 1.136758e+001 -4.010404e+000 -1.256674e+001 -1.483295e+001 5.868394e-001 1.127182e+001 -8.458168e+000 -5.756341e+000 -3.347712e+000 -1.032560e+001 6.828114e+001 4.830352e-002 1.361843e+000 1.389897e-001 9.443853e-001 8.396214e-002 -3.176440e-001 -3.984953e-001 -6.142798e-001 2.964191e-001 -1.240131e-001 1.177183e-001 3.120325e-001 -1.465454e+000 -1.441379e-001 2.487801e-002 -6.615382e-002 -6.301188e-002 1.161894e-001 1.310606e-001 1.447412e-001 3.187476e-002 5.143672e-002 -2.212531e-002 -4.443806e-002 -1.390888e-001 -9.579309e-002
<VARIANCE> 39
 5.110200e+001 7.126780e+001 2.064890e+002 7.821603e+001 8.583213e+001 1.476887e+002 7.588736e+001 1.327983e+002 1.209293e+002 1.017416e+002 5.910084e+001 5.451851e+001 1.039399e+002 1.085840e+000 2.504540e+000 4.636807e+000 3.722002e+000 4.404325e+000 4.211397e+000 3.433243e+000 4.999883e+000 5.893381e+000 4.130917e+000 3.472913e+000 3.235742e+000 2.478187e+000 2.608408e-001 4.678305e-001 8.807301e-001 7.633926e-001 7.620358e-001 8.177771e-001 6.932768e-001 8.140752e-001 1.033526e+000 7.213694e-001 5.747781e-001 5.803566e-001 4.403953e-001
<GCONST> 1.407461e+002
<TRANSP> 5
 0.000000e+000 1.000000e+000 0.000000e+000 0.000000e+000 0.000000e+000
 0.000000e+000 6.294709e-001 3.705291e-001 0.000000e+000 0.000000e+000
 0.000000e+000 0.000000e+000 7.306288e-001 2.693712e-001 0.000000e+000
 0.000000e+000 0.000000e+000 0.000000e+000 7.284597e-001 2.715403e-001
 0.000000e+000 0.000000e+000 0.000000e+000 0.000000e+000 0.000000e+000
<ENDHMM>
~h "ah"
<BEGINHMM>
<NUMSTATES> 5
<STATE> 2
<MEAN> 39
 3.894477e+000 -1.340323e+001 -5.981100e+000 -1.431079e+001 1.047297e+000 3.785657e+000 -5.637560e-001 2.900538e+000 -2.936882e+000 -1.597305e+000 -4.875650e+000 -1.583407e+001 7.805339e+001 2.571116e-001 -9.894590e-001 8.971836e-002 5.924318e-001 1.030142e+000 2.389582e-001 -6.292849e-001 1.182392e-001 -3.147295e-001 5.205011e-001 -3.376380e-001 -8.377745e-001 5.386907e-001 1.847081e-001 4.115209e-001 1.482660e-001 1.963032e-001 -1.287597e-002 -1.761231e-001 -1.123334e-001 -7.714017e-002 2.820783e-002 -7.665201e-002 -5.529943e-002 2.342760e-001 -5.356163e-001
<VARIANCE> 39
 7.375094e+001 5.967986e+001 7.843539e+001 7.474479e+001 8.412728e+001 1.197271e+002 1.186505e+002 8.409850e+001 6.040668e+001 1.015771e+002 1.119043e+002 1.182119e+002 9.692545e+001 3.013368e+000 3.450431e+000 3.927655e+000 4.085167e+000 4.475339e+000 4.246383e+000 4.750237e+000 4.375890e+000 3.758494e+000 4.335669e+000 4.265163e+000 4.580048e+000 3.814188e+000 5.488243e-001 5.842288e-001 5.527779e-001 7.232195e-001 7.473006e-001 6.945603e-001 8.821391e-001 8.481688e-001 6.354303e-001 7.516017e-001 7.911983e-001 7.723677e-001 3.497890e-001
<GCONST> 1.428706e+002
<STATE> 3
<MEAN> 39
 -7.260355e-001 -1.045413e+001 -1.048301e+001 -1.091256e+001 -1.876099e+000 -1.062029e+000 -5.968499e+000 -1.111378e+000 -2.372111e+000 -6.495263e+000 -3.881053e+000 -1.032602e+001 7.892783e+001 2.786368e-001 2.289604e-001 -2.530076e-002 2.406834e-001 1.541979e-001 2.458533e-001 -1.328127e-001 -1.329335e-001 -2.637260e-001 -1.187249e-002 4.545461e-002 -1.949770e-002 -4.008056e-001 5.491677e-002 1.701050e-001 1.421172e-001 8.611546e-003 -7.047421e-002 -1.695373e-001 4.885796e-002 -1.821670e-002 -4.730881e-002 1.955926e-002 2.920446e-002 1.233977e-001 -1.716817e-001
<VARIANCE> 39
 6.323608e+001 7.907352e+001 5.354112e+001 4.994881e+001 6.837583e+001 8.398296e+001 1.700764e+002 8.921062e+001 8.573880e+001 9.568295e+001 8.191158e+001 9.458724e+001 8.642337e+001 4.227872e-001 1.001224e+000 1.242476e+000 1.445139e+000 2.015416e+000 2.223075e+000 1.917681e+000 2.087593e+000 2.278542e+000 1.896393e+000 1.948267e+000 2.028164e+000 4.963657e-001 6.647997e-002 1.206751e-001 1.591175e-001 1.962297e-001 2.978911e-001 2.750864e-001 3.413017e-001 3.637189e-001 3.551610e-001 3.599035e-001 3.245530e-001 3.223400e-001 4.376871e-002
<GCONST> 1.132216e+002
<STATE> 4
<MEAN> 39
 1.153573e+001 -9.578232e+000 -8.815716e+000 -9.246942e+000 5.259596e+000 1.696032e+000 -4.422464e+000 -1.182421e+000 -4.543328e+000 -2.301909e+000 -7.855035e+000 -1.681848e+001 6.528537e+001 1.169323e-001 1.177314e+000 1.241793e-002 3.339990e-001 -9.294236e-003 -3.261118e-001 8.405067e-002 -5.325462e-001 3.720744e-002 -2.599956e-001 -2.206496e-001 4.711010e-001 -1.699336e+000 -2.191815e-001 8.449133e-002 2.641149e-002 8.643524e-004 -6.114099e-003 -2.059416e-002 1.493532e-001 -7.086558e-003 1.133607e-001 1.246306e-002 4.071251e-002 1.625005e-002 -5.994142e-003
<VARIANCE> 39
 5.764127e+001 7.219704e+001 7.023421e+001 8.400045e+001 7.487213e+001 1.098847e+002 6.417881e+001 9.039027e+001 7.514009e+001 6.725401e+001 5.935000e+001 6.926258e+001 1.151900e+002 1.793684e+000 1.830638e+000 3.045500e+000 2.451984e+000 2.645109e+000 2.751542e+000 3.677071e+000 3.892953e+000 3.433352e+000 3.362418e+000 2.424547e+000 2.445956e+000 4.735876e-001 1.772453e-001 2.307726e-001 3.723104e-001 3.983383e-001 4.666850e-001 4.626329e-001 5.993963e-001 6.761197e-001 6.198644e-001 5.825000e-001 4.612438e-001 4.034355e-001 6.899824e-002
<GCONST> 1.263797e+002
<TRANSP> 5
 0.000000e+000 1.000000e+000 0.000000e+000 0.000000e+000 0.000000e+000
 0.000000e+000 6.675318e-001 3.324682e-001 0.000000e+000 0.000000e+000
 0.000000e+000 0.000000e+000 8.230211e-001 1.769790e-001 0.000000e+000
 0.000000e+000 0.000000e+000 0.000000e+000 8.126504e-001 1.873496e-001
 0.000000e+000 0.000000e+000 0.000000e+000 0.000000e+000 0.000000e+000
<ENDHMM>
~h "ao"
<BEGINHMM>
<NUMSTATES> 5
<STATE> 2
<MEAN> 39
 7.822676e+000 -7.506959e+000 -1.761756e+001 -1.583707e+001 -2.285125e+000 -7.326249e-002 -1.103659e+000 -5.530219e+000 -3.565009e+000 9.539571e-002 1.667525e+000 -8.254511e+000 5.728284e+001 -7.300484e-001 4.472843e-001 4.153543e-001 3.963603e-001 1.477958e-001 3.022547e-002 4.860348e-001 4.176874e-001 5.033715e-001 4.027545e-001 4.210133e-001 4.714203e-001 -1.339332e+000 -1.342381e-001 -1.730673e-002 2.154978e-001 -1.910292e-002 2.677139e-002 -6.657139e-002 -6.538191e-002 1.919388e-001 -3.701429e-002 -7.988988e-002 6.305966e-003 -3.850295e-002 1.469705e-001
<VARIANCE> 39
 8.836849e+001 3.344394e+001 6.187157e+001 6.480392e+001 3.878038e+001 5.866063e+001 7.564272e+001 8.937333e+001 7.279832e+001 6.153741e+001 7.737154e+001 4.332335e+001 7.738029e+001 9.544275e-001 1.295842e+000 2.431623e+000 2.986074e+000 2.901579e+000 3.228304e+000 3.721770e+000 4.331086e+000 4.459302e+000 4.735390e+000 4.029743e+000 2.984543e+000 5.205693e-001 1.424004e-001 2.217408e-001 3.753358e-001 4.486746e-001 5.599708e-001 5.993983e-001 6.531533e-001 8.742546e-001 8.242241e-001 8.800950e-001 7.960187e-001 6.249644e-001 1.318575e-001
<GCONST> 1.275495e+002
<STATE> 3
<MEAN> 39
 -1.559915e+000 -5.751804e+000 -9.702241e+000 -1.330606e+001 1.761693e+000 -7.037950e-001 -1.628203e+000 1.947456e+000 5.446808e-001 1.479609e+000 2.069011e+000 -6.727153e+000 5.525985e+001 -7.144493e-001 1.054239e-001 1.981556e+000 2.983665e-001 7.294105e-001 -9.325305e-001 -1.203124e+000 1.707495e+000 -8.069464e-002 -6.484315e-001 -3.539985e-001 -9.762952e-001 3.010346e-001 2.307230e-001 2.561336e-001 -1.777790e-002 -9.442967e-002 -2.459473e-001 -4.449238e-001 -4.527427e-001 -5.073864e-001 -4.193915e-001 -2.723911e-001 -1.775735e-001 -6.638218e-002 5.631040e-001
<VARIANCE> 39
 5.965113e+001 4.039476e+001 5.845924e+001 1.537027e+002 6.344841e+001 5.960734e+001 1.091202e+002 1.436053e+002 6.986871e+001 1.194028e+002 1.328146e+002 6.184628e+001 1.187187e+002 2.347851e+000 2.206404e+000 3.744503e+000 7.264144e+000 6.705673e+000 4.730537e+000 7.455583e+000 1.250455e+001 5.811684e+000 6.411972e+000 6.192932e+000 5.598155e+000 1.415670e+000 8.200637e-001 6.654397e-001 6.535243e-001 1.547516e+000 1.074112e+000 9.482250e-001 1.314489e+000 2.957494e+000 1.303217e+000 1.244882e+000 1.294591e+000 1.141691e+000 4.485683e-001
<GCONST> 1.505910e+002
<STATE> 4
<MEAN> 39
 -1.030463e+001 2.926253e-001 -4.311883e+000 -9.320580e+000 -7.642323e+000 -1.262661e+001 -5.989430e+000 -7.482068e+000 -8.749962e+000 -1.204319e+001 -5.421653e+000 -3.476936e+000 6.690048e+001 -5.267584e-001 4.537393e-001 5.007745e-001 -8.597147e-002 -1.178997e-001 -4.183571e-001 -1.186980e-001 -2.534784e-003 -1.167147e-001 1.992347e-001 4.381283e-001 2.592234e-001 2.296000e-001 4.082317e-002 1.029482e-002 -1.127987e-001 -1.690669e-001 -2.785260e-003 -9.725017e-002 -2.385405e-002 -1.117537e-001 -4.829132e-003 -5.602345e-002 -7.094275e-002 1.272670e-001 2.769747e-001
<VARIANCE> 39
 5.855534e+001 3.945364e+001 2.658837e+001 4.370592e+001 5.900408e+001 8.106923e+001 5.075998e+001 4.707699e+001 6.317147e+001 9.980310e+001 6.266526e+001 5.426625e+001 9.542142e+001 5.308797e+000 3.789026e+000 2.293589e+000 5.676033e+000 5.926507e+000 7.117362e+000 5.553402e+000 5.543797e+000 6.574296e+000 7.626677e+000 7.534994e+000 5.703378e+000 8.556419e+000 9.415610e-001 6.157005e-001 4.256752e-001 8.928152e-001 1.126698e+000 1.189152e+000 9.772477e-001 7.404823e-001 1.216794e+000 1.411855e+000 1.503648e+000 8.930420e-001 1.098247e+000
<GCONST> 1.461162e+002
<TRANSP> 5
 0.000000e+000 1.000000e+000 0.000000e+000 0.000000e+000 0.000000e+000
 0.000000e+000 7.602255e-001 2.397745e-001 0.000000e+000 0.000000e+000
 0.000000e+000 0.000000e+000 4.219789e-001 5.780211e-001 0.000000e+000
 0.000000e+000 0.000000e+000 0.000000e+000 8.113747e-001 1.886254e-001
 0.000000e+000 0.000000e+000 0.000000e+000 0.000000e+000 0.000000e+000
<ENDHMM>
~h "aw"
<BEGINHMM>
<NUMSTATES> 5
<STATE> 2
<MEAN> 39
 4.201868e-001 -4.900838e+000 -1.458491e+001 -1.338786e+001 -6.073923e+000 -5.943950e-001 -9.394605e+000 -8.426090e+000 -4.336467e+000 -1.218970e+001 -8.242249e+000 -5.062259e+000 7.610860e+001 3.606706e-001 1.040196e-001 2.432611e-002 1.672914e-001 -4.485416e-001 8.820753e-004 -1.309747e-001 -1.060677e-001 -2.462940e-001 4.908553e-001 2.075934e-001 -8.892926e-002 -2.799273e-001 -3.366904e-002 3.555532e-002 6.490868e-002 5.671071e-002 -9.473365e-002 -1.680750e-001 1.106017e-002 6.815130e-002 4.623403e-002 2.015119e-002 3.968916e-002 5.714156e-004 -2.486971e-002
<VARIANCE> 39
 7.494123e+001 7.020651e+001 4.545449e+001 4.407405e+001 7.749212e+001 1.283764e+002 1.059021e+002 7.935694e+001 7.016826e+001 1.785609e+002 1.053464e+002 6.197303e+001 4.950079e+001 5.652300e-001 1.519620e+000 1.226435e+000 1.356018e+000 2.118228e+000 2.414502e+000 2.541858e+000 3.013893e+000 3.247050e+000 3.026964e+000 2.857085e+000 2.356220e+000 6.426969e-001 8.063527e-002 2.238599e-001 1.651807e-001 2.143408e-001 2.668027e-001 3.457857e-001 3.723106e-001 4.222883e-001 5.465907e-001 5.019222e-001 4.186248e-001 3.977389e-001 9.967834e-002
<GCONST> 1.190056e+002
<STATE> 3
<MEAN> 39
 1.457288e+001 -1.016925e+001 -1.769869e+001 -4.566879e+000 -1.891420e+000 -3.478170e+000 -2.843132e+000 -1.370890e+000 -5.752636e+000 -1.901304e+000 2.219098e+000 -6.391983e+000 6.803181e+001 4.394379e-002 -2.627885e-002 4.823977e-002 7.387441e-001 1.744032e-001 -1.148266e+000 -6.693590e-001 2.550181e-001 4.141447e-001 -1.744241e-001 6.593854e-003 3.806570e-001 -3.839603e-001 -8.153608e-002 1.956467e-001 1.646492e-001 -1.920342e-001 2.056045e-002 1.170474e-001 1.888867e-002 -1.065506e-001 3.491721e-002 -1.490802e-002 -6.008841e-002 1.500618e-002 -1.139463e-001
<VARIANCE> 39
 7.605759e+001 4.558506e+001 4.057996e+001 6.245321e+001 8.130611e+001 9.795872e+001 8.892838e+001 5.527474e+001 7.123476e+001 6.174568e+001 4.131967e+001 5.127867e+001 4.417809e+001 8.971428e-001 2.844776e+000 1.765579e+000 3.735397e+000 2.219232e+000 3.850588e+000 2.796917e+000 3.981957e+000 3.644909e+000 2.666882e+000 2.647887e+000 2.276026e+000 9.542435e-001 1.640089e-001 3.071772e-001 2.658594e-001 3.995275e-001 3.365168e-001 4.668725e-001 4.573863e-001 6.015385e-001 5.737477e-001 4.326665e-001 4.137027e-001 4.288197e-001 1.021168e-001
<GCONST> 1.226112e+002
<STATE> 4
<MEAN> 39
 6.855380e+000 -5.591824e+000 -1.177795e+001 -7.115593e+000 -5.311433e+000 -6.149787e+000 -9.033752e+000 -1.989756e+000 -2.130496e+000 -2.166735e+000 -9.007019e-001 -7.041387e+000 6.567171e+001 -5.554792e-001 9.589562e-001 1.137098e+000 -2.331684e-001 -6.741543e-002 -6.035578e-001 4.476091e-001 -3.114575e-001 -1.464388e-001 -1.880913e-001 1.954958e-001 3.719169e-002 -8.896822e-001 -1.491013e-001 2.183026e-001 -4.027928e-002 8.660152e-003 2.703338e-001 1.199772e-001 2.515462e-001 -1.716066e-001 -2.588215e-001 -1.116670e-001 -4.602231e-002 -4.765550e-002 -8.756345e-002
<VARIANCE> 39
 7.613170e+001 3.704123e+001 5.845583e+001 5.955450e+001 1.723843e+002 7.511948e+001 1.158121e+002 6.362939e+001 1.111467e+002 9.641824e+001 7.016302e+001 6.116445e+001 7.940488e+001 1.104251e+000 2.133142e+000 2.795945e+000 3.783297e+000 4.400863e+000 4.021286e+000 4.122272e+000 5.180945e+000 5.659559e+000 3.544975e+000 3.337174e+000 3.088250e+000 8.804517e-001 2.559570e-001 3.033924e-001 4.183730e-001 6.430566e-001 9.633589e-001 6.836780e-001 8.518516e-001 9.418166e-001 1.101196e+000 7.922771e-001 7.090371e-001 5.793978e-001 1.237308e-001
<GCONST> 1.349018e+002
<TRANSP> 5
 0.000000e+000 1.000000e+000 0.000000e+000 0.000000e+000 0.000000e+000
 0.000000e+000 9.248134e-001 7.518663e-002 0.000000e+000 0.000000e+000
 0.000000e+000 0.000000e+000 8.208001e-001 1.791999e-001 0.000000e+000
 0.000000e+000 0.000000e+000 0.000000e+000 6.690075e-001 3.309925e-001
 0.000000e+000 0.000000e+000 0.000000e+000 0.000000e+000 0.000000e+000
<ENDHMM>
~h "ax"
<BEGINHMM>
<NUMSTATES> 5
<STATE> 2
<MEAN> 39
 -1.405132e+000 2.108790e+000 -4.992953e+000 -1.004316e+001 -9.224168e+000 -1.194213e+001 -1.062299e+001 -7.037382e+000 -7.785309e+000 -1.244889e+001 -6.177603e+000 -6.307766e+000 6.993574e+001 -2.699221e-002 1.634526e+000 2.912738e-001 1.085389e+000 3.269450e-001 7.937972e-001 2.651461e-001 -7.161742e-001 -6.767808e-001 6.092646e-001 -2.844324e-001 -8.353278e-001 -1.846943e+000 -1.686188e-001 -2.367960e-001 4.396604e-002 1.343318e-001 3.045859e-002 7.978205e-002 2.057701e-001 1.043551e-001 5.582502e-002 7.303530e-002 -4.951756e-002 1.539060e-001 -5.644689e-002
<VARIANCE> 39
 9.686945e+001 5.579803e+001 5.290551e+001 4.238880e+001 1.029632e+002 8.363088e+001 6.640993e+001 5.227169e+001 7.395729e+001 1.413973e+002 7.529006e+001 6.096438e+001 4.488604e+001 2.549526e+000 3.191403e+000 2.524343e+000 3.606576e+000 5.880071e+000 3.937708e+000 4.524824e+000 4.131242e+000 4.525633e+000 4.976141e+000 3.846730e+000 4.643056e+000 1.771150e+000 4.241797e-001 4.760284e-001 3.795677e-001 5.011032e-001 7.585729e-001 7.044417e-001 7.311693e-001 6.599275e-001 6.489863e-001 8.086326e-001 6.584339e-001 6.095133e-001 2.748056e-001
<GCONST> 1.361713e+002
<STATE> 3
<MEAN> 39
 1.134728e+001 6.424255e-001 -5.032856e+000 -5.632458e+000 -4.320487e-001 -4.937249e+000 -9.097336e+000 -5.556554e+000 -5.701584e+000 -1.654285e+000 -3.246175e+000 -1.078119e+001 6.053575e+001 -4.117368e-001 7.977890e-001 5.439501e-001 7.569015e-001 -2.033007e-001 -8.566172e-002 4.485093e-001 -4.493923e-001 -4.146476e-002 -2.220714e-001 -7.502041e-002 4.294925e-001 -1.316084e+000 -1.466157e-001 -1.572146e-001 -4.711492e-002 -1.158559e-001 -1.547469e-002 -8.355881e-002 -2.698900e-003 1.628182e-001 1.311676e-001 7.486987e-003 2.346914e-002 5.481606e-002 8.942263e-002
<VARIANCE> 39
 8.570826e+001 1.002991e+002 6.269114e+001 6.967292e+001 8.253759e+001 9.214192e+001 7.188306e+001 7.674236e+001 6.525051e+001 7.484325e+001 5.986270e+001 6.212356e+001 8.083011e+001 1.170219e+000 1.407840e+000 2.289763e+000 2.575040e+000 2.910333e+000 2.976628e+000 3.162673e+000 3.081498e+000 3.369743e+000 3.209594e+000 2.884019e+000 2.326820e+000 6.201643e-001 1.103001e-001 1.845439e-001 2.810369e-001 3.316304e-001 4.501612e-001 4.828314e-001 4.643651e-001 5.735009e-001 5.747287e-001 5.249045e-001 4.931208e-001 4.669417e-001 9.162610e-002
<GCONST> 1.241202e+002
<STATE> 4
<MEAN> 39
 -4.008692e+000 4.759978e+000 -2.967465e+000 -3.736681e+000 -6.203211e+000 -6.243092e+000 -8.057488e+000 -6.437856e+000 -5.180276e+000 -5.802779e+000 -5.520392e+000 -4.365479e+000 6.323999e+001 -6.093684e-001 -1.273916e-001 2.926282e-001 2.149666e-001 4.860911e-001 4.253392e-001 5.982454e-001 7.352949e-002 8.843900e-002 2.574612e-001 2.885442e-001 1.981081e-001 -5.420359e-001 -1.329848e-001 -9.313338e-002 -1.316006e-001 -2.486181e-001 2.667596e-002 -6.900698e-002 -1.194831e-001 9.343667e-002 1.201227e-001 5.055408e-003 3.010253e-002 7.957169e-002 3.341549e-001
<VARIANCE> 39
 6.095021e+001 2.654430e+001 2.740847e+001 2.221662e+001 4.191392e+001 3.906920e+001 4.734878e+001 3.594741e+001 5.801007e+001 5.558725e+001 4.499871e+001 2.780253e+001 3.633918e+001 8.323886e-001 8.910029e-001 1.039303e+000 1.420568e+000 1.909654e+000 1.901591e+000 2.772294e+000 2.396865e+000 2.241435e+000 2.297775e+000 2.156118e+000 1.923233e+000 6.934471e-001 2.015004e-001 2.097055e-001 2.504184e-001 2.874025e-001 3.847027e-001 3.949746e-001 5.192140e-001 4.830012e-001 5.039710e-001 4.836952e-001 4.629889e-001 4.376644e-001 2.239749e-001
<GCONST> 1.115240e+002
<TRANSP> 5
 0.000000e+000 1.000000e+000 0.000000e+000 0.000000e+000 0.000000e+000
 0.000000e+000 5.402727e-001 4.597273e-001 0.000000e+000 0.000000e+000
 0.000000e+000 0.000000e+000 6.945765e-001 3.054235e-001 0.000000e+000
 0.000000e+000 0.000000e+000 0.000000e+000 7.593161e-001 2.406839e-001
 0.000000e+000 0.000000e+000 0.000000e+000 0.000000e+000 0.000000e+000
<ENDHMM>
~h "ay"
<BEGINHMM>
<NUMSTATES> 5
<STATE> 2
<MEAN> 39
 -7.990567e+000 -1.049702e+001 -9.079249e+000 -8.774899e+000 -5.669877e+000 -4.161199e+000 5.461426e-001 -6.706588e-001 -3.647820e+000 -1.245437e+001 -6.080788e+000 -2.248372e+000 8.596216e+001 -1.003466e-001 1.273183e-001 7.909343e-001 -2.781170e-001 -1.213789e+000 -1.734699e-001 5.204205e-002 -1.590258e-002 -4.029644e-001 5.246637e-001 -5.909385e-002 -3.175473e-001 -1.453765e-001 9.590148e-002 1.968397e-001 2.162420e-001 -2.193239e-001 -2.415094e-001 -9.298579e-002 -2.414320e-001 -7.898249e-002 1.204801e-001 2.373524e-001 -4.972443e-002 4.402064e-004 -1.389451e-001
<VARIANCE> 39
 6.280456e+001 5.263655e+001 5.375924e+001 3.149733e+001 1.225041e+002 5.093026e+001 7.266101e+001 7.618994e+001 7.941582e+001 1.061867e+002 4.696399e+001 1.277695e+002 7.473625e+001 3.402248e-001 9.099320e-001 1.301505e+000 1.808187e+000 2.984130e+000 1.937533e+000 2.749198e+000 2.349834e+000 2.168979e+000 3.477854e+000 2.801318e+000 2.058418e+000 2.036281e-001 5.020555e-002 1.092484e-001 1.323591e-001 2.044144e-001 3.044873e-001 3.029687e-001 4.939068e-001 3.864240e-001 4.473182e-001 5.517442e-001 4.913366e-001 3.514943e-001 1.869023e-002
<GCONST> 1.121209e+002
<STATE> 3
<MEAN> 39
 1.079635e+000 -1.360738e+001 7.464162e+000 -1.169824e+001 -1.276121e+001 -9.429402e+000 -3.399029e+000 6.019698e+000 -5.611278e+000 -1.382596e+000 -4.337148e+000 -1.030123e+001 7.846059e+001 3.117176e-001 7.928966e-001 1.524770e+000 -1.329354e-001 -8.698429e-001 -5.548191e-001 -1.029873e+000 -6.739348e-001 -4.492190e-001 3.688961e-001 3.675677e-001 4.183667e-001 -9.950312e-001 1.478921e-002 1.620196e-001 -1.798443e-001 1.709096e-001 2.566599e-001 8.853654e-002 2.850526e-002 -1.063042e-001 1.056586e-001 -2.057562e-001 -7.031879e-002 5.735552e-003 -1.235682e-001
<VARIANCE> 39
 7.690533e+001 1.136385e+002 1.289749e+002 4.793357e+001 1.188768e+002 7.213812e+001 7.581062e+001 1.289710e+002 7.415968e+001 7.094595e+001 5.049476e+001 9.183714e+001 6.291514e+001 8.729796e-001 2.587003e+000 2.573845e+000 1.992825e+000 2.467361e+000 2.950728e+000 3.195147e+000 4.041265e+000 4.007300e+000 3.024663e+000 2.537364e+000 2.029112e+000 4.253707e-001 1.226262e-001 2.033435e-001 3.724351e-001 3.011130e-001 4.742918e-001 4.572695e-001 5.440764e-001 6.180351e-001 6.334165e-001 5.296301e-001 5.237198e-001 4.043563e-001 4.939120e-002
<GCONST> 1.250002e+002
<STATE> 4
<MEAN> 39
 -2.171358e+000 2.686460e+000 5.828770e+000 -7.044265e+000 -1.448994e+001 -7.740948e+000 -7.772598e+000 -5.144433e+000 -4.132797e+000 -6.534487e+000 -5.687216e+000 -5.000901e+000 6.844695e+001 3.107077e-002 8.429525e-001 -2.812810e-001 1.030971e+000 1.080811e+000 1.002438e-001 3.866831e-001 -3.310723e-002 2.247492e-001 -2.101220e-001 -8.523695e-002 -2.565329e-001 -1.380778e+000 -8.229320e-002 -1.405116e-001 -1.724221e-001 6.661191e-002 1.746309e-001 3.337694e-002 1.690350e-001 1.712352e-001 3.343482e-003 6.035987e-002 5.704924e-002 -4.575802e-002 4.633077e-002
<VARIANCE> 39
 1.117226e+002 9.078103e+001 6.024818e+001 9.318472e+001 8.970155e+001 1.012915e+002 7.779733e+001 1.217913e+002 5.656305e+001 8.095470e+001 5.677806e+001 6.550423e+001 9.567329e+001 1.129832e+000 2.073714e+000 1.536172e+000 2.465252e+000 3.413097e+000 2.855179e+000 3.282624e+000 3.394376e+000 3.421744e+000 3.307918e+000 2.541905e+000 2.694001e+000 8.212556e-001 1.616887e-001 2.180092e-001 2.742616e-001 4.268779e-001 5.206043e-001 4.922981e-001 6.374815e-001 6.439036e-001 5.826038e-001 5.359401e-001 4.636345e-001 4.576997e-001 1.081279e-001
<GCONST> 1.273604e+002
<TRANSP> 5
 0.000000e+000 1.000000e+000 0.000000e+000 0.000000e+000 0.000000e+000
 0.000000e+000 8.286999e-001 1.713001e-001 0.000000e+000 0.000000e+000
 0.000000e+000 0.000000e+000 8.444045e-001 1.555954e-001 0.000000e+000
 0.000000e+000 0.000000e+000 0.000000e+000 8.488614e-001 1.511386e-001
 0.000000e+000 0.000000e+000 0.000000e+000 0.000000e+000 0.000000e+000
<ENDHMM>
~h "ch"
<BEGINHMM>
<NUMSTATES> 5
<STATE> 2
<MEAN> 39
 -1.146197e+001 5.548689e+000 6.405766e+000 -9.255363e+000 6.307183e+000 -8.004585e+000 -3.172988e+000 2.006078e+000 -1.615703e+000 -4.488464e+000 -1.550583e+000 -7.665680e+000 5.999405e+001 -3.551356e+000 8.729464e-001 9.613541e-001 -2.126527e+000 9.629951e-001 -3.709316e-001 5.756827e-001 -1.063778e-002 5.911029e-001 -6.974680e-001 3.001642e-001 -3.656629e-001 2.620847e+000 -4.068135e-004 -2.657365e-001 2.374103e-001 1.971005e-001 -6.857222e-001 -1.972151e-002 1.863844e-001 -3.459545e-001 -2.943907e-002 -1.050311e-001 1.157020e-001 -5.749878e-002 2.721354e-001
<VARIANCE> 39
 1.997391e+002 7.373839e+001 1.138305e+002 1.475040e+002 1.049188e+002 1.770696e+002 8.766367e+001 1.577746e+002 1.097927e+002 8.270631e+001 1.071127e+002 9.491766e+001 1.403042e+002 1.340458e+001 7.135272e+000 4.931008e+000 1.134176e+001 1.234521e+001 9.187013e+000 5.773171e+000 1.081032e+001 5.874781e+000 5.936651e+000 7.531943e+000 6.649329e+000 6.343646e+000 2.283236e+000 1.130108e+000 7.420180e-001 2.187104e+000 1.457092e+000 1.544545e+000 1.065701e+000 1.902727e+000 1.114940e+000 1.040500e+000 1.283532e+000 1.128509e+000 9.048371e-001
<GCONST> 1.637839e+002
<STATE> 3
<MEAN> 39
 -2.091770e+001 1.615225e+000 9.756390e+000 -1.162345e+001 -9.771035e-001 -1.423420e+001 2.060903e+000 -9.769558e-001 8.427848e-001 -8.127915e+000 1.164859e-001 -9.279124e+000 7.136929e+001 1.211214e+000 -1.238205e+000 -1.380965e-001 2.108321e-001 -1.389743e+000 -1.708308e-001 -4.583680e-002 4.783135e-003 -1.353379e-001 -2.774780e-001 -3.331313e-001 -4.089113e-001 7.915686e-001 3.427919e-001 -1.271446e-001 -3.127998e-001 5.834392e-002 1.432971e-001 1.813723e-001 -9.025206e-002 2.557069e-001 4.915876e-002 1.083765e-001 -3.005536e-002 -1.319260e-002 -2.606638e-001
<VARIANCE> 39
 1.518493e+002 1.333490e+002 1.412816e+002 4.781886e+001 1.806929e+002 2.134642e+002 8.230676e+001 1.002388e+002 6.738147e+001 1.021308e+002 9.195197e+001 6.026240e+001 9.363193e+001 1.077071e+001 6.169468e+000 4.307615e+000 5.090170e+000 7.279786e+000 7.708832e+000 6.528862e+000 7.032868e+000 4.608111e+000 5.755748e+000 4.805681e+000 3.716447e+000 2.801558e+000 1.668121e+000 9.248000e-001 5.894770e-001 7.869414e-001 1.351658e+000 1.411132e+000 1.080501e+000 1.262830e+000 8.554778e-001 1.013054e+000 9.409956e-001 6.319607e-001 3.454875e-001
<GCONST> 1.532109e+002
<STATE> 4
<MEAN> 39
 -2.517832e+001 3.790375e+000 9.874323e+000 -1.041439e+001 -2.113104e+000 1.663868e+000 -3.489709e+000 -3.037647e+000 1.935251e+000 -6.544091e+000 -1.352178e+000 -4.244611e+000 7.096880e+001 5.084782e-001 -7.241615e-001 -3.539906e-001 3.113508e-001 -1.696173e-001 3.758145e-001 2.487442e-001 2.759559e-002 2.318475e-001 1.694135e-002 1.208889e-001 1.344076e-001 -7.012689e-001 1.386881e-001 7.403640e-002 -3.099962e-002 1.131016e-001 1.474139e-001 -7.406047e-002 4.838204e-003 6.044548e-003 -1.164924e-001 3.943622e-003 -1.272072e-002 7.736566e-003 -1.938297e-001
<VARIANCE> 39
 1.251423e+002 8.171313e+001 6.788544e+001 2.991786e+001 1.086964e+002 9.337813e+001 1.164013e+002 4.855948e+001 6.342694e+001 7.598949e+001 4.413920e+001 4.987613e+001 8.949179e+001 2.087899e+000 1.173258e+000 1.177365e+000 1.322135e+000 2.282946e+000 2.086417e+000 2.189688e+000 2.612380e+000 2.775806e+000 2.371256e+000 1.926004e+000 1.817960e+000 1.453225e+000 3.373941e-001 2.033371e-001 2.209530e-001 2.565811e-001 3.176695e-001 3.091865e-001 3.575367e-001 4.274060e-001 4.434384e-001 4.586633e-001 3.596160e-001 4.404535e-001 1.187594e-001
<GCONST> 1.199029e+002
<TRANSP> 5
 0.000000e+000 1.000000e+000 0.000000e+000 0.000000e+000 0.000000e+000
 0.000000e+000 7.817442e-001 2.182559e-001 0.000000e+000 0.000000e+000
 0.000000e+000 0.000000e+000 8.324377e-001 1.675623e-001 0.000000e+000
 0.000000e+000 0.000000e+000 0.000000e+000 8.223104e-001 1.776896e-001
 0.000000e+000 0.000000e+000 0.000000e+000 0.000000e+000 0.000000e+000
<ENDHMM>
~h "eh"
<BEGINHMM>
<NUMSTATES> 5
<STATE> 2
<MEAN> 39
 -1.058143e+001 -6.376924e+000 -5.784245e+000 -1.618747e+001 -7.775333e+000 -1.541739e+001 2.249896e+000 -6.039840e+000 -2.296344e+000 -2.189868e+001 -4.587710e+000 -2.564732e+000 8.483279e+001 1.271537e-001 -3.761808e-001 -1.635775e-002 9.945621e-002 3.305284e-001 -1.393376e-002 4.346315e-003 3.053955e-001 2.588573e-002 -1.451642e-001 -6.743334e-002 2.325510e-002 1.784702e-002 2.597784e-002 1.786554e-001 9.483399e-002 1.252551e-001 -5.858041e-002 -5.507537e-002 -1.695874e-001 -9.383471e-002 -9.070532e-002 1.258333e-001 -1.070296e-002 4.804771e-003 -2.526471e-001
<VARIANCE> 39
 3.604549e+001 5.458319e+001 4.812415e+001 4.172841e+001 6.141106e+001 5.990839e+001 7.710101e+001 7.284871e+001 6.313358e+001 1.195861e+002 7.178178e+001 5.289678e+001 3.042145e+001 3.700128e-001 1.051264e+000 1.170376e+000 9.667442e-001 2.328724e+000 2.078094e+000 2.932362e+000 2.255591e+000 1.988096e+000 1.829833e+000 1.695349e+000 1.486075e+000 4.210501e-001 1.342335e-001 1.916695e-001 1.563425e-001 2.396492e-001 3.323276e-001 3.908810e-001 5.309145e-001 3.463467e-001 3.563366e-001 2.820884e-001 3.011358e-001 2.710709e-001 1.372481e-001
<GCONST> 1.108248e+002
<STATE> 3
<MEAN> 39
 1.186736e+000 -1.079217e+001 -4.788910e+000 -8.695429e+000 -8.574629e+000 -4.400534e+000 -1.179581e+000 7.109689e+000 1.522172e+000 -4.780992e+000 -5.954608e+000 -1.208124e+001 7.636683e+001 4.352746e-001 -8.755331e-002 2.228446e-001 2.592238e-001 5.135011e-001 1.825280e-001 -4.176986e-001 -1.765290e-002 -2.039779e-001 1.505162e-001 -1.732889e-002 -9.372842e-002 -4.202733e-001 8.194303e-002 1.371537e-001 6.193196e-002 4.421300e-002 1.168367e-001 -5.423222e-002 -4.063258e-002 -9.516191e-002 -8.376889e-002 9.797437e-002 5.817126e-002 2.425248e-002 -2.831092e-001
<VARIANCE> 39
 3.938165e+001 9.459587e+001 8.365941e+001 2.757724e+001 1.597131e+002 7.008091e+001 9.579610e+001 8.213831e+001 6.321061e+001 8.807588e+001 5.569793e+001 7.344189e+001 8.977798e+001 8.093305e-001 8.275154e-001 1.132357e+000 1.130101e+000 2.418362e+000 1.944804e+000 2.561688e+000 2.166067e+000 2.764529e+000 2.473851e+000 1.865202e+000 1.575181e+000 7.723882e-001 1.499575e-001 2.221298e-001 2.098781e-001 2.339823e-001 4.335984e-001 4.099166e-001 4.342003e-001 4.278722e-001 5.078770e-001 4.936874e-001 3.634936e-001 3.244724e-001 1.520488e-001
<GCONST> 1.179949e+002
<STATE> 4
<MEAN> 39
 8.949862e+000 -1.373255e+001 -1.312002e-002 -6.431579e+000 -6.327989e-001 -6.983615e+000 -3.996148e+000 6.544917e+000 -2.523925e+000 -1.875768e+000 -3.057698e+000 -1.586029e+001 7.104100e+001 6.608578e-001 9.977437e-001 -3.050861e-001 7.584313e-001 1.323622e-001 -1.903567e-001 -4.601464e-001 -5.211966e-001 -2.060620e-001 1.577613e-001 -1.492565e-001 2.253866e-001 -2.105283e+000 -2.203376e-001 2.181640e-001 -1.366344e-001 3.587780e-002 -1.617588e-001 6.063317e-002 1.774329e-001 3.688216e-002 1.440340e-001 -4.549054e-002 -1.391106e-001 4.297857e-002 -1.293024e-001
<VARIANCE> 39
 6.580354e+001 6.287846e+001 9.923889e+001 5.834013e+001 1.019305e+002 1.158750e+002 6.343386e+001 9.251040e+001 6.935854e+001 1.187051e+002 6.203078e+001 7.526210e+001 6.606117e+001 1.469458e+000 2.220366e+000 2.357417e+000 2.858005e+000 3.641819e+000 3.022811e+000 2.625106e+000 3.679265e+000 3.446728e+000 3.185173e+000 2.963655e+000 2.506783e+000 1.155266e+000 1.271130e-001 2.895558e-001 3.670270e-001 4.214066e-001 5.665345e-001 6.660399e-001 4.624582e-001 6.493432e-001 5.346510e-001 4.934733e-001 5.067009e-001 4.293908e-001 1.468835e-001
<GCONST> 1.285586e+002
<TRANSP> 5
 0.000000e+000 1.000000e+000 0.000000e+000 0.000000e+000 0.000000e+000
 0.000000e+000 8.055633e-001 1.944368e-001 0.000000e+000 0.000000e+000
 0.000000e+000 0.000000e+000 7.628111e-001 2.371889e-001 0.000000e+000
 0.000000e+000 0.000000e+000 0.000000e+000 7.551333e-001 2.448667e-001
 0.000000e+000 0.000000e+000 0.000000e+000 0.000000e+000 0.000000e+000
<ENDHMM>
~h "er"
<BEGINHMM>
<NUMSTATES> 5
<STATE> 2
<MEAN> 39
 3.157099e+000 -1.220199e+001 3.556111e-001 -7.161267e+000 -1.012018e+001 -1.096395e+001 -7.759134e+000 3.667326e+000 3.379432e-001 -4.353540e+000 -1.288137e+000 -9.122205e+000 7.542159e+001 7.336202e-001 -5.347804e-001 -1.143396e+000 7.723379e-001 2.380094e-002 -2.237656e-001 -2.597630e-001 6.404554e-001 -9.794408e-002 -1.839293e-001 -1.574312e-001 3.688024e-001 -2.133823e-001 -1.259397e-001 3.350796e-001 1.952838e-001 1.566869e-001 8.194187e-002 1.799669e-002 -4.868072e-002 -1.945481e-001 2.750375e-002 -6.363450e-002 -1.426569e-001 1.307498e-001 -2.873757e-001
<VARIANCE> 39
 9.736897e+001 8.324778e+001 1.424097e+002 7.871976e+001 1.271619e+002 8.885655e+001 8.707596e+001 1.467406e+002 8.068639e+001 8.076466e+001 6.350005e+001 5.749015e+001 7.562696e+001 8.157794e-001 2.244827e+000 2.564663e+000 2.159410e+000 2.689883e+000 4.308952e+000 2.943906e+000 4.564730e+000 3.412587e+000 3.063627e+000 2.595052e+000 3.392614e+000 1.068019e+000 1.427047e-001 3.217301e-001 2.717699e-001 3.325188e-001 4.929815e-001 5.394263e-001 5.230976e-001 6.171521e-001 4.861941e-001 5.001114e-001 4.774187e-001 5.417635e-001 1.260637e-001
<GCONST> 1.292763e+002
<STATE> 3
<MEAN> 39
 4.161912e+000 -9.057313e+000 -2.186621e+000 -1.552258e+000 -1.008978e+001 -1.224917e+001 -9.797174e+000 4.108839e+000 -2.711501e+000 -8.665180e+000 -4.286482e+000 -5.638914e+000 7.051873e+001 -5.072228e-002 8.205304e-001 7.365374e-002 4.945675e-001 1.951527e-001 -1.747429e-001 -1.403702e-002 -3.905551e-001 -3.494955e-002 -2.279055e-002 -1.536503e-001 3.229071e-002 -1.063416e+000 -1.178358e-001 4.954124e-002 1.390888e-001 -6.848292e-002 7.279536e-002 7.592337e-003 1.047081e-001 -8.592971e-002 -2.682338e-002 1.923832e-002 3.386023e-002 -9.200360e-002 -6.481832e-002
<VARIANCE> 39
 1.023805e+002 5.858974e+001 8.336281e+001 8.169470e+001 6.309533e+001 1.279965e+002 7.969372e+001 4.733641e+001 1.207055e+002 7.869546e+001 4.742744e+001 3.945113e+001 1.155191e+002 5.768233e-001 1.116780e+000 1.353408e+000 1.418992e+000 2.367551e+000 2.327126e+000 1.940872e+000 2.341417e+000 2.501589e+000 2.285108e+000 2.198624e+000 1.475821e+000 6.132661e-001 6.837854e-002 1.286911e-001 1.646371e-001 2.552979e-001 2.999805e-001 4.122045e-001 3.110780e-001 4.109477e-001 4.389625e-001 3.639672e-001 3.941885e-001 2.343086e-001 3.223740e-002
<GCONST> 1.140417e+002
<STATE> 4
<MEAN> 39
 -1.823065e-001 3.470908e-001 -1.361335e+000 2.334920e+000 -2.398843e+000 -1.216040e+001 -6.617290e+000 -4.378670e-001 -1.076279e-001 -4.421855e+000 -3.442267e+000 -5.751208e+000 5.368035e+001 -1.078222e+000 5.846275e-001 4.497626e-001 6.870784e-002 6.919907e-001 6.738934e-001 6.988205e-001 -2.374834e-001 -5.261866e-002 3.355924e-001 1.651540e-001 2.331039e-001 -1.051015e+000 -7.335148e-002 -1.250918e-001 -7.802944e-003 -1.853838e-001 -3.709792e-002 1.241531e-001 7.693151e-002 2.330964e-001 1.638819e-001 9.352610e-002 1.365816e-001 -1.407713e-003 1.320426e-001
<VARIANCE> 39
 1.357126e+002 5.476832e+001 4.641961e+001 4.748372e+001 5.529571e+001 1.054587e+002 1.042357e+002 6.173333e+001 6.994115e+001 7.391588e+001 5.414940e+001 4.510693e+001 1.829905e+002 1.578343e+000 1.588105e+000 2.299908e+000 2.925316e+000 3.436893e+000 2.709275e+000 3.886585e+000 4.893632e+000 3.869445e+000 3.689900e+000 3.401790e+000 3.190972e+000 5.126714e-001 2.808999e-001 2.366328e-001 3.449260e-001 5.883002e-001 5.065148e-001 4.881068e-001 6.307952e-001 8.930980e-001 6.880634e-001 7.766752e-001 7.095538e-001 5.268000e-001 8.357462e-002
<GCONST> 1.292975e+002
<TRANSP> 5
 0.000000e+000 1.000000e+000 0.000000e+000 0.000000e+000 0.000000e+000
 0.000000e+000 8.365479e-001 1.634521e-001 0.000000e+000 0.000000e+000
 0.000000e+000 0.000000e+000 8.759326e-001 1.240674e-001 0.000000e+000
 0.000000e+000 0.000000e+000 0.000000e+000 7.888550e-001 2.111450e-001
 0.000000e+000 0.000000e+000 0.000000e+000 0.000000e+000 0.000000e+000
<ENDHMM>
~h "ey"
<BEGINHMM>
<NUMSTATES> 5
<STATE> 2
<MEAN> 39
 8.863123e-002 -9.546992e+000 9.753050e+000 -4.425392e-001 -1.343231e+001 -1.466811e+001 -1.170475e+000 1.642188e+000 -4.049413e+000 -3.175296e+000 2.311984e-001 -8.840555e+000 6.814902e+001 1.152196e+000 -7.664372e-001 4.253710e-001 -1.084432e+000 -1.854293e+000 -5.767641e-001 -8.837543e-001 -1.018649e-001 -1.096361e+000 1.295851e-001 4.831473e-001 -1.556285e-001 8.541473e-001 -2.024166e-001 1.994881e-001 -6.379314e-003 -8.311055e-002 3.265637e-001 3.742991e-001 4.961042e-002 1.896174e-001 2.218106e-001 2.000607e-002 2.211790e-002 1.364757e-001 -2.628973e-001
