~o
<STREAMINFO> 1 39
<VECSIZE> 39<NULLD><MFCC_D_A_0><DIAGC>
~s "silst"
<MEAN> 39
 -9.105785e+000 -4.130914e+000 -1.720560e+000 3.527244e+000 7.581566e+000 2.025889e+000 1.170580e+001 1.030037e+001 8.131123e+000 4.055643e+000 2.936631e+000 -2.867905e+000 4.220673e+001 -2.123631e-001 -1.625164e-001 -2.365600e-002 8.018778e-002 1.934817e-001 2.505627e-001 2.562211e-001 2.704476e-001 1.822704e-001 1.342508e-001 -4.755616e-003 8.231702e-002 -1.449693e-001 1.384440e-001 4.690611e-002 1.273157e-002 -1.210400e-001 -1.632189e-001 -1.482317e-001 -2.164176e-001 -2.093847e-001 -2.020646e-001 -1.410032e-001 -1.085704e-001 -1.076571e-001 1.225503e-001
<VARIANCE> 39
 3.546984e+001 7.625409e+001 5.968288e+001 5.529102e+001 5.557889e+001 6.016997e+001 1.044904e+002 1.222644e+002 6.989094e+001 5.575385e+001 4.794885e+001 6.124646e+001 1.005075e+002 1.230063e+000 1.358099e+000 2.025424e+000 2.894347e+000 3.407982e+000 3.820188e+000 4.779236e+000 4.961089e+000 4.441175e+000 4.371923e+000 4.029091e+000 3.488206e+000 5.893808e-001 2.150354e-001 2.499413e-001 3.590953e-001 5.190389e-001 5.882338e-001 6.845976e-001 8.724734e-001 9.006906e-001 8.376448e-001 8.770654e-001 7.763267e-001 6.800674e-001 1.101888e-001
<GCONST> 1.303028e+002
~h "b"
<BEGINHMM>
<NUMSTATES> 5
<STATE> 2
<MEAN> 39
 4.273191e+000 9.059819e+000 4.718221e+000 1.787756e+000 -9.686226e-001 -4.792238e+000 -5.559415e+000 -7.917727e+000 -7.530221e+000 -8.879308e+000 -8.203903e+000 -8.291047e+000 5.486300e+001 1.595144e+000 -8.833560e-001 -1.326800e+000 -1.732000e+000 -9.305072e-001 1.591146e-001 -6.595114e-001 -2.345048e-001 5.932572e-001 5.571758e-001 -2.598563e-001 -6.786226e-002 3.074432e+000 -3.058332e-001 -8.839721e-001 -5.858297e-001 -6.551070e-001 -1.189073e-001 2.477589e-001 2.524643e-001 3.654108e-001 5.153998e-001 3.339542e-001 2.679084e-001 2.665379e-001 7.279620e-001
<VARIANCE> 39
 9.458785e+001 7.094118e+001 6.578540e+001 6.838466e+001 6.040506e+001 5.397416e+001 6.487589e+001 6.375335e+001 5.944606e+001 7.063161e+001 6.642031e+001 4.310097e+001 1.106179e+002 4.724851e+000 1.060882e+001 7.538701e+000 9.227701e+000 6.172951e+000 7.345846e+000 7.844789e+000 7.458466e+000 9.753148e+000 1.111031e+001 7.743396e+000 8.534400e+000 7.218306e+000 7.097308e-001 8.610282e-001 8.330059e-001 1.026925e+000 9.051890e-001 9.831054e-001 1.153263e+000 1.093338e+000 1.216820e+000 1.670205e+000 9.957721e-001 1.217722e+000 9.276462e-001
<GCONST> 1.535121e+002
<STATE> 3
<MEAN> 39
 3.628802e+000 -6.650454e+000 -7.834024e+000 -1.253037e+001 -6.202288e+000 -2.005303e+000 -5.262085e+000 -3.202636e+000 1.741138e+000 -3.074852e+000 -5.892304e+000 -7.110769e+000 7.681689e+001 -1.190341e+000 -2.395808e+000 -1.269136e+000 -1.310762e+000 -1.845733e-001 4.065057e-001 6.971138e-001 1.512405e+000 8.726964e-001 -8.056853e-001 -1.835038e-001 -8.752705e-002 3.602781e+000 -3.970255e-001 6.297181e-001 7.551373e-001 1.058952e+000 5.062532e-001 3.588678e-002 3.907993e-001 9.049476e-002 -6.711583e-001 -5.068994e-001 2.046034e-002 -8.576705e-002 -1.059977e+000
<VARIANCE> 39
 9.194811e+001 5.513451e+001 8.462406e+001 7.915383e+001 6.793713e+001 1.601859e+002 1.108577e+002 8.866317e+001 7.652000e+001 1.527466e+002 1.376438e+002 1.514887e+002 8.601761e+001 5.451430e+000 5.970403e+000 5.009482e+000 6.658621e+000 6.094892e+000 5.478339e+000 7.273694e+000 5.375048e+000 6.226305e+000 8.525853e+000 6.083819e+000 8.036184e+000 7.589680e+000 7.102011e-001 7.218967e-001 6.594920e-001 9.330924e-001 8.000709e-001 1.309369e+000 1.212929e+000 1.020007e+000 1.154139e+000 1.546935e+000 1.421058e+000 1.267470e+000 6.434644e-001
<GCONST> 1.551573e+002
<STATE> 4
<MEAN> 39
 -4.047376e+000 -5.974045e+000 -8.082065e+000 -1.265672e+001 -6.132727e+000 -1.674092e+000 -3.898326e+000 -2.801573e+000 -1.079006e-001 -9.630626e+000 -7.403773e+000 -3.917221e+000 8.221407e+001 -5.232989e-001 -2.677589e-001 1.341282e-001 4.214832e-001 5.982629e-002 1.413587e-001 4.881926e-001 2.244874e-001 -6.116428e-001 -5.099774e-001 2.271626e-001 9.168137e-002 2.631380e-001 1.608034e-001 1.753394e-001 2.247867e-001 5.758682e-002 -1.263749e-001 -1.978336e-001 -1.347520e-001 -1.733950e-001 -2.446070e-002 3.327701e-001 1.276375e-001 -3.473304e-002 -3.837888e-001
<VARIANCE> 39
 6.181726e+001 8.113046e+001 9.921564e+001 7.826665e+001 1.159399e+002 8.112116e+001 1.316337e+002 9.390058e+001 6.122211e+001 1.237116e+002 7.845605e+001 1.223906e+002 7.506642e+001 5.747111e-001 8.641347e-001 1.050461e+000 1.529341e+000 2.271225e+000 2.303557e+000 2.534542e+000 2.259859e+000 2.577688e+000 2.761091e+000 2.960888e+000 1.993221e+000 4.559471e-001 2.182388e-001 1.806773e-001 2.508876e-001 3.000426e-001 3.118209e-001 3.605869e-001 5.888464e-001 4.995844e-001 4.341693e-001 5.936983e-001 4.309391e-001 4.300013e-001 1.610424e-001
<GCONST> 1.221771e+002
<TRANSP> 5
 0.000000e+000 1.000000e+000 0.000000e+000 0.000000e+000 0.000000e+000
 0.000000e+000 7.570224e-001 2.429776e-001 0.000000e+000 0.000000e+000
 0.000000e+000 0.000000e+000 6.801374e-001 3.198626e-001 0.000000e+000
 0.000000e+000 0.000000e+000 0.000000e+000 6.986412e-001 3.013589e-001
 0.000000e+000 0.000000e+000 0.000000e+000 0.000000e+000 0.000000e+000
<ENDHMM>
~h "d"
<BEGINHMM>
<NUMSTATES> 5
<STATE> 2
<MEAN> 39
 8.547256e-001 5.899386e+000 6.531913e+000 2.748100e+000 -1.132269e+000 -5.089886e+000 -3.065488e+000 -5.387759e+000 -5.825743e+000 -7.666186e+000 -6.213411e+000 -8.238676e+000 5.162556e+001 1.056815e-001 -7.029532e-001 -2.076731e-001 -3.212163e-001 1.675373e-001 -6.590862e-001 -7.046418e-001 6.324016e-001 1.021206e+000 3.125908e-001 -3.513670e-003 -2.411656e-001 1.495015e+000 -1.148097e-001 -7.184225e-001 -1.669960e-001 -5.501537e-001 -4.308149e-001 -3.712903e-001 -2.659424e-001 2.768933e-001 2.561872e-001 1.896464e-001 2.158645e-001 -1.822086e-002 9.238926e-001
<VARIANCE> 39
 1.149742e+002 7.460733e+001 7.969778e+001 6.178085e+001 9.849135e+001 7.067797e+001 5.488330e+001 7.174544e+001 7.021930e+001 7.532635e+001 6.839164e+001 5.269376e+001 1.579592e+002 4.943818e+000 7.414401e+000 6.662031e+000 6.762106e+000 8.752593e+000 7.456270e+000 7.497404e+000 7.945901e+000 7.090405e+000 6.378470e+000 6.958922e+000 5.989196e+000 5.460883e+000 6.827831e-001 1.197483e+000 8.891068e-001 1.044467e+000 1.425843e+000 1.114094e+000 1.354776e+000 1.361206e+000 1.299508e+000 1.148048e+000 1.200620e+000 1.034164e+000 6.905484e-001
<GCONST> 1.541478e+002
<STATE> 3
<MEAN> 39
 2.100142e+000 -5.194212e+000 5.656010e+000 -4.303181e+000 -3.901203e+000 -9.748734e+000 -9.596239e+000 1.268373e+000 1.547336e+000 -2.635357e+000 -4.467925e+000 -1.066499e+001 6.886915e+001 -4.092740e-001 -2.639071e+000 -9.018351e-001 -2.411082e+000 -1.832350e+000 -3.224826e-001 -8.968262e-001 9.547564e-001 8.778190e-001 5.302971e-001 9.416649e-001 -5.561117e-002 3.997154e+000 6.757260e-002 5.762976e-001 -3.029497e-001 2.555780e-001 3.879945e-002 7.530273e-001 8.132281e-001 -2.990694e-001 -5.358944e-001 -3.797102e-001 9.062042e-003 1.652750e-001 -5.095848e-001
<VARIANCE> 39
 1.191291e+002 7.074389e+001 9.818374e+001 1.137675e+002 1.232808e+002 8.039816e+001 9.564859e+001 1.750000e+002 9.425974e+001 6.386389e+001 9.301977e+001 9.335513e+001 1.166184e+002 5.297904e+000 1.077406e+001 6.948714e+000 7.708869e+000 9.101267e+000 9.729818e+000 1.062879e+001 1.083593e+001 7.982653e+000 6.837393e+000 7.248879e+000 6.703469e+000 7.300252e+000 5.657966e-001 1.114552e+000 1.411386e+000 1.316339e+000 1.895853e+000 1.701633e+000 1.538268e+000 1.929092e+000 1.245430e+000 1.080761e+000 1.238022e+000 1.122702e+000 8.864939e-001
<GCONST> 1.615451e+002
<STATE> 4
<MEAN> 39
 -3.682884e+000 -3.820066e+000 -6.125233e-001 -7.714836e+000 -8.991037e+000 -9.507670e+000 -7.563943e+000 -1.910762e+000 -2.235829e+000 -5.813775e+000 -1.722956e+000 -4.679158e+000 7.512375e+001 -1.090799e-001 -7.386528e-001 -1.252457e+000 -4.088468e-001 -4.602234e-002 4.405348e-001 1.020437e+000 5.924529e-001 6.951587e-002 -7.012522e-001 -8.576897e-002 1.133864e-001 9.700851e-001 2.464664e-001 1.560980e-001 9.718181e-002 3.345985e-001 5.031164e-001 2.440003e-001 5.349158e-002 -1.569753e-001 -2.173813e-001 -1.753284e-001 -3.657628e-001 -2.025453e-001 -5.573551e-001
<VARIANCE> 39
 1.415697e+002 9.187707e+001 7.470296e+001 8.418430e+001 1.087850e+002 1.115538e+002 1.421918e+002 1.559709e+002 1.313664e+002 8.998000e+001 8.011077e+001 1.180988e+002 1.318992e+002 2.328347e+000 3.367808e+000 4.652864e+000 4.443079e+000 7.238000e+000 5.961985e+000 7.824202e+000 5.592505e+000 4.330620e+000 5.973686e+000 5.851084e+000 3.727807e+000 2.868372e+000 5.337078e-001 6.258151e-001 7.838504e-001 9.034681e-001 1.150773e+000 1.074118e+000 1.342691e+000 1.133244e+000 1.103449e+000 9.844901e-001 1.032146e+000 7.910761e-001 6.060196e-001
<GCONST> 1.513125e+002
<TRANSP> 5
 0.000000e+000 1.000000e+000 0.000000e+000 0.000000e+000 0.000000e+000
 0.000000e+000 7.125840e-001 2.874160e-001 0.000000e+000 0.000000e+000
 0.000000e+000 0.000000e+000 5.170972e-001 4.829028e-001 0.000000e+000
 0.000000e+000 0.000000e+000 0.000000e+000 5.283481e-001 4.716519e-001
 0.000000e+000 0.000000e+000 0.000000e+000 0.000000e+000 0.000000e+000
<ENDHMM>
~h "f"
<BEGINHMM>
<NUMSTATES> 5
<STATE> 2
<MEAN> 39
 3.849678e+000 -9.513773e+000 1.250188e+001 -5.511968e+000 -1.878688e+001 -1.294025e+001 -2.547169e+000 -5.024846e-001 -5.212229e+000 4.550100e+000 2.655180e+000 -8.743244e+000 6.380025e+001 -1.323351e-003 3.317908e-001 -1.785181e-001 -2.083868e-001 -2.570732e-001 2.797317e-001 6.091011e-001 1.269249e-001 5.059900e-001 7.679031e-001 7.900218e-001 1.390791e-001 -3.270270e-001 -9.316430e-002 8.907960e-002 -7.136587e-002 3.057300e-001 3.931385e-001 8.484414e-002 4.246877e-002 -6.805107e-002 1.132168e-001 -4.641533e-002 -2.111481e-001 7.826620e-002 -1.678515e-001
<VARIANCE> 39
 1.411598e+001 2.380407e+001 1.741694e+001 2.401440e+001 3.887242e+001 3.459974e+001 2.783656e+001 3.010784e+001 2.759428e+001 4.583123e+001 3.573811e+001 2.574366e+001 1.710157e+001 2.401685e-001 9.572411e-001 9.795873e-001 3.090001e+000 3.265426e+000 1.744703e+000 1.596481e+000 2.147164e+000 1.977267e+000 1.873098e+000 3.218430e+000 1.909332e+000 7.238802e-001 6.490412e-002 1.513458e-001 1.631123e-001 2.516798e-001 3.613366e-001 3.375099e-001 3.342842e-001 4.039402e-001 4.320048e-001 3.414008e-001 4.279631e-001 3.010212e-001 3.935674e-002
<GCONST> 1.005624e+002
<STATE> 3
<MEAN> 39
 -2.804196e+000 -7.103983e+000 5.491463e+000 1.075347e+000 -6.989728e+000 -9.061269e+000 5.564837e+000 3.875415e+000 4.872556e+000 7.329668e+000 3.144655e+000 -5.176800e+000 5.551789e+001 -1.845811e+000 -8.855430e-001 -1.464881e+000 6.255213e-001 2.457857e+000 1.271922e+000 1.681379e+000 1.815010e+000 1.680917e+000 1.581410e-001 -6.188639e-002 3.994146e-001 -1.113517e+000 -4.355485e-003 -1.510360e-001 5.265912e-002 -1.677989e-001 -4.700530e-002 9.022817e-002 -1.034495e-002 8.142794e-002 -2.031470e-001 -5.400472e-002 -1.387155e-002 -1.222413e-001 1.105971e-001
<VARIANCE> 39
 3.213058e+001 2.770209e+001 2.849335e+001 2.445405e+001 4.708222e+001 4.868478e+001 7.082087e+001 6.551305e+001 4.562879e+001 6.168469e+001 2.328917e+001 2.723605e+001 2.253869e+001 7.961730e-001 1.170535e+000 9.455444e-001 2.219142e+000 2.860998e+000 2.826752e+000 3.813380e+000 3.087735e+000 3.780545e+000 2.763583e+000 1.968225e+000 1.671893e+000 2.374219e-001 3.042518e-001 3.435559e-001 2.371843e-001 4.074642e-001 4.782318e-001 5.585128e-001 7.462265e-001 6.432498e-001 6.997931e-001 5.504980e-001 4.081622e-001 3.748330e-001 3.171271e-002
<GCONST> 1.131000e+002
<STATE> 4
<MEAN> 39
 -8.809469e+000 -1.045583e+001 -3.287893e+000 5.616151e+000 7.800743e+000 1.347097e+000 1.583909e+001 1.661780e+001 1.164288e+001 7.063120e+000 3.605611e+000 -5.287769e+000 4.928852e+001 -1.511542e-001 4.861277e-002 -4.576066e-001 3.335825e-001 8.837699e-001 5.569395e-001 4.858226e-001 5.131661e-001 1.270302e-001 -7.863773e-002 2.825573e-002 -1.213344e-001 -3.366190e-001 5.144693e-002 3.543022e-002 5.891471e-002 -5.084238e-002 -1.154080e-001 -1.007890e-001 -5.362631e-002 -8.623536e-002 -9.117717e-002 5.966305e-003 -2.969124e-002 -1.627990e-002 4.691727e-002
<VARIANCE> 39
 7.089885e+000 1.604572e+001 2.537690e+001 2.253325e+001 4.997135e+001 4.394151e+001 5.714277e+001 6.861060e+001 3.394075e+001 3.414781e+001 2.371657e+001 2.762760e+001 1.502296e+001 4.299037e-001 5.147324e-001 1.101397e+000 1.476229e+000 2.147314e+000 2.252285e+000 2.094028e+000 2.231459e+000 2.202526e+000 2.067925e+000 2.004982e+000 2.013507e+000 3.006917e-001 8.742738e-002 9.460036e-002 1.883670e-001 2.556559e-001 3.161716e-001 3.638385e-001 3.595567e-001 4.011174e-001 3.987246e-001 3.837204e-001 3.976082e-001 3.692620e-001 4.079212e-002
<GCONST> 9.986166e+001
<TRANSP> 5
 0.000000e+000 1.000000e+000 0.000000e+000 0.000000e+000 0.000000e+000
 0.000000e+000 8.696322e-001 1.303678e-001 0.000000e+000 0.000000e+000
 0.000000e+000 0.000000e+000 7.518365e-001 2.481635e-001 0.000000e+000
 0.000000e+000 0.000000e+000 0.000000e+000 8.750408e-001 1.249591e-001
 0.000000e+000 0.000000e+000 0.000000e+000 0.000000e+000 0.000000e+000
<ENDHMM>
~h "g"
<BEGINHMM>
<NUMSTATES> 5
<STATE> 2
<MEAN> 39
 -2.050190e-001 1.050313e-001 4.066381e+000 7.693259e+000 3.207614e+000 -5.681570e+000 2.117653e+000 -8.113952e-002 -3.726836e+000 -8.082530e+000 -9.368853e+000 -1.193063e+001 5.189129e+001 1.648396e-001 2.437094e-001 3.336486e-001 9.210876e-001 1.168021e+000 5.939105e-001 1.777412e-001 -1.220795e-001 -6.748558e-001 -7.068427e-001 -4.069349e-001 -2.028034e-001 1.101445e-001 4.696543e-002 -2.555123e-001 -2.072163e-002 -1.795486e-001 -3.079599e-001 -1.217463e-001 -1.051050e-001 -1.353709e-001 6.707500e-003 3.328977e-001 2.387801e-001 9.038617e-002 2.233545e-001
<VARIANCE> 39
 3.036466e+001 3.497386e+001 2.669023e+001 3.468242e+001 7.220702e+001 4.798294e+001 4.376432e+001 5.537044e+001 5.499902e+001 5.076960e+001 3.570061e+001 2.994085e+001 3.503474e+001 8.990989e-001 2.073296e+000 1.584658e+000 2.189499e+000 4.134421e+000 3.416697e+000 3.828516e+000 5.299250e+000 5.131438e+000 4.814374e+000 3.304336e+000 2.732225e+000 7.994772e-001 1.626150e-001 2.610949e-001 3.614364e-001 3.718298e-001 7.115702e-001 6.006150e-001 7.727948e-001 1.048911e+000 9.710963e-001 6.924189e-001 5.190093e-001 4.888605e-001 1.290283e-001
<GCONST> 1.225502e+002
<STATE> 3
<MEAN> 39
 9.846784e-001 6.785484e+000 6.361064e+000 4.581850e+000 3.049474e+000 -5.082019e+000 -3.071635e+000 -6.030933e+000 -4.762606e+000 -6.710927e+000 -5.089260e+000 -7.709176e+000 5.275808e+001 1.071985e+000 -1.466319e+000 -1.848491e-001 -5.213663e-002 -4.192151e-001 -1.790839e-001 -1.551665e+000 -1.268725e+000 -4.234895e-001 5.158733e-001 8.474835e-001 -2.814859e-002 2.325855e+000 5.382034e-003 -3.780711e-001 9.413183e-002 -5.965343e-001 -5.774445e-001 -1.510417e-001 -4.656962e-001 -1.273452e-001 5.820565e-002 5.713956e-002 2.857910e-001 4.133878e-002 6.705279e-001
<VARIANCE> 39
 1.123732e+002 1.193808e+002 1.050314e+002 7.216740e+001 1.364913e+002 1.043832e+002 1.259540e+002 8.375718e+001 9.581245e+001 7.382858e+001 1.029395e+002 5.016840e+001 1.279743e+002 4.889551e+000 9.621211e+000 1.206285e+001 8.315193e+000 1.289241e+001 8.704129e+000 1.022768e+001 1.016973e+001 8.612726e+000 9.337980e+000 6.493390e+000 7.178311e+000 5.374576e+000 7.305337e-001 1.347578e+000 1.494380e+000 1.364781e+000 1.827284e+000 1.351930e+000 1.804473e+000 1.889825e+000 1.583418e+000 1.559815e+000 1.002731e+000 1.102362e+000 5.498655e-001
<GCONST> 1.621778e+002
<STATE> 4
<MEAN> 39
 2.331815e+000 -4.679252e+000 5.418679e+000 -2.793527e+000 -5.924032e+000 -5.859312e+000 -1.098141e+001 -7.532035e+000 -2.700710e+000 -5.316330e+000 1.608783e+000 -8.022646e+000 7.190402e+001 -8.504532e-002 -8.589671e-001 5.046934e-001 -1.829332e+000 -1.950026e+000 -5.646733e-001 -1.222427e+000 1.739542e-001 2.394842e-001 -4.383522e-002 5.931715e-001 3.752230e-001 2.510303e+000 -1.418110e-001 4.691326e-001 3.783016e-002 9.423948e-002 1.538513e-001 5.298918e-002 3.171677e-001 2.017409e-001 1.984849e-002 -4.560022e-002 -3.380222e-001 6.257661e-002 -5.634187e-001
<VARIANCE> 39
 7.662206e+001 8.641808e+001 3.415797e+002 1.222263e+002 1.072453e+002 1.835857e+002 1.295652e+002 1.090394e+002 8.070417e+001 1.263388e+002 1.153261e+002 1.190011e+002 7.345049e+001 3.684294e+000 7.958664e+000 7.952972e+000 8.504966e+000 5.792935e+000 1.023851e+001 1.011266e+001 1.169389e+001 6.436970e+000 7.162743e+000 4.991662e+000 6.100237e+000 3.723154e+000 5.064965e-001 1.135783e+000 1.664972e+000 1.380548e+000 1.238489e+000 1.764886e+000 1.676571e+000 2.038241e+000 1.340328e+000 1.078047e+000 8.980690e-001 1.036360e+000 3.416548e-001
<GCONST> 1.601340e+002
<TRANSP> 5
 0.000000e+000 1.000000e+000 0.000000e+000 0.000000e+000 0.000000e+000
 0.000000e+000 8.138137e-001 1.861862e-001 0.000000e+000 0.000000e+000
 0.000000e+000 0.000000e+000 6.854220e-001 3.145780e-001 0.000000e+000
 0.000000e+000 0.000000e+000 0.000000e+000 6.875741e-001 3.124258e-001
 0.000000e+000 0.000000e+000 0.000000e+000 0.000000e+000 0.000000e+000
<ENDHMM>
~h "k"
<BEGINHMM>
<NUMSTATES> 5
<STATE> 2
<MEAN> 39
 -6.541476e+000 -4.839668e-001 1.338417e+000 -2.023201e+000 -5.572400e+000 -8.729733e+000 -1.526358e+000 -2.260566e+000 -2.933246e+000 -4.968745e+000 -2.118439e+000 -5.771869e+000 5.422403e+001 -5.729602e-001 -1.218333e-001 -5.164501e-001 6.995721e-001 1.120821e+000 5.492364e-001 5.963894e-001 5.645475e-001 5.442438e-001 5.949669e-001 2.378345e-001 2.524086e-001 -7.280823e-001 -9.114454e-002 -1.577687e-001 -4.608819e-002 -1.462504e-001 -5.765305e-002 -4.341485e-003 4.865970e-002 1.358305e-001 1.030550e-001 1.088725e-001 4.544643e-002 6.721363e-002 4.813313e-001
<VARIANCE> 39
 5.762890e+001 5.100868e+001 9.076327e+001 5.028631e+001 7.443547e+001 8.180985e+001 6.879726e+001 9.896673e+001 8.665730e+001 7.706967e+001 4.560340e+001 4.197958e+001 9.793880e+001 1.438946e+000 1.632960e+000 2.202495e+000 2.791322e+000 3.686435e+000 3.536435e+000 3.757620e+000 3.980008e+000 4.172575e+000 3.734876e+000 3.118274e+000 2.663784e+000 1.472767e+000 3.531090e-001 4.001268e-001 5.620840e-001 5.794917e-001 7.843966e-001 8.099890e-001 8.316102e-001 9.191675e-001 8.801782e-001 7.427250e-001 7.238632e-001 5.806269e-001 3.690714e-001
<GCONST> 1.336818e+002
<STATE> 3
<MEAN> 39
 -8.115260e+000 -1.364470e+000 2.985923e+000 9.226397e-001 -1.356479e+000 -5.917673e+000 3.338047e+000 6.938532e-001 -1.434050e+000 -7.071893e-001 1.940924e+000 -3.615001e+000 4.786176e+001 -3.677704e-001 -2.465767e-001 -4.311887e-001 -2.974931e-003 5.039082e-001 2.707914e-001 3.801193e-001 1.365105e-001 2.315782e-001 3.063271e-001 -1.373824e-001 9.022851e-002 6.226169e-001 2.011670e-001 2.734649e-002 4.130841e-002 -3.457389e-001 -4.691617e-001 -4.058121e-001 -3.951652e-001 -2.661912e-001 -2.111944e-001 -2.590905e-001 -2.471906e-001 -1.741510e-001 6.117312e-001
<VARIANCE> 39
 4.796163e+001 5.812138e+001 1.154324e+002 6.022995e+001 9.774579e+001 8.886073e+001 1.301376e+002 1.487967e+002 1.204576e+002 8.691138e+001 6.549671e+001 4.719809e+001 1.364564e+002 2.686605e+000 2.943300e+000 4.962938e+000 5.124672e+000 7.410208e+000 6.349723e+000 7.574149e+000 8.027310e+000 6.090939e+000 6.245801e+000 5.642077e+000 4.213336e+000 2.289219e+000 6.112660e-001 5.057716e-001 9.481610e-001 9.112440e-001 1.490699e+000 1.154210e+000 1.459938e+000 1.543068e+000 1.216629e+000 1.097863e+000 1.133644e+000 7.811652e-001 4.657510e-001
<GCONST> 1.499429e+002
<STATE> 4
<MEAN> 39
 -5.693888e+000 -3.545196e+000 2.120663e+000 -2.820210e+000 -5.733814e+000 -1.188449e+001 -4.610977e+000 -3.382128e+000 -4.320686e+000 -5.589163e+000 -1.797483e+000 -6.211055e+000 6.146748e+001 4.354384e-001 -3.947071e-001 -3.229338e-001 -5.043954e-001 -4.243639e-001 -3.613918e-001 -2.620122e-001 -2.790566e-003 -9.824397e-002 -2.395850e-001 -2.645148e-001 -4.341517e-001 1.947173e+000 1.170289e-001 1.259833e-001 2.001983e-001 -1.150614e-001 -1.232680e-001 7.558224e-002 -3.667841e-003 -3.174514e-004 -7.486833e-002 -9.035948e-002 2.648614e-002 -1.914421e-002 1.852408e-002
<VARIANCE> 39
 1.481810e+002 1.040239e+002 2.072508e+002 9.565928e+001 1.398752e+002 1.471594e+002 1.331071e+002 1.289993e+002 1.105621e+002 9.779924e+001 9.643099e+001 8.923637e+001 1.529622e+002 7.754352e+000 7.612868e+000 1.145726e+001 8.700683e+000 1.367454e+001 9.580699e+000 9.730028e+000 9.783847e+000 1.017480e+001 7.955800e+000 8.266422e+000 6.401390e+000 7.290110e+000 1.052259e+000 1.154654e+000 1.444316e+000 1.487444e+000 1.802807e+000 1.581651e+000 1.536214e+000 1.527219e+000 1.684338e+000 1.215508e+000 1.402418e+000 1.111400e+000 1.247486e+000
<GCONST> 1.669789e+002
<TRANSP> 5
 0.000000e+000 1.000000e+000 0.000000e+000 0.000000e+000 0.000000e+000
 0.000000e+000 5.632977e-001 4.367022e-001 0.000000e+000 0.000000e+000
 0.000000e+000 0.000000e+000 5.004088e-001 4.995912e-001 0.000000e+000
 0.000000e+000 0.000000e+000 0.000000e+000 6.914103e-001 3.085898e-001
 0.000000e+000 0.000000e+000 0.000000e+000 0.000000e+000 0.000000e+000
<ENDHMM>
~h "l"
<BEGINHMM>
<NUMSTATES> 5
<STATE> 2
<MEAN> 39
 -3.962563e+000 3.955464e-001 -9.144009e+000 -7.576428e+000 -8.426239e+000 -4.171670e+000 -8.317761e+000 -4.563846e+000 -3.526404e-001 -8.368428e+000 -4.886352e+000 -3.024271e+000 7.548695e+001 -1.471325e-001 1.716333e-002 2.955812e-001 2.510384e-002 9.203087e-002 4.311837e-001 4.838434e-001 -1.343372e-002 -2.571254e-001 3.142931e-001 1.625815e-001 -4.960931e-002 -5.538108e-001 -4.917584e-002 5.793698e-003 2.493594e-002 3.357618e-002 -3.364937e-002 -1.577535e-002 7.764257e-002 7.816264e-002 -8.521450e-003 1.162862e-002 1.980825e-002 -4.754612e-003 -3.945605e-002
<VARIANCE> 39
 3.747915e+001 6.234577e+001 1.078804e+002 7.443770e+001 1.556900e+002 7.683540e+001 1.122382e+002 6.074557e+001 7.548130e+001 9.150121e+001 4.781343e+001 5.285456e+001 8.051595e+001 6.976451e-001 1.276184e+000 1.592900e+000 1.757556e+000 3.967224e+000 2.933013e+000 3.331894e+000 2.322682e+000 2.447028e+000 2.425078e+000 2.095079e+000 2.008425e+000 1.530273e+000 1.292480e-001 1.571461e-001 2.382944e-001 2.821679e-001 5.850373e-001 4.740962e-001 6.238682e-001 4.413476e-001 4.307707e-001 4.118344e-001 3.661566e-001 3.627881e-001 1.290168e-001
<GCONST> 1.217978e+002
<STATE> 3
<MEAN> 39
 -1.194537e+000 -6.394837e+000 -6.460245e+000 -5.268059e+000 -1.373889e+000 -3.287253e+000 3.416490e+000 4.220271e+000 3.032464e+000 9.215656e-001 -1.277614e+000 -8.863767e+000 5.919937e+001 3.005250e-001 5.235947e-001 -3.386745e-001 -7.468205e-001 -1.042505e+000 3.675527e-001 1.182704e-001 -1.383986e-001 -5.755631e-001 2.079323e-002 -1.703534e-002 2.769037e-001 2.484197e-001 3.506975e-001 6.039348e-002 -2.634024e-001 -5.538045e-001 -3.149716e-001 1.680167e-001 -1.959645e-001 -3.057268e-001 -3.868238e-001 -2.574157e-001 -4.514500e-002 6.709342e-003 5.947813e-001
<VARIANCE> 39
 8.750160e+001 5.222779e+001 7.840637e+001 6.660802e+001 7.230007e+001 6.113046e+001 1.248768e+002 1.172036e+002 8.932145e+001 9.079951e+001 6.489278e+001 6.083673e+001 1.017035e+002 3.587222e+000 2.394970e+000 3.745161e+000 6.720729e+000 6.073742e+000 4.960092e+000 6.430924e+000 6.913612e+000 6.158926e+000 4.450211e+000 3.890148e+000 3.843914e+000 4.903392e+000 5.683829e-001 3.841578e-001 6.603351e-001 9.383017e-001 9.387774e-001 8.296956e-001 9.278727e-001 1.080305e+000 9.714882e-001 6.562835e-001 6.458132e-001 5.368906e-001 5.110702e-001
<GCONST> 1.443079e+002
<STATE> 4
<MEAN> 39
 5.138182e+000 -6.177748e+000 -9.876678e+000 -1.562217e+001 -7.872436e+000 1.077853e+000 2.428414e-001 -3.334687e+000 -5.932080e+000 -2.423460e+000 -1.475002e+000 -8.118971e+000 7.255209e+001 5.818839e-001 -3.534574e-001 -6.903218e-001 -6.648427e-001 -3.202318e-001 6.626462e-001 -7.749185e-001 -4.418049e-001 -6.115084e-001 -9.082339e-003 2.015675e-001 -5.097549e-003 6.637985e-001 -2.371525e-001 -1.297793e-001 1.017437e-001 4.282059e-001 4.381815e-001 -6.838708e-002 -7.087181e-002 2.337145e-001 4.109430e-001 7.707480e-002 4.675186e-003 -1.046520e-001 -3.470601e-001
<VARIANCE> 39
 8.300143e+001 8.968537e+001 9.974879e+001 1.051342e+002 7.256668e+001 1.002192e+002 9.422808e+001 6.496790e+001 4.705439e+001 7.078409e+001 5.306176e+001 5.189222e+001 1.107372e+002 5.446916e+000 2.995993e+000 4.343570e+000 8.916750e+000 5.694630e+000 7.416286e+000 6.286695e+000 5.298176e+000 4.520288e+000 4.556131e+000 3.357717e+000 3.289117e+000 7.419741e+000 7.520566e-001 5.209900e-001 5.597253e-001 1.274653e+000 7.729867e-001 1.042566e+000 9.001547e-001 9.321107e-001 8.159049e-001 9.468603e-001 6.604596e-001 6.429221e-001 5.090163e-001
<GCONST> 1.458737e+002
<TRANSP> 5
 0.000000e+000 1.000000e+000 0.000000e+000 0.000000e+000 0.000000e+000
 0.000000e+000 8.336014e-001 1.663986e-001 0.000000e+000 0.000000e+000
 0.000000e+000 0.000000e+000 6.140317e-001 3.859683e-001 0.000000e+000
 0.000000e+000 0.000000e+000 0.000000e+000 6.474860e-001 3.525139e-001
 0.000000e+000 0.000000e+000 0.000000e+000 0.000000e+000 0.000000e+000
<ENDHMM>
~h "m"
<BEGINHMM>
<NUMSTATES> 5
<STATE> 2
<MEAN> 39
 2.149709e+000 9.054185e+000 4.611759e+000 7.210259e-001 -2.344841e+000 -7.481189e+000 -7.929906e+000 -9.544659e+000 -9.774525e+000 -8.290171e+000 -6.864630e+000 -7.643059e+000 5.583247e+001 1.529138e+000 1.066135e+000 6.601158e-001 8.780054e-001 -3.186035e-001 -6.264018e-001 -1.030477e+000 -1.031492e+000 -1.061042e+000 -3.212400e-001 -8.098475e-001 -7.685958e-001 4.659091e-001 -2.532325e-001 -4.897643e-001 -1.494525e-001 -3.183488e-001 -2.338625e-001 9.109952e-002 3.447567e-001 3.894085e-001 5.251660e-001 2.803446e-001 2.176975e-001 2.409484e-001 3.722923e-001
<VARIANCE> 39
 8.154800e+001 6.014670e+001 6.489135e+001 5.200864e+001 9.032141e+001 6.599628e+001 7.131791e+001 6.357772e+001 6.729582e+001 7.047746e+001 5.666935e+001 4.198440e+001 1.233499e+002 8.374730e+000 3.508335e+000 2.919946e+000 3.183205e+000 5.194330e+000 4.795223e+000 6.824922e+000 5.438699e+000 6.487225e+000 5.102035e+000 3.968985e+000 3.907319e+000 4.106856e+000 5.380208e-001 6.000597e-001 5.748597e-001 5.820730e-001 8.066571e-001 8.566310e-001 9.622186e-001 1.066034e+000 9.907214e-001 9.170334e-001 7.776595e-001 8.014460e-001 3.696252e-001
<GCONST> 1.424247e+002
<STATE> 3
<MEAN> 39
 5.202862e+000 8.138842e+000 5.753345e+000 2.648469e+000 -3.779947e+000 -8.807290e+000 -8.745430e+000 -8.733310e+000 -9.350817e+000 -7.964062e+000 -7.248915e+000 -9.200269e+000 5.637788e+001 -2.021136e-001 -3.294033e-001 7.164454e-003 -4.440171e-002 -4.242452e-001 1.446822e-001 5.948774e-001 4.634554e-001 6.248309e-001 4.535811e-001 3.572331e-003 -3.208068e-002 1.357414e-001 -3.014005e-001 -5.136915e-001 -8.078349e-002 -4.445710e-001 -2.215822e-001 2.413111e-001 4.021433e-001 4.301209e-001 3.020292e-001 1.238625e-001 1.621484e-001 1.259246e-001 3.371497e-001
<VARIANCE> 39
 5.727142e+001 6.319644e+001 4.838660e+001 4.547343e+001 5.745708e+001 4.752102e+001 5.505442e+001 6.517439e+001 5.837884e+001 5.843348e+001 4.636587e+001 3.085435e+001 7.772762e+001 2.607320e+000 1.661510e+000 1.982573e+000 2.161025e+000 4.250830e+000 3.166824e+000 3.654305e+000 4.452829e+000 3.841102e+000 3.475890e+000 2.872003e+000 2.680437e+000 1.629446e+000 2.899286e-001 5.312095e-001 5.929850e-001 5.705404e-001 6.977522e-001 6.863182e-001 7.898483e-001 8.364729e-001 7.801002e-001 6.308063e-001 5.220709e-001 5.858627e-001 3.344342e-001
<GCONST> 1.297560e+002
<STATE> 4
<MEAN> 39
 5.695457e+000 4.408938e+000 1.034489e+001 -8.409362e-001 -1.079406e+001 -8.030524e+000 -3.993827e+000 -4.859114e+000 -8.050221e+000 -5.337337e+000 -6.092031e+000 -9.818789e+000 6.257472e+001 -1.455428e+000 -2.740922e+000 1.500631e+000 -2.622292e+000 -1.813905e+000 1.137760e+000 1.057979e+000 1.651832e+000 4.122949e-001 1.231469e-001 6.373580e-001 9.398472e-002 2.555349e+000 -3.750736e-001 -4.611304e-002 -3.331103e-002 -6.969337e-001 2.403068e-001 3.201212e-001 -1.789358e-001 1.562751e-001 -2.586098e-002 -2.164068e-001 1.779254e-001 3.997681e-002 2.220240e-001
<VARIANCE> 39
 8.553943e+001 9.319565e+001 1.690427e+002 1.056652e+002 1.357672e+002 7.744258e+001 1.148898e+002 1.435352e+002 6.496586e+001 9.299788e+001 9.064397e+001 9.588258e+001 1.099643e+002 4.221486e+000 6.702570e+000 1.162448e+001 7.777503e+000 9.639928e+000 7.632397e+000 8.942477e+000 1.057156e+001 6.779719e+000 6.528776e+000 4.127035e+000 6.362208e+000 3.526578e+000 5.784892e-001 1.450647e+000 1.409781e+000 1.216420e+000 1.372337e+000 1.141219e+000 1.318933e+000 1.444781e+000 1.013446e+000 9.937853e-001 8.228600e-001 8.862983e-001 7.340903e-001
<GCONST> 1.577515e+002
<TRANSP> 5
 0.000000e+000 1.000000e+000 0.000000e+000 0.000000e+000 0.000000e+000
 0.000000e+000 3.199829e-001 6.800171e-001 0.000000e+000 0.000000e+000
 0.000000e+000 0.000000e+000 5.906548e-001 4.093452e-001 0.000000e+000
 0.000000e+000 0.000000e+000 0.000000e+000 5.507194e-001 4.492805e-001
 0.000000e+000 0.000000e+000 0.000000e+000 0.000000e+000 0.000000e+000
<ENDHMM>
~h "n"
<BEGINHMM>
<NUMSTATES> 5
<STATE> 2
<MEAN> 39
 -6.649863e-001 1.098946e+000 4.638999e+000 -9.682150e+000 -8.828502e+000 -6.425407e+000 -3.428526e+000 -6.082787e+000 -1.051657e+001 -1.222946e+001 -6.318880e+000 -6.716898e+000 6.994033e+001 9.963015e-001 2.049512e+000 -1.923686e-001 1.601732e+000 -2.528720e-001 -3.753523e-001 -3.603847e-001 -6.477118e-001 -2.728949e-001 2.879923e-001 -8.976772e-001 -6.922928e-002 -1.966239e+000 -3.561089e-002 -7.318760e-002 -1.919323e-001 9.306023e-002 1.318489e-001 -9.123562e-002 9.531687e-003 -2.227958e-002 2.235319e-001 1.590007e-001 -4.249450e-002 1.448723e-002 3.218876e-002
<VARIANCE> 39
 1.020875e+002 8.170553e+001 9.000663e+001 1.298655e+002 7.008791e+001 7.585864e+001 6.840555e+001 1.289383e+002 9.240814e+001 7.812392e+001 4.831865e+001 5.746053e+001 9.334558e+001 1.381352e+000 2.212974e+000 3.003541e+000 3.437206e+000 2.912850e+000 2.553328e+000 4.260900e+000 3.030343e+000 3.974496e+000 3.801049e+000 2.834854e+000 2.739716e+000 6.766159e-001 1.799799e-001 3.092213e-001 3.773205e-001 5.086815e-001 3.689381e-001 4.043492e-001 5.962003e-001 4.927230e-001 5.794010e-001 5.131910e-001 4.606923e-001 4.384315e-001 1.191570e-001
<GCONST> 1.288700e+002
<STATE> 3
<MEAN> 39
 1.063191e+001 1.359930e+000 7.171156e+000 3.005278e+000 -5.620992e+000 -9.322505e+000 -3.974341e+000 2.376878e+000 -3.796815e+000 -6.989664e+000 -8.000688e+000 -1.016718e+001 5.994622e+001 -9.496206e-002 1.544587e+000 -1.001032e-002 6.721476e-001 3.517480e-001 -2.639351e-001 -1.082256e-001 -8.089639e-001 1.366186e-001 1.239822e-001 -8.805209e-002 4.537456e-001 -1.402257e+000 -2.432181e-001 -2.318493e-001 6.600258e-002 -2.323492e-001 1.493836e-001 1.140673e-001 2.764967e-003 9.496129e-002 -1.151992e-001 -1.222445e-002 1.511465e-001 -2.846997e-002 1.419373e-001
<VARIANCE> 39
 6.034899e+001 7.439511e+001 8.029122e+001 5.024544e+001 6.945115e+001 1.011605e+002 5.800589e+001 1.278450e+002 6.608648e+001 7.063477e+001 5.709993e+001 5.026880e+001 6.684808e+001 8.321794e-001 1.402406e+000 2.095889e+000 2.093087e+000 2.603868e+000 2.435019e+000 2.917334e+000 3.211931e+000 2.626580e+000 2.773320e+000 2.494388e+000 2.172746e+000 3.898264e-001 1.014533e-001 1.885333e-001 2.945609e-001 3.718708e-001 3.995766e-001 4.171760e-001 5.154228e-001 6.081440e-001 4.543637e-001 4.628403e-001 4.218950e-001 4.081912e-001 6.376640e-002
<GCONST> 1.200318e+002
<STATE> 4
<MEAN> 39
 -1.139326e+000 6.906342e+000 4.393303e+000 1.475969e+000 -4.480909e+000 -6.435089e+000 -7.417924e+000 -8.809896e+000 -1.102672e+001 -1.171086e+001 -9.142827e+000 -7.272929e+000 6.022632e+001 -5.063370e-001 -8.745629e-002 -5.214527e-002 2.120609e-001 5.601830e-001 7.097784e-002 1.450021e-001 2.187727e-001 1.957568e-001 1.906157e-001 8.872460e-002 -8.550492e-002 -6.109027e-001 -1.770564e-001 -2.110937e-001 6.650981e-003 -2.220940e-001 3.939942e-003 7.293827e-002 9.759265e-002 1.860951e-001 1.055348e-001 5.038416e-003 1.246012e-001 2.304634e-002 1.696059e-001
<VARIANCE> 39
 4.656993e+001 3.423519e+001 4.197099e+001 3.277674e+001 4.700554e+001 5.062884e+001 4.156984e+001 6.089698e+001 6.581915e+001 6.186449e+001 4.069248e+001 3.864587e+001 8.556078e+001 7.371271e-001 1.165131e+000 1.251889e+000 1.606820e+000 2.001524e+000 2.037737e+000 2.596072e+000 2.372073e+000 2.368103e+000 2.479155e+000 2.332535e+000 2.047717e+000 3.636419e-001 1.955367e-001 2.061443e-001 3.165129e-001 3.880670e-001 3.966985e-001 4.287342e-001 4.720396e-001 4.358895e-001 4.565572e-001 4.756789e-001 4.524496e-001 4.096701e-001 1.072413e-001
<GCONST> 1.139975e+002
<TRANSP> 5
 0.000000e+000 1.000000e+000 0.000000e+000 0.000000e+000 0.000000e+000
 0.000000e+000 4.960448e-001 5.039552e-001 0.000000e+000 0.000000e+000
 0.000000e+000 0.000000e+000 6.503782e-001 3.496219e-001 0.000000e+000
 0.000000e+000 0.000000e+000 0.000000e+000 7.907360e-001 2.092640e-001
 0.000000e+000 0.000000e+000 0.000000e+000 0.000000e+000 0.000000e+000
<ENDHMM>
~h "p"
<BEGINHMM>
<NUMSTATES> 5
<STATE> 2
<MEAN> 39
 -1.263285e+000 -2.515088e+000 8.983152e-001 -3.640797e+000 -8.169090e+000 -7.377452e+000 -2.531499e+000 -2.816424e+000 -3.249933e+000 -3.350045e+000 -2.875021e+000 -4.939873e+000 5.996761e+001 1.586146e+000 -7.986800e-001 1.311228e+000 -1.877260e+000 -2.963803e+000 -1.868262e+000 -1.305170e+000 -1.060015e+000 -1.323737e+000 -3.356930e-001 -4.948354e-001 -2.145071e-001 4.032142e+000 -1.628575e-001 -1.721639e-001 5.168062e-003 -6.822844e-001 2.844856e-002 4.169684e-001 7.767862e-002 6.271996e-002 7.468802e-002 3.015482e-002 7.547829e-002 6.541651e-002 3.185457e-001
<VARIANCE> 39
 8.699634e+001 6.271282e+001 2.139291e+002 1.253913e+002 1.304785e+002 1.391671e+002 1.100344e+002 9.131428e+001 7.552752e+001 7.924110e+001 8.020879e+001 6.083033e+001 1.700497e+002 5.550012e+000 5.684699e+000 1.558080e+001 1.247417e+001 1.929652e+001 1.142025e+001 8.642442e+000 1.193766e+001 8.643071e+000 7.783835e+000 7.627868e+000 6.763345e+000 1.322575e+001 1.148446e+000 8.506070e-001 1.578087e+000 1.516852e+000 2.330029e+000 2.179085e+000 1.219367e+000 1.528372e+000 1.321278e+000 1.329890e+000 1.588874e+000 1.072312e+000 1.856905e+000
<GCONST> 1.661260e+002
<STATE> 3
<MEAN> 39
 -2.175334e+000 -3.455972e+000 -2.449328e-001 -1.655218e+001 -1.730706e+001 -6.795694e+000 -8.070850e+000 -9.431798e+000 -3.921191e+000 -2.259596e+000 -3.249168e+000 -2.709281e+000 7.555059e+001 -5.553027e-001 -7.191053e-002 7.346565e-001 -1.701380e+000 3.516959e-002 2.078745e-001 -5.198733e-001 -4.271095e-001 2.773781e-001 -1.254029e-001 -2.922040e-001 3.288906e-002 1.638115e+000 -4.212282e-001 2.202307e-001 -1.651629e-001 9.742174e-001 1.138991e+000 3.252374e-001 3.862717e-001 4.860210e-001 1.901210e-001 -2.861531e-001 -2.021129e-002 -1.799139e-001 -1.105356e+000
<VARIANCE> 39
 7.519048e+001 6.527267e+001 2.953041e+002 9.055403e+001 1.708731e+002 1.158880e+002 9.451666e+001 1.345437e+002 7.769328e+001 1.101265e+002 9.697556e+001 6.059259e+001 6.939828e+001 2.024120e+000 2.646590e+000 4.440816e+000 8.920492e+000 1.039914e+001 6.241410e+000 4.036974e+000 4.317385e+000 4.551335e+000 4.407171e+000 5.218834e+000 2.840830e+000 8.075716e+000 4.083590e-001 4.454387e-001 1.167369e+000 9.584592e-001 1.963771e+000 1.042868e+000 7.785189e-001 1.169872e+000 8.335077e-001 9.424470e-001 7.244670e-001 6.280928e-001 6.659667e-001
<GCONST> 1.494555e+002
<STATE> 4
<MEAN> 39
 -8.192250e+000 1.113440e+000 -2.498329e+000 -1.334954e+001 -1.027058e+001 -6.826448e+000 -8.060377e+000 -9.173314e+000 -2.581066e+000 -8.563454e+000 -4.134660e+000 -3.588718e+000 7.192831e+001 -3.565843e-001 7.502104e-002 3.375281e-001 7.925672e-001 5.285353e-001 1.184316e-001 2.601817e-001 3.459497e-001 -1.598285e-001 -2.344421e-001 -8.445554e-002 -1.911506e-001 -1.127739e+000 8.291079e-002 -6.304065e-002 -1.078138e-001 1.733334e-001 -4.954418e-002 -2.558651e-002 4.615529e-002 4.972937e-002 -5.410518e-002 1.383834e-001 7.895312e-002 3.369338e-002 -1.954533e-001
<VARIANCE> 39
 5.438843e+001 6.664012e+001 1.085027e+002 8.512010e+001 9.855370e+001 7.436748e+001 5.019014e+001 6.271642e+001 4.748303e+001 1.017936e+002 5.889459e+001 3.459702e+001 9.998504e+001 1.088634e+000 2.135367e+000 1.788867e+000 3.247717e+000 3.480334e+000 2.531365e+000 2.974700e+000 2.556451e+000 2.847780e+000 4.093764e+000 3.020662e+000 2.024929e+000 2.292589e+000 1.961294e-001 3.463818e-001 2.974906e-001 5.290082e-001 5.165367e-001 5.273890e-001 4.701252e-001 4.887764e-001 5.536491e-001 6.381634e-001 5.408052e-001 3.800921e-001 3.728379e-001
<GCONST> 1.276515e+002
<TRANSP> 5
 0.000000e+000 1.000000e+000 0.000000e+000 0.000000e+000 0.000000e+000
 0.000000e+000 5.923026e-001 4.076974e-001 0.000000e+000 0.000000e+000
 0.000000e+000 0.000000e+000 5.145604e-001 4.854396e-001 0.000000e+000
 0.000000e+000 0.000000e+000 0.000000e+000 7.749355e-001 2.250646e-001
 0.000000e+000 0.000000e+000 0.000000e+000 0.000000e+000 0.000000e+000
<ENDHMM>
~h "r"
<BEGINHMM>
<NUMSTATES> 5
<STATE> 2
<MEAN> 39
 6.556695e+000 -9.605549e+000 2.429629e+000 -5.696931e-001 -1.124693e+001 -1.296161e+001 -1.012570e+001 2.146852e+000 -5.360792e+000 -5.905325e+000 -2.677358e+000 -8.221558e+000 7.077248e+001 -2.824920e-001 -9.496554e-001 1.441004e+000 -8.374223e-001 -1.033472e+000 1.028152e-001 -5.949385e-002 1.231149e+000 -6.075212e-001 -3.672094e-001 3.100806e-001 -2.403757e-001 1.145935e+000 -3.682762e-001 2.582879e-001 1.797699e-001 -2.762736e-001 3.584931e-001 3.401992e-001 2.168222e-001 -9.394479e-002 -8.360649e-002 2.425044e-002 9.573546e-002 1.067051e-002 -2.064050e-001
<VARIANCE> 39
 6.711233e+001 1.188308e+002 1.872490e+002 9.986609e+001 1.141103e+002 1.190863e+002 1.028622e+002 1.590500e+002 1.034387e+002 9.214891e+001 6.734231e+001 8.498064e+001 9.318189e+001 3.718523e+000 5.438736e+000 6.498899e+000 7.043486e+000 5.097414e+000 5.981286e+000 6.755835e+000 7.485929e+000 6.740053e+000 6.260320e+000 5.305192e+000 4.283005e+000 2.829340e+000 5.214617e-001 7.962177e-001 8.203353e-001 1.086217e+000 9.131334e-001 1.039680e+000 1.132237e+000 1.341429e+000 1.210540e+000 1.076337e+000 9.011987e-001 8.347449e-001 3.703217e-001
<GCONST> 1.525016e+002
<STATE> 3
<MEAN> 39
 8.351274e-001 -1.043744e+001 5.362985e+000 -4.567501e+000 -1.831436e+001 -9.752881e+000 -8.067159e+000 1.859579e+000 -4.042686e+000 -8.197638e+000 -1.656283e+000 -6.322819e+000 7.513139e+001 -5.847111e-001 6.821706e-001 1.331883e+000 -1.048334e+000 -9.501000e-002 5.337116e-001 4.239909e-001 -4.619161e-001 -5.469368e-001 2.947209e-001 3.200603e-001 -1.072382e-001 -6.243272e-002 -6.860839e-002 3.450182e-001 -1.027009e-001 1.058581e-001 3.241939e-001 -4.768568e-002 -7.911637e-002 -1.783981e-001 1.545524e-001 1.351081e-001 -2.132351e-001 2.747375e-002 -1.807109e-001
<VARIANCE> 39
 4.639700e+001 7.659892e+001 1.875023e+002 7.010867e+001 1.094291e+002 1.147327e+002 9.812881e+001 1.277114e+002 9.329250e+001 1.091601e+002 7.848309e+001 9.055463e+001 5.675504e+001 7.136816e-001 1.463732e+000 1.718113e+000 2.624907e+000 2.772694e+000 3.630402e+000 3.089050e+000 3.523161e+000 3.044773e+000 3.360484e+000 3.106509e+000 2.843476e+000 5.698199e-001 1.555532e-001 1.904665e-001 2.941743e-001 3.701923e-001 4.547945e-001 4.378310e-001 5.575610e-001 5.962666e-001 5.860866e-001 5.444595e-001 5.576296e-001 4.800567e-001 8.223034e-002
<GCONST> 1.271250e+002
<STATE> 4
<MEAN> 39
 7.739299e-002 -4.070171e+000 1.979735e+001 -7.546299e+000 -1.318389e+001 -1.490419e+001 -9.824659e+000 3.640779e+000 -1.148116e+001 -8.750093e+000 2.346369e-001 -9.497098e+000 7.035009e+001 3.310898e-002 1.406657e+000 2.179198e-001 1.056244e-001 3.116477e-001 4.559929e-001 -1.861228e-001 -8.802740e-001 5.779302e-002 2.181391e-002 -1.778485e-001 4.520916e-001 -1.196652e+000 6.998075e-002 -4.063856e-002 -2.809779e-001 2.165786e-001 5.662175e-002 -1.891846e-002 -7.060684e-002 -2.041843e-002 7.191936e-002 -6.436288e-002 -3.450986e-002 -2.319931e-003 -1.247156e-001
<VARIANCE> 39
 6.871479e+001 8.440578e+001 2.610722e+002 1.420723e+002 1.118543e+002 9.383506e+001 1.093461e+002 1.791402e+002 1.058253e+002 8.715387e+001 5.711694e+001 7.929608e+001 9.835747e+001 7.600459e-001 1.203007e+000 2.571225e+000 2.140887e+000 2.767498e+000 2.617198e+000 2.550010e+000 3.464458e+000 2.519853e+000 2.548117e+000 2.355170e+000 2.173808e+000 7.856930e-001 1.025583e-001 1.717802e-001 2.964921e-001 3.917752e-001 4.435246e-001 4.021657e-001 4.899309e-001 5.437339e-001 4.488283e-001 4.545910e-001 4.270073e-001 3.839204e-001 7.056633e-002
<GCONST> 1.258806e+002
<TRANSP> 5
 0.000000e+000 1.000000e+000 0.000000e+000 0.000000e+000 0.000000e+000
 0.000000e+000 6.251559e-001 3.748441e-001 0.000000e+000 0.000000e+000
 0.000000e+000 0.000000e+000 7.116793e-001 2.883207e-001 0.000000e+000
 0.000000e+000 0.000000e+000 0.000000e+000 7.364775e-001 2.635225e-001
 0.000000e+000 0.000000e+000 0.000000e+000 0.000000e+000 0.000000e+000
<ENDHMM>
~h "s"
<BEGINHMM>
<NUMSTATES> 5
<STATE> 2
<MEAN> 39
 -8.656847e+000 5.440112e+000 -8.033530e-001 -8.814657e+000 5.453550e+000 -1.579517e+001 -7.437558e-001 -3.215154e+000 -1.211005e+000 -5.060497e+000 -2.837835e-001 -9.631422e+000 6.274712e+001 -3.654990e+000 2.341473e+000 -8.245876e-001 -6.258044e-001 2.795457e+000 -1.700454e+000 1.900686e+000 -3.152561e-001 7.297666e-001 -4.514405e-001 3.880376e-001 -2.654800e-001 6.510048e-001 -1.546623e-001 -1.248452e-001 5.775530e-002 -9.332682e-002 -1.677426e-001 4.021959e-001 -5.509005e-002 2.409609e-002 -5.126618e-003 -1.192517e-003 1.873785e-002 -5.775871e-003 6.883746e-002
<VARIANCE> 39
 1.499537e+002 9.835043e+001 1.476015e+002 1.398014e+002 2.447806e+002 2.463882e+002 1.431676e+002 1.338854e+002 1.150871e+002 1.166750e+002 8.894453e+001 9.771990e+001 1.271670e+002 3.902376e+000 3.750958e+000 5.394396e+000 5.238918e+000 6.743052e+000 9.015462e+000 6.128199e+000 7.718556e+000 6.220850e+000 5.892999e+000 4.033760e+000 3.852161e+000 2.931589e+000 1.047791e+000 7.236800e-001 6.855347e-001 8.384280e-001 1.397719e+000 1.520468e+000 1.260234e+000 1.287291e+000 1.006944e+000 1.001867e+000 7.366574e-001 6.776365e-001 4.231363e-001
<GCONST> 1.557705e+002
<STATE> 3
<MEAN> 39
 -2.525362e+001 1.196036e+001 -4.783060e+000 -7.515760e+000 8.447131e+000 -1.035673e+001 1.555497e+000 -3.056458e+000 -7.490196e-001 -5.997419e+000 2.077908e-001 -6.547231e+000 6.582166e+001 -4.467405e-001 6.673036e-002 9.778150e-002 1.431624e-001 3.784251e-001 3.703097e-001 1.699966e-001 4.642050e-002 2.627752e-001 1.416623e-001 9.299190e-002 1.442847e-001 -6.656862e-001 3.746929e-001 -1.721308e-001 4.393056e-002 4.171894e-002 -1.946236e-001 -5.472166e-002 -1.020035e-001 -5.174020e-002 -3.201742e-002 1.375889e-002 -5.270196e-002 -6.197985e-003 -9.025379e-002
<VARIANCE> 39
 3.702379e+001 4.201422e+001 8.896983e+001 1.305067e+002 2.091575e+002 1.258075e+002 1.063927e+002 5.393742e+001 8.353430e+001 5.810057e+001 6.204471e+001 7.816473e+001 6.779088e+001 2.021437e+000 1.585229e+000 1.591168e+000 1.849299e+000 2.342988e+000 2.323952e+000 2.549428e+000 2.537289e+000 2.373075e+000 2.204723e+000 2.070499e+000 1.948308e+000 1.051919e+000 2.340032e-001 2.385320e-001 2.562145e-001 3.273330e-001 3.983380e-001 4.433740e-001 4.898567e-001 4.396943e-001 4.491605e-001 4.245400e-001 3.880226e-001 3.780029e-001 1.272214e-001
<GCONST> 1.230437e+002
<STATE> 4
<MEAN> 39
 -1.776625e+001 8.514863e+000 -6.590610e-001 -8.246428e+000 8.980294e+000 -1.510016e+001 2.235266e+000 -4.279751e+000 1.209785e+000 -5.070156e+000 3.189945e-001 -7.990024e+000 5.975363e+001 2.394819e+000 -1.049706e+000 -2.704239e-001 -2.624570e-001 -1.097476e+000 1.581094e-002 -2.001531e-001 -2.022660e-001 -1.929898e-001 -4.416064e-002 -4.361140e-001 -3.256479e-001 4.419247e-001 3.216594e-001 -2.229612e-001 -1.488248e-002 -9.358608e-002 -2.491680e-001 1.812149e-001 -1.162412e-001 3.920016e-003 -1.253671e-001 -9.196536e-003 -6.258021e-002 -2.803085e-002 3.803001e-001
<VARIANCE> 39
 9.227871e+001 9.075546e+001 1.014020e+002 1.122066e+002 2.263837e+002 1.571305e+002 1.405703e+002 1.112745e+002 1.096243e+002 8.573051e+001 7.420340e+001 7.449156e+001 1.857876e+002 8.226305e+000 5.823071e+000 4.063053e+000 6.141837e+000 7.350114e+000 9.035127e+000 6.086987e+000 7.166797e+000 6.491429e+000 4.858414e+000 4.946915e+000 4.167935e+000 4.892998e+000 1.462953e+000 9.891962e-001 6.914836e-001 8.544220e-001 1.506960e+000 1.389921e+000 1.046195e+000 1.260645e+000 1.064061e+000 8.059293e-001 9.270934e-001 7.556978e-001 7.064587e-001
<GCONST> 1.563024e+002
<TRANSP> 5
 0.000000e+000 1.000000e+000 0.000000e+000 0.000000e+000 0.000000e+000
 0.000000e+000 7.296427e-001 2.703573e-001 0.000000e+000 0.000000e+000
 0.000000e+000 0.000000e+000 8.830549e-001 1.169451e-001 0.000000e+000
 0.000000e+000 0.000000e+000 0.000000e+000 7.354838e-001 2.645163e-001
 0.000000e+000 0.000000e+000 0.000000e+000 0.000000e+000 0.000000e+000
<ENDHMM>
~h "t"
<BEGINHMM>
<NUMSTATES> 5
<STATE> 2
<MEAN> 39
 -4.058880e+000 -2.074574e+000 -2.919823e+000 -8.632788e+000 1.391623e+000 -7.763039e+000 -2.239191e+000 -8.506476e-001 1.054115e+000 -1.694606e+000 -2.403118e+000 -8.560095e+000 5.901102e+001 4.426035e-001 -5.875260e-001 -2.720237e-001 -1.163581e+000 -7.041903e-001 -4.901133e-001 -7.174460e-001 -1.395957e-001 -5.021961e-001 -3.181084e-001 -5.387437e-001 -7.125061e-001 3.241406e+000 2.143170e-001 4.198034e-003 9.726042e-002 -4.539403e-002 -3.083204e-001 1.192105e-001 -1.240846e-001 -1.218446e-001 -2.671980e-001 -1.592881e-001 1.492873e-001 3.001310e-002 2.625589e-001
<VARIANCE> 39
 1.473186e+002 8.836406e+001 1.072280e+002 1.236626e+002 1.178572e+002 1.429297e+002 1.626057e+002 1.454338e+002 1.029443e+002 9.356267e+001 1.214222e+002 1.160095e+002 1.705157e+002 1.157820e+001 8.215330e+000 8.785653e+000 1.018713e+001 1.195180e+001 1.160666e+001 1.104768e+001 1.220362e+001 1.109909e+001 8.010846e+000 9.537481e+000 9.050057e+000 1.031450e+001 1.567852e+000 1.157433e+000 1.219008e+000 1.866995e+000 1.702755e+000 1.799095e+000 1.953414e+000 2.024702e+000 1.702505e+000 1.489484e+000 1.812585e+000 1.502351e+000 1.519754e+000
<GCONST> 1.707399e+002
<STATE> 3
<MEAN> 39
 -1.071773e+001 7.926363e-001 -3.559385e+000 -9.032924e+000 -8.525114e+000 -1.039903e+001 -5.689170e+000 -5.045735e+000 -3.889544e+000 -7.924465e+000 -2.202541e+000 -2.848092e+000 7.292208e+001 1.514261e+000 5.073559e-002 1.373567e-001 -1.037271e+000 -1.773978e+000 -8.800179e-001 -8.039750e-001 -3.935782e-001 -5.682856e-001 -1.603790e+000 -2.759588e-001 5.648465e-002 1.717538e+000 3.408995e-001 -1.707661e-001 -3.796465e-004 1.044202e-001 4.634304e-001 4.440909e-001 1.660189e-001 6.989696e-002 1.237968e-001 1.139408e-002 -1.406227e-001 -1.123806e-001 -5.765439e-001
<VARIANCE> 39
 1.665668e+002 7.156676e+001 9.530625e+001 6.582418e+001 1.005322e+002 9.934667e+001 1.008684e+002 1.154472e+002 7.720820e+001 1.107625e+002 6.801830e+001 9.219371e+001 8.444199e+001 6.717700e+000 3.562954e+000 4.699229e+000 4.911220e+000 7.903153e+000 7.256075e+000 8.816088e+000 6.775274e+000 5.866141e+000 7.435447e+000 6.423165e+000 3.980187e+000 3.591296e+000 1.288913e+000 6.414067e-001 7.493387e-001 8.630932e-001 1.367988e+000 1.306037e+000 1.227604e+000 1.176059e+000 1.202857e+000 1.264197e+000 1.168799e+000 8.350809e-001 6.815340e-001
<GCONST> 1.536940e+002
<STATE> 4
<MEAN> 39
 1.200083e-001 -4.441845e+000 -5.043864e+000 -1.473643e+001 -5.928478e+000 -5.099630e+000 -4.644953e+000 -3.647331e+000 -3.595393e+000 -6.572740e+000 -2.864208e+000 -7.311203e+000 7.411894e+001 9.158958e-001 -2.331602e-001 -1.473061e-002 -7.727327e-002 3.593309e-001 7.253404e-001 -2.378175e-001 -8.630180e-002 -1.751049e-001 -1.435875e-001 8.011575e-002 -2.553508e-002 3.917106e-002 -2.376340e-001 1.291938e-001 2.351708e-002 4.013494e-001 3.826389e-001 1.489287e-001 2.012294e-001 2.940490e-002 5.660254e-002 2.738411e-001 1.042507e-001 2.413152e-003 -5.028771e-001
<VARIANCE> 39
 1.294586e+002 9.065493e+001 1.106099e+002 9.525725e+001 1.127555e+002 1.681468e+002 1.218383e+002 1.236960e+002 7.991115e+001 1.731093e+002 7.431990e+001 1.177406e+002 1.170303e+002 2.738453e+000 2.839687e+000 2.824892e+000 3.533314e+000 4.666460e+000 4.858256e+000 5.307221e+000 4.350112e+000 4.121531e+000 3.710147e+000 3.988464e+000 3.308120e+000 2.647834e+000 6.780211e-001 4.769511e-001 5.627496e-001 7.106513e-001 1.021569e+000 8.705136e-001 1.011150e+000 9.935710e-001 8.392733e-001 8.671574e-001 6.763877e-001 6.230554e-001 4.323478e-001
<GCONST> 1.458694e+002
<TRANSP> 5
 0.000000e+000 1.000000e+000 0.000000e+000 0.000000e+000 0.000000e+000
 0.000000e+000 6.102207e-001 3.897793e-001 0.000000e+000 0.000000e+000
 0.000000e+000 0.000000e+000 5.118926e-001 4.881074e-001 0.000000e+000
 0.000000e+000 0.000000e+000 0.000000e+000 4.956888e-001 5.043112e-001
 0.000000e+000 0.000000e+000 0.000000e+000 0.000000e+000 0.000000e+000
<ENDHMM>
~h "v"
<BEGINHMM>
<NUMSTATES> 5
<STATE> 2
<MEAN> 39
 3.566769e+000 -3.213149e+000 -9.522264e+000 -1.933613e+001 -1.185457e+000 3.105577e+000 -4.303011e-002 -4.523270e+000 -3.915501e+000 -3.078768e+000 -8.185958e-001 -7.786957e+000 6.251053e+001 -1.267761e+000 4.187219e-003 -3.189371e-001 1.147531e+000 4.017970e-001 -5.591567e-001 1.113288e+000 6.620531e-001 1.132996e+000 -8.594095e-002 9.846209e-002 1.140636e-001 -1.096060e+000 -2.269561e-001 -1.785574e-001 1.207494e-002 -7.127726e-003 6.938721e-002 -6.526021e-002 -2.808588e-002 1.542788e-001 1.003829e-001 3.923381e-002 6.060886e-002 -8.895473e-003 1.186580e-001
<VARIANCE> 39
 8.996889e+001 6.481103e+001 1.419571e+002 1.993279e+002 7.004146e+001 1.224255e+002 1.046814e+002 6.700897e+001 7.257539e+001 5.443017e+001 6.353864e+001 5.537891e+001 7.237413e+001 1.897730e+000 1.585136e+000 2.836583e+000 3.122982e+000 3.497820e+000 3.745271e+000 3.609029e+000 4.826291e+000 4.635016e+000 3.497123e+000 3.199467e+000 2.194424e+000 6.163546e-001 2.521328e-001 1.683149e-001 3.552706e-001 5.062627e-001 5.213916e-001 5.731067e-001 6.409227e-001 7.896646e-001 8.217867e-001 6.310961e-001 5.288959e-001 4.057421e-001 8.034638e-002
<GCONST> 1.307224e+002
<STATE> 3
<MEAN> 39
 -6.876492e+000 -6.396880e+000 8.842562e-001 8.414543e-001 -4.113628e-001 -3.604149e+000 8.812859e+000 6.167926e+000 5.043712e+000 3.467533e+000 1.110143e+000 -6.284114e+000 5.650654e+001 -1.222221e+000 -6.502067e-001 -5.834927e-001 5.131680e-001 1.248043e+000 7.179722e-001 1.093638e+000 1.299159e+000 9.126577e-001 1.058945e-001 -7.526918e-002 1.736867e-001 -4.925920e-001 4.753157e-001 6.071882e-003 2.196165e-001 -1.618387e-001 -5.477498e-001 -2.888454e-001 -2.816910e-001 -4.242596e-001 -6.395022e-001 -1.450971e-001 -6.979472e-002 -1.949383e-001 2.200288e-001
<VARIANCE> 39
 3.911374e+001 3.611945e+001 7.063442e+001 7.194307e+001 4.848427e+001 6.841235e+001 7.968481e+001 7.912399e+001 5.051488e+001 6.284122e+001 3.942242e+001 3.213442e+001 5.493605e+001 1.487797e+000 8.749028e-001 2.011934e+000 1.361063e+000 2.581949e+000 3.148777e+000 3.217563e+000 3.823833e+000 4.138139e+000 2.838054e+000 2.010956e+000 1.984432e+000 4.768719e-001 2.992878e-001 1.972466e-001 2.644417e-001 3.497857e-001 6.591670e-001 7.926288e-001 6.655821e-001 7.760186e-001 7.260451e-001 5.947411e-001 4.288504e-001 3.485735e-001 1.322948e-001
<GCONST> 1.212332e+002
<STATE> 4
<MEAN> 39
 -7.019523e+000 -4.250857e+000 -4.614933e+000 -1.135175e+001 2.673293e+000 2.666075e-001 7.896331e+000 2.145397e+000 1.971500e+000 -2.155780e+000 2.202049e+000 -8.984795e+000 5.234883e+001 9.277929e-002 3.715648e-001 6.446992e-001 8.190215e-001 -2.113373e-001 -3.525792e-001 -3.879806e-001 -2.997334e-001 -5.446857e-001 -6.901519e-002 -3.050118e-001 1.822391e-001 -7.179318e-001 3.035538e-001 5.606277e-002 8.465057e-002 -5.619109e-002 -2.936771e-001 -1.125152e-001 -1.817594e-001 -1.535488e-001 -1.772838e-001 1.364888e-002 9.360023e-003 5.657621e-002 9.269002e-002
<VARIANCE> 39
 4.976907e+001 6.136422e+001 7.583865e+001 1.332359e+002 7.963200e+001 1.046222e+002 1.281570e+002 1.503544e+002 6.767994e+001 7.349274e+001 7.293958e+001 5.630984e+001 1.504133e+002 2.623164e+000 1.710485e+000 1.880065e+000 3.337721e+000 4.275541e+000 4.421010e+000 3.728571e+000 5.029716e+000 4.180954e+000 3.344516e+000 3.060080e+000 3.200117e+000 1.706784e+000 2.919947e-001 2.621135e-001 3.678173e-001 6.529006e-001 9.051434e-001 9.096121e-001 7.298812e-001 8.844066e-001 7.704330e-001 6.141548e-001 5.684146e-001 5.699374e-001 1.821253e-001
<GCONST> 1.361174e+002
<TRANSP> 5
 0.000000e+000 1.000000e+000 0.000000e+000 0.000000e+000 0.000000e+000
 0.000000e+000 7.508737e-001 2.491263e-001 0.000000e+000 0.000000e+000
 0.000000e+000 0.000000e+000 6.645821e-001 3.354179e-001 0.000000e+000
 0.000000e+000 0.000000e+000 0.000000e+000 7.021601e-001 2.978399e-001
 0.000000e+000 0.000000e+000 0.000000e+000 0.000000e+000 0.000000e+000
<ENDHMM>
~h "w"
<BEGINHMM>
<NUMSTATES> 5
<STATE> 2
<MEAN> 39
 4.231462e+000 5.315685e+000 -1.336795e+001 -1.297953e+001 -8.846563e+000 7.563640e-001 -1.135715e+001 -8.084917e+000 -7.270869e+000 -4.351422e+000 -6.262184e+000 -3.719147e+000 6.974625e+001 -2.483776e-001 -1.160432e+000 -8.205842e-001 -3.781568e-001 9.841494e-001 5.014273e-001 -1.267034e-001 3.987019e-001 1.247651e+000 -4.404902e-001 -1.322562e+000 6.140406e-002 1.224382e+000 -2.682469e-001 -3.402770e-001 2.083365e-001 2.315670e-001 1.149242e-001 -2.261998e-001 3.056919e-001 2.138544e-001 1.705649e-001 -2.331581e-001 -1.175308e-002 1.052573e-001 9.435981e-002
<VARIANCE> 39
 3.344489e+001 4.915247e+001 1.180140e+002 6.340659e+001 6.935027e+001 1.137011e+002 8.978854e+001 8.822394e+001 8.683719e+001 6.749870e+001 7.870108e+001 5.177106e+001 7.301234e+001 1.591795e+000 2.452374e+000 3.650503e+000 4.046926e+000 6.687022e+000 6.163912e+000 5.140142e+000 4.087688e+000 4.978096e+000 5.087107e+000 4.323559e+000 4.165792e+000 7.781473e-001 1.696624e-001 3.197071e-001 5.266677e-001 5.388120e-001 9.825961e-001 8.532045e-001 9.309540e-001 7.208686e-001 9.045965e-001 9.238354e-001 9.285261e-001 7.097327e-001 1.268332e-001
<GCONST> 1.365119e+002
<STATE> 3
<MEAN> 39
 -4.528784e+000 -6.905674e+000 -1.012401e+001 -1.166022e+001 3.277799e+000 -6.014109e+000 -4.470720e+000 -5.919657e+000 -2.874843e+000 -1.606873e+001 -1.416011e+001 1.108192e+000 7.879789e+001 -4.808590e-001 -1.842998e-001 7.833527e-001 2.610608e-001 -8.228219e-001 -3.182550e-001 1.162644e+000 7.224816e-001 -3.143322e-001 -1.081702e+000 6.233074e-001 3.904953e-001 3.777256e-001 5.816140e-002 1.543932e-001 9.187504e-002 -7.642625e-002 -3.130223e-001 2.172956e-001 -5.151776e-002 -6.490143e-002 -2.163030e-001 3.905464e-001 3.204615e-001 -1.769848e-001 -1.168210e-001
<VARIANCE> 39
 7.456768e+001 6.012944e+001 8.861214e+001 5.843051e+001 1.188252e+002 5.687058e+001 7.165710e+001 5.977532e+001 7.704069e+001 8.255969e+001 6.757191e+001 4.627304e+001 9.278716e+001 7.740850e-001 1.436549e+000 1.922166e+000 2.650733e+000 4.897973e+000 2.478490e+000 2.873726e+000 2.185714e+000 2.292828e+000 3.176651e+000 2.735360e+000 2.569584e+000 7.710835e-001 1.087891e-001 2.178243e-001 1.768019e-001 2.573144e-001 4.146048e-001 4.266711e-001 5.329990e-001 4.492875e-001 3.929491e-001 4.498081e-001 4.889101e-001 4.385218e-001 7.722078e-002
<GCONST> 1.210704e+002
<STATE> 4
<MEAN> 39
 1.128339e+001 1.813001e+000 -5.026947e+000 -1.587934e+001 -1.118014e+001 -2.429759e-001 3.116103e+000 1.980541e+000 -6.346467e+000 -8.558576e+000 -3.325965e+000 -6.302719e+000 6.696819e+001 -1.201991e+000 -2.087736e+000 4.040528e-001 -1.083732e+000 -5.706865e-001 1.500064e+000 9.713954e-001 5.606613e-001 -3.122174e-001 1.073156e+000 1.313053e+000 -6.689802e-001 2.358706e+000 -2.901031e-001 -2.561518e-001 1.210443e-001 5.008827e-001 5.722409e-001 3.937683e-002 -2.692148e-001 -3.830635e-001 -3.494058e-003 2.035059e-001 2.281305e-002 -2.355452e-001 2.230985e-002
<VARIANCE> 39
 1.043839e+002 7.884505e+001 1.204206e+002 1.667709e+002 4.725348e+001 1.587910e+002 6.640772e+001 6.723469e+001 4.738581e+001 5.847702e+001 6.208681e+001 5.531361e+001 9.799475e+001 4.469133e+000 5.122973e+000 4.747032e+000 8.681451e+000 6.452284e+000 6.754735e+000 4.939929e+000 5.744158e+000 4.246343e+000 3.386323e+000 3.335392e+000 3.893109e+000 4.036551e+000 4.970417e-001 6.190073e-001 5.224416e-001 1.470807e+000 6.991143e-001 1.424133e+000 8.605633e-001 7.339569e-001 7.389532e-001 6.022770e-001 7.278578e-001 6.793140e-001 3.539787e-001
<GCONST> 1.447174e+002
<TRANSP> 5
 0.000000e+000 1.000000e+000 0.000000e+000 0.000000e+000 0.000000e+000
 0.000000e+000 7.336911e-001 2.663089e-001 0.000000e+000 0.000000e+000
 0.000000e+000 0.000000e+000 7.611666e-001 2.388333e-001 0.000000e+000
 0.000000e+000 0.000000e+000 0.000000e+000 6.534511e-001 3.465489e-001
 0.000000e+000 0.000000e+000 0.000000e+000 0.000000e+000 0.000000e+000
<ENDHMM>
~h "z"
<BEGINHMM>
<NUMSTATES> 5
<STATE> 2
<MEAN> 39
 -2.190720e+000 2.684912e+000 -5.541086e+000 -1.401562e+001 -4.698112e+000 3.628647e-002 -1.060835e+000 -5.927218e+000 -5.325018e+000 -4.720170e+000 -1.487309e+000 -4.175189e+000 6.182468e+001 -1.915951e+000 3.468868e-001 6.356786e-001 5.006966e-001 1.036753e+000 -3.053843e-001 7.137285e-001 2.998813e-001 4.599068e-001 6.309834e-002 -3.219868e-002 -2.796845e-001 -4.140922e-001 -5.293253e-001 1.484907e-001 2.200071e-002 -1.781281e-001 3.490756e-001 -1.411381e-001 7.035443e-003 4.727904e-002 1.711050e-001 -8.393163e-002 1.176255e-001 4.865595e-002 3.881117e-001
<VARIANCE> 39
 1.054985e+002 5.382810e+001 9.892184e+001 1.724609e+002 6.609140e+001 1.332449e+002 1.308634e+002 7.391119e+001 5.577643e+001 4.261937e+001 3.512372e+001 4.594738e+001 5.763190e+001 5.113721e+000 2.468603e+000 4.642212e+000 4.017648e+000 5.970889e+000 4.796919e+000 6.925747e+000 4.645406e+000 4.860086e+000 4.116628e+000 4.301546e+000 3.948849e+000 3.706388e+000 5.241236e-001 3.708372e-001 5.393038e-001 4.194324e-001 6.715583e-001 7.396511e-001 9.050427e-001 8.410342e-001 7.257544e-001 6.550515e-001 7.300672e-001 6.586387e-001 3.188193e-001
<GCONST> 1.402507e+002
<STATE> 3
<MEAN> 39
 -2.189614e+001 1.154592e+001 -1.745109e+000 -1.754766e+001 1.082663e+001 -1.142711e+001 9.209554e+000 -4.509564e+000 4.104802e-001 -7.005968e+000 2.597543e+000 -7.975969e+000 6.012478e+001 -1.178121e+000 4.719215e-001 -2.733720e-001 8.005354e-001 1.110123e+000 -4.364589e-001 4.775003e-001 2.422385e-001 4.171194e-001 2.338127e-001 3.133005e-001 1.620135e-001 -3.754464e-001 4.309399e-001 -1.487595e-001 -6.467005e-002 1.503363e-001 -3.007813e-001 1.311993e-001 -3.367802e-002 -6.425678e-002 -7.047289e-002 7.162633e-002 -7.423180e-002 4.716446e-002 -2.158293e-001
<VARIANCE> 39
 5.578399e+001 1.022643e+002 1.371070e+002 1.996534e+002 1.495039e+002 1.819153e+002 2.844658e+002 1.248767e+002 1.391519e+002 8.461611e+001 9.441055e+001 6.523991e+001 6.612192e+001 5.215995e+000 3.046568e+000 2.998332e+000 3.730999e+000 5.439080e+000 5.369321e+000 5.494429e+000 5.660940e+000 4.276052e+000 4.376467e+000 3.895150e+000 2.125227e+000 2.122348e+000 3.374723e-001 3.628953e-001 5.066077e-001 6.227773e-001 6.755918e-001 7.102186e-001 1.004857e+000 1.008755e+000 8.166100e-001 7.632921e-001 7.898208e-001 4.642225e-001 1.948326e-001
<GCONST> 1.442249e+002
<STATE> 4
<MEAN> 39
 -2.506820e+001 1.231546e+001 -7.588168e+000 1.881840e-001 2.700143e+000 -4.943892e+000 5.078174e-001 -4.607351e+000 -7.509908e-001 -5.312746e+000 -6.661804e-001 -6.850287e-001 6.504890e+001 1.960855e-001 -2.473733e-001 9.991882e-003 1.040192e-001 1.987120e-002 8.822041e-002 1.328726e-001 1.378835e-001 5.883866e-002 1.185228e-001 -1.938082e-003 6.988177e-002 -4.426372e-001 1.056156e-001 -5.329606e-002 7.716513e-002 -5.852485e-002 -3.107736e-002 7.637918e-003 -3.964719e-002 7.765328e-004 8.321755e-004 -3.858229e-003 -1.184485e-003 -6.583023e-003 -1.740856e-002
<VARIANCE> 39
 2.273978e+001 3.434175e+001 3.181478e+001 4.407926e+001 1.136451e+002 7.679610e+001 1.351294e+002 2.983936e+001 2.980188e+001 5.027490e+001 3.371932e+001 2.070836e+001 4.883933e+001 8.931117e-001 8.124314e-001 1.045685e+000 1.297695e+000 1.572509e+000 1.765568e+000 1.685580e+000 1.956401e+000 1.955766e+000 1.625158e+000 1.780525e+000 1.477418e+000 4.577666e-001 9.948149e-002 1.342444e-001 1.732987e-001 2.226906e-001 2.875111e-001 3.371642e-001 3.538550e-001 3.405760e-001 4.018084e-001 3.284734e-001 3.636398e-001 2.809283e-001 4.270765e-002
<GCONST> 1.047702e+002
<TRANSP> 5
 0.000000e+000 1.000000e+000 0.000000e+000 0.000000e+000 0.000000e+000
 0.000000e+000 7.916922e-001 2.083078e-001 0.000000e+000 0.000000e+000
 0.000000e+000 0.000000e+000 8.564620e-001 1.435380e-001 0.000000e+000
 0.000000e+000 0.000000e+000 0.000000e+000 9.088241e-001 9.117579e-002
 0.000000e+000 0.000000e+000 0.000000e+000 0.000000e+000 0.000000e+000
<ENDHMM>
~h "aa"
<BEGINHMM>
<NUMSTATES> 5
<STATE> 2
<MEAN> 39
 -6.800532e-001 -3.933116e+000 -1.938942e+000 -1.402022e+001 -2.900018e+000 -1.721376e+000 5.100519e+000 -2.907073e+000 -4.827485e+000 -1.933290e+000 -2.583732e+000 -1.173565e+001 6.414976e+001 1.338143e+000 -1.487526e+000 -1.047247e+000 -2.059754e+000 -2.610353e-001 1.903853e+000 -2.674042e-001 5.784190e-001 -5.464582e-001 -1.707191e-001 -2.471752e-001 -9.023209e-001 2.729370e+000 -1.182997e-001 -3.844566e-002 1.194696e-001 1.412263e-001 9.483140e-002 -5.382992e-002 -1.845120e-001 1.323541e-001 4.882794e-002 -2.686094e-002 6.986860e-002 1.192991e-001 1.442941e-001
<VARIANCE> 39
 1.470572e+002 1.090823e+002 1.405463e+002 2.312771e+002 8.940872e+001 1.801739e+002 1.844227e+002 1.371446e+002 1.065646e+002 1.071135e+002 5.831239e+001 9.429781e+001 2.583688e+002 1.125512e+001 7.545187e+000 1.075707e+001 1.918987e+001 8.532597e+000 1.095073e+001 1.442333e+001 1.145461e+001 9.535645e+000 7.281929e+000 4.883209e+000 5.430551e+000 1.191970e+001 1.897452e+000 1.429316e+000 1.909652e+000 3.786331e+000 1.330271e+000 2.091076e+000 2.634820e+000 2.124931e+000 1.749737e+000 1.466076e+000 8.216685e-001 9.764040e-001 1.706171e+000
<GCONST> 1.714743e+002
<STATE> 3
<MEAN> 39
 3.019863e+000 -1.421473e+001 -7.251282e+000 -1.630877e+001 -7.819351e-001 6.904767e+000 4.338171e+000 3.032330e+000 -3.467215e+000 -2.266120e+000 -2.041519e+000 -1.435286e+001 7.709929e+001 7.784147e-001 -3.243306e-001 2.518111e-001 4.978906e-001 1.295175e-001 1.964206e-002 -5.432916e-001 9.389884e-002 -1.307903e-001 -1.991356e-001 -7.800666e-002 1.758875e-001 -3.800599e-001 1.965980e-001 2.437481e-001 -7.296817e-003 8.532637e-002 -4.284210e-002 -1.999060e-001 -1.445754e-001 -1.509261e-001 1.962346e-002 7.452641e-002 1.050739e-002 1.647966e-001 -3.736979e-001
<VARIANCE> 39
 4.421566e+001 3.548106e+001 1.065508e+002 9.405948e+001 7.700550e+001 7.971077e+001 6.389004e+001 6.322556e+001 5.748881e+001 7.988696e+001 4.185929e+001 5.050308e+001 1.115399e+002 1.519915e+000 1.462763e+000 1.488406e+000 3.493678e+000 4.029220e+000 3.336497e+000 2.644067e+000 2.777299e+000 2.805114e+000 3.222009e+000 1.735363e+000 2.201827e+000 2.004767e+000 2.081362e-001 2.244204e-001 3.117558e-001 5.046436e-001 6.229624e-001 5.515307e-001 4.899892e-001 5.951877e-001 5.604891e-001 5.313315e-001 3.483638e-001 3.826811e-001 2.526483e-001
<GCONST> 1.255384e+002
<STATE> 4
<MEAN> 39
 9.368615e+000 -1.135560e+001 -6.202466e+000 -1.269365e+001 -1.677921e+000 3.119845e+000 -1.613104e+000 9.062504e-001 -3.730266e+000 -2.794217e+000 -1.948354e+000 -1.070469e+001 6.795337e+001 5.382459e-001 1.318749e+000 -1.465234e-001 9.428125e-001 2.608116e-001 -6.171947e-001 -4.202048e-001 -3.753714e-001 -4.423524e-002 -1.592476e-001 -1.951554e-001 5.725334e-001 -1.691182e+000 -1.903935e-001 1.639985e-001 -6.005704e-002 -1.961468e-002 -4.715217e-002 7.630781e-002 2.507866e-001 -6.043031e-002 -2.018958e-002 -3.532963e-002 -7.042610e-002 -1.013603e-001 3.360844e-002
<VARIANCE> 39
 6.774474e+001 6.847121e+001 1.059170e+002 1.996678e+002 7.927848e+001 7.661648e+001 4.797408e+001 5.642983e+001 6.130652e+001 5.155552e+001 5.595327e+001 4.598771e+001 5.740717e+001 1.320779e+000 1.362462e+000 2.492458e+000 3.828947e+000 2.877209e+000 4.015309e+000 3.594527e+000 3.030118e+000 3.151434e+000 3.616124e+000 2.277510e+000 2.677841e+000 1.078494e+000 1.163885e-001 3.316322e-001 3.841227e-001 5.220261e-001 5.852334e-001 6.469440e-001 6.213207e-001 6.110353e-001 4.585057e-001 4.671113e-001 4.142989e-001 4.251826e-001 1.786044e-001
<GCONST> 1.268499e+002
<TRANSP> 5
 0.000000e+000 1.000000e+000 0.000000e+000 0.000000e+000 0.000000e+000
 0.000000e+000 6.896973e-001 3.103028e-001 0.000000e+000 0.000000e+000
 0.000000e+000 0.000000e+000 7.644199e-001 2.355801e-001 0.000000e+000
 0.000000e+000 0.000000e+000 0.000000e+000 6.768954e-001 3.231045e-001
 0.000000e+000 0.000000e+000 0.000000e+000 0.000000e+000 0.000000e+000
<ENDHMM>
~h "ae"
<BEGINHMM>
<NUMSTATES> 5
<STATE> 2
<MEAN> 39
 -1.030000e+000 -8.668413e+000 -1.706243e+000 -1.109257e+001 -5.190619e+000 -5.979353e+000 1.452735e+000 3.614236e+000 -1.384897e+000 -4.209827e+000 -5.152184e+000 -1.071823e+001 6.622369e+001 1.056057e+000 -2.582115e+000 5.566210e-001 -1.696125e+000 -2.075131e+000 7.155034e-002 -2.423859e-001 1.340606e+000 -6.878253e-001 -6.501498e-001 -5.517079e-001 -7.822227e-001 3.710958e+000 -3.631110e-001 3.771552e-001 1.876208e-001 4.590756e-001 2.729126e-001 -5.828373e-002 5.331036e-002 -5.382001e-002 6.937905e-003 1.915106e-001 3.617555e-001 2.839885e-001 -3.586777e-001
<VARIANCE> 39
 9.441976e+001 1.125809e+002 1.217077e+002 1.135754e+002 1.768741e+002 1.106611e+002 1.519972e+002 2.683606e+002 1.037407e+002 1.144284e+002 1.071860e+002 1.587676e+002 2.714660e+002 8.408433e+000 1.011053e+001 7.363584e+000 1.095149e+001 1.582502e+001 1.108265e+001 8.680468e+000 1.170086e+001 9.671528e+000 1.000068e+001 8.929279e+000 8.038286e+000 7.768728e+000 1.171356e+000 1.757880e+000 1.128402e+000 1.673388e+000 2.247275e+000 1.423891e+000 1.526561e+000 2.181050e+000 1.456256e+000 1.537642e+000 1.407183e+000 1.437860e+000 1.583157e+000
<GCONST> 1.709187e+002
<STATE> 3
<MEAN> 39
 1.839830e+000 -1.528245e+001 2.342594e+000 -8.975495e+000 -9.843980e+000 -5.775675e+000 6.520922e+000 1.289503e+001 -1.001921e+000 -4.331738e+000 -4.860649e+000 -1.178129e+001 7.016767e+001 4.405679e-001 2.728153e-001 5.122007e-001 -5.639798e-003 -7.390739e-001 -5.521829e-001 -3.348471e-001 -6.640178e-001 -2.445953e-001 3.343778e-001 2.395036e-001 3.254401e-001 2.749998e-001 -6.704591e-002 4.704400e-001 -1.189524e-001 4.038117e-001 4.437844e-001 -4.733554e-002 -2.096599e-001 -3.790387e-001 1.910367e-001 3.116980e-001 7.393469e-002 1.143944e-001 -5.818157e-001
<VARIANCE> 39
 3.337451e+001 4.131563e+001 9.679605e+001 4.477307e+001 6.978992e+001 5.859135e+001 9.578439e+001 1.253034e+002 8.003084e+001 8.668045e+001 6.883050e+001 5.538475e+001 1.261222e+002 1.710146e+000 2.039226e+000 2.192616e+000 2.430033e+000 3.805593e+000 4.058465e+000 3.074903e+000 4.788472e+000 4.365740e+000 3.912031e+000 2.198052e+000 2.424127e+000 1.532646e+000 2.897604e-001 3.495428e-001 3.528893e-001 4.351090e-001 6.175823e-001 5.768087e-001 4.648417e-001 7.408900e-001 8.628984e-001 7.354735e-001 4.632289e-001 4.628640e-001 2.612277e-001
<GCONST> 1.306053e+002
<STATE> 4
<MEAN> 39
 5.590543e+000 -1.092320e+001 1.060502e+001 -4.253076e+000 -1.189214e+001 -1.409766e+001 6.754400e-001 1.098297e+001 -7.955351e+000 -5.371434e+000 -3.148567e+000 -1.034272e+001 6.858631e+001 9.799936e-002 1.450958e+000 4.869609e-002 1.040887e+000 7.964120e-002 -3.160209e-001 -3.449202e-001 -6.116130e-001 3.066390e-001 -1.922150e-001 6.765746e-002 3.391115e-001 -1.596912e+000 -1.506676e-001 2.343323e-002 -7.335274e-002 -5.501534e-002 1.173528e-001 1.406209e-001 1.584419e-001 4.802579e-002 6.097271e-002 -2.901406e-002 -4.569225e-002 -1.213856e-001 -1.069056e-001
<VARIANCE> 39
 5.278635e+001 7.431728e+001 1.925131e+002 7.478642e+001 8.231826e+001 1.453220e+002 7.709194e+001 1.340935e+002 1.231669e+002 1.057888e+002 6.168269e+001 5.528811e+001 1.044714e+002 1.022666e+000 2.124096e+000 3.813563e+000 3.153406e+000 4.277080e+000 4.034334e+000 3.327930e+000 4.738266e+000 5.772630e+000 3.779269e+000 3.405506e+000 3.136983e+000 1.935113e+000 2.504075e-001 4.039864e-001 7.296680e-001 6.761099e-001 7.199500e-001 7.855909e-001 6.499956e-001 7.426583e-001 1.002174e+000 7.025547e-001 5.742697e-001 5.558512e-001 3.692821e-001
<GCONST> 1.386138e+002
<TRANSP> 5
 0.000000e+000 1.000000e+000 0.000000e+000 0.000000e+000 0.000000e+000
 0.000000e+000 6.307840e-001 3.692160e-001 0.000000e+000 0.000000e+000
 0.000000e+000 0.000000e+000 7.208588e-001 2.791411e-001 0.000000e+000
 0.000000e+000 0.000000e+000 0.000000e+000 7.282160e-001 2.717840e-001
 0.000000e+000 0.000000e+000 0.000000e+000 0.000000e+000 0.000000e+000
<ENDHMM>
~h "ah"
<BEGINHMM>
<NUMSTATES> 5
<STATE> 2
<MEAN> 39
 4.112629e+000 -1.356147e+001 -5.980585e+000 -1.431290e+001 1.066494e+000 3.914950e+000 -4.575662e-001 2.954664e+000 -2.945891e+000 -1.472536e+000 -4.745050e+000 -1.602724e+001 7.780580e+001 2.803367e-001 -9.997871e-001 6.794151e-002 5.552921e-001 1.011993e+000 2.588148e-001 -6.444765e-001 1.222329e-001 -3.295209e-001 5.159746e-001 -3.281253e-001 -8.338782e-001 5.201650e-001 1.752296e-001 4.129856e-001 1.401691e-001 2.042736e-001 -4.373116e-003 -1.859181e-001 -1.119597e-001 -7.446438e-002 3.336785e-002 -8.404887e-002 -6.302153e-002 2.305620e-001 -5.252791e-001
<VARIANCE> 39
 7.199759e+001 5.861100e+001 7.972667e+001 7.470955e+001 8.392470e+001 1.177917e+002 1.158508e+002 8.425343e+001 6.178901e+001 9.948142e+001 1.113161e+002 1.144944e+002 1.000823e+002 2.934690e+000 3.428962e+000 3.930097e+000 4.087676e+000 4.428262e+000 4.253533e+000 4.730277e+000 4.368032e+000 3.750269e+000 4.289880e+000 4.192993e+000 4.598042e+000 3.737014e+000 5.416597e-001 5.834078e-001 5.568936e-001 7.159771e-001 7.409346e-001 6.914399e-001 8.686597e-001 8.354418e-001 6.361727e-001 7.457286e-001 7.782137e-001 7.698695e-001 3.504155e-001
<GCONST> 1.426220e+002
<STATE> 3
<MEAN> 39
 -8.452890e-001 -1.031343e+001 -1.053818e+001 -1.088427e+001 -1.962600e+000 -1.192991e+000 -6.212531e+000 -1.221135e+000 -2.496321e+000 -6.614930e+000 -3.876158e+000 -1.014747e+001 7.892391e+001 2.615720e-001 2.550315e-001 -3.043682e-002 2.369388e-001 1.199856e-001 2.441451e-001 -1.045917e-001 -1.389703e-001 -2.641903e-001 -2.470923e-002 5.004600e-002 -2.202708e-002 -3.933801e-001 5.016122e-002 1.703956e-001 1.403591e-001 7.371623e-003 -6.999470e-002 -1.649797e-001 5.212699e-002 -1.931337e-002 -4.801998e-002 1.963039e-002 3.280804e-002 1.213491e-001 -1.668666e-001
<VARIANCE> 39
 6.370871e+001 7.912268e+001 5.248469e+001 5.058425e+001 6.905400e+001 8.437397e+001 1.716354e+002 8.947693e+001 8.799931e+001 9.564081e+001 8.161758e+001 9.412526e+001 8.677119e+001 3.894119e-001 9.961991e-001 1.222007e+000 1.437390e+000 1.991536e+000 2.219092e+000 1.877329e+000 2.076280e+000 2.273607e+000 1.898886e+000 1.947914e+000 2.065262e+000 4.727662e-001 6.348939e-002 1.184415e-001 1.546744e-001 1.921536e-001 2.969865e-001 2.711607e-001 3.342281e-001 3.633245e-001 3.528286e-001 3.574818e-001 3.241605e-001 3.264676e-001 4.229984e-002
<GCONST> 1.128994e+002
<STATE> 4
<MEAN> 39
 1.142140e+001 -9.584579e+000 -8.754642e+000 -9.249490e+000 5.218437e+000 1.550517e+000 -4.437634e+000 -1.202883e+000 -4.598749e+000 -2.392192e+000 -7.929827e+000 -1.674417e+001 6.549087e+001 1.273778e-001 1.169961e+000 2.293812e-002 3.238893e-001 1.839819e-002 -3.287224e-001 5.335496e-002 -5.397485e-001 2.570988e-002 -2.469682e-001 -2.189281e-001 4.624164e-001 -1.707780e+000 -2.173251e-001 8.403613e-002 3.106207e-002 1.866908e-003 -1.718219e-003 -2.222058e-002 1.455082e-001 -9.223806e-003 1.124785e-001 1.463817e-002 4.209581e-002 1.596511e-002 -1.028497e-002
<VARIANCE> 39
 5.866964e+001 7.187543e+001 6.953949e+001 8.263445e+001 7.520223e+001 1.098429e+002 6.437804e+001 9.024992e+001 7.615594e+001 6.746818e+001 5.911658e+001 7.008469e+001 1.183707e+002 1.840020e+000 1.839396e+000 3.036559e+000 2.471801e+000 2.696242e+000 2.771050e+000 3.701801e+000 3.882535e+000 3.442407e+000 3.390770e+000 2.432615e+000 2.486733e+000 4.650331e-001 1.854376e-001 2.320783e-001 3.730645e-001 4.044528e-001 4.733109e-001 4.658453e-001 6.080253e-001 6.757827e-001 6.242420e-001 5.847380e-001 4.588973e-001 4.112431e-001 7.117689e-002
<GCONST> 1.266611e+002
<TRANSP> 5
 0.000000e+000 1.000000e+000 0.000000e+000 0.000000e+000 0.000000e+000
 0.000000e+000 6.758355e-001 3.241645e-001 0.000000e+000 0.000000e+000
 0.000000e+000 0.000000e+000 8.241969e-001 1.758031e-001 0.000000e+000
 0.000000e+000 0.000000e+000 0.000000e+000 8.118727e-001 1.881273e-001
 0.000000e+000 0.000000e+000 0.000000e+000 0.000000e+000 0.000000e+000
<ENDHMM>
~h "ao"
<BEGINHMM>
<NUMSTATES> 5
<STATE> 2
<MEAN> 39
 7.728138e+000 -7.546467e+000 -1.752924e+001 -1.577086e+001 -2.050127e+000 -4.044013e-001 -1.277277e+000 -5.364668e+000 -3.791626e+000 -1.642498e-001 1.492597e+000 -8.125013e+000 5.773447e+001 -7.183248e-001 4.717611e-001 3.802844e-001 3.434302e-001 5.546944e-002 4.246629e-002 5.404770e-001 3.739583e-001 4.990068e-001 3.698354e-001 4.206683e-001 4.924949e-001 -1.366221e+000 -1.245365e-001 -2.211196e-002 2.118337e-001 -5.609311e-003 1.809999e-002 -4.688103e-002 -4.891991e-002 1.667321e-001 -2.956500e-002 -5.700894e-002 2.108652e-002 -4.131959e-002 1.318896e-001
<VARIANCE> 39
 8.927898e+001 3.435582e+001 6.146643e+001 6.434377e+001 3.533635e+001 5.588166e+001 7.255130e+001 8.971912e+001 6.702615e+001 6.340199e+001 7.719884e+001 4.200687e+001 7.767764e+001 9.156214e-001 1.240541e+000 2.397916e+000 2.869242e+000 2.762994e+000 3.160621e+000 3.479228e+000 4.247889e+000 4.215858e+000 4.681158e+000 3.849772e+000 2.920283e+000 4.780367e-001 1.333306e-001 2.124816e-001 3.420453e-001 4.160326e-001 5.256925e-001 5.680375e-001 6.186663e-001 8.135754e-001 7.944109e-001 8.663589e-001 7.786521e-001 6.016416e-001 1.050180e-001
<GCONST> 1.259351e+002
<STATE> 3
<MEAN> 39
 -1.269793e+000 -5.859917e+000 -1.013037e+001 -1.320697e+001 1.508626e+000 -7.783161e-001 -1.581114e+000 9.699081e-001 1.783305e-001 9.185500e-001 1.546223e+000 -6.240708e+000 5.602480e+001 -7.213062e-001 2.697359e-002 1.914150e+000 4.089388e-001 6.894649e-001 -7.986608e-001 -1.068892e+000 1.756765e+000 -2.176894e-002 -6.899607e-001 -2.043372e-001 -9.352248e-001 1.069264e-001 1.800874e-001 2.215801e-001 1.447355e-002 -1.059674e-001 -1.763821e-001 -4.350001e-001 -4.419844e-001 -3.740780e-001 -3.652699e-001 -2.510353e-001 -1.484304e-001 -1.135365e-001 5.004566e-001
<VARIANCE> 39
 5.945518e+001 4.226216e+001 6.053184e+001 1.472302e+002 6.205917e+001 6.121789e+001 1.082111e+002 1.428584e+002 6.915559e+001 1.318125e+002 1.490008e+002 6.260733e+001 1.351115e+002 1.906623e+000 1.901153e+000 3.463650e+000 6.610404e+000 6.789135e+000 4.519890e+000 7.151831e+000 1.105306e+001 5.994782e+000 6.203460e+000 6.213188e+000 5.432951e+000 1.175087e+000 7.312843e-001 6.329957e-001 6.471627e-001 1.464008e+000 1.054879e+000 9.147434e-001 1.282202e+000 2.947449e+000 1.302506e+000 1.271146e+000 1.310511e+000 1.158967e+000 4.247312e-001
<GCONST> 1.496992e+002
<STATE> 4
<MEAN> 39
 -9.757776e+000 -1.894673e-002 -4.679625e+000 -9.016798e+000 -7.779337e+000 -1.208702e+001 -5.778154e+000 -7.377324e+000 -9.142796e+000 -1.234825e+001 -5.635962e+000 -4.188539e+000 6.607318e+001 -6.116317e-001 4.392582e-001 5.141097e-001 -4.643314e-002 1.405003e-002 -2.374631e-001 -1.431524e-001 8.973674e-002 3.026834e-003 4.210757e-001 4.266171e-001 1.815879e-001 -1.856148e-002 -4.567231e-002 -2.659521e-003 -1.106643e-001 -1.998210e-001 2.843445e-002 -8.409660e-002 -2.531071e-002 -1.109794e-001 1.844022e-002 2.370843e-002 -4.377243e-002 1.403546e-001 3.502643e-001
<VARIANCE> 39
 4.596140e+001 4.001188e+001 2.663495e+001 4.256591e+001 5.767961e+001 7.842360e+001 4.680083e+001 4.390939e+001 6.121733e+001 9.827900e+001 5.545866e+001 4.365371e+001 9.552475e+001 4.452703e+000 3.660033e+000 2.195528e+000 5.264884e+000 5.728237e+000 6.717455e+000 5.240311e+000 5.433237e+000 6.175309e+000 7.029376e+000 7.131350e+000 5.075568e+000 7.883661e+000 7.806083e-001 5.824659e-001 3.874334e-001 7.996231e-001 1.081694e+000 1.175966e+000 9.172518e-001 7.145710e-001 1.135421e+000 1.280506e+000 1.374161e+000 7.756363e-001 1.000951e+000
<GCONST> 1.432851e+002
<TRANSP> 5
 0.000000e+000 1.000000e+000 0.000000e+000 0.000000e+000 0.000000e+000
 0.000000e+000 7.622620e-001 2.377380e-001 0.000000e+000 0.000000e+000
 0.000000e+000 0.000000e+000 4.045841e-001 5.954158e-001 0.000000e+000
 0.000000e+000 0.000000e+000 0.000000e+000 8.111266e-001 1.888733e-001
 0.000000e+000 0.000000e+000 0.000000e+000 0.000000e+000 0.000000e+000
<ENDHMM>
~h "aw"
<BEGINHMM>
<NUMSTATES> 5
<STATE> 2
<MEAN> 39
 -1.178145e+000 -4.683238e+000 -1.435023e+001 -1.306325e+001 -6.484752e+000 -2.086875e+000 -1.073233e+001 -8.734478e+000 -3.924314e+000 -1.372990e+001 -9.224975e+000 -4.161150e+000 7.752224e+001 3.820559e-001 6.992237e-002 1.962886e-002 1.131061e-001 -4.048389e-001 1.066374e-001 -1.676221e-001 -9.971536e-002 -2.098863e-001 5.147600e-001 1.724489e-001 -1.415353e-001 -2.833366e-001 -3.296097e-002 6.209768e-002 7.040071e-002 3.728889e-002 -1.080580e-001 -1.459778e-001 1.702575e-002 4.668946e-002 3.955336e-002 3.740562e-002 4.783730e-002 -1.958108e-003 -3.919428e-002
<VARIANCE> 39
 5.856795e+001 6.916190e+001 4.633347e+001 4.369252e+001 7.887703e+001 1.209562e+002 8.966597e+001 8.151004e+001 6.857856e+001 1.772552e+002 1.012960e+002 5.636297e+001 3.642430e+001 5.758824e-001 1.497117e+000 1.208400e+000 1.281731e+000 2.281652e+000 2.344447e+000 2.540381e+000 3.005659e+000 3.323322e+000 3.052872e+000 2.938030e+000 2.278585e+000 6.532234e-001 8.122524e-002 1.996277e-001 1.590568e-001 2.008932e-001 2.600966e-001 3.400491e-001 3.628032e-001 4.161321e-001 5.505225e-001 5.053720e-001 4.325086e-001 3.869301e-001 9.632208e-002
<GCONST> 1.178108e+002
<STATE> 3
<MEAN> 39
 1.420307e+001 -9.637139e+000 -1.740995e+001 -7.088334e+000 -1.513083e+000 -2.105123e-001 -8.977819e-001 -2.249766e+000 -6.451885e+000 -1.671875e+000 2.013941e+000 -7.835915e+000 6.702873e+001 8.531073e-002 -2.674633e-002 -1.055628e-003 7.467046e-001 6.664937e-002 -1.087584e+000 -4.811240e-001 2.163703e-001 2.542136e-001 -8.994126e-002 1.226573e-001 3.881451e-001 -2.801061e-001 -7.187380e-002 1.037890e-001 1.320411e-001 -9.617716e-002 2.073172e-002 1.808387e-002 -1.798534e-002 -2.335238e-002 6.922747e-002 -1.586205e-002 -5.122798e-002 2.214222e-002 -7.128358e-002
<VARIANCE> 39
 7.058262e+001 5.012484e+001 3.688306e+001 7.640158e+001 7.124310e+001 1.145331e+002 8.442841e+001 6.096210e+001 6.824697e+001 6.045993e+001 3.836268e+001 5.575905e+001 4.210596e+001 8.361953e-001 2.694868e+000 1.735911e+000 3.383100e+000 2.179247e+000 3.609205e+000 2.924790e+000 3.786525e+000 3.602466e+000 2.661280e+000 2.498652e+000 2.383517e+000 8.754987e-001 1.512924e-001 3.523304e-001 2.613798e-001 4.192641e-001 3.396083e-001 4.933286e-001 4.742358e-001 5.907673e-001 5.501990e-001 4.381673e-001 3.796668e-001 4.447689e-001 1.140462e-001
<GCONST> 1.224664e+002
<STATE> 4
<MEAN> 39
 6.602073e+000 -5.678626e+000 -1.220337e+001 -6.699522e+000 -6.319152e+000 -6.286781e+000 -9.727365e+000 -1.804862e+000 -1.605377e+000 -2.202693e+000 -8.854389e-001 -6.038752e+000 6.691249e+001 -5.161064e-001 9.754721e-001 1.261792e+000 -2.697922e-001 -1.242989e-001 -6.874188e-001 3.341044e-001 -3.052577e-001 -1.828042e-001 -2.192725e-001 2.101471e-001 6.346361e-002 -8.474460e-001 -1.557801e-001 2.582484e-001 -1.796740e-003 -2.013656e-002 2.962426e-001 1.314656e-001 2.922637e-001 -2.309245e-001 -3.482632e-001 -1.475732e-001 -6.578051e-002 -8.961955e-002 -1.084123e-001
<VARIANCE> 39
 7.996322e+001 4.016580e+001 6.474115e+001 6.002246e+001 1.711820e+002 7.735212e+001 1.131239e+002 6.480039e+001 1.138223e+002 9.759489e+001 7.604066e+001 5.738603e+001 7.449553e+001 1.098404e+000 2.135042e+000 2.696238e+000 3.844320e+000 4.361149e+000 4.082667e+000 4.019642e+000 5.225052e+000 5.552726e+000 3.494524e+000 3.277142e+000 3.123224e+000 8.250722e-001 2.628055e-001 2.940924e-001 4.318016e-001 6.516164e-001 9.671066e-001 6.885577e-001 8.195458e-001 9.577859e-001 1.060122e+000 7.688509e-001 7.022812e-001 5.849770e-001 1.252510e-001
<GCONST> 1.349805e+002
<TRANSP> 5
 0.000000e+000 1.000000e+000 0.000000e+000 0.000000e+000 0.000000e+000
 0.000000e+000 9.178814e-001 8.211860e-002 0.000000e+000 0.000000e+000
 0.000000e+000 0.000000e+000 8.540251e-001 1.459749e-001 0.000000e+000
 0.000000e+000 0.000000e+000 0.000000e+000 6.314608e-001 3.685392e-001
 0.000000e+000 0.000000e+000 0.000000e+000 0.000000e+000 0.000000e+000
<ENDHMM>
~h "ax"
<BEGINHMM>
<NUMSTATES> 5
<STATE> 2
<MEAN> 39
 -1.824546e+000 1.948659e+000 -5.006639e+000 -1.010540e+001 -9.353150e+000 -1.260860e+001 -1.071805e+001 -6.961981e+000 -7.889642e+000 -1.325855e+001 -6.728890e+000 -5.586525e+000 7.047238e+001 4.539094e-002 1.617789e+000 2.770139e-001 1.045531e+000 3.022173e-001 7.670482e-001 1.564034e-001 -7.402012e-001 -7.026430e-001 6.268170e-001 -2.676351e-001 -9.145421e-001 -1.799553e+000 -1.659682e-001 -1.874289e-001 4.446598e-002 1.577600e-001 1.353511e-002 1.040280e-001 2.272234e-001 7.775179e-002 1.421824e-002 8.466432e-002 -3.877839e-002 9.592579e-002 -9.401549e-002
<VARIANCE> 39
 9.263638e+001 5.793124e+001 5.167868e+001 4.422766e+001 1.003226e+002 8.034028e+001 6.547589e+001 5.065040e+001 7.266412e+001 1.410681e+002 7.928566e+001 6.220456e+001 4.287525e+001 2.580008e+000 3.137247e+000 2.393830e+000 3.616452e+000 5.626511e+000 3.884447e+000 4.456360e+000 4.053227e+000 4.366357e+000 4.814467e+000 3.792136e+000 4.618621e+000 1.936635e+000 4.348367e-001 5.194511e-001 3.698102e-001 5.213098e-001 7.969127e-001 6.794073e-001 7.408891e-001 6.561005e-001 6.621972e-001 7.781429e-001 6.869654e-001 6.163424e-001 2.965873e-001
<GCONST> 1.361884e+002
<STATE> 3
<MEAN> 39
 1.173151e+001 -4.803912e-002 -5.302745e+000 -5.845028e+000 -1.243893e-001 -5.140994e+000 -9.708222e+000 -5.530678e+000 -5.444567e+000 -1.191360e+000 -2.997759e+000 -1.114520e+001 6.057651e+001 -3.911296e-001 8.401616e-001 5.084975e-001 7.338642e-001 -2.110029e-001 -7.705026e-002 4.620879e-001 -4.868906e-001 -1.049422e-002 -1.888631e-001 -7.703775e-002 4.116623e-001 -1.373776e+000 -1.593495e-001 -1.427860e-001 -3.466098e-002 -1.019791e-001 -7.209408e-003 -7.572643e-002 2.017444e-002 1.719478e-001 1.274165e-001 -1.470838e-004 3.081363e-002 7.288603e-002 7.899260e-002
<VARIANCE> 39
 8.146420e+001 1.015168e+002 6.516318e+001 7.285673e+001 8.576504e+001 9.392686e+001 7.030976e+001 7.499955e+001 6.668793e+001 7.625989e+001 6.224857e+001 6.314090e+001 8.213855e+001 1.219295e+000 1.461222e+000 2.363469e+000 2.641875e+000 3.091678e+000 3.022525e+000 3.101308e+000 3.194736e+000 3.635067e+000 3.249292e+000 2.966347e+000 2.442197e+000 6.206015e-001 1.111144e-001 1.908647e-001 2.965596e-001 3.366530e-001 4.581513e-001 4.890116e-001 4.727560e-001 5.677849e-001 5.977380e-001 5.397627e-001 5.038356e-001 4.732150e-001 9.203988e-002
<GCONST> 1.249369e+002
<STATE> 4
<MEAN> 39
 -3.766244e+000 4.752491e+000 -3.005587e+000 -3.673585e+000 -6.105084e+000 -6.082560e+000 -8.062851e+000 -6.336310e+000 -5.031536e+000 -5.581050e+000 -5.323549e+000 -4.360723e+000 6.327759e+001 -6.104366e-001 -1.284450e-001 3.145756e-001 2.392375e-001 5.019648e-001 4.349075e-001 6.554105e-001 9.066331e-002 7.997420e-002 2.321819e-001 2.716184e-001 1.929673e-001 -5.761647e-001 -1.322229e-001 -9.326069e-002 -1.362892e-001 -2.550983e-001 1.828563e-002 -7.588584e-002 -1.222218e-001 9.762624e-002 1.238229e-001 6.674997e-003 2.246393e-002 8.063958e-002 3.343455e-001
<VARIANCE> 39
 5.834517e+001 2.610038e+001 2.801133e+001 2.185099e+001 4.198962e+001 3.867402e+001 4.943383e+001 3.572718e+001 5.703129e+001 5.162106e+001 4.327221e+001 2.764942e+001 3.640004e+001 7.632113e-001 8.843842e-001 1.052204e+000 1.418055e+000 1.934110e+000 1.916011e+000 2.833830e+000 2.367318e+000 2.217874e+000 2.319270e+000 2.121056e+000 1.931537e+000 5.862734e-001 1.911930e-001 2.050953e-001 2.506873e-001 2.850014e-001 3.931935e-001 3.946991e-001 5.194228e-001 4.863264e-001 5.117830e-001 4.837205e-001 4.510150e-001 4.476997e-001 2.071185e-001
<GCONST> 1.110082e+002
<TRANSP> 5
 0.000000e+000 1.000000e+000 0.000000e+000 0.000000e+000 0.000000e+000
 0.000000e+000 5.669126e-001 4.330874e-001 0.000000e+000 0.000000e+000
 0.000000e+000 0.000000e+000 7.124605e-001 2.875395e-001 0.000000e+000
 0.000000e+000 0.000000e+000 0.000000e+000 7.595877e-001 2.404123e-001
 0.000000e+000 0.000000e+000 0.000000e+000 0.000000e+000 0.000000e+000
<ENDHMM>
~h "ay"
<BEGINHMM>
<NUMSTATES> 5
<STATE> 2
<MEAN> 39
 -8.491623e+000 -9.925483e+000 -9.191759e+000 -8.851851e+000 -6.247193e+000 -4.240675e+000 2.653309e-001 -1.359916e+000 -3.824801e+000 -1.289213e+001 -5.908721e+000 -1.414655e+000 8.619738e+001 -1.028089e-001 1.741177e-001 8.007833e-001 -3.025318e-001 -1.213767e+000 -8.794395e-002 1.446709e-002 -1.014851e-001 -3.869377e-001 5.997432e-001 -6.271030e-002 -3.465156e-001 -1.508212e-001 9.128248e-002 2.047839e-001 2.012147e-001 -2.110066e-001 -2.289235e-001 -8.683658e-002 -2.447358e-001 -7.324449e-002 1.414320e-001 2.249797e-001 -7.267381e-002 -1.078653e-003 -1.358873e-001
<VARIANCE> 39
 5.792787e+001 5.326899e+001 5.511508e+001 3.281295e+001 1.349433e+002 5.094469e+001 7.423112e+001 7.309726e+001 7.838647e+001 1.033214e+002 4.641178e+001 1.182566e+002 6.849841e+001 3.235414e-001 9.124605e-001 1.300873e+000 1.797609e+000 2.991564e+000 1.825421e+000 2.831175e+000 2.379733e+000 2.117610e+000 3.426534e+000 2.806835e+000 2.012060e+000 2.015084e-001 4.583125e-002 9.885164e-002 1.220811e-001 2.056967e-001 3.111926e-001 2.977023e-001 5.018026e-001 3.802789e-001 4.235579e-001 5.494386e-001 4.861788e-001 3.551753e-001 1.760913e-002
<GCONST> 1.114588e+002
<STATE> 3
<MEAN> 39
 1.995287e+000 -1.477511e+001 7.773069e+000 -1.140037e+001 -1.156739e+001 -9.707659e+000 -2.824321e+000 7.305953e+000 -5.671538e+000 -1.107294e+000 -4.428250e+000 -1.142772e+001 7.809279e+001 3.284977e-001 7.445986e-001 1.447729e+000 -7.642362e-002 -9.017504e-001 -6.585804e-001 -9.143957e-001 -5.411482e-001 -4.577637e-001 3.216046e-001 3.966381e-001 4.133365e-001 -1.002670e+000 1.379053e-002 1.691311e-001 -1.519771e-001 1.494540e-001 2.235196e-001 8.254614e-002 -2.015997e-003 -1.352576e-001 9.901784e-002 -1.688092e-001 -4.553794e-002 2.190991e-002 -1.221701e-001
<VARIANCE> 39
 7.279427e+001 9.674168e+001 1.309856e+002 4.682561e+001 1.064578e+002 7.253751e+001 7.258796e+001 1.122351e+002 7.567257e+001 6.924145e+001 5.150658e+001 8.546661e+001 6.861324e+001 9.227466e-001 2.614235e+000 2.792804e+000 2.078738e+000 2.487051e+000 3.016441e+000 3.234679e+000 4.086752e+000 4.097352e+000 3.032614e+000 2.540273e+000 2.052760e+000 4.736561e-001 1.315716e-001 2.096298e-001 4.048128e-001 3.098298e-001 4.775375e-001 4.671143e-001 5.141357e-001 6.141685e-001 6.591023e-001 5.361119e-001 5.216744e-001 3.956019e-001 5.016043e-002
<GCONST> 1.251276e+002
<STATE> 4
<MEAN> 39
 -2.496751e+000 3.003004e+000 5.577958e+000 -7.397133e+000 -1.512623e+001 -7.409133e+000 -8.041252e+000 -5.623831e+000 -3.893067e+000 -6.455218e+000 -5.711298e+000 -4.528070e+000 6.889171e+001 3.084449e-002 8.675325e-001 -2.126312e-001 9.701161e-001 1.060766e+000 1.143551e-001 2.943887e-001 -1.100168e-001 2.215027e-001 -2.009900e-001 -8.709941e-002 -2.325486e-001 -1.366506e+000 -7.680171e-002 -1.492480e-001 -1.848194e-001 8.592295e-002 1.973627e-001 3.215710e-002 2.031529e-001 1.921622e-001 -1.080293e-002 3.309886e-002 4.277353e-002 -6.915446e-002 3.728376e-002
<VARIANCE> 39
 1.057706e+002 8.317268e+001 5.865015e+001 9.469054e+001 9.522525e+001 1.010155e+002 7.849551e+001 1.177152e+002 5.662565e+001 8.049214e+001 5.642283e+001 6.571232e+001 1.011171e+002 1.068768e+000 2.067672e+000 1.632835e+000 2.486591e+000 3.381296e+000 2.833522e+000 3.473717e+000 3.508699e+000 3.417196e+000 3.291579e+000 2.550821e+000 2.710358e+000 8.029003e-001 1.607526e-001 2.131153e-001 2.672533e-001 4.168649e-001 5.209816e-001 4.984179e-001 6.529548e-001 6.439104e-001 5.822356e-001 5.558237e-001 4.761517e-001 4.579072e-001 1.081824e-001
<GCONST> 1.273737e+002
<TRANSP> 5
 0.000000e+000 1.000000e+000 0.000000e+000 0.000000e+000 0.000000e+000
 0.000000e+000 8.259112e-001 1.740889e-001 0.000000e+000 0.000000e+000
 0.000000e+000 0.000000e+000 8.441116e-001 1.558885e-001 0.000000e+000
 0.000000e+000 0.000000e+000 0.000000e+000 8.491490e-001 1.508510e-001
 0.000000e+000 0.000000e+000 0.000000e+000 0.000000e+000 0.000000e+000
<ENDHMM>
~h "ch"
<BEGINHMM>
<NUMSTATES> 5
<STATE> 2
<MEAN> 39
 -1.172089e+001 5.675514e+000 5.856062e+000 -8.970545e+000 6.459085e+000 -7.841254e+000 -3.368315e+000 1.950483e+000 -1.822736e+000 -4.273125e+000 -1.370899e+000 -7.255803e+000 5.977361e+001 -3.864519e+000 1.011555e+000 9.573788e-001 -2.305460e+000 1.108015e+000 -1.805754e-001 6.142480e-001 1.574492e-002 6.490443e-001 -6.264341e-001 4.240741e-001 -3.759571e-001 2.553425e+000 -1.327856e-002 -2.216914e-001 2.933268e-001 1.907707e-001 -7.126153e-001 -7.264868e-003 2.030578e-001 -3.944876e-001 -3.867629e-003 -1.258083e-001 8.789977e-002 -8.566564e-002 2.841663e-001
<VARIANCE> 39
 1.985204e+002 7.360754e+001 1.109973e+002 1.440276e+002 1.035030e+002 1.751868e+002 8.635249e+001 1.555767e+002 1.103830e+002 8.158062e+001 1.044014e+002 9.560745e+001 1.437234e+002 9.963700e+000 6.262745e+000 4.917847e+000 9.936872e+000 1.149224e+001 8.226529e+000 5.709060e+000 1.073881e+001 5.727564e+000 5.790974e+000 6.778115e+000 6.501794e+000 6.259131e+000 2.220476e+000 1.033790e+000 6.438122e-001 2.173838e+000 1.423507e+000 1.441569e+000 1.065410e+000 1.804914e+000 1.092661e+000 1.005077e+000 1.224784e+000 1.116195e+000 9.193921e-001
<GCONST> 1.622105e+002
<STATE> 3
<MEAN> 39
 -2.074493e+001 1.551399e+000 1.004842e+001 -1.180125e+001 -1.005740e+000 -1.419507e+001 2.163921e+000 -9.469153e-001 1.013836e+000 -8.200897e+000 -4.239991e-003 -9.483806e+000 7.131968e+001 1.411014e+000 -1.309746e+000 -1.330701e-001 3.265174e-001 -1.484734e+000 -3.222879e-001 -8.388839e-002 -1.237313e-002 -1.957551e-001 -3.388430e-001 -4.302956e-001 -3.946183e-001 8.803753e-001 3.489302e-001 -1.630276e-001 -3.478683e-001 5.964478e-002 1.530506e-001 1.669124e-001 -1.013009e-001 2.946378e-001 2.705730e-002 1.200067e-001 -6.310985e-004 2.690584e-003 -2.570638e-001
<VARIANCE> 39
 1.530759e+002 1.313957e+002 1.417663e+002 4.907936e+001 1.792187e+002 2.137482e+002 8.159211e+001 1.008432e+002 6.577279e+001 1.018965e+002 9.378783e+001 5.947628e+001 9.178726e+001 1.124394e+001 6.450057e+000 4.344697e+000 5.573954e+000 7.407492e+000 8.447434e+000 6.510625e+000 7.107919e+000 4.673141e+000 5.922193e+000 5.230948e+000 3.905506e+000 3.163554e+000 1.707690e+000 1.008165e+000 6.246029e-001 8.049923e-001 1.344618e+000 1.496824e+000 1.074534e+000 1.303716e+000 8.770727e-001 1.037506e+000 9.898038e-001 6.399254e-001 3.465520e-001
<GCONST> 1.541717e+002
<STATE> 4
<MEAN> 39
 -2.508297e+001 3.813506e+000 9.861668e+000 -1.038446e+001 -2.135478e+000 1.591226e+000 -3.476620e+000 -3.093342e+000 1.882051e+000 -6.572344e+000 -1.363821e+000 -4.301542e+000 7.090340e+001 5.062723e-001 -7.264749e-001 -3.557268e-001 3.192694e-001 -1.681157e-001 3.749581e-001 2.520902e-001 3.274099e-002 2.365694e-001 2.048565e-002 1.176451e-001 1.344083e-001 -6.972474e-001 1.382962e-001 7.305128e-002 -3.379307e-002 1.115770e-001 1.501552e-001 -7.110961e-002 3.967369e-003 9.259954e-003 -1.138793e-001 4.397473e-003 -1.403659e-002 6.491337e-003 -1.925426e-001
<VARIANCE> 39
 1.256556e+002 8.101556e+001 6.827755e+001 3.017052e+001 1.098069e+002 9.597918e+001 1.173338e+002 4.868309e+001 6.502685e+001 7.595334e+001 4.432537e+001 5.004126e+001 9.090388e+001 2.093299e+000 1.194501e+000 1.176342e+000 1.346884e+000 2.305157e+000 2.100554e+000 2.203881e+000 2.636622e+000 2.768496e+000 2.392779e+000 1.941674e+000 1.802423e+000 1.459286e+000 3.394324e-001 2.022766e-001 2.228363e-001 2.609252e-001 3.181649e-001 3.107428e-001 3.612231e-001 4.314443e-001 4.427135e-001 4.609399e-001 3.625646e-001 4.424466e-001 1.190132e-001
<GCONST> 1.201592e+002
<TRANSP> 5
 0.000000e+000 1.000000e+000 0.000000e+000 0.000000e+000 0.000000e+000
 0.000000e+000 7.810129e-001 2.189871e-001 0.000000e+000 0.000000e+000
 0.000000e+000 0.000000e+000 8.330907e-001 1.669093e-001 0.000000e+000
 0.000000e+000 0.000000e+000 0.000000e+000 8.244997e-001 1.755002e-001
 0.000000e+000 0.000000e+000 0.000000e+000 0.000000e+000 0.000000e+000
<ENDHMM>
~h "eh"
<BEGINHMM>
<NUMSTATES> 5
<STATE> 2
<MEAN> 39
 -1.067204e+001 -6.445624e+000 -5.739993e+000 -1.630380e+001 -7.462455e+000 -1.561447e+001 2.255551e+000 -6.054698e+000 -2.419215e+000 -2.223807e+001 -4.611827e+000 -2.566710e+000 8.491050e+001 1.218090e-001 -3.840021e-001 -1.598012e-002 9.496190e-002 3.302737e-001 -8.650023e-003 1.849866e-002 3.150039e-001 1.573574e-002 -1.491956e-001 -5.522648e-002 3.106909e-002 2.976011e-002 2.363192e-002 1.777727e-001 9.502613e-002 1.281168e-001 -6.110041e-002 -4.969652e-002 -1.657208e-001 -9.918007e-002 -9.031619e-002 1.284870e-001 -9.106170e-003 3.263203e-003 -2.545163e-001
<VARIANCE> 39
 3.599822e+001 5.450240e+001 4.744575e+001 4.116960e+001 5.541244e+001 5.768769e+001 7.662688e+001 7.315487e+001 6.210288e+001 1.142215e+002 7.235412e+001 5.311579e+001 3.037123e+001 3.678655e-001 1.075512e+000 1.188698e+000 9.756457e-001 2.329705e+000 2.099499e+000 2.921342e+000 2.274410e+000 1.992347e+000 1.840357e+000 1.692312e+000 1.484490e+000 4.237516e-001 1.378261e-001 1.944149e-001 1.580108e-001 2.431136e-001 3.334871e-001 3.878413e-001 5.324412e-001 3.490278e-001 3.559978e-001 2.827960e-001 3.027333e-001 2.722212e-001 1.404198e-001
<GCONST> 1.107740e+002
<STATE> 3
<MEAN> 39
 1.254147e+000 -1.147001e+001 -4.733655e+000 -8.785312e+000 -7.786440e+000 -4.161896e+000 -3.127782e-001 7.002652e+000 1.407203e+000 -4.819218e+000 -6.018259e+000 -1.266802e+001 7.636695e+001 4.530672e-001 -8.943792e-002 2.087050e-001 2.809608e-001 5.298234e-001 1.721176e-001 -4.532557e-001 1.534261e-003 -1.828802e-001 1.174863e-001 -5.238782e-002 -1.000270e-001 -4.217447e-001 9.479114e-002 1.423315e-001 6.423421e-002 4.236745e-002 1.144843e-001 -7.619748e-002 -6.722447e-002 -8.833189e-002 -7.811370e-002 1.113003e-001 5.830926e-002 2.954607e-002 -2.967640e-001
<VARIANCE> 39
 4.176074e+001 9.097301e+001 8.685333e+001 2.722273e+001 1.553142e+002 7.270256e+001 8.496780e+001 8.846528e+001 6.467168e+001 8.808363e+001 5.711794e+001 6.996720e+001 9.635072e+001 7.904696e-001 8.368338e-001 1.154256e+000 1.124055e+000 2.130490e+000 1.952374e+000 2.491159e+000 2.144727e+000 2.849562e+000 2.513009e+000 1.902304e+000 1.584076e+000 7.344152e-001 1.537936e-001 2.331533e-001 2.123254e-001 2.370650e-001 3.819996e-001 4.172525e-001 4.112255e-001 4.362769e-001 5.222803e-001 4.999202e-001 3.728119e-001 3.257605e-001 1.472935e-001
<GCONST> 1.179266e+002
<STATE> 4
<MEAN> 39
 9.181391e+000 -1.375674e+001 -4.245126e-002 -6.427004e+000 -5.298923e-001 -6.907515e+000 -4.076275e+000 6.730131e+000 -2.291448e+000 -1.652568e+000 -3.086282e+000 -1.603315e+001 7.088771e+001 6.540520e-001 9.751284e-001 -2.895553e-001 7.030501e-001 1.049083e-001 -2.443032e-001 -4.691889e-001 -5.220282e-001 -1.753377e-001 1.683489e-001 -1.320029e-001 2.518751e-001 -2.061165e+000 -2.079943e-001 2.164858e-001 -1.276070e-001 4.548023e-002 -1.589633e-001 4.405434e-002 1.691052e-001 3.375898e-002 1.314078e-001 -5.261470e-002 -1.366698e-001 4.649956e-002 -1.292049e-001
<VARIANCE> 39
 6.379054e+001 6.272036e+001 1.024361e+002 5.954238e+001 1.003039e+002 1.127055e+002 6.406177e+001 9.077534e+001 7.102313e+001 1.154987e+002 6.590228e+001 7.272884e+001 6.899745e+001 1.494185e+000 2.227958e+000 2.355503e+000 2.933422e+000 3.522175e+000 2.863085e+000 2.640850e+000 3.648069e+000 3.426096e+000 3.206472e+000 2.923527e+000 2.437083e+000 1.087446e+000 1.232621e-001 2.852361e-001 3.654460e-001 4.220669e-001 5.671528e-001 6.397291e-001 4.637711e-001 6.578137e-001 5.366932e-001 4.979343e-001 5.033060e-001 4.210472e-001 1.459572e-001
<GCONST> 1.283520e+002
<TRANSP> 5
 0.000000e+000 1.000000e+000 0.000000e+000 0.000000e+000 0.000000e+000
 0.000000e+000 8.027334e-001 1.972666e-001 0.000000e+000 0.000000e+000
 0.000000e+000 0.000000e+000 7.456656e-001 2.543344e-001 0.000000e+000
 0.000000e+000 0.000000e+000 0.000000e+000 7.592768e-001 2.407232e-001
 0.000000e+000 0.000000e+000 0.000000e+000 0.000000e+000 0.000000e+000
<ENDHMM>
~h "er"
<BEGINHMM>
<NUMSTATES> 5
<STATE> 2
<MEAN> 39
 3.651894e+000 -1.219751e+001 2.862390e-001 -6.780034e+000 -9.957129e+000 -1.088855e+001 -8.154138e+000 4.067036e+000 5.755460e-001 -4.091273e+000 -1.335883e+000 -9.301558e+000 7.516264e+001 7.312589e-001 -5.111933e-001 -1.157631e+000 7.996613e-001 2.202932e-003 -2.766190e-001 -2.546898e-001 6.006739e-001 -8.767516e-002 -2.085784e-001 -1.288612e-001 3.653736e-001 -2.258094e-001 -1.296507e-001 3.347940e-001 1.985049e-001 1.637984e-001 9.093755e-002 9.278495e-003 -4.561007e-002 -2.017805e-001 3.501882e-002 -7.083149e-002 -1.510029e-001 1.356404e-001 -2.855995e-001
<VARIANCE> 39
 9.725449e+001 8.505116e+001 1.468550e+002 7.979900e+001 1.300322e+002 9.408632e+001 8.824094e+001 1.467260e+002 7.853992e+001 7.985970e+001 6.479726e+001 5.710271e+001 7.749827e+001 8.465941e-001 2.286182e+000 2.586509e+000 2.224427e+000 2.749862e+000 4.401857e+000 2.935110e+000 4.677390e+000 3.471575e+000 3.111664e+000 2.634680e+000 3.470528e+000 1.084806e+000 1.448093e-001 3.303683e-001 2.722788e-001 3.438019e-001 5.027905e-001 5.485525e-001 5.401340e-001 6.149803e-001 4.961725e-001 5.113285e-001 4.773212e-001 5.476474e-001 1.262954e-001
<GCONST> 1.298740e+002
<STATE> 3
<MEAN> 39
 3.359135e+000 -9.387708e+000 -1.936191e+000 -2.122472e+000 -1.066670e+001 -1.159240e+001 -9.162179e+000 4.017234e+000 -3.238594e+000 -8.733111e+000 -4.119503e+000 -5.407743e+000 7.178321e+001 4.761377e-003 7.388384e-001 3.779081e-002 5.183197e-001 2.029892e-001 -1.384179e-001 -9.595937e-003 -2.801474e-001 -2.410678e-002 2.223689e-003 -1.625437e-001 3.109560e-002 -9.731732e-001 -1.115150e-001 5.946145e-002 1.418659e-001 -7.613209e-002 6.315670e-002 -4.208648e-003 8.860326e-002 -8.882637e-002 -7.462812e-003 2.788757e-002 3.823365e-002 -9.702132e-002 -7.561249e-002
<VARIANCE> 39
 9.949000e+001 5.901596e+001 8.314072e+001 7.656358e+001 6.110288e+001 1.149459e+002 7.777154e+001 4.523824e+001 1.233551e+002 7.763029e+001 4.654527e+001 4.007969e+001 1.036920e+002 5.099703e-001 1.101773e+000 1.340454e+000 1.270356e+000 2.272086e+000 2.325453e+000 1.893154e+000 2.316374e+000 2.288374e+000 2.203074e+000 2.169745e+000 1.475222e+000 5.592074e-001 6.272514e-002 1.222980e-001 1.635926e-001 2.293812e-001 2.833120e-001 4.009244e-001 2.907138e-001 4.053821e-001 3.999918e-001 3.543436e-001 3.807959e-001 2.337227e-001 3.081487e-002
<GCONST> 1.124555e+002
<STATE> 4
<MEAN> 39
 1.299103e+000 -4.499045e-002 -1.547318e+000 2.645628e+000 -2.753071e+000 -1.395424e+001 -8.273016e+000 -5.195561e-002 1.055523e-001 -4.898459e+000 -3.861131e+000 -6.063246e+000 5.411525e+001 -1.042793e+000 7.378730e-001 5.048600e-001 4.753440e-002 6.763679e-001 5.664809e-001 5.708202e-001 -3.969395e-001 -8.479975e-002 2.964101e-001 1.249251e-001 1.758489e-001 -1.132941e+000 -9.546739e-002 -1.149402e-001 1.325822e-002 -1.758361e-001 -1.868830e-002 1.609552e-001 1.244490e-001 2.145775e-001 1.347458e-001 6.772660e-002 1.198635e-001 -9.413252e-003 1.336876e-001
<VARIANCE> 39
 1.476394e+002 5.778697e+001 5.094377e+001 5.081116e+001 5.172783e+001 1.152503e+002 1.027475e+002 6.503004e+001 7.052703e+001 7.645741e+001 5.527007e+001 4.384255e+001 1.723999e+002 1.535002e+000 1.577822e+000 2.302987e+000 2.952680e+000 3.453999e+000 2.791313e+000 4.005692e+000 4.795843e+000 4.010638e+000 3.649271e+000 3.361989e+000 2.980119e+000 5.625547e-001 2.791974e-001 2.407124e-001 3.435757e-001 5.893802e-001 5.079051e-001 4.787351e-001 6.500069e-001 8.789653e-001 7.184400e-001 7.680359e-001 7.234750e-001 5.047410e-001 8.266057e-002
<GCONST> 1.296930e+002
<TRANSP> 5
 0.000000e+000 1.000000e+000 0.000000e+000 0.000000e+000 0.000000e+000
 0.000000e+000 8.311000e-001 1.689000e-001 0.000000e+000 0.000000e+000
 0.000000e+000 0.000000e+000 8.703238e-001 1.296762e-001 0.000000e+000
 0.000000e+000 0.000000e+000 0.000000e+000 7.988776e-001 2.011224e-001
 0.000000e+000 0.000000e+000 0.000000e+000 0.000000e+000 0.000000e+000
<ENDHMM>
~h "ey"
<BEGINHMM>
<NUMSTATES> 5
<STATE> 2
<MEAN> 39
 -1.385608e-001 -9.944420e+000 1.012371e+001 -6.719246e-001 -1.420669e+001 -1.537355e+001 6.373893e-002 1.764467e+000 -4.498438e+000 -3.227862e+000 -2.285700e-001 -8.507351e+000 6.823359e+001 1.192925e+000 -7.036592e-001 5.441264e-001 -1.267651e+000 -1.913641e+000 -6.840603e-001 -8.648275e-001 -7.089020e-002 -1.095761e+000 1.739241e-001 5.344982e-001 -1.196947e-001 8.832158e-001 -2.334367e-001 2.211719e-001 -1.870826e-002 -7.669094e-002 3.961118e-001 4.448601e-001 3.142203e-002 1.909904e-001 2.601378e-001 3.754761e-002 2.756033e-002 1.213758e-001 -2.807902e-001
