~o
<STREAMINFO> 1 39
<VECSIZE> 39<NULLD><MFCC_D_A_0><DIAGC>
~s "silst"
<MEAN> 39
 -1.159613e+001 -6.328239e-001 1.166992e-001 2.782243e+000 5.275535e+000 3.552456e-001 5.667866e+000 3.383523e+000 4.093521e+000 6.847394e-001 1.485889e+000 -1.381059e+000 4.203174e+001 5.967039e-002 5.015889e-002 1.395999e-001 -3.678828e-002 -1.314398e-001 -1.978264e-001 -1.309380e-001 -7.699675e-002 -9.819616e-002 -2.646744e-002 -1.503574e-001 -1.284684e-002 2.429811e-001 1.660239e-001 4.050389e-002 -7.147821e-003 -1.608976e-001 -2.840596e-001 -2.153066e-001 -2.345523e-001 -1.310664e-001 -1.407329e-001 -1.047279e-001 -1.012288e-001 -8.601719e-002 2.324411e-001
<VARIANCE> 39
 4.444077e+001 6.870770e+001 5.331694e+001 5.186955e+001 6.538201e+001 7.067678e+001 1.233150e+002 1.323259e+002 9.366130e+001 8.471690e+001 6.681277e+001 6.345102e+001 1.782736e+002 1.828505e+000 2.119705e+000 2.769975e+000 3.233681e+000 4.016115e+000 4.670941e+000 5.219182e+000 5.563554e+000 5.510959e+000 5.564731e+000 4.909673e+000 4.359308e+000 2.737840e+000 3.394711e-001 3.669715e-001 4.822762e-001 5.935726e-001 7.853895e-001 8.279485e-001 9.883502e-001 1.007987e+000 9.598898e-001 1.049585e+000 9.155448e-001 7.996461e-001 5.031528e-001
<GCONST> 1.408614e+002
~h "b"
<BEGINHMM>
<NUMSTATES> 5
<STATE> 2
<MEAN> 39
 4.489212e+000 5.405903e+000 1.907028e+000 -1.921908e+000 -2.083606e+000 -3.551753e+000 -5.217323e+000 -6.914911e+000 -4.886924e+000 -6.429120e+000 -6.656072e+000 -7.046849e+000 5.834919e+001 8.965892e-001 -1.737422e+000 -1.571562e+000 -2.148818e+000 -9.542110e-001 2.468966e-001 -4.567995e-001 1.261151e-001 8.825505e-001 4.326313e-001 -1.395232e-001 -1.481484e-001 3.906092e+000 -3.934338e-001 -4.773601e-001 -1.784834e-001 -2.077011e-001 5.828078e-002 1.714610e-001 2.803804e-001 3.224622e-001 1.794492e-001 -1.295318e-002 1.412076e-001 9.520131e-002 3.946753e-001
<VARIANCE> 39
 1.123778e+002 1.022333e+002 9.909495e+001 1.181944e+002 6.804121e+001 9.435760e+001 8.362827e+001 8.207490e+001 8.275743e+001 9.845530e+001 9.650716e+001 6.623411e+001 1.945463e+002 7.446947e+000 1.179441e+001 8.375992e+000 9.602177e+000 6.890330e+000 8.037354e+000 8.355117e+000 8.502808e+000 1.023645e+001 1.213800e+001 7.938479e+000 1.006464e+001 8.882496e+000 9.134745e-001 1.478221e+000 1.346149e+000 1.762202e+000 1.129150e+000 1.337061e+000 1.305784e+000 1.311179e+000 1.608762e+000 2.000382e+000 1.302924e+000 1.375510e+000 1.542238e+000
<GCONST> 1.638617e+002
<STATE> 3
<MEAN> 39
 1.381568e+000 -8.121796e+000 -8.390469e+000 -1.255394e+001 -5.761803e+000 -1.714812e+000 -3.562145e+000 -6.889175e-001 1.983208e+000 -4.174182e+000 -6.326788e+000 -8.443692e+000 7.878149e+001 -1.237533e+000 -1.496672e+000 -4.735988e-001 -1.130329e-001 3.104399e-001 3.907155e-001 8.749167e-001 1.470937e+000 -5.867970e-002 -1.304004e+000 -1.769553e-001 -1.355184e-001 2.190644e+000 -6.203242e-002 6.360562e-001 6.418085e-001 9.274136e-001 4.116813e-001 3.855171e-002 1.979023e-001 -1.763860e-001 -6.921257e-001 -2.208282e-001 8.325088e-002 3.369140e-002 -1.167971e+000
<VARIANCE> 39
 8.180492e+001 5.606023e+001 8.426053e+001 6.708348e+001 6.744163e+001 1.282731e+002 1.138612e+002 8.328709e+001 7.662889e+001 1.654559e+002 1.094994e+002 1.710356e+002 9.183987e+001 4.062539e+000 2.812776e+000 3.147549e+000 3.736411e+000 4.719597e+000 4.582647e+000 6.177971e+000 4.715752e+000 4.794040e+000 5.785971e+000 5.647469e+000 4.841472e+000 2.766463e+000 6.754349e-001 5.709409e-001 6.392925e-001 8.186006e-001 6.794515e-001 9.330779e-001 1.185754e+000 8.210227e-001 9.680982e-001 1.488318e+000 1.191219e+000 1.121259e+000 4.823426e-001
<GCONST> 1.476140e+002
<STATE> 4
<MEAN> 39
 -5.277413e+000 -6.499080e+000 -8.822108e+000 -1.283631e+001 -5.428208e+000 -2.830047e+000 -3.472648e+000 -3.637028e+000 -1.504547e+000 -1.090802e+001 -7.649036e+000 -2.339947e+000 8.262227e+001 -3.106762e-001 -8.399252e-002 2.444239e-001 3.663062e-001 1.192332e-001 2.598835e-002 2.410897e-001 2.072461e-001 -4.832714e-001 -2.366017e-001 2.590516e-001 -6.646135e-002 -3.504996e-002 1.546038e-001 1.678064e-001 1.666802e-001 3.939751e-002 -5.830860e-002 -1.238604e-001 -9.480312e-002 -1.313123e-001 7.089620e-003 2.515583e-001 5.733427e-002 -5.449677e-002 -3.788311e-001
<VARIANCE> 39
 6.309436e+001 7.097437e+001 8.866049e+001 7.779516e+001 1.123731e+002 8.004160e+001 1.072336e+002 9.042093e+001 6.713117e+001 1.295184e+002 7.701312e+001 1.188202e+002 7.086113e+001 9.682003e-001 1.168742e+000 1.312627e+000 1.921088e+000 2.892432e+000 2.476905e+000 2.938019e+000 2.508977e+000 2.729025e+000 2.845145e+000 3.039933e+000 2.242490e+000 1.128955e+000 2.038677e-001 1.872241e-001 2.633698e-001 3.221039e-001 4.222375e-001 4.315666e-001 5.729100e-001 5.026916e-001 4.579760e-001 5.542058e-001 4.705902e-001 4.427969e-001 1.643280e-001
<GCONST> 1.253396e+002
<TRANSP> 5
 0.000000e+000 1.000000e+000 0.000000e+000 0.000000e+000 0.000000e+000
 0.000000e+000 8.033856e-001 1.966144e-001 0.000000e+000 0.000000e+000
 0.000000e+000 0.000000e+000 5.512241e-001 4.487759e-001 0.000000e+000
 0.000000e+000 0.000000e+000 0.000000e+000 7.063033e-001 2.936967e-001
 0.000000e+000 0.000000e+000 0.000000e+000 0.000000e+000 0.000000e+000
<ENDHMM>
~h "d"
<BEGINHMM>
<NUMSTATES> 5
<STATE> 2
<MEAN> 39
 1.869578e+000 4.826785e+000 5.893093e+000 2.108371e+000 -1.113415e+000 -5.886089e+000 -3.493488e+000 -3.831202e+000 -4.736940e+000 -6.233252e+000 -6.055912e+000 -9.020364e+000 5.394437e+001 2.175707e-001 -1.118902e+000 -2.016917e-001 -6.075408e-001 -1.768684e-001 -6.989619e-001 -8.420491e-001 7.139690e-001 8.201617e-001 2.879718e-001 5.766490e-002 -3.327765e-001 1.989669e+000 -7.123335e-002 -5.284933e-001 -8.914033e-002 -4.620295e-001 -3.745889e-001 -1.259820e-001 -1.934796e-001 1.715109e-001 1.405304e-001 8.485131e-002 1.887976e-001 5.455247e-002 6.645317e-001
<VARIANCE> 39
 1.180246e+002 8.426958e+001 9.077799e+001 7.885987e+001 1.254455e+002 8.882423e+001 7.322702e+001 8.836028e+001 9.361627e+001 8.673154e+001 8.095819e+001 6.247565e+001 1.809278e+002 5.623686e+000 1.066692e+001 7.463920e+000 8.423917e+000 1.082075e+001 8.818118e+000 9.037393e+000 9.275161e+000 8.813895e+000 6.935024e+000 7.351052e+000 6.953093e+000 7.623853e+000 7.733307e-001 1.442402e+000 1.092587e+000 1.265187e+000 1.769279e+000 1.747035e+000 1.585667e+000 1.634110e+000 1.640508e+000 1.316852e+000 1.342864e+000 1.176483e+000 9.244816e-001
<GCONST> 1.615437e+002
<STATE> 3
<MEAN> 39
 1.325455e+000 -6.099778e+000 4.894797e+000 -5.724144e+000 -6.599135e+000 -9.211682e+000 -8.823323e+000 1.793442e+000 3.479595e-001 -3.536181e+000 -3.691812e+000 -8.766358e+000 7.036475e+001 -4.430635e-001 -1.900612e+000 -9.514231e-001 -2.031453e+000 -1.346194e+000 3.178918e-001 -7.089809e-002 9.329359e-001 6.380669e-001 1.072549e-001 6.961129e-001 3.850833e-001 2.855515e+000 -1.068182e-002 6.204405e-001 -3.701862e-001 3.625664e-001 3.499680e-001 5.761998e-001 7.675304e-001 -3.149691e-001 -3.812434e-001 -2.574519e-001 -1.178262e-001 -6.391537e-002 -5.613191e-001
<VARIANCE> 39
 1.047262e+002 8.069574e+001 1.016230e+002 1.060694e+002 1.284502e+002 7.183898e+001 1.125804e+002 1.797500e+002 1.067623e+002 6.566652e+001 8.536903e+001 9.155019e+001 1.331168e+002 4.506165e+000 7.664991e+000 5.236806e+000 6.966109e+000 7.243227e+000 7.981864e+000 1.056532e+001 8.153655e+000 6.134157e+000 6.825130e+000 6.912760e+000 4.992190e+000 5.517571e+000 5.212750e-001 1.162213e+000 1.151826e+000 1.232268e+000 1.608878e+000 1.332128e+000 1.465645e+000 1.619700e+000 1.129085e+000 9.481724e-001 1.037248e+000 9.648138e-001 9.094050e-001
<GCONST> 1.578458e+002
<STATE> 4
<MEAN> 39
 3.033026e+000 -4.014535e+000 2.183382e+000 -7.393542e+000 -5.768362e+000 -5.080843e+000 -6.366283e+000 -2.363711e+000 -4.012047e+000 -5.629337e+000 -2.655935e+000 -7.450694e+000 6.974687e+001 -2.422371e-001 -3.121907e-001 -1.004993e+000 -5.069429e-001 -4.972226e-002 5.782202e-001 8.287738e-001 2.460967e-001 3.256958e-002 -1.746156e-001 1.664505e-001 9.089088e-002 6.656320e-001 9.785380e-002 1.571221e-001 5.525706e-002 1.885267e-001 1.927082e-001 1.079514e-002 4.891904e-002 -8.554965e-002 -1.573203e-001 -7.679750e-002 -1.918190e-001 -1.825187e-001 -2.852415e-001
<VARIANCE> 39
 1.331479e+002 1.037760e+002 1.087031e+002 1.064635e+002 1.182987e+002 8.859794e+001 1.279063e+002 2.253355e+002 1.822518e+002 1.092752e+002 1.127832e+002 1.149308e+002 1.845783e+002 2.620893e+000 3.562077e+000 4.415797e+000 4.324229e+000 4.978500e+000 5.103809e+000 6.173771e+000 6.126725e+000 4.891622e+000 5.814206e+000 4.563912e+000 3.902439e+000 3.775593e+000 4.039832e-001 6.248451e-001 6.281218e-001 8.490797e-001 8.665931e-001 9.199400e-001 1.186144e+000 1.053819e+000 1.003367e+000 8.091849e-001 7.668624e-001 7.216299e-001 5.726390e-001
<GCONST> 1.509219e+002
<TRANSP> 5
 0.000000e+000 1.000000e+000 0.000000e+000 0.000000e+000 0.000000e+000
 0.000000e+000 7.662198e-001 2.337802e-001 0.000000e+000 0.000000e+000
 0.000000e+000 0.000000e+000 4.552512e-001 5.447488e-001 0.000000e+000
 0.000000e+000 0.000000e+000 0.000000e+000 5.450850e-001 4.549150e-001
 0.000000e+000 0.000000e+000 0.000000e+000 0.000000e+000 0.000000e+000
<ENDHMM>
~h "f"
<BEGINHMM>
<NUMSTATES> 5
<STATE> 2
<MEAN> 39
 3.697172e+000 -8.497437e+000 1.224502e+001 -5.138309e+000 -1.855240e+001 -1.247863e+001 -1.674052e+000 -5.681049e-001 -4.006807e+000 5.605158e+000 3.488738e+000 -8.301589e+000 6.300636e+001 -2.903993e-001 3.841770e-001 -3.867634e-001 4.110286e-001 6.020987e-001 3.944274e-001 6.934721e-001 1.394833e-001 7.702222e-001 5.279261e-001 3.035804e-001 3.578645e-001 -6.601878e-001 -1.803767e-001 -4.284880e-002 -1.263424e-001 2.268625e-001 3.902867e-001 9.311107e-002 1.241352e-001 9.274291e-002 1.367785e-001 -8.766780e-002 -1.945966e-001 8.734927e-002 -1.396468e-001
<VARIANCE> 39
 1.504219e+001 2.688755e+001 1.792105e+001 2.688458e+001 4.163581e+001 3.513552e+001 2.948845e+001 3.066832e+001 2.551397e+001 4.349767e+001 2.686737e+001 2.718676e+001 2.215224e+001 6.134540e-001 9.524807e-001 1.254532e+000 2.311204e+000 3.543994e+000 1.933639e+000 1.928403e+000 2.192529e+000 2.822656e+000 1.774331e+000 2.118372e+000 1.732588e+000 6.024543e-001 1.070167e-001 2.313178e-001 1.651659e-001 3.002710e-001 3.653785e-001 3.856874e-001 3.803230e-001 4.374714e-001 4.411190e-001 3.385008e-001 3.651101e-001 2.975529e-001 4.167637e-002
<GCONST> 1.031996e+002
<STATE> 3
<MEAN> 39
 -5.890904e+000 -8.483763e+000 3.403600e+000 1.728294e+000 -3.683208e+000 -7.415581e+000 7.298410e+000 6.253837e+000 6.996001e+000 7.073797e+000 2.896708e+000 -4.797990e+000 5.406776e+001 -1.569189e+000 -8.990545e-001 -1.293115e+000 3.897991e-001 2.084681e+000 1.277593e+000 1.415188e+000 1.686652e+000 1.294704e+000 9.206833e-002 -1.837184e-002 2.212184e-001 -9.467945e-001 2.451637e-001 1.001644e-001 1.384196e-001 -7.419230e-002 -1.883766e-001 -3.203826e-004 -1.528015e-001 -1.310729e-001 -2.719662e-001 -5.310843e-002 -7.936985e-004 -1.311014e-001 1.008602e-001
<VARIANCE> 39
 2.249328e+001 3.091569e+001 3.282046e+001 2.620073e+001 3.851031e+001 5.419634e+001 8.409032e+001 7.310576e+001 4.537408e+001 6.592490e+001 2.722106e+001 2.919454e+001 3.253424e+001 1.109302e+000 1.080869e+000 1.016993e+000 1.648398e+000 2.534848e+000 2.609084e+000 3.681761e+000 3.383708e+000 3.588711e+000 3.169619e+000 2.170660e+000 1.663010e+000 2.167281e-001 1.564925e-001 2.196764e-001 2.204591e-001 3.824723e-001 3.620834e-001 4.688375e-001 6.405299e-001 5.706312e-001 6.619317e-001 5.961956e-001 4.517668e-001 3.556447e-001 3.729254e-002
<GCONST> 1.121347e+002
<STATE> 4
<MEAN> 39
 -9.163836e+000 -9.444767e+000 -2.667531e+000 6.312858e+000 8.253659e+000 1.249366e+000 1.491170e+001 1.609488e+001 1.118287e+001 6.645257e+000 3.726763e+000 -4.739844e+000 4.776647e+001 -1.305087e-001 7.719857e-002 -3.976519e-001 2.262060e-001 7.037114e-001 4.616443e-001 4.545395e-001 4.483584e-001 5.323892e-002 -9.234150e-002 -3.531721e-002 -1.342391e-001 -3.156326e-001 3.424985e-002 9.623993e-003 2.996185e-002 -7.779115e-002 -1.150365e-001 -1.050723e-001 -4.833732e-002 -8.604108e-002 -9.497027e-002 4.591680e-003 -1.944233e-002 -7.632207e-003 5.082449e-002
<VARIANCE> 39
 9.072444e+000 2.727260e+001 3.538564e+001 2.135766e+001 4.336473e+001 4.775724e+001 9.048379e+001 8.475954e+001 3.960791e+001 3.540638e+001 2.403671e+001 3.499098e+001 3.884635e+001 4.897407e-001 5.614957e-001 1.097679e+000 1.462808e+000 2.114552e+000 2.118512e+000 2.228643e+000 2.270072e+000 2.088810e+000 2.077254e+000 2.010754e+000 2.103334e+000 3.104639e-001 8.469883e-002 9.279638e-002 1.916231e-001 2.548491e-001 3.185950e-001 3.451492e-001 3.607008e-001 4.032640e-001 4.066184e-001 3.742280e-001 3.974816e-001 3.741177e-001 4.140632e-002
<GCONST> 1.031066e+002
<TRANSP> 5
 0.000000e+000 1.000000e+000 0.000000e+000 0.000000e+000 0.000000e+000
 0.000000e+000 8.675780e-001 1.324220e-001 0.000000e+000 0.000000e+000
 0.000000e+000 0.000000e+000 7.453287e-001 2.546714e-001 0.000000e+000
 0.000000e+000 0.000000e+000 0.000000e+000 8.731938e-001 1.268062e-001
 0.000000e+000 0.000000e+000 0.000000e+000 0.000000e+000 0.000000e+000
<ENDHMM>
~h "g"
<BEGINHMM>
<NUMSTATES> 5
<STATE> 2
<MEAN> 39
 -1.513637e+000 -1.269803e-001 3.590029e+000 6.357240e+000 2.349925e+000 -4.501928e+000 2.831696e+000 6.056876e-001 -2.404153e+000 -7.197272e+000 -8.036787e+000 -1.071180e+001 5.120324e+001 2.700373e-001 1.300540e-002 2.902839e-001 9.261630e-001 9.439946e-001 2.666758e-001 -2.371333e-001 -4.339022e-001 -5.999160e-001 -4.095755e-001 -1.942826e-001 -9.685986e-002 3.373972e-001 8.265855e-002 -1.744352e-001 -2.670892e-002 -2.352119e-001 -3.042634e-001 -2.407769e-001 -3.345587e-001 -3.057949e-001 -1.092749e-001 2.321694e-001 1.378366e-001 9.482870e-002 3.112961e-001
<VARIANCE> 39
 3.244473e+001 5.798619e+001 3.717900e+001 5.174422e+001 1.085179e+002 7.808181e+001 8.673334e+001 8.738238e+001 8.041378e+001 7.488299e+001 6.619061e+001 4.141276e+001 8.690543e+001 2.146244e+000 3.440085e+000 3.538065e+000 3.470925e+000 6.733244e+000 5.321498e+000 6.442085e+000 8.110972e+000 8.029129e+000 6.366045e+000 4.362895e+000 4.209539e+000 1.598041e+000 3.177182e-001 5.121464e-001 5.919814e-001 5.862340e-001 1.079316e+000 8.029963e-001 1.182025e+000 1.476893e+000 1.401403e+000 1.046792e+000 7.833660e-001 8.440274e-001 2.478041e-001
<GCONST> 1.413107e+002
<STATE> 3
<MEAN> 39
 3.798071e+000 3.056891e+000 6.391541e+000 7.513427e+000 1.880560e+000 -6.822967e+000 -5.449760e+000 -7.806303e+000 -7.091591e+000 -5.554892e+000 -6.837234e+000 -9.616385e+000 5.636189e+001 9.465248e-001 -1.015468e+000 5.231926e-001 -8.033062e-001 -1.542332e+000 -5.578600e-001 -1.757222e+000 -1.213140e+000 -2.903721e-001 7.965643e-001 8.281131e-001 2.864974e-001 2.182291e+000 -5.818049e-002 -1.416107e-001 2.269378e-001 -6.216081e-001 -5.700712e-001 2.017638e-002 -6.560514e-002 2.606986e-001 1.850764e-001 -6.892997e-002 2.365053e-001 1.140020e-001 2.212370e-001
<VARIANCE> 39
 6.831495e+001 1.331666e+002 1.447685e+002 4.456838e+001 7.878547e+001 5.470893e+001 1.046291e+002 5.671277e+001 8.077670e+001 6.335592e+001 6.578414e+001 5.069352e+001 1.023559e+002 2.574826e+000 7.850200e+000 9.999057e+000 4.917728e+000 9.274749e+000 6.944685e+000 8.052067e+000 8.084105e+000 4.985206e+000 7.180067e+000 4.374621e+000 5.745242e+000 4.350025e+000 4.129535e-001 1.211169e+000 1.426217e+000 9.738243e-001 1.452530e+000 8.735859e-001 1.393735e+000 1.373149e+000 1.280811e+000 1.094602e+000 8.011307e-001 7.442656e-001 5.462885e-001
<GCONST> 1.511574e+002
<STATE> 4
<MEAN> 39
 2.052309e+000 -3.319659e+000 9.353934e+000 -2.458084e+000 -7.749803e+000 -8.593783e+000 -1.518511e+001 -9.348339e+000 -4.677402e+000 -6.898102e+000 6.936981e-001 -6.962702e+000 7.153117e+001 -6.992225e-002 -1.042112e+000 5.545142e-001 -1.793989e+000 -1.524522e+000 6.009752e-002 -1.029227e+000 8.216940e-002 3.043100e-001 -1.419881e-002 5.623438e-001 3.294747e-001 1.864509e+000 -2.166894e-001 2.088982e-001 -2.315596e-001 1.052867e-001 3.204568e-001 1.169172e-001 3.592800e-001 2.843570e-001 1.132340e-001 2.275409e-002 -2.802896e-001 -6.179910e-002 -3.909312e-001
<VARIANCE> 39
 6.577740e+001 1.275114e+002 2.703336e+002 7.687921e+001 9.805405e+001 1.689989e+002 1.431222e+002 1.079189e+002 8.109438e+001 1.056222e+002 1.149059e+002 1.339390e+002 8.117854e+001 2.174001e+000 6.861169e+000 6.544164e+000 6.648563e+000 5.241078e+000 7.749002e+000 7.999178e+000 9.537322e+000 5.190327e+000 6.208115e+000 5.295419e+000 5.847850e+000 4.883818e+000 3.626230e-001 1.033092e+000 1.178687e+000 9.559166e-001 9.324474e-001 1.279346e+000 1.440028e+000 1.903278e+000 9.165829e-001 9.686807e-001 9.424801e-001 1.007889e+000 4.089183e-001
<GCONST> 1.553708e+002
<TRANSP> 5
 0.000000e+000 1.000000e+000 0.000000e+000 0.000000e+000 0.000000e+000
 0.000000e+000 8.125228e-001 1.874772e-001 0.000000e+000 0.000000e+000
 0.000000e+000 0.000000e+000 6.770174e-001 3.229826e-001 0.000000e+000
 0.000000e+000 0.000000e+000 0.000000e+000 6.847571e-001 3.152429e-001
 0.000000e+000 0.000000e+000 0.000000e+000 0.000000e+000 0.000000e+000
<ENDHMM>
~h "k"
<BEGINHMM>
<NUMSTATES> 5
<STATE> 2
<MEAN> 39
 -7.472389e+000 -1.180781e+000 9.765564e-001 -1.437575e+000 -5.600135e+000 -8.715234e+000 -1.063160e+000 -2.130853e+000 -2.626313e+000 -4.035481e+000 -8.464552e-001 -4.884593e+000 5.454641e+001 -4.946085e-001 -1.777323e-001 -5.153341e-001 6.459656e-001 1.010166e+000 5.693428e-001 5.071030e-001 5.175744e-001 4.833503e-001 6.393340e-001 2.607091e-001 2.430318e-001 -5.475162e-001 -4.761906e-002 -1.185283e-001 -5.722204e-002 -1.462508e-001 -8.197957e-002 -2.418366e-002 2.874172e-002 1.119463e-001 4.053899e-002 8.116527e-003 -6.654435e-002 -2.940478e-003 4.426149e-001
<VARIANCE> 39
 6.082184e+001 5.410231e+001 9.852106e+001 5.557408e+001 8.042371e+001 9.163602e+001 7.890486e+001 1.118338e+002 1.034282e+002 8.570416e+001 5.454339e+001 4.240834e+001 1.217058e+002 1.748951e+000 2.439484e+000 2.687410e+000 3.418328e+000 5.056010e+000 4.471406e+000 4.362001e+000 5.250268e+000 4.953905e+000 4.044660e+000 4.155590e+000 2.811814e+000 2.559225e+000 4.010501e-001 4.937438e-001 5.861904e-001 6.779537e-001 1.007663e+000 9.251788e-001 8.745958e-001 1.032974e+000 9.632574e-001 7.892362e-001 8.604912e-001 6.198633e-001 5.631216e-001
<GCONST> 1.401349e+002
<STATE> 3
<MEAN> 39
 -8.055406e+000 -2.349110e+000 1.008477e+000 8.127745e-001 -8.273357e-001 -5.724463e+000 2.769109e+000 1.602080e+000 -1.561979e-002 -5.311564e-001 1.140271e+000 -4.166409e+000 5.036115e+001 -2.848378e-001 -2.364934e-001 -6.061672e-001 5.067228e-003 5.555584e-001 2.872400e-001 3.829022e-001 4.167379e-001 4.356354e-001 2.576680e-001 -3.054416e-001 2.742908e-002 7.592292e-001 1.234702e-001 5.575236e-002 3.375586e-002 -3.611540e-001 -3.442433e-001 -2.795195e-001 -2.289368e-001 -1.794655e-001 -1.790902e-001 -2.652369e-001 -2.126603e-001 -1.142035e-001 5.495024e-001
<VARIANCE> 39
 5.577972e+001 6.953738e+001 1.111401e+002 6.433224e+001 9.974047e+001 1.165085e+002 1.524500e+002 1.606664e+002 1.208868e+002 8.755188e+001 6.516956e+001 4.919469e+001 1.444212e+002 3.285490e+000 3.492168e+000 6.085371e+000 5.602753e+000 8.552336e+000 6.873878e+000 7.547492e+000 7.531918e+000 6.348581e+000 6.133701e+000 6.566933e+000 4.700449e+000 3.554079e+000 6.095865e-001 5.412847e-001 8.804412e-001 8.862236e-001 1.313858e+000 1.158558e+000 1.300192e+000 1.368799e+000 1.178158e+000 1.028636e+000 1.089074e+000 8.325375e-001 6.285768e-001
<GCONST> 1.523076e+002
<STATE> 4
<MEAN> 39
 -5.864584e+000 -1.107748e+000 2.244732e-001 -3.881692e+000 -4.982317e+000 -9.430803e+000 -4.351007e+000 -4.693526e+000 -4.312007e+000 -5.777275e+000 -2.471700e+000 -5.256032e+000 6.221724e+001 3.264850e-001 -2.532686e-001 -1.129474e-001 -5.476127e-001 -4.982628e-001 -4.312916e-001 -1.815063e-001 2.041859e-001 -1.287255e-001 -3.345305e-001 -1.778836e-001 -2.850650e-001 1.920787e+000 6.616569e-002 3.421104e-002 2.177934e-001 -8.961585e-002 -1.911017e-001 -1.280911e-002 -6.478888e-002 -1.176088e-002 -5.023345e-002 -9.280986e-002 4.401445e-002 -2.417066e-002 2.712394e-002
<VARIANCE> 39
 1.517650e+002 1.019802e+002 1.715402e+002 1.141028e+002 1.563109e+002 1.199780e+002 1.479706e+002 1.363503e+002 1.067342e+002 1.044320e+002 8.814671e+001 8.717878e+001 1.736359e+002 7.238810e+000 6.635284e+000 9.304154e+000 8.252650e+000 1.188705e+001 8.381923e+000 8.806658e+000 7.873402e+000 8.765348e+000 7.552759e+000 7.327380e+000 6.244241e+000 6.625379e+000 9.675151e-001 1.021058e+000 1.371456e+000 1.524069e+000 1.703839e+000 1.561832e+000 1.589412e+000 1.387888e+000 1.535928e+000 1.251622e+000 1.348945e+000 1.064707e+000 1.061028e+000
<GCONST> 1.649105e+002
<TRANSP> 5
 0.000000e+000 1.000000e+000 0.000000e+000 0.000000e+000 0.000000e+000
 0.000000e+000 5.622845e-001 4.377155e-001 0.000000e+000 0.000000e+000
 0.000000e+000 0.000000e+000 5.152881e-001 4.847118e-001 0.000000e+000
 0.000000e+000 0.000000e+000 0.000000e+000 6.366370e-001 3.633630e-001
 0.000000e+000 0.000000e+000 0.000000e+000 0.000000e+000 0.000000e+000
<ENDHMM>
~h "l"
<BEGINHMM>
<NUMSTATES> 5
<STATE> 2
<MEAN> 39
 -2.784767e+000 -2.916232e+000 -1.230305e+001 -9.899619e+000 -2.073385e+000 -3.780981e+000 -8.048056e+000 -5.654151e+000 -1.351777e-002 -8.545635e+000 -4.808903e+000 -5.879880e+000 7.542775e+001 -7.126580e-002 1.184589e-001 -9.327657e-002 -1.784484e-001 -3.226028e-001 5.979337e-001 2.244593e-001 7.081112e-002 -6.836841e-003 2.966577e-001 1.365248e-001 4.687632e-003 -3.298334e-001 -5.689337e-002 5.835265e-002 5.571412e-002 -1.076351e-002 -1.003919e-001 -4.069952e-002 1.589149e-001 1.048194e-001 -3.926628e-002 8.216250e-003 5.012186e-002 3.357926e-002 -1.691006e-002
<VARIANCE> 39
 7.433749e+001 8.123135e+001 1.228063e+002 7.966042e+001 1.293153e+002 8.906368e+001 1.073713e+002 7.692193e+001 7.450350e+001 1.238900e+002 6.677620e+001 7.699958e+001 1.365009e+002 1.002866e+000 2.059847e+000 1.791816e+000 2.091262e+000 2.958067e+000 3.667955e+000 3.237500e+000 3.108199e+000 2.927388e+000 2.815486e+000 2.537732e+000 2.433796e+000 1.841873e+000 2.257619e-001 2.376451e-001 3.100453e-001 3.910485e-001 5.350462e-001 5.668258e-001 6.391544e-001 6.077341e-001 5.133939e-001 4.702007e-001 4.387934e-001 4.266461e-001 1.855775e-001
<GCONST> 1.298591e+002
<STATE> 3
<MEAN> 39
 -1.441215e-001 -5.882515e+000 -7.369798e+000 -6.884472e+000 -3.619572e+000 -3.581802e+000 3.191562e-001 2.367786e+000 2.163428e+000 -7.539070e-001 -1.977489e+000 -8.710812e+000 6.223145e+001 1.159229e-001 4.408855e-001 -1.887289e-001 -8.533117e-001 -9.838437e-001 5.288177e-001 5.040933e-001 4.480528e-002 -2.862003e-001 2.299291e-001 2.261294e-001 4.499943e-001 2.234463e-001 2.051172e-001 -4.107028e-002 -1.113216e-001 -3.618819e-001 -7.629760e-002 7.235720e-002 -9.696217e-003 -2.065344e-001 -2.956871e-001 -2.002560e-001 -2.399686e-002 -2.036928e-002 4.316337e-001
<VARIANCE> 39
 8.115027e+001 6.101033e+001 9.826923e+001 7.816934e+001 9.417587e+001 7.007822e+001 1.476252e+002 1.314167e+002 8.901036e+001 1.045230e+002 7.484081e+001 6.760802e+001 1.430820e+002 3.181612e+000 2.383068e+000 3.437401e+000 6.116780e+000 5.623500e+000 4.073971e+000 5.245396e+000 6.678215e+000 5.217511e+000 4.113198e+000 3.680531e+000 3.686286e+000 4.676582e+000 5.390999e-001 3.497329e-001 5.971203e-001 9.570341e-001 9.062399e-001 8.173541e-001 8.830175e-001 1.077311e+000 8.820803e-001 6.397211e-001 7.129921e-001 5.690902e-001 5.906845e-001
<GCONST> 1.448267e+002
<STATE> 4
<MEAN> 39
 5.214904e+000 -7.294588e+000 -1.041736e+001 -1.606989e+001 -4.692592e+000 9.232084e-001 2.089446e-001 -2.837652e+000 -4.431558e+000 -2.115687e+000 -1.491761e+000 -9.226780e+000 7.133348e+001 2.372081e-001 -2.865705e-001 -3.126761e-001 -2.069795e-001 -3.571190e-002 5.620644e-002 -2.671030e-001 -1.382894e-001 -3.412068e-001 -7.517867e-002 -1.262497e-002 -8.064540e-004 6.589223e-002 -1.088812e-001 -3.865762e-002 6.134112e-002 2.550969e-001 1.938038e-001 -9.318696e-002 -6.434150e-002 1.245121e-001 1.564519e-001 1.345823e-002 -1.842816e-002 -5.982825e-002 -2.423995e-001
<VARIANCE> 39
 8.179176e+001 8.339511e+001 8.898402e+001 1.102215e+002 7.934206e+001 9.353321e+001 9.395102e+001 9.904166e+001 5.933174e+001 7.849194e+001 6.407351e+001 4.640541e+001 1.300832e+002 4.280315e+000 2.604886e+000 3.606878e+000 7.656725e+000 4.840679e+000 4.923210e+000 5.562394e+000 5.569975e+000 4.093372e+000 4.222431e+000 3.717879e+000 2.575693e+000 6.058501e+000 5.776150e-001 4.121706e-001 5.089977e-001 1.141922e+000 7.688337e-001 7.680610e-001 8.286579e-001 9.116138e-001 7.421097e-001 8.287575e-001 6.739717e-001 5.162386e-001 4.202267e-001
<GCONST> 1.431091e+002
<TRANSP> 5
 0.000000e+000 1.000000e+000 0.000000e+000 0.000000e+000 0.000000e+000
 0.000000e+000 6.895391e-001 3.104609e-001 0.000000e+000 0.000000e+000
 0.000000e+000 0.000000e+000 4.810230e-001 5.189770e-001 0.000000e+000
 0.000000e+000 0.000000e+000 0.000000e+000 7.271029e-001 2.728971e-001
 0.000000e+000 0.000000e+000 0.000000e+000 0.000000e+000 0.000000e+000
<ENDHMM>
~h "m"
<BEGINHMM>
<NUMSTATES> 5
<STATE> 2
<MEAN> 39
 4.270906e+000 7.992819e+000 4.352058e+000 -5.996177e-001 -3.124173e+000 -6.724433e+000 -7.868185e+000 -9.059364e+000 -9.327999e+000 -7.508455e+000 -6.252188e+000 -7.727931e+000 5.758229e+001 9.382621e-001 8.073031e-001 6.614214e-001 8.445694e-001 -4.572787e-001 -4.785159e-001 -6.350329e-001 -8.750083e-001 -8.280526e-001 -8.949239e-002 -5.097469e-001 -3.401262e-001 3.008880e-002 -2.518199e-001 -3.821008e-001 -8.810813e-002 -1.952514e-001 -5.276929e-002 1.699960e-001 2.936015e-001 3.382739e-001 3.618481e-001 1.484319e-001 1.239324e-001 9.458719e-002 1.692268e-001
<VARIANCE> 39
 9.856838e+001 7.607645e+001 6.390325e+001 6.698458e+001 8.300250e+001 7.221279e+001 6.744155e+001 6.932069e+001 6.710462e+001 6.678734e+001 6.771244e+001 3.848732e+001 1.139428e+002 5.748612e+000 3.395688e+000 2.745428e+000 2.880792e+000 4.233803e+000 3.929484e+000 5.044676e+000 4.432826e+000 5.159173e+000 4.293260e+000 3.381974e+000 3.012409e+000 3.396522e+000 4.396549e-001 5.965848e-001 5.001224e-001 5.706699e-001 6.362312e-001 7.286406e-001 8.466430e-001 9.421942e-001 9.621865e-001 8.312655e-001 6.822548e-001 5.308568e-001 2.481867e-001
<GCONST> 1.384998e+002
<STATE> 3
<MEAN> 39
 6.370627e+000 8.214578e+000 5.437256e+000 6.194588e-001 -4.968402e+000 -7.250782e+000 -8.495305e+000 -9.268058e+000 -9.202676e+000 -6.839197e+000 -6.448516e+000 -8.364010e+000 5.841103e+001 -2.587923e-001 -1.828981e-001 2.644755e-001 1.330956e-001 -3.667595e-001 8.350319e-002 3.460601e-001 2.534705e-001 3.402009e-001 1.635361e-001 -5.159911e-002 -4.313405e-002 -1.394175e-001 -3.190121e-001 -3.818531e-001 -9.912764e-002 -4.057294e-001 -6.817166e-002 2.477923e-001 2.516429e-001 4.132074e-001 2.996246e-001 5.647350e-002 1.358592e-001 6.580387e-002 2.359323e-001
<VARIANCE> 39
 7.438506e+001 6.964122e+001 5.488128e+001 6.447999e+001 7.087514e+001 7.111779e+001 5.977777e+001 7.142798e+001 5.661532e+001 6.387485e+001 6.173750e+001 3.474350e+001 7.980797e+001 2.121952e+000 2.816638e+000 2.523242e+000 2.731254e+000 4.685834e+000 3.661335e+000 3.936710e+000 3.868268e+000 3.213379e+000 3.189121e+000 2.354261e+000 2.270141e+000 1.972986e+000 2.852993e-001 4.456410e-001 4.942425e-001 5.693942e-001 6.709291e-001 6.410093e-001 7.258574e-001 7.578259e-001 7.078973e-001 6.003807e-001 5.023135e-001 4.550865e-001 2.550533e-001
<GCONST> 1.310264e+002
<STATE> 4
<MEAN> 39
 5.389390e+000 5.529657e+000 9.000984e+000 7.898155e-001 -6.939036e+000 -5.917833e+000 -3.707161e+000 -4.977802e+000 -7.383897e+000 -5.595095e+000 -6.190141e+000 -9.743998e+000 5.746367e+001 -1.078781e+000 -1.451819e+000 7.947800e-001 -1.407486e+000 -1.141440e+000 8.232071e-001 9.361069e-001 1.362431e+000 5.356457e-001 3.642783e-001 4.332596e-001 -1.942748e-001 1.071661e+000 -2.297823e-001 -1.495818e-001 -5.769762e-002 -5.038978e-001 3.023557e-002 1.253940e-001 -9.925595e-002 1.765977e-001 -1.207827e-002 -4.687160e-002 1.352202e-001 4.674608e-002 2.497309e-001
<VARIANCE> 39
 8.297950e+001 7.505354e+001 1.228262e+002 9.073180e+001 1.328921e+002 8.097961e+001 1.169361e+002 1.146353e+002 6.512664e+001 7.669164e+001 6.382334e+001 6.244226e+001 1.360102e+002 3.068989e+000 5.308626e+000 8.111723e+000 6.688968e+000 8.608119e+000 5.868065e+000 7.782372e+000 8.029440e+000 5.538753e+000 5.227072e+000 3.758235e+000 4.260807e+000 3.864410e+000 4.477906e-001 8.802531e-001 9.224473e-001 1.002990e+000 1.143978e+000 9.509475e-001 1.258235e+000 1.215924e+000 9.585205e-001 8.243186e-001 6.762282e-001 7.074642e-001 4.551679e-001
<GCONST> 1.503123e+002
<TRANSP> 5
 0.000000e+000 1.000000e+000 0.000000e+000 0.000000e+000 0.000000e+000
 0.000000e+000 4.619704e-001 5.380297e-001 0.000000e+000 0.000000e+000
 0.000000e+000 0.000000e+000 4.802039e-001 5.197961e-001 0.000000e+000
 0.000000e+000 0.000000e+000 0.000000e+000 6.154485e-001 3.845515e-001
 0.000000e+000 0.000000e+000 0.000000e+000 0.000000e+000 0.000000e+000
<ENDHMM>
~h "n"
<BEGINHMM>
<NUMSTATES> 5
<STATE> 2
<MEAN> 39
 6.026654e-001 -4.450342e+000 5.937769e+000 -7.808650e+000 -8.349037e+000 -6.535226e+000 -2.645716e+000 -9.800356e-001 -9.415191e+000 -1.046579e+001 -5.272089e+000 -8.642433e+000 7.189481e+001 7.637178e-001 1.733436e+000 9.178767e-002 1.156760e+000 -2.400256e-001 -1.522009e-001 -4.365892e-001 -6.615021e-001 -1.703323e-001 2.219835e-001 -5.577073e-001 1.126549e-001 -1.585739e+000 -3.314959e-002 3.191178e-002 -1.561748e-001 9.729410e-002 8.377430e-002 -1.146517e-001 -4.118545e-002 -2.223031e-002 1.837450e-001 8.884374e-002 -4.903375e-002 4.665707e-002 -1.379675e-002
<VARIANCE> 39
 1.054417e+002 1.066149e+002 8.277542e+001 1.100526e+002 9.379243e+001 9.054674e+001 7.287078e+001 1.417024e+002 8.130031e+001 8.868420e+001 4.649161e+001 6.322238e+001 8.991367e+001 1.045509e+000 1.917556e+000 2.570235e+000 3.081666e+000 2.619171e+000 2.502812e+000 3.238271e+000 2.941849e+000 2.535506e+000 2.880051e+000 2.390575e+000 2.180514e+000 8.110585e-001 1.241342e-001 2.236253e-001 3.030787e-001 4.127027e-001 3.718305e-001 4.090480e-001 4.826508e-001 4.764144e-001 4.850646e-001 4.287177e-001 3.788269e-001 3.560086e-001 7.316957e-002
<GCONST> 1.249033e+002
<STATE> 3
<MEAN> 39
 6.335701e+000 2.019593e+000 5.203188e+000 -1.255412e-001 -8.764078e+000 -7.265464e+000 -5.422683e+000 -4.673385e-001 -5.655641e+000 -7.075338e+000 -8.109726e+000 -8.849179e+000 6.450657e+001 1.654454e-001 1.447369e+000 -1.729476e-002 8.318819e-001 3.577992e-001 -4.665171e-001 -2.002237e-001 -6.266581e-001 2.186903e-001 1.433253e-001 -2.753423e-001 3.147145e-001 -1.283611e+000 -2.156399e-001 -2.250308e-001 4.627902e-002 -1.999960e-001 1.354900e-001 8.718421e-002 5.016466e-002 1.081855e-001 -5.657033e-002 -5.916029e-002 1.174402e-001 -2.368505e-002 1.303354e-001
<VARIANCE> 39
 8.400326e+001 8.280975e+001 7.090883e+001 6.274281e+001 8.349436e+001 1.032935e+002 6.780910e+001 1.240110e+002 7.296992e+001 6.039069e+001 5.299943e+001 5.443547e+001 6.399430e+001 6.370350e-001 1.383242e+000 2.015552e+000 1.978279e+000 2.598035e+000 2.195238e+000 2.629538e+000 2.633244e+000 2.426709e+000 2.641142e+000 2.347243e+000 1.949036e+000 5.269500e-001 1.003110e-001 1.976891e-001 2.955201e-001 3.421163e-001 3.908767e-001 3.813171e-001 4.336159e-001 4.935033e-001 4.515640e-001 4.259538e-001 4.110065e-001 3.352616e-001 6.370115e-002
<GCONST> 1.191703e+002
<STATE> 4
<MEAN> 39
 -2.215793e-001 6.029626e+000 5.402439e+000 2.195835e+000 -3.254604e+000 -6.137732e+000 -6.420343e+000 -7.023691e+000 -9.201947e+000 -1.091646e+001 -8.171766e+000 -7.560199e+000 5.724435e+001 -5.752304e-001 -1.294964e-002 -8.622113e-002 1.965570e-001 5.316058e-001 1.579281e-001 2.311418e-001 1.629645e-001 2.196068e-001 2.000822e-001 1.742108e-001 6.473082e-002 -6.811078e-001 -1.319771e-001 -1.837213e-001 -2.711001e-002 -1.718931e-001 -1.711150e-003 5.521858e-002 7.519246e-002 1.565687e-001 7.344797e-002 2.507201e-002 9.758030e-002 7.161252e-003 1.276904e-001
<VARIANCE> 39
 6.479813e+001 3.989548e+001 4.717292e+001 3.690971e+001 5.491894e+001 6.534209e+001 5.780676e+001 7.499548e+001 7.535578e+001 7.437722e+001 5.203355e+001 4.406009e+001 1.159784e+002 7.839256e-001 1.252619e+000 1.309997e+000 1.686755e+000 2.143171e+000 2.219011e+000 2.832219e+000 2.776648e+000 2.691584e+000 2.600707e+000 2.539862e+000 2.296504e+000 4.531255e-001 1.591124e-001 1.962416e-001 2.893176e-001 3.652219e-001 3.934498e-001 4.388984e-001 5.244117e-001 4.671453e-001 4.743165e-001 4.842996e-001 4.648657e-001 4.396465e-001 8.303976e-002
<GCONST> 1.175693e+002
<TRANSP> 5
 0.000000e+000 1.000000e+000 0.000000e+000 0.000000e+000 0.000000e+000
 0.000000e+000 6.255322e-001 3.744678e-001 0.000000e+000 0.000000e+000
 0.000000e+000 0.000000e+000 6.342671e-001 3.657329e-001 0.000000e+000
 0.000000e+000 0.000000e+000 0.000000e+000 8.286106e-001 1.713894e-001
 0.000000e+000 0.000000e+000 0.000000e+000 0.000000e+000 0.000000e+000
<ENDHMM>
~h "p"
<BEGINHMM>
<NUMSTATES> 5
<STATE> 2
<MEAN> 39
 -1.836803e+000 -2.508621e+000 7.783097e-001 -5.450886e+000 -9.202456e+000 -8.045012e+000 -2.326804e+000 -3.228992e+000 -3.331533e+000 -3.664736e+000 -3.290722e+000 -4.229318e+000 6.218941e+001 1.227522e+000 -6.026952e-001 1.053142e+000 -2.376928e+000 -3.079092e+000 -1.188892e+000 -1.279620e+000 -1.172459e+000 -1.238236e+000 -2.928540e-001 -2.954217e-001 1.052674e-002 4.110970e+000 -1.801713e-001 -6.440851e-002 -8.089357e-002 -4.286734e-001 2.060551e-001 4.990631e-001 3.523985e-002 7.373841e-002 7.771460e-002 3.238312e-002 9.903395e-002 -1.923507e-003 5.941915e-002
<VARIANCE> 39
 8.546482e+001 6.342795e+001 2.239771e+002 1.428898e+002 1.522042e+002 1.276604e+002 1.018314e+002 1.244703e+002 8.261288e+001 7.576610e+001 7.818602e+001 5.937441e+001 1.752867e+002 5.295217e+000 5.723811e+000 1.412873e+001 1.161461e+001 1.679627e+001 1.169172e+001 8.034205e+000 1.006822e+001 8.333074e+000 7.438407e+000 7.562309e+000 5.895935e+000 1.141257e+001 1.055864e+000 8.405152e-001 1.577208e+000 1.849295e+000 2.556078e+000 1.974013e+000 1.157562e+000 1.600701e+000 1.354861e+000 1.202373e+000 1.403626e+000 9.950874e-001 1.988619e+000
<GCONST> 1.655620e+002
<STATE> 3
<MEAN> 39
 -1.965428e+000 -3.606972e+000 -7.070540e-001 -1.507342e+001 -1.696469e+001 -5.320354e+000 -7.279376e+000 -7.307507e+000 -4.808000e+000 -2.891071e+000 -2.315904e+000 -3.166803e+000 7.438068e+001 -4.141006e-001 2.966348e-001 4.227453e-001 -9.170809e-001 -5.005636e-002 5.809838e-001 -5.986761e-001 -2.254816e-001 4.743052e-002 -1.880684e-001 2.316261e-001 -2.787278e-002 6.961372e-001 -2.751113e-001 1.779727e-001 -1.875452e-001 8.470043e-001 1.014329e+000 1.304116e-001 3.528421e-001 3.142615e-001 2.825015e-001 -1.915387e-001 -9.911955e-002 -1.455433e-001 -9.501038e-001
<VARIANCE> 39
 6.896848e+001 7.498375e+001 3.212033e+002 8.247286e+001 1.433600e+002 1.386803e+002 9.674366e+001 1.041020e+002 8.559954e+001 1.281949e+002 8.112360e+001 5.378883e+001 9.929614e+001 2.261118e+000 2.407187e+000 3.799656e+000 6.574670e+000 6.986401e+000 6.979548e+000 3.751430e+000 3.598059e+000 4.469573e+000 4.342645e+000 4.757058e+000 2.634631e+000 4.653164e+000 4.341603e-001 4.738851e-001 9.149493e-001 9.758015e-001 1.643347e+000 1.149964e+000 7.917871e-001 9.655511e-001 8.604134e-001 9.735649e-001 7.588073e-001 5.148053e-001 6.489075e-001
<GCONST> 1.473675e+002
<STATE> 4
<MEAN> 39
 -8.091227e+000 1.571105e+000 -3.180236e+000 -1.270956e+001 -1.122448e+001 -5.488739e+000 -8.059223e+000 -8.807284e+000 -2.539938e+000 -7.735001e+000 -3.402825e+000 -2.919634e+000 7.096286e+001 -2.836088e-001 9.529009e-002 2.310807e-001 7.586636e-001 5.826911e-001 1.474181e-001 1.761033e-001 1.877422e-001 -2.238037e-002 -9.574992e-002 -9.206057e-002 -2.057101e-001 -1.031589e+000 4.506135e-002 -9.249321e-002 -5.706747e-002 1.466065e-001 1.170775e-002 -8.743495e-002 5.617744e-002 7.219266e-002 -5.171742e-002 1.228883e-001 2.837647e-002 3.718318e-003 -1.256358e-001
<VARIANCE> 39
 5.139372e+001 5.606869e+001 1.229366e+002 7.889200e+001 8.801577e+001 9.691554e+001 6.255943e+001 5.640516e+001 5.211729e+001 1.035472e+002 5.064816e+001 3.323912e+001 1.070145e+002 1.004549e+000 1.886712e+000 1.766038e+000 2.995209e+000 3.443757e+000 2.922639e+000 2.976668e+000 2.473574e+000 3.000194e+000 4.052922e+000 2.881921e+000 2.044694e+000 2.170625e+000 2.133119e-001 3.189108e-001 3.048315e-001 5.610977e-001 5.406734e-001 5.956958e-001 5.011590e-001 4.975147e-001 5.631976e-001 6.644478e-001 5.380751e-001 3.894042e-001 3.828646e-001
<GCONST> 1.279142e+002
<TRANSP> 5
 0.000000e+000 1.000000e+000 0.000000e+000 0.000000e+000 0.000000e+000
 0.000000e+000 6.683850e-001 3.316151e-001 0.000000e+000 0.000000e+000
 0.000000e+000 0.000000e+000 4.677730e-001 5.322270e-001 0.000000e+000
 0.000000e+000 0.000000e+000 0.000000e+000 8.174156e-001 1.825844e-001
 0.000000e+000 0.000000e+000 0.000000e+000 0.000000e+000 0.000000e+000
<ENDHMM>
~h "r"
<BEGINHMM>
<NUMSTATES> 5
<STATE> 2
<MEAN> 39
 3.498744e+000 -1.006642e+001 4.150497e+000 -2.226225e-001 -1.217376e+001 -1.270241e+001 -8.921371e+000 2.184173e+000 -4.046263e+000 -7.347760e+000 -2.520734e+000 -8.221342e+000 7.208770e+001 -1.501614e-001 -8.740029e-001 1.434011e+000 -8.453421e-001 -1.063804e+000 5.812745e-004 -1.622677e-001 9.961374e-001 -5.515753e-001 -3.098769e-001 5.400813e-001 7.122157e-004 8.226781e-001 -2.561338e-001 3.411379e-001 1.410732e-001 -2.831996e-001 3.531900e-001 3.117224e-001 1.854207e-001 -2.384558e-001 -1.094411e-001 7.618687e-002 9.088478e-002 8.042847e-003 -2.528277e-001
<VARIANCE> 39
 1.204638e+002 1.099717e+002 1.730230e+002 8.574186e+001 1.196159e+002 1.166961e+002 1.041981e+002 1.377408e+002 1.020055e+002 9.234946e+001 7.615106e+001 8.452999e+001 9.679066e+001 5.060428e+000 4.846703e+000 5.843223e+000 5.911383e+000 5.356899e+000 6.150316e+000 6.437127e+000 6.921047e+000 6.043027e+000 5.617491e+000 4.689072e+000 4.147096e+000 2.938408e+000 7.600580e-001 6.680910e-001 8.072320e-001 8.936541e-001 8.721502e-001 1.012233e+000 1.096890e+000 1.141034e+000 1.083921e+000 9.208119e-001 8.364449e-001 7.198361e-001 3.022903e-001
<GCONST> 1.513757e+002
<STATE> 3
<MEAN> 39
 1.620049e+000 -1.134268e+001 6.732967e+000 -4.098076e+000 -1.605705e+001 -1.124663e+001 -9.380303e+000 4.467260e+000 -4.595721e+000 -8.017994e+000 -1.324911e+000 -7.088197e+000 7.539148e+001 -4.305916e-001 6.846917e-001 1.403678e+000 -8.706650e-001 -1.577744e-001 3.278526e-001 2.706532e-001 -3.325917e-001 -5.266480e-001 2.438665e-001 2.488678e-001 8.587893e-002 -2.130421e-001 -7.720494e-002 3.612996e-001 -1.102322e-001 1.444831e-001 2.826956e-001 -1.411332e-002 -5.069310e-004 -2.555619e-001 1.497951e-001 8.729605e-002 -2.096238e-001 2.088735e-002 -1.960742e-001
<VARIANCE> 39
 5.305171e+001 8.373692e+001 2.223866e+002 6.927329e+001 1.220229e+002 1.138698e+002 9.185957e+001 1.494613e+002 9.984475e+001 9.983501e+001 7.434693e+001 1.012870e+002 6.219987e+001 9.706680e-001 1.774299e+000 2.162099e+000 3.164676e+000 2.949074e+000 4.014666e+000 3.235060e+000 3.767642e+000 3.243692e+000 3.187804e+000 3.288421e+000 3.021643e+000 7.253351e-001 1.887322e-001 2.175946e-001 3.470459e-001 4.442557e-001 4.901564e-001 5.120417e-001 5.693660e-001 6.221957e-001 6.214010e-001 5.130745e-001 5.822848e-001 4.937240e-001 9.257597e-002
<GCONST> 1.305475e+002
<STATE> 4
<MEAN> 39
 -4.414441e-001 -4.362355e+000 1.524044e+001 -5.856371e+000 -1.375189e+001 -1.368873e+001 -9.122787e+000 2.085706e+000 -1.003267e+001 -9.293104e+000 -7.046310e-001 -8.216894e+000 7.067519e+001 -3.778739e-002 1.232172e+000 2.149644e-001 6.736724e-002 1.767454e-001 3.194749e-001 -5.724237e-002 -7.701460e-001 2.336785e-002 7.281650e-002 -1.327471e-001 3.109384e-001 -1.069289e+000 4.369283e-002 -2.443202e-002 -2.144238e-001 1.425273e-001 6.328717e-002 -1.313010e-003 -2.876158e-002 1.470530e-002 7.687219e-002 -2.671944e-002 -2.705136e-002 -2.354622e-002 -9.425114e-002
<VARIANCE> 39
 7.043937e+001 8.784244e+001 2.727909e+002 1.273808e+002 1.087771e+002 9.178185e+001 1.072121e+002 1.589361e+002 1.144182e+002 8.915047e+001 6.057511e+001 7.141082e+001 9.378771e+001 8.726057e-001 1.499270e+000 2.237368e+000 2.115290e+000 2.645822e+000 2.643548e+000 2.606007e+000 3.328881e+000 2.635531e+000 2.572181e+000 2.387671e+000 2.178317e+000 8.473100e-001 1.253008e-001 1.987851e-001 2.941372e-001 3.650983e-001 4.279906e-001 3.905697e-001 4.551501e-001 5.138158e-001 4.853275e-001 4.465906e-001 4.388611e-001 3.959978e-001 7.305691e-002
<GCONST> 1.262236e+002
<TRANSP> 5
 0.000000e+000 1.000000e+000 0.000000e+000 0.000000e+000 0.000000e+000
 0.000000e+000 5.925640e-001 4.074360e-001 0.000000e+000 0.000000e+000
 0.000000e+000 0.000000e+000 6.497146e-001 3.502854e-001 0.000000e+000
 0.000000e+000 0.000000e+000 0.000000e+000 7.893669e-001 2.106331e-001
 0.000000e+000 0.000000e+000 0.000000e+000 0.000000e+000 0.000000e+000
<ENDHMM>
~h "s"
<BEGINHMM>
<NUMSTATES> 5
<STATE> 2
<MEAN> 39
 -4.882228e+000 2.032263e+000 -4.066122e-001 -7.261083e+000 1.841572e+000 -1.234791e+001 -2.744926e+000 -1.707758e+000 -2.235549e+000 -3.827965e+000 -1.011823e-001 -8.267636e+000 6.260150e+001 -3.378459e+000 2.489564e+000 -9.014814e-001 -4.698108e-001 2.956160e+000 -2.011395e+000 2.153268e+000 -4.654555e-001 1.011642e+000 -4.371875e-001 4.637015e-001 -2.278115e-001 4.052192e-001 -4.872649e-001 7.910497e-002 -9.412857e-002 -2.171179e-001 6.224702e-002 1.348315e-001 1.494573e-001 -1.062124e-001 7.449225e-002 -7.505263e-002 2.003615e-002 -1.287882e-001 2.354005e-001
<VARIANCE> 39
 1.735724e+002 9.532452e+001 1.396920e+002 1.310621e+002 2.121617e+002 2.133563e+002 1.309960e+002 1.362577e+002 1.006153e+002 1.136039e+002 8.485796e+001 1.035809e+002 1.215235e+002 4.975444e+000 4.095741e+000 5.614161e+000 4.784447e+000 6.511675e+000 9.483983e+000 5.807993e+000 7.787302e+000 6.282654e+000 5.886309e+000 3.758932e+000 3.828393e+000 3.044045e+000 9.781770e-001 6.959791e-001 6.968686e-001 8.006427e-001 1.320649e+000 1.591417e+000 1.168132e+000 1.227433e+000 1.012560e+000 9.771517e-001 7.640519e-001 6.827434e-001 3.804188e-001
<GCONST> 1.550791e+002
<STATE> 3
<MEAN> 39
 -2.297609e+001 1.039892e+001 -4.146903e+000 -7.453150e+000 7.885236e+000 -1.380974e+001 2.257638e+000 -2.789658e+000 -1.102003e-001 -6.156435e+000 1.876389e+000 -6.609600e+000 6.723969e+001 -1.002046e+000 4.652526e-001 -2.841432e-001 -3.166487e-001 7.239015e-001 9.670545e-002 3.316894e-001 1.102471e-002 4.372098e-001 -5.839511e-002 1.026588e-001 -9.417810e-002 -1.871190e-001 5.086533e-001 -3.036101e-001 1.211690e-001 5.558304e-002 -3.403040e-001 1.338984e-001 -2.051751e-001 3.573794e-002 -8.604588e-002 1.340868e-002 -8.653189e-002 -7.470559e-003 -1.368011e-001
<VARIANCE> 39
 7.168709e+001 5.995758e+001 9.598360e+001 1.348365e+002 1.707974e+002 2.077438e+002 9.372259e+001 7.004970e+001 8.096379e+001 7.338445e+001 5.384292e+001 7.842749e+001 5.671007e+001 4.984021e+000 2.551547e+000 2.196483e+000 2.559752e+000 3.735447e+000 4.411929e+000 3.802148e+000 3.483338e+000 2.923199e+000 2.714059e+000 2.332172e+000 2.093400e+000 1.467818e+000 3.997395e-001 3.582103e-001 3.442521e-001 4.705465e-001 6.249576e-001 8.838952e-001 6.880446e-001 6.236680e-001 5.867977e-001 5.091364e-001 4.193736e-001 3.934377e-001 2.078449e-001
<GCONST> 1.337653e+002
<STATE> 4
<MEAN> 39
 -1.920646e+001 9.903335e+000 -1.265416e+000 -1.092552e+001 1.552250e+001 -1.496808e+001 6.754927e+000 -2.355539e+000 3.111511e+000 -3.254118e+000 6.996832e-001 -1.055200e+001 5.539657e+001 1.233368e+000 -4.845638e-001 1.223324e-001 1.734338e-001 -6.499572e-001 3.948370e-001 3.283332e-003 -1.629139e-001 -2.328227e-001 2.082588e-001 -1.827857e-001 -9.963217e-003 -2.615717e-001 2.778849e-001 -1.885816e-001 -9.119562e-003 2.665418e-003 -2.147050e-001 1.020984e-001 -1.094446e-001 -1.112573e-002 -8.735711e-002 2.468636e-002 -3.449323e-002 1.825936e-002 1.788678e-001
<VARIANCE> 39
 8.595344e+001 9.468732e+001 1.180232e+002 1.237575e+002 1.654589e+002 1.443303e+002 1.359384e+002 1.110735e+002 1.183557e+002 9.218137e+001 7.603185e+001 7.974788e+001 1.613729e+002 7.987908e+000 4.738446e+000 3.418324e+000 5.126119e+000 5.975578e+000 5.995683e+000 5.867105e+000 6.311915e+000 5.523263e+000 4.647595e+000 4.571332e+000 3.928334e+000 3.998044e+000 9.436734e-001 7.445333e-001 5.725607e-001 7.777986e-001 1.070014e+000 1.001846e+000 9.777014e-001 1.124392e+000 8.895577e-001 8.201376e-001 7.880939e-001 6.773464e-001 4.372742e-001
<GCONST> 1.515041e+002
<TRANSP> 5
 0.000000e+000 1.000000e+000 0.000000e+000 0.000000e+000 0.000000e+000
 0.000000e+000 6.315488e-001 3.684513e-001 0.000000e+000 0.000000e+000
 0.000000e+000 0.000000e+000 8.251908e-001 1.748092e-001 0.000000e+000
 0.000000e+000 0.000000e+000 0.000000e+000 8.503489e-001 1.496511e-001
 0.000000e+000 0.000000e+000 0.000000e+000 0.000000e+000 0.000000e+000
<ENDHMM>
~h "t"
<BEGINHMM>
<NUMSTATES> 5
<STATE> 2
<MEAN> 39
 -6.272571e+000 -1.632511e+000 -3.127447e+000 -7.687196e+000 8.332437e-001 -7.478191e+000 -1.357546e+000 -7.224735e-001 7.600698e-001 -1.940955e+000 -1.726313e+000 -7.079363e+000 5.991710e+001 4.759201e-001 -4.781001e-001 -2.959805e-001 -1.037853e+000 -8.371845e-001 -5.432460e-001 -5.355589e-001 -1.457217e-001 -4.014518e-001 -5.183309e-001 -4.705800e-001 -5.728117e-001 2.764585e+000 3.558210e-001 -1.135239e-002 1.104648e-001 -6.839646e-002 -2.927044e-001 1.001309e-001 -1.898745e-001 -1.563391e-001 -2.488150e-001 -2.159268e-001 1.753019e-002 -5.030825e-002 1.465930e-001
<VARIANCE> 39
 1.620378e+002 8.815648e+001 9.475811e+001 1.160831e+002 1.181629e+002 1.422203e+002 1.700780e+002 1.548697e+002 1.085338e+002 1.033724e+002 1.138844e+002 1.093334e+002 1.962756e+002 1.010160e+001 7.390854e+000 8.109381e+000 9.393103e+000 1.116367e+001 1.079662e+001 1.094765e+001 1.133865e+001 9.976323e+000 8.322927e+000 8.808114e+000 8.245903e+000 9.644541e+000 1.585978e+000 1.064733e+000 1.177078e+000 1.737868e+000 1.652217e+000 1.773256e+000 1.891193e+000 1.937425e+000 1.638686e+000 1.485797e+000 1.711502e+000 1.442424e+000 1.442719e+000
<GCONST> 1.694960e+002
<STATE> 3
<MEAN> 39
 -5.274823e+000 -1.597565e+000 -4.443253e+000 -1.009545e+001 -6.936098e+000 -8.280555e+000 -4.304461e+000 -2.985613e+000 -2.814983e+000 -6.667535e+000 -3.112725e+000 -6.060615e+000 7.195615e+001 1.621977e+000 -1.257409e-001 2.088396e-001 -8.065842e-001 -1.382416e+000 -2.495252e-001 -7.726784e-001 -4.896247e-001 -5.953745e-001 -1.151770e+000 -2.459424e-001 -1.801545e-001 1.210306e+000 6.452666e-002 -1.242958e-001 4.374928e-002 2.060598e-001 5.175239e-001 4.163466e-001 1.733957e-001 6.947113e-002 7.579011e-002 1.873005e-001 5.952267e-002 -3.229288e-005 -5.627351e-001
<VARIANCE> 39
 1.605094e+002 9.699915e+001 9.970028e+001 7.358199e+001 1.097958e+002 1.198432e+002 1.200884e+002 1.361517e+002 8.299113e+001 1.220506e+002 6.630508e+001 9.940622e+001 1.155565e+002 5.693788e+000 3.464526e+000 4.877515e+000 5.115211e+000 8.002243e+000 6.836810e+000 8.925056e+000 6.626357e+000 5.682768e+000 6.513195e+000 5.265146e+000 3.866208e+000 3.755126e+000 1.032805e+000 6.167153e-001 7.023962e-001 7.832665e-001 1.192072e+000 1.198481e+000 1.172430e+000 1.138918e+000 1.014793e+000 9.490408e-001 8.626336e-001 7.636673e-001 6.904535e-001
<GCONST> 1.531845e+002
<STATE> 4
<MEAN> 39
 -4.009668e+000 -3.024644e+000 -4.976961e+000 -1.295965e+001 -5.925570e+000 -9.013231e+000 -5.272040e+000 -6.789153e+000 -3.887355e+000 -1.195525e+001 -4.126479e+000 -4.565486e+000 7.468333e+001 7.885026e-001 -1.791215e-001 8.637942e-003 -3.204653e-002 1.438592e-001 6.198436e-001 -2.646484e-001 -5.889330e-002 -1.288571e-001 -9.863292e-002 -2.965364e-002 -1.979710e-001 -3.939106e-002 -2.214214e-001 8.751708e-002 2.896824e-002 2.966831e-001 2.734325e-001 1.610912e-001 1.396270e-001 7.307230e-002 4.285898e-002 2.978380e-001 1.083591e-001 1.070744e-002 -3.923396e-001
<VARIANCE> 39
 1.160958e+002 9.273910e+001 1.072873e+002 8.329034e+001 1.151694e+002 1.185372e+002 1.105601e+002 1.366643e+002 7.520386e+001 1.896040e+002 7.497120e+001 9.547406e+001 1.267639e+002 2.416643e+000 2.659880e+000 2.779099e+000 3.621554e+000 4.895430e+000 4.258688e+000 4.760044e+000 4.044930e+000 3.818367e+000 3.597560e+000 3.470072e+000 3.017105e+000 2.583445e+000 4.581151e-001 4.410439e-001 5.007603e-001 5.860673e-001 1.010020e+000 7.117665e-001 8.864818e-001 8.514671e-001 7.152042e-001 7.197033e-001 6.009126e-001 5.564591e-001 3.773581e-001
<GCONST> 1.423991e+002
<TRANSP> 5
 0.000000e+000 1.000000e+000 0.000000e+000 0.000000e+000 0.000000e+000
 0.000000e+000 6.958678e-001 3.041321e-001 0.000000e+000 0.000000e+000
 0.000000e+000 0.000000e+000 3.990456e-001 6.009544e-001 0.000000e+000
 0.000000e+000 0.000000e+000 0.000000e+000 5.146604e-001 4.853396e-001
 0.000000e+000 0.000000e+000 0.000000e+000 0.000000e+000 0.000000e+000
<ENDHMM>
~h "v"
<BEGINHMM>
<NUMSTATES> 5
<STATE> 2
<MEAN> 39
 1.467870e+000 -4.304443e+000 -3.398577e+000 -1.269080e+001 -2.856797e+000 4.246812e-001 2.463892e+000 -2.270690e+000 -1.267940e+000 -8.232153e-001 5.626409e-001 -7.375942e+000 6.264221e+001 -1.507586e+000 -1.289576e-001 -6.458757e-001 9.852093e-001 9.296983e-001 -1.637142e-001 1.448311e+000 1.067070e+000 1.728933e+000 1.419018e-001 1.476843e-001 3.409354e-001 -9.785063e-001 -2.295833e-001 -1.518207e-001 4.403036e-002 -1.415343e-001 -3.024888e-003 -1.349872e-001 -1.389358e-001 5.087036e-002 -9.857905e-002 -1.460517e-001 1.197402e-002 -2.494193e-002 1.270137e-001
<VARIANCE> 39
 6.961149e+001 6.733933e+001 1.591229e+002 2.297840e+002 6.965582e+001 1.324435e+002 9.938121e+001 7.576254e+001 6.338450e+001 5.793660e+001 4.317448e+001 4.348400e+001 6.847132e+001 2.016145e+000 1.819324e+000 2.904107e+000 2.709102e+000 3.859117e+000 4.959955e+000 3.970443e+000 6.003856e+000 5.023536e+000 3.704777e+000 2.980226e+000 2.300763e+000 7.012641e-001 2.936217e-001 1.868399e-001 3.542742e-001 4.734535e-001 5.275674e-001 5.641683e-001 7.595489e-001 8.562586e-001 7.943001e-001 6.106665e-001 4.077259e-001 4.125372e-001 1.071556e-001
<GCONST> 1.315752e+002
<STATE> 3
<MEAN> 39
 -3.918176e+000 -7.068060e+000 2.864409e-001 -2.597800e+000 -4.831751e+000 -5.206513e+000 7.476325e+000 3.372566e+000 2.483678e+000 2.848028e+000 1.629990e+000 -6.971000e+000 5.896227e+001 -6.251991e-001 -2.620865e-001 -1.437748e-001 2.403747e-001 3.659712e-001 -1.150553e-001 3.503386e-001 4.028729e-001 2.257230e-001 -1.815441e-002 -7.111827e-002 9.508901e-002 -3.028045e-001 2.093643e-001 5.349939e-002 1.338242e-001 -7.987987e-002 -1.951449e-001 -7.011521e-002 -1.897216e-001 -1.723328e-001 -2.999784e-001 -4.042938e-002 -1.852039e-002 -6.972407e-002 6.929491e-002
<VARIANCE> 39
 4.739837e+001 4.877205e+001 7.865671e+001 1.177690e+002 9.782545e+001 9.044133e+001 8.279660e+001 8.137018e+001 5.808548e+001 7.108452e+001 3.963396e+001 3.240461e+001 6.050004e+001 3.182345e+000 1.503172e+000 2.163746e+000 2.705113e+000 6.295535e+000 5.024325e+000 3.739054e+000 4.924648e+000 6.468374e+000 3.061387e+000 1.904140e+000 1.757704e+000 1.544640e+000 4.112150e-001 2.407365e-001 2.995106e-001 4.419196e-001 1.080302e+000 1.096629e+000 6.424741e-001 8.537210e-001 1.273282e+000 6.310738e-001 3.612775e-001 3.299078e-001 2.250038e-001
<GCONST> 1.317710e+002
<STATE> 4
<MEAN> 39
 -5.497677e+000 -4.648532e+000 -5.221696e+000 -9.162297e+000 2.343265e+000 1.189547e+000 9.096965e+000 4.406390e+000 2.671424e+000 1.272005e-001 2.272090e+000 -6.749032e+000 4.934217e+001 -3.484402e-001 1.919991e-001 3.848510e-001 8.199257e-001 2.351798e-001 -1.006596e-002 6.820661e-002 1.547066e-001 -6.535656e-002 -8.490203e-002 -2.496965e-001 1.843920e-001 -6.979485e-001 2.166374e-001 4.533150e-002 9.624898e-002 -1.370779e-003 -2.001789e-001 -1.185221e-001 -1.625024e-001 -1.864031e-001 -2.142590e-001 -6.221515e-002 -3.496093e-002 -2.762324e-002 1.039442e-001
<VARIANCE> 39
 4.373972e+001 4.762880e+001 8.437290e+001 1.456141e+002 7.103858e+001 8.182133e+001 9.695195e+001 1.038814e+002 6.002732e+001 6.458673e+001 6.357119e+001 6.528965e+001 1.278721e+002 1.790099e+000 1.461262e+000 1.944942e+000 2.871494e+000 3.848068e+000 3.775125e+000 3.816405e+000 4.241178e+000 4.453379e+000 3.707494e+000 3.469011e+000 2.987750e+000 9.909557e-001 2.047094e-001 2.125091e-001 3.386429e-001 4.922051e-001 6.695995e-001 7.317854e-001 7.139390e-001 7.948413e-001 8.356817e-001 6.776169e-001 6.831416e-001 5.776477e-001 1.081498e-001
<GCONST> 1.314110e+002
<TRANSP> 5
 0.000000e+000 1.000000e+000 0.000000e+000 0.000000e+000 0.000000e+000
 0.000000e+000 5.949510e-001 4.050490e-001 0.000000e+000 0.000000e+000
 0.000000e+000 0.000000e+000 6.587412e-001 3.412588e-001 0.000000e+000
 0.000000e+000 0.000000e+000 0.000000e+000 8.129177e-001 1.870823e-001
 0.000000e+000 0.000000e+000 0.000000e+000 0.000000e+000 0.000000e+000
<ENDHMM>
~h "w"
<BEGINHMM>
<NUMSTATES> 5
<STATE> 2
<MEAN> 39
 2.262006e+000 8.807073e-002 -1.371339e+001 -1.277791e+001 -5.392184e+000 3.571516e-001 -7.164737e+000 -6.621454e+000 -4.521984e+000 -5.052612e+000 -9.452826e+000 -3.163529e+000 7.218733e+001 -4.993612e-001 -1.118976e+000 -4.200439e-001 -9.687285e-002 9.514054e-001 2.730314e-001 4.063646e-001 4.318866e-001 1.045827e+000 -1.008034e+000 -8.890820e-001 8.800796e-002 9.737703e-001 -8.541466e-002 -3.749741e-002 1.839877e-001 1.601461e-001 -4.022389e-002 -1.123174e-001 8.426505e-002 5.551390e-002 -2.517628e-002 -1.625252e-001 1.948132e-001 5.213021e-002 -5.360105e-002
<VARIANCE> 39
 5.468464e+001 7.771892e+001 1.343795e+002 6.876087e+001 1.074377e+002 8.854601e+001 1.011554e+002 7.276571e+001 9.122903e+001 6.337244e+001 9.918537e+001 4.465636e+001 9.495579e+001 9.953906e-001 1.957887e+000 2.889072e+000 3.680719e+000 4.821291e+000 5.670747e+000 4.744556e+000 3.048909e+000 4.649472e+000 4.484846e+000 4.078644e+000 3.351100e+000 8.091409e-001 1.385767e-001 2.953661e-001 3.742422e-001 3.923386e-001 7.169618e-001 8.133894e-001 7.943498e-001 4.904253e-001 7.790774e-001 7.730208e-001 7.665100e-001 5.857479e-001 8.611371e-002
<GCONST> 1.329352e+002
<STATE> 3
<MEAN> 39
 -2.293783e+000 -6.361573e+000 -8.801901e+000 -1.242729e+001 2.171666e+000 -5.114480e+000 -2.983118e+000 -4.234882e+000 -3.419134e+000 -1.561161e+001 -1.148135e+001 -3.466271e-001 7.602846e+001 -3.653873e-001 -3.357943e-001 4.654205e-001 -1.416371e-001 -7.922570e-001 2.491551e-001 8.031933e-001 8.272575e-001 -2.682621e-001 -6.982598e-001 7.216888e-001 1.672180e-001 4.417533e-001 -1.098974e-002 1.599670e-002 1.014624e-001 5.037627e-002 -1.824283e-001 1.809969e-001 -1.281032e-002 -9.872013e-002 -1.939695e-001 3.327577e-001 2.405200e-001 -2.543663e-001 -5.459007e-002
<VARIANCE> 39
 1.168615e+002 7.143028e+001 9.707455e+001 6.818335e+001 1.727930e+002 6.847034e+001 8.048580e+001 6.038981e+001 5.630414e+001 8.672408e+001 8.655680e+001 6.273860e+001 1.354884e+002 6.514666e-001 1.575556e+000 2.120424e+000 3.848172e+000 3.892191e+000 4.013131e+000 3.201147e+000 2.329600e+000 2.247680e+000 3.092041e+000 2.630717e+000 2.701520e+000 1.071070e+000 1.564811e-001 2.361348e-001 2.242755e-001 3.824499e-001 5.963284e-001 4.467527e-001 5.722545e-001 3.982264e-001 3.833460e-001 5.059580e-001 4.805739e-001 4.792155e-001 8.899995e-002
<GCONST> 1.261422e+002
<STATE> 4
<MEAN> 39
 6.637191e+000 -3.192097e+000 -6.509686e+000 -1.600343e+001 -8.894997e+000 3.374921e+000 1.955477e+000 -4.509291e-001 -5.845573e+000 -8.818801e+000 -3.174872e+000 -5.973812e+000 6.981116e+001 -7.296561e-001 -1.539919e+000 4.227301e-001 -5.618490e-001 -6.181161e-002 1.514070e+000 3.443313e-002 2.959501e-002 -3.817973e-001 1.027535e+000 1.267340e+000 -1.371737e+000 1.183796e+000 -1.388886e-001 -6.414051e-002 1.133584e-001 5.916957e-001 4.005147e-001 -3.871463e-001 -3.525350e-001 -1.948469e-001 5.129360e-002 1.954815e-001 -6.805129e-002 -2.247642e-001 -8.304220e-002
<VARIANCE> 39
 1.339588e+002 7.856649e+001 1.486281e+002 1.392543e+002 8.335575e+001 1.698931e+002 8.393617e+001 7.614714e+001 5.607505e+001 1.050969e+002 6.629274e+001 7.943039e+001 1.083095e+002 2.034975e+000 4.449555e+000 2.996103e+000 5.196820e+000 6.745707e+000 5.772702e+000 5.867952e+000 3.571995e+000 3.858451e+000 3.638332e+000 2.942490e+000 4.165278e+000 3.155598e+000 3.182666e-001 3.260733e-001 3.691300e-001 8.962532e-001 6.203574e-001 1.242528e+000 8.108935e-001 5.993169e-001 5.952874e-001 6.666127e-001 5.892808e-001 6.008265e-001 1.953528e-001
<GCONST> 1.411343e+002
<TRANSP> 5
 0.000000e+000 1.000000e+000 0.000000e+000 0.000000e+000 0.000000e+000
 0.000000e+000 7.501951e-001 2.498049e-001 0.000000e+000 0.000000e+000
 0.000000e+000 0.000000e+000 6.568006e-001 3.431994e-001 0.000000e+000
 0.000000e+000 0.000000e+000 0.000000e+000 4.458092e-001 5.541908e-001
 0.000000e+000 0.000000e+000 0.000000e+000 0.000000e+000 0.000000e+000
<ENDHMM>
~h "z"
<BEGINHMM>
<NUMSTATES> 5
<STATE> 2
<MEAN> 39
 7.661707e-001 4.320613e-001 -7.376999e+000 -2.109664e+001 -4.274772e+000 3.423433e+000 1.195534e+000 -3.769720e+000 -5.618860e+000 -4.898528e+000 -5.597773e-001 -4.918046e+000 6.260183e+001 -1.532310e+000 8.142006e-001 -1.158158e-001 1.788002e-001 9.888301e-001 -4.440108e-001 8.199014e-001 2.004323e-001 4.543066e-001 1.912213e-002 -2.691751e-002 2.146882e-001 -6.490049e-001 -3.324325e-001 8.031080e-002 -7.315771e-002 6.034366e-002 2.213108e-001 -7.995082e-002 1.606829e-001 3.692536e-002 1.144529e-001 -2.121960e-002 6.626479e-002 4.092663e-003 2.321828e-001
<VARIANCE> 39
 1.651814e+002 6.218790e+001 1.237626e+002 2.462151e+002 8.156484e+001 1.669941e+002 1.187775e+002 8.521279e+001 5.494619e+001 4.776480e+001 3.918367e+001 4.344580e+001 5.330597e+001 6.020149e+000 2.379406e+000 3.936822e+000 4.144606e+000 5.506437e+000 4.745421e+000 5.661063e+000 4.515284e+000 3.906371e+000 3.883483e+000 3.465229e+000 3.188444e+000 3.669341e+000 6.059945e-001 3.521018e-001 5.485786e-001 5.925462e-001 7.256743e-001 7.300927e-001 8.077319e-001 8.152229e-001 6.947256e-001 6.994871e-001 6.686147e-001 5.379986e-001 3.323648e-001
<GCONST> 1.410820e+002
<STATE> 3
<MEAN> 39
 -1.949676e+001 6.976863e+000 -1.896675e+000 -1.374375e+001 5.806264e+000 -7.194183e+000 5.345694e+000 -2.806215e+000 1.364097e+000 -4.624007e+000 2.323704e+000 -5.648881e+000 6.251773e+001 -1.624969e+000 6.799175e-001 -6.520193e-001 1.274636e+000 2.010921e+000 -1.706642e-002 9.614428e-001 1.941766e-001 4.141073e-001 1.316525e-001 1.282972e-001 9.929062e-002 -2.382547e-001 4.835109e-001 -1.779864e-001 1.200754e-001 1.716856e-001 -4.066783e-001 1.385588e-001 -1.645498e-001 -1.700418e-001 -7.184119e-002 -4.292967e-002 -1.101124e-001 4.085169e-002 -1.605840e-001
<VARIANCE> 39
 9.687141e+001 1.143829e+002 1.215159e+002 2.036335e+002 1.048920e+002 1.555860e+002 2.613518e+002 1.421019e+002 1.083319e+002 9.622620e+001 7.663757e+001 5.964033e+001 5.689390e+001 3.542938e+000 3.274798e+000 3.552441e+000 3.373102e+000 4.486879e+000 6.813739e+000 5.984696e+000 5.401306e+000 3.797562e+000 4.425616e+000 3.605836e+000 1.863780e+000 1.615868e+000 3.902048e-001 4.570946e-001 4.372854e-001 5.489205e-001 7.122605e-001 8.739081e-001 1.062165e+000 9.302869e-001 7.996240e-001 7.300628e-001 6.907254e-001 4.111392e-001 2.248990e-001
<GCONST> 1.431608e+002
<STATE> 4
<MEAN> 39
 -2.438089e+001 1.383051e+001 -5.821183e+000 -4.933830e+000 6.743184e+000 -8.468749e+000 3.943391e+000 -4.981832e+000 1.822715e-001 -6.161857e+000 8.300728e-001 -2.319007e+000 6.265934e+001 2.143427e-001 -2.044597e-001 5.927380e-002 2.698860e-001 -7.576079e-002 9.266158e-002 4.221417e-002 1.370186e-001 1.403463e-001 2.145633e-001 8.708260e-002 1.291572e-001 -5.602639e-001 1.233493e-001 -6.206258e-002 5.894890e-002 -5.426160e-002 -6.850793e-002 1.189151e-002 -4.593474e-002 4.146802e-003 -3.865194e-002 4.279951e-003 -1.089980e-002 -5.184072e-003 -2.648306e-002
<VARIANCE> 39
 3.623883e+001 4.203294e+001 6.816383e+001 1.067915e+002 1.630403e+002 1.256511e+002 2.280325e+002 5.015539e+001 6.712682e+001 5.776967e+001 5.079385e+001 4.704472e+001 8.215309e+001 1.256728e+000 1.094130e+000 1.500574e+000 1.943199e+000 2.103494e+000 2.525236e+000 2.388746e+000 2.591028e+000 2.818862e+000 2.214926e+000 2.188271e+000 1.786575e+000 6.683803e-001 1.354420e-001 1.729252e-001 2.400652e-001 3.091870e-001 3.544056e-001 4.465894e-001 4.463445e-001 4.342696e-001 4.988853e-001 3.910170e-001 4.119851e-001 3.191946e-001 6.358483e-002
<GCONST> 1.190373e+002
<TRANSP> 5
 0.000000e+000 1.000000e+000 0.000000e+000 0.000000e+000 0.000000e+000
 0.000000e+000 8.299734e-001 1.700266e-001 0.000000e+000 0.000000e+000
 0.000000e+000 0.000000e+000 7.300030e-001 2.699970e-001 0.000000e+000
 0.000000e+000 0.000000e+000 0.000000e+000 9.257678e-001 7.423226e-002
 0.000000e+000 0.000000e+000 0.000000e+000 0.000000e+000 0.000000e+000
<ENDHMM>
~h "aa"
<BEGINHMM>
<NUMSTATES> 5
<STATE> 2
<MEAN> 39
 -9.630975e-001 -7.554868e+000 -2.836995e+000 -1.018935e+001 -3.564435e+000 -2.771642e+000 5.207653e+000 1.679648e+000 -4.431607e-001 -8.628809e-001 -2.612088e+000 -1.122790e+001 6.452483e+001 9.030446e-001 -7.437807e-001 -1.016838e+000 -1.210020e+000 2.660204e-001 1.735457e+000 -3.363904e-001 2.760081e-001 -3.581903e-001 -3.250757e-001 1.739795e-001 -2.406841e-001 9.968158e-001 2.807456e-002 6.784560e-003 -4.489858e-002 -5.955912e-002 7.804103e-002 6.328539e-002 -2.147381e-001 -9.353865e-002 -1.785619e-001 -8.727853e-002 4.786751e-002 3.432954e-002 6.911196e-002
<VARIANCE> 39
 8.269835e+001 8.441013e+001 1.145518e+002 1.929741e+002 1.022251e+002 1.419628e+002 1.833118e+002 1.682041e+002 1.064124e+002 1.109110e+002 5.896214e+001 8.695998e+001 2.275906e+002 6.240229e+000 4.729918e+000 6.112375e+000 1.484806e+001 6.386908e+000 9.109030e+000 1.321018e+001 8.974769e+000 8.420902e+000 6.672122e+000 4.280515e+000 4.462357e+000 7.971926e+000 8.732739e-001 7.318969e-001 1.130555e+000 2.894580e+000 1.005258e+000 1.710969e+000 2.556577e+000 1.946913e+000 1.536357e+000 1.292633e+000 7.424301e-001 7.466754e-001 7.629456e-001
<GCONST> 1.622938e+002
<STATE> 3
<MEAN> 39
 3.435318e+000 -1.438948e+001 -6.175200e+000 -1.429064e+001 4.221736e-001 6.422300e+000 2.932231e+000 2.089818e+000 -3.080247e+000 -2.069981e+000 -2.170700e+000 -1.430283e+001 7.437121e+001 8.039082e-001 -2.819114e-001 7.058963e-002 6.504927e-001 2.688944e-003 1.304659e-001 -5.613794e-001 -3.852151e-004 -2.803631e-001 -1.900541e-001 -1.060946e-001 1.282165e-001 -4.847604e-001 1.291701e-001 2.456584e-001 1.050057e-003 1.215084e-001 -1.063924e-001 -2.719531e-001 -1.246086e-001 -1.514388e-001 5.332449e-002 6.178472e-002 -3.877419e-002 8.999655e-002 -2.256769e-001
<VARIANCE> 39
 4.941507e+001 4.880506e+001 1.169382e+002 1.001497e+002 8.398691e+001 8.048133e+001 7.037394e+001 7.081983e+001 6.370659e+001 9.667435e+001 4.942019e+001 6.706744e+001 1.442613e+002 1.354020e+000 1.853379e+000 1.833812e+000 3.499353e+000 3.755826e+000 3.730623e+000 2.781847e+000 3.164764e+000 3.059429e+000 3.461713e+000 1.776604e+000 2.434374e+000 1.924843e+000 1.798427e-001 2.315924e-001 3.395233e-001 5.322965e-001 5.766971e-001 6.890009e-001 5.799170e-001 6.062904e-001 5.417693e-001 5.584490e-001 3.780923e-001 3.995060e-001 2.028578e-001
<GCONST> 1.285046e+002
<STATE> 4
<MEAN> 39
 7.421868e+000 -9.975510e+000 -6.673826e+000 -1.147361e+001 -2.214273e+000 3.868170e+000 2.802249e-001 1.405555e-001 -3.304067e+000 -2.543004e+000 -1.535933e+000 -9.554957e+000 6.409158e+001 2.751608e-001 9.459709e-001 -8.204278e-003 8.452809e-001 -9.356376e-003 -6.714922e-001 -3.943941e-001 -1.361302e-001 5.533771e-002 -1.108136e-002 -1.415052e-001 3.057799e-001 -1.231617e+000 -1.356393e-001 1.166388e-001 3.157140e-002 -8.319284e-002 3.686674e-002 -8.302142e-002 5.948320e-002 -1.912338e-002 1.911781e-002 -5.460716e-002 -9.973125e-002 -9.628595e-002 1.004293e-001
<VARIANCE> 39
 7.943216e+001 7.756007e+001 1.051268e+002 1.376417e+002 7.954931e+001 7.669978e+001 5.929057e+001 6.119141e+001 6.860977e+001 6.128992e+001 6.518486e+001 6.284598e+001 1.415880e+002 1.789786e+000 2.354349e+000 2.870599e+000 4.109090e+000 3.440371e+000 4.672085e+000 3.884422e+000 3.671556e+000 3.095361e+000 3.596076e+000 2.672982e+000 2.824916e+000 1.655517e+000 1.897870e-001 3.882221e-001 4.539880e-001 5.914237e-001 5.906938e-001 7.339404e-001 7.410946e-001 7.397027e-001 5.652617e-001 5.594880e-001 5.394902e-001 4.938214e-001 2.861040e-001
<GCONST> 1.337018e+002
<TRANSP> 5
 0.000000e+000 1.000000e+000 0.000000e+000 0.000000e+000 0.000000e+000
 0.000000e+000 6.142880e-001 3.857120e-001 0.000000e+000 0.000000e+000
 0.000000e+000 0.000000e+000 7.189502e-001 2.810499e-001 0.000000e+000
 0.000000e+000 0.000000e+000 0.000000e+000 6.600947e-001 3.399053e-001
 0.000000e+000 0.000000e+000 0.000000e+000 0.000000e+000 0.000000e+000
<ENDHMM>
~h "ae"
<BEGINHMM>
<NUMSTATES> 5
<STATE> 2
<MEAN> 39
 -1.792215e-001 -6.958534e+000 -1.027985e+000 -7.765497e+000 -3.697901e+000 -5.905424e+000 1.170456e+000 2.467853e+000 -1.769965e+000 -3.685890e+000 -5.094234e+000 -1.077316e+001 6.230230e+001 1.158666e+000 -2.735003e+000 4.701138e-001 -1.693022e+000 -1.922175e+000 9.438163e-003 -1.969655e-001 1.366436e+000 -8.051991e-001 -8.158482e-001 -6.717806e-001 -9.057457e-001 3.797505e+000 -3.578229e-001 1.069521e-001 2.329559e-001 1.985284e-001 8.933736e-002 -1.038053e-002 5.627698e-002 6.094673e-002 -8.477898e-003 1.266412e-001 3.838430e-001 2.873397e-001 -7.175515e-002
<VARIANCE> 39
 1.136642e+002 1.393400e+002 1.154229e+002 1.350689e+002 1.632142e+002 9.686536e+001 1.658448e+002 2.601103e+002 1.030788e+002 1.043738e+002 1.134703e+002 1.448818e+002 2.614253e+002 9.720816e+000 1.132238e+001 7.040452e+000 1.025177e+001 1.507324e+001 1.103727e+001 1.021893e+001 1.461091e+001 9.359159e+000 9.858161e+000 8.702586e+000 8.186050e+000 7.215756e+000 1.170405e+000 1.980240e+000 1.188454e+000 1.773062e+000 2.170243e+000 1.438389e+000 1.852608e+000 2.474961e+000 1.447227e+000 1.623737e+000 1.492270e+000 1.403816e+000 1.426294e+000
<GCONST> 1.719628e+002
<STATE> 3
<MEAN> 39
 2.215247e+000 -1.488674e+001 1.496344e+000 -8.359901e+000 -9.973588e+000 -7.288614e+000 6.319549e+000 1.270534e+001 -2.002002e+000 -4.738266e+000 -5.541576e+000 -1.134251e+001 7.001694e+001 3.385833e-001 3.516189e-001 2.899841e-001 8.498026e-002 -7.276915e-001 -5.471348e-001 -2.677699e-001 -5.712306e-001 -1.427925e-003 2.780071e-001 3.655968e-001 4.607661e-001 1.690532e-001 -1.403176e-001 4.789381e-001 -9.545711e-002 3.806700e-001 4.421622e-001 3.889766e-002 -1.830486e-001 -2.986635e-001 2.589248e-001 2.657715e-001 8.831749e-002 1.015141e-001 -6.445751e-001
<VARIANCE> 39
 4.542738e+001 4.927751e+001 8.407878e+001 4.747871e+001 7.369340e+001 6.716756e+001 9.015077e+001 1.387217e+002 8.327793e+001 9.815179e+001 6.356738e+001 5.874767e+001 1.186234e+002 1.998513e+000 2.934265e+000 2.654100e+000 2.933851e+000 4.120266e+000 4.441699e+000 3.728511e+000 5.117059e+000 4.630531e+000 4.650603e+000 2.692224e+000 2.517658e+000 2.470920e+000 3.786732e-001 4.654518e-001 3.743200e-001 5.179545e-001 7.377700e-001 7.136356e-001 5.383260e-001 8.733552e-001 8.976811e-001 8.753127e-001 4.965000e-001 4.963219e-001 3.647407e-001
<GCONST> 1.357757e+002
<STATE> 4
<MEAN> 39
 3.483850e+000 -9.555272e+000 1.097808e+001 -4.765631e+000 -1.368543e+001 -1.583508e+001 1.382020e+000 8.755149e+000 -7.772369e+000 -5.761136e+000 -3.952836e+000 -1.003083e+001 6.761493e+001 -1.711108e-001 8.554769e-001 4.809408e-001 6.066216e-001 2.157116e-001 -8.390309e-002 -6.804500e-001 -7.236283e-001 2.144833e-001 9.911867e-002 3.341337e-001 2.784578e-001 -8.045460e-001 -5.974894e-002 3.719752e-002 -1.126500e-001 8.635671e-002 1.200520e-001 6.992573e-002 1.075687e-001 1.403747e-002 -1.717206e-002 -2.126687e-002 -3.046109e-002 -1.019990e-001 -1.668878e-001
<VARIANCE> 39
 6.254942e+001 8.208160e+001 2.306104e+002 8.509203e+001 1.144960e+002 1.747003e+002 8.901237e+001 1.577376e+002 1.368766e+002 1.018450e+002 4.950727e+001 5.165565e+001 1.272326e+002 1.881230e+000 3.867827e+000 7.477748e+000 5.876599e+000 7.711644e+000 4.768993e+000 4.488476e+000 5.980030e+000 7.338170e+000 4.186618e+000 2.907802e+000 3.336140e+000 4.181961e+000 3.437979e-001 6.874514e-001 1.207717e+000 1.007720e+000 1.309245e+000 7.993771e-001 8.668932e-001 9.934921e-001 1.298810e+000 7.478021e-001 4.839694e-001 6.422348e-001 6.258931e-001
<GCONST> 1.485681e+002
<TRANSP> 5
 0.000000e+000 1.000000e+000 0.000000e+000 0.000000e+000 0.000000e+000
 0.000000e+000 6.804874e-001 3.195126e-001 0.000000e+000 0.000000e+000
 0.000000e+000 0.000000e+000 7.176071e-001 2.823929e-001 0.000000e+000
 0.000000e+000 0.000000e+000 0.000000e+000 7.125644e-001 2.874356e-001
 0.000000e+000 0.000000e+000 0.000000e+000 0.000000e+000 0.000000e+000
<ENDHMM>
~h "ah"
<BEGINHMM>
<NUMSTATES> 5
<STATE> 2
<MEAN> 39
 1.669102e+000 -1.078195e+001 -7.228009e+000 -1.455552e+001 -2.591656e-001 1.746278e+000 -2.344345e+000 2.558048e+000 -1.444583e+000 -2.835555e+000 -4.732232e+000 -1.223289e+001 7.812783e+001 -1.182527e-001 -1.122245e+000 -8.602317e-002 5.267757e-001 8.982602e-001 5.583467e-001 -2.748412e-001 4.530403e-002 -2.454615e-001 4.079412e-001 -3.320104e-001 -9.625385e-001 9.160256e-001 1.791277e-001 3.375704e-001 1.562186e-001 2.241232e-001 -2.489421e-002 -1.448106e-001 -7.330482e-002 -1.216080e-001 -3.165200e-002 -4.327445e-003 -5.260165e-002 1.686147e-001 -4.710890e-001
<VARIANCE> 39
 8.205495e+001 7.382334e+001 6.506683e+001 8.244959e+001 7.701156e+001 1.399184e+002 1.951390e+002 9.392010e+001 7.160742e+001 1.027821e+002 1.175891e+002 1.531874e+002 1.211855e+002 3.675696e+000 3.401020e+000 3.316496e+000 4.398834e+000 4.129057e+000 3.956026e+000 5.311816e+000 4.340827e+000 3.687228e+000 4.130106e+000 4.922189e+000 4.416014e+000 3.846006e+000 5.367600e-001 5.324168e-001 4.660588e-001 8.241444e-001 6.529811e-001 6.162826e-001 8.977370e-001 8.232921e-001 6.653364e-001 7.298282e-001 9.132249e-001 8.563612e-001 3.581284e-001
<GCONST> 1.444445e+002
<STATE> 3
<MEAN> 39
 1.749011e-001 -1.183642e+001 -8.754263e+000 -1.175321e+001 -7.476897e-001 2.683309e-001 -4.738749e+000 -1.645743e-001 -2.710935e+000 -5.020481e+000 -3.883743e+000 -1.200356e+001 8.008316e+001 4.731110e-001 1.377476e-001 1.152739e-002 2.437337e-001 2.402192e-001 1.423783e-001 -2.382039e-001 -1.163413e-001 -3.966243e-001 7.715044e-003 4.761661e-002 2.624338e-002 -5.784765e-001 8.146020e-002 1.808038e-001 8.497719e-002 2.905592e-002 -6.058446e-002 -1.629179e-001 9.591934e-003 -4.141231e-002 -1.098091e-002 -1.768507e-002 -1.048937e-002 1.205549e-001 -2.048319e-001
<VARIANCE> 39
 6.313809e+001 7.855725e+001 6.268875e+001 5.611515e+001 6.489468e+001 8.261684e+001 1.609829e+002 8.831165e+001 7.677699e+001 1.018884e+002 7.923531e+001 9.955315e+001 7.201201e+001 9.214909e-001 1.151020e+000 1.446249e+000 1.640546e+000 2.220194e+000 2.205911e+000 2.113174e+000 2.265471e+000 2.317255e+000 2.019877e+000 1.959756e+000 1.956786e+000 7.922729e-001 1.132893e-001 1.790081e-001 2.188474e-001 2.400981e-001 3.246312e-001 3.080170e-001 3.597475e-001 4.007699e-001 3.542413e-001 3.721819e-001 3.121565e-001 3.369853e-001 6.636132e-002
<GCONST> 1.173737e+002
<STATE> 4
<MEAN> 39
 1.064094e+001 -9.324983e+000 -1.015261e+001 -9.002552e+000 4.252171e+000 1.522967e+000 -4.370440e+000 -1.363240e+000 -4.004794e+000 -2.632112e+000 -6.626393e+000 -1.590320e+001 6.422598e+001 -5.182321e-002 1.207617e+000 -2.181246e-002 4.234076e-001 -9.488092e-002 -3.455391e-001 2.461485e-001 -4.239752e-001 1.468185e-001 -2.845903e-001 -1.933224e-001 4.465024e-001 -1.492604e+000 -2.122057e-001 8.960875e-002 7.817563e-002 -3.531272e-003 1.180507e-002 -3.766858e-002 1.355951e-001 1.462847e-002 8.779212e-002 1.902759e-002 3.756697e-002 2.621311e-002 -1.686722e-003
<VARIANCE> 39
 6.921174e+001 6.908574e+001 6.742027e+001 8.768258e+001 7.945668e+001 1.085839e+002 6.739532e+001 8.615933e+001 7.973350e+001 6.955928e+001 6.709949e+001 7.494629e+001 1.126650e+002 1.290018e+000 1.592646e+000 2.742327e+000 2.184720e+000 2.434851e+000 2.587420e+000 3.270367e+000 3.795046e+000 3.399860e+000 3.180753e+000 2.359428e+000 2.309672e+000 5.882025e-001 1.522053e-001 2.108648e-001 3.429345e-001 3.702011e-001 4.454657e-001 4.329766e-001 5.593907e-001 6.409504e-001 6.438118e-001 5.598760e-001 4.542350e-001 3.884780e-001 6.155090e-002
<GCONST> 1.251300e+002
<TRANSP> 5
 0.000000e+000 1.000000e+000 0.000000e+000 0.000000e+000 0.000000e+000
 0.000000e+000 6.422777e-001 3.577223e-001 0.000000e+000 0.000000e+000
 0.000000e+000 0.000000e+000 8.230462e-001 1.769538e-001 0.000000e+000
 0.000000e+000 0.000000e+000 0.000000e+000 8.227465e-001 1.772535e-001
 0.000000e+000 0.000000e+000 0.000000e+000 0.000000e+000 0.000000e+000
<ENDHMM>
~h "ao"
<BEGINHMM>
<NUMSTATES> 5
<STATE> 2
<MEAN> 39
 6.186795e+000 -7.038258e+000 -1.705094e+001 -1.377871e+001 -3.731822e+000 7.245212e-001 -3.211476e+000 -6.846880e+000 -3.489802e+000 3.574851e-001 4.102641e-001 -7.350882e+000 6.080715e+001 -6.594692e-001 1.239867e-001 6.715246e-001 4.689179e-001 4.227051e-001 -2.839356e-001 2.226681e-001 7.194933e-001 3.922925e-001 2.843069e-001 3.729659e-001 2.294388e-001 -1.040378e+000 -1.330291e-001 8.242308e-002 2.453111e-001 -9.417685e-002 2.878909e-003 -1.268470e-001 -4.276729e-002 2.276041e-001 -5.223051e-002 -1.482590e-001 4.063386e-002 -1.106554e-002 1.259589e-001
<VARIANCE> 39
 9.674977e+001 4.654952e+001 6.673257e+001 6.914618e+001 5.790046e+001 8.481245e+001 1.091861e+002 7.664408e+001 6.997567e+001 7.777693e+001 1.173242e+002 4.911843e+001 1.327850e+002 1.525694e+000 1.687518e+000 3.079380e+000 3.649217e+000 3.707553e+000 4.494350e+000 4.609815e+000 4.675646e+000 4.871647e+000 5.756031e+000 4.786426e+000 3.603145e+000 1.348698e+000 2.467209e-001 2.886414e-001 4.110073e-001 5.240232e-001 6.631468e-001 8.612366e-001 8.056514e-001 9.196360e-001 8.656011e-001 1.054981e+000 9.759866e-001 7.205703e-001 2.925605e-001
<GCONST> 1.372278e+002
<STATE> 3
<MEAN> 39
 -2.887160e+000 -4.495501e+000 -7.448950e+000 -1.058762e+001 5.310760e-001 -1.219399e+000 -1.999739e+000 1.628620e+000 -5.883044e-002 3.787258e-001 1.848361e+000 -6.154664e+000 5.589991e+001 -1.096359e+000 3.217792e-001 1.941853e+000 6.733668e-002 6.903415e-001 -9.443051e-001 -8.012066e-001 1.585016e+000 4.880719e-002 -4.569089e-001 -1.609958e-001 -3.981426e-001 8.414130e-001 2.875004e-001 3.199826e-001 -1.259272e-001 -1.037534e-001 -3.294643e-001 -4.419156e-001 -3.570616e-001 -5.518442e-001 -3.594551e-001 -1.692020e-001 -2.107439e-001 2.933289e-002 5.403302e-001
<VARIANCE> 39
 6.868841e+001 4.365827e+001 5.110574e+001 1.326914e+002 6.629488e+001 6.279472e+001 1.172877e+002 1.217479e+002 8.368848e+001 1.259571e+002 1.012333e+002 5.123106e+001 1.109137e+002 3.727310e+000 3.022224e+000 3.929233e+000 7.162162e+000 6.332271e+000 6.145238e+000 8.495573e+000 1.079791e+001 6.911711e+000 7.722554e+000 7.788469e+000 5.646078e+000 3.675555e+000 7.703995e-001 6.969818e-001 5.446473e-001 1.138254e+000 1.083288e+000 1.157098e+000 1.217353e+000 2.089486e+000 1.435960e+000 1.390340e+000 1.188727e+000 8.026374e-001 4.260366e-001
<GCONST> 1.517838e+002
<STATE> 4
<MEAN> 39
 -1.089314e+001 1.792737e+000 -2.955771e+000 -9.984936e+000 -7.705961e+000 -1.444156e+001 -7.414980e+000 -7.844693e+000 -8.398793e+000 -1.223586e+001 -5.627762e+000 -1.105954e+000 6.894550e+001 -4.242986e-003 4.246162e-001 3.138734e-001 -2.889679e-001 -1.472918e-001 -8.320239e-001 -2.082475e-001 -9.257055e-002 -1.232836e-001 -4.103761e-001 -1.542016e-001 3.546123e-001 6.700774e-001 2.010142e-001 -7.207151e-002 -1.646431e-001 -1.159362e-001 2.501211e-003 3.990707e-003 9.144063e-003 -6.729941e-002 8.717158e-002 -1.185227e-001 -1.976738e-001 3.070143e-002 8.580861e-002
<VARIANCE> 39
 8.317934e+001 3.393648e+001 2.764745e+001 4.938772e+001 6.277560e+001 9.354896e+001 7.162128e+001 6.449011e+001 7.401537e+001 1.125017e+002 9.000659e+001 8.349001e+001 9.160020e+001 7.151108e+000 4.212808e+000 2.707040e+000 6.113858e+000 5.864849e+000 8.438047e+000 6.728594e+000 5.394086e+000 7.814948e+000 9.663331e+000 9.443247e+000 7.854204e+000 8.781527e+000 1.236314e+000 6.415355e-001 4.693060e-001 1.126106e+000 1.157300e+000 1.311225e+000 1.185238e+000 9.537881e-001 1.538363e+000 1.801284e+000 1.876711e+000 1.361281e+000 1.184327e+000
<GCONST> 1.527323e+002
<TRANSP> 5
 0.000000e+000 1.000000e+000 0.000000e+000 0.000000e+000 0.000000e+000
 0.000000e+000 7.803397e-001 2.196603e-001 0.000000e+000 0.000000e+000
 0.000000e+000 0.000000e+000 4.444896e-001 5.555103e-001 0.000000e+000
 0.000000e+000 0.000000e+000 0.000000e+000 8.086137e-001 1.913863e-001
 0.000000e+000 0.000000e+000 0.000000e+000 0.000000e+000 0.000000e+000
<ENDHMM>
~h "aw"
<BEGINHMM>
<NUMSTATES> 5
<STATE> 2
<MEAN> 39
 5.010630e+000 -4.321516e+000 -1.536029e+001 -1.269771e+001 -6.311423e+000 3.364451e+000 -6.851346e+000 -6.218462e+000 -4.679224e+000 -5.562891e+000 -3.904997e+000 -7.549975e+000 7.304404e+001 4.174684e-001 1.134056e-001 -8.583465e-002 3.682933e-001 -2.204650e-001 -2.364952e-001 -1.977914e-001 -2.178605e-001 -2.985721e-001 4.495502e-001 3.002373e-001 7.617164e-002 -3.230521e-001 -6.156563e-002 2.085690e-002 6.114478e-002 7.186943e-002 -2.412092e-002 -1.989360e-001 9.498721e-003 7.052996e-002 6.730556e-002 -1.424149e-002 -7.323496e-003 5.558067e-002 -2.725318e-002
<VARIANCE> 39
 8.416360e+001 7.435042e+001 4.798335e+001 5.491317e+001 6.307403e+001 1.103404e+002 1.311044e+002 7.000191e+001 6.669321e+001 1.270428e+002 9.023954e+001 5.585051e+001 5.568780e+001 7.703530e-001 1.861844e+000 1.346340e+000 2.066053e+000 1.814011e+000 3.366261e+000 2.507365e+000 3.398233e+000 3.176402e+000 2.752035e+000 2.220912e+000 2.416491e+000 7.730052e-001 1.186519e-001 2.449726e-001 2.110679e-001 2.710927e-001 2.713202e-001 4.097548e-001 4.229167e-001 4.669562e-001 5.196469e-001 4.546057e-001 3.746367e-001 4.094597e-001 1.175074e-001
<GCONST> 1.211070e+002
<STATE> 3
<MEAN> 39
 1.162315e+001 -7.276198e+000 -1.581017e+001 -3.736413e+000 -2.740906e+000 -6.365938e+000 -6.800142e+000 -1.979380e+000 -4.624629e+000 -2.987381e+000 3.142338e-001 -5.027818e+000 6.738325e+001 -1.257253e-001 5.494477e-001 4.378214e-001 1.617697e-001 1.223048e-001 -5.148211e-001 -3.029459e-001 -4.222657e-002 4.044672e-001 -1.188095e-001 -1.671127e-001 3.231777e-001 -7.463081e-001 -8.966696e-002 1.715444e-001 1.405790e-001 -1.888807e-001 -9.419184e-003 1.719051e-001 1.490763e-001 -8.802813e-002 -4.725990e-002 1.575372e-003 -3.403077e-002 -4.843095e-002 -8.589011e-002
<VARIANCE> 39
 1.083618e+002 6.392937e+001 5.746569e+001 5.687694e+001 9.175881e+001 7.204042e+001 7.913564e+001 6.044200e+001 9.351854e+001 5.055380e+001 5.303761e+001 4.382701e+001 5.034445e+001 8.818752e-001 1.922707e+000 1.940618e+000 2.798457e+000 2.220486e+000 3.398348e+000 3.484246e+000 3.866693e+000 4.013844e+000 2.874566e+000 2.645612e+000 2.119661e+000 7.919354e-001 1.476932e-001 2.278114e-001 2.704956e-001 3.725322e-001 3.542015e-001 4.506811e-001 5.116877e-001 6.347148e-001 6.982057e-001 5.005619e-001 4.585633e-001 3.825870e-001 9.177639e-002
<GCONST> 1.229650e+002
<STATE> 4
<MEAN> 39
 4.422147e+000 -2.935691e+000 -9.963743e+000 -6.061883e+000 -3.156447e+000 -5.712383e+000 -6.890980e+000 -1.730337e+000 -1.000239e+000 -1.290378e+000 -5.886976e-001 -5.630765e+000 6.282701e+001 -8.048941e-001 8.371252e-001 9.582397e-001 -2.423252e-001 2.524109e-001 -1.672700e-001 6.864581e-001 7.292646e-002 -1.824782e-001 -7.804603e-002 5.945918e-002 -6.596249e-002 -9.647098e-001 -8.704683e-002 -4.661393e-003 -1.251495e-001 -3.693191e-002 1.031222e-001 1.073239e-001 9.035681e-002 -1.817720e-002 -5.556184e-002 -3.287147e-002 -3.062302e-002 -5.154875e-002 4.688438e-002
<VARIANCE> 39
 1.208652e+002 5.161536e+001 4.422979e+001 5.662713e+001 1.369934e+002 6.176514e+001 1.180757e+002 8.499095e+001 1.027835e+002 7.292579e+001 5.609767e+001 5.486379e+001 8.466332e+001 1.458803e+000 1.973184e+000 2.312680e+000 3.546200e+000 4.853652e+000 3.593743e+000 3.889891e+000 4.392490e+000 4.658702e+000 3.490980e+000 3.183992e+000 2.809298e+000 9.489614e-001 2.564640e-001 2.936346e-001 3.486810e-001 5.824112e-001 8.794091e-001 6.493022e-001 7.459314e-001 8.069692e-001 9.066266e-001 7.191077e-001 6.230445e-001 5.026199e-001 1.468735e-001
<GCONST> 1.329225e+002
<TRANSP> 5
 0.000000e+000 1.000000e+000 0.000000e+000 0.000000e+000 0.000000e+000
 0.000000e+000 9.244199e-001 7.558017e-002 0.000000e+000 0.000000e+000
 0.000000e+000 0.000000e+000 8.239181e-001 1.760819e-001 0.000000e+000
 0.000000e+000 0.000000e+000 0.000000e+000 7.070293e-001 2.929707e-001
 0.000000e+000 0.000000e+000 0.000000e+000 0.000000e+000 0.000000e+000
<ENDHMM>
~h "ax"
<BEGINHMM>
<NUMSTATES> 5
<STATE> 2
<MEAN> 39
 2.379731e+000 3.349127e+000 -5.197923e+000 -9.284829e+000 -5.528837e+000 -7.559838e+000 -9.760775e+000 -6.414827e+000 -6.687665e+000 -7.869653e+000 -5.305339e+000 -6.972712e+000 6.612772e+001 -2.249913e-001 8.769205e-001 4.412839e-001 7.530755e-001 1.982258e-001 6.854284e-001 4.381816e-001 -4.610865e-001 -3.512260e-001 1.934110e-001 -2.411463e-001 -4.673799e-002 -1.253430e+000 -2.206288e-001 -2.708844e-001 -5.088681e-002 9.213912e-003 2.498990e-002 -2.242744e-002 1.078786e-001 1.015838e-001 1.520990e-001 9.055198e-002 5.025776e-002 1.849478e-001 1.247095e-001
<VARIANCE> 39
 1.295605e+002 5.597366e+001 4.976612e+001 5.206937e+001 8.155183e+001 8.998560e+001 8.376462e+001 7.090701e+001 7.701569e+001 1.097929e+002 6.918320e+001 6.063391e+001 7.186670e+001 1.909646e+000 2.516433e+000 2.158962e+000 3.549006e+000 4.624845e+000 3.579732e+000 4.510692e+000 3.830690e+000 4.134889e+000 4.230753e+000 3.201271e+000 3.819582e+000 2.336835e+000 2.763601e-001 3.324744e-001 3.677687e-001 5.116370e-001 6.273652e-001 6.154512e-001 7.221901e-001 6.504580e-001 6.173258e-001 7.102987e-001 5.611207e-001 5.575164e-001 2.880832e-001
<GCONST> 1.341562e+002
<STATE> 3
<MEAN> 39
 4.973341e+000 5.138597e+000 -4.056537e+000 -7.572289e+000 -3.389745e+000 -4.153572e+000 -7.609987e+000 -6.251143e+000 -6.106051e+000 -5.132839e+000 -4.045506e+000 -5.793990e+000 6.233228e+001 -5.876897e-001 2.139447e-001 4.164322e-001 6.911911e-001 8.632398e-002 2.334957e-001 5.263942e-001 -2.207287e-001 -6.589667e-005 -8.094899e-003 -8.218829e-002 3.754963e-001 -8.423543e-001 -1.081164e-001 -2.100277e-001 -4.408336e-002 -8.366159e-002 -5.595911e-003 -1.322475e-001 -5.876734e-002 1.224898e-001 1.253398e-001 8.649131e-003 1.111902e-002 3.298115e-002 1.740450e-001
<VARIANCE> 39
 1.580476e+002 6.764959e+001 4.644928e+001 5.467923e+001 6.071819e+001 8.022411e+001 8.924574e+001 7.137547e+001 7.321422e+001 7.455431e+001 6.286089e+001 5.664784e+001 8.565148e+001 1.362345e+000 1.650999e+000 1.989024e+000 2.744030e+000 2.760360e+000 3.111514e+000 3.773541e+000 3.366632e+000 3.176025e+000 3.290310e+000 2.913804e+000 2.475363e+000 1.486483e+000 1.799638e-001 2.497691e-001 2.951470e-001 3.720490e-001 4.845239e-001 5.218828e-001 5.427577e-001 5.761835e-001 5.823328e-001 5.359467e-001 4.875307e-001 5.139346e-001 1.883910e-001
<GCONST> 1.271303e+002
<STATE> 4
<MEAN> 39
 -3.620220e+000 1.696417e+000 -3.695662e+000 -6.685400e+000 -7.122236e+000 -8.039618e+000 -8.182028e+000 -7.857605e+000 -6.672256e+000 -1.053078e+001 -7.356610e+000 -4.478598e+000 6.679379e+001 -5.325861e-001 2.915345e-002 2.962250e-001 2.751564e-001 1.519773e-001 1.580493e-001 2.674535e-001 3.149878e-002 4.138686e-002 2.559983e-001 2.165395e-001 1.285608e-001 -3.759619e-001 -7.748058e-002 -4.719226e-002 -4.631638e-002 -1.419811e-001 8.650634e-003 -4.353939e-002 -5.157513e-002 5.288554e-002 7.186770e-002 1.899257e-002 3.770620e-002 -3.932113e-003 1.941599e-001
<VARIANCE> 39
 1.017038e+002 8.203702e+001 3.825354e+001 5.046461e+001 6.797419e+001 5.229858e+001 5.001003e+001 5.487042e+001 6.766561e+001 1.198347e+002 7.264527e+001 3.963535e+001 1.016615e+002 1.449723e+000 2.023564e+000 1.505974e+000 1.784031e+000 2.787130e+000 2.199871e+000 2.730399e+000 2.724462e+000 2.888002e+000 3.152406e+000 3.072750e+000 2.304739e+000 1.620257e+000 2.575398e-001 3.097128e-001 2.521608e-001 3.308993e-001 4.328084e-001 4.089194e-001 5.013955e-001 4.761754e-001 5.775381e-001 5.672836e-001 5.243395e-001 4.786439e-001 2.910560e-001
<GCONST> 1.245776e+002
<TRANSP> 5
 0.000000e+000 1.000000e+000 0.000000e+000 0.000000e+000 0.000000e+000
 0.000000e+000 4.166424e-001 5.833576e-001 0.000000e+000 0.000000e+000
 0.000000e+000 0.000000e+000 4.733593e-001 5.266407e-001 0.000000e+000
 0.000000e+000 0.000000e+000 0.000000e+000 8.010826e-001 1.989174e-001
 0.000000e+000 0.000000e+000 0.000000e+000 0.000000e+000 0.000000e+000
<ENDHMM>
~h "ay"
<BEGINHMM>
<NUMSTATES> 5
<STATE> 2
<MEAN> 39
 -6.594207e+000 -1.109206e+001 -8.171146e+000 -8.950657e+000 -5.777721e+000 -4.202240e+000 6.321304e-001 1.030217e+000 -2.677058e+000 -1.086946e+001 -6.503848e+000 -4.308084e+000 8.556560e+001 -3.761215e-002 2.101110e-002 8.958110e-001 -2.930219e-001 -1.127230e+000 -3.641865e-001 -2.450725e-002 8.601477e-002 -4.931072e-001 4.250984e-001 5.922217e-002 -1.711368e-001 -1.861661e-001 1.028379e-001 1.614413e-001 2.394460e-001 -1.885998e-001 -1.802169e-001 -7.060574e-002 -2.286707e-001 -1.330175e-001 5.987538e-002 2.433382e-001 1.961996e-002 3.257156e-002 -1.539258e-001
<VARIANCE> 39
 7.007591e+001 5.393430e+001 5.803632e+001 3.248392e+001 1.085844e+002 5.172329e+001 7.547401e+001 8.801002e+001 7.973782e+001 1.172435e+002 4.756298e+001 1.436495e+002 7.239507e+001 5.467951e-001 1.264558e+000 1.659353e+000 1.730139e+000 2.975412e+000 2.406286e+000 2.945365e+000 2.470555e+000 2.522388e+000 3.515067e+000 2.792056e+000 2.080435e+000 2.915883e-001 7.255907e-002 1.375352e-001 1.736170e-001 2.150273e-001 3.320345e-001 3.169960e-001 4.873424e-001 4.422468e-001 4.809957e-001 5.646333e-001 4.804321e-001 3.601200e-001 2.806514e-002
<GCONST> 1.161814e+002
<STATE> 3
<MEAN> 39
 -4.605727e-001 -1.072620e+001 7.469109e+000 -1.226058e+001 -1.536444e+001 -8.948504e+000 -5.004127e+000 2.947727e+000 -5.574357e+000 -2.169485e+000 -3.806252e+000 -7.928285e+000 7.816931e+001 2.016983e-001 1.003028e+000 1.475807e+000 -8.351325e-002 -7.099834e-001 -2.521399e-001 -1.064716e+000 -9.512458e-001 -3.037246e-001 3.513733e-001 2.543857e-001 3.770775e-001 -9.707381e-001 6.505545e-003 1.541724e-001 -2.749632e-001 2.349610e-001 2.932793e-001 7.023011e-002 1.036115e-001 -1.356758e-002 1.133544e-001 -2.637629e-001 -1.283385e-001 -6.131440e-002 -1.237373e-001
<VARIANCE> 39
 7.819650e+001 1.524197e+002 1.133537e+002 5.222984e+001 1.277736e+002 7.591840e+001 7.838832e+001 1.521600e+002 7.094584e+001 7.898782e+001 5.016231e+001 8.867726e+001 5.130191e+001 6.406593e-001 1.928836e+000 2.110201e+000 1.829074e+000 2.622502e+000 2.412411e+000 3.158367e+000 3.609671e+000 3.473739e+000 2.966317e+000 2.543967e+000 2.040596e+000 3.719464e-001 9.641193e-002 1.797684e-001 2.618169e-001 2.713114e-001 4.773974e-001 4.399907e-001 5.630322e-001 5.899876e-001 5.694950e-001 4.963544e-001 5.032880e-001 3.979363e-001 4.551664e-002
<GCONST> 1.227927e+002
<STATE> 4
<MEAN> 39
 -3.120038e+000 3.266724e+000 5.558904e+000 -6.833135e+000 -1.309834e+001 -7.091922e+000 -7.862521e+000 -4.658267e+000 -4.278606e+000 -6.758141e+000 -5.464245e+000 -5.248254e+000 6.828692e+001 -2.439150e-002 6.700683e-001 -3.263159e-001 9.770650e-001 1.024859e+000 7.123451e-002 4.367173e-001 6.760997e-002 1.939671e-001 -1.827720e-001 -6.926581e-002 -1.931035e-001 -1.238434e+000 -5.862684e-002 -1.094517e-001 -1.377735e-001 2.234526e-002 9.895615e-002 1.021583e-002 1.025287e-001 9.716657e-002 1.633653e-002 7.455515e-002 5.220813e-002 -1.700635e-002 6.469035e-002
<VARIANCE> 39
 1.291174e+002 1.017334e+002 6.782609e+001 9.152983e+001 8.107845e+001 1.023652e+002 8.003226e+001 1.180695e+002 5.461079e+001 8.128674e+001 5.266859e+001 6.045943e+001 8.177030e+001 1.236875e+000 2.014150e+000 1.448979e+000 2.551403e+000 3.456372e+000 2.896841e+000 3.080897e+000 3.061203e+000 3.239229e+000 3.067626e+000 2.318212e+000 2.550776e+000 9.750154e-001 1.659396e-001 2.161801e-001 2.857417e-001 4.167041e-001 5.072873e-001 4.855485e-001 6.101893e-001 6.084908e-001 5.504709e-001 5.069863e-001 4.303347e-001 4.379935e-001 1.073741e-001
<GCONST> 1.267318e+002
<TRANSP> 5
 0.000000e+000 1.000000e+000 0.000000e+000 0.000000e+000 0.000000e+000
 0.000000e+000 8.576251e-001 1.423749e-001 0.000000e+000 0.000000e+000
 0.000000e+000 0.000000e+000 8.319981e-001 1.680019e-001 0.000000e+000
 0.000000e+000 0.000000e+000 0.000000e+000 8.672282e-001 1.327718e-001
 0.000000e+000 0.000000e+000 0.000000e+000 0.000000e+000 0.000000e+000
<ENDHMM>
~h "ch"
<BEGINHMM>
<NUMSTATES> 5
<STATE> 2
<MEAN> 39
 -1.344601e+001 4.427814e+000 7.124638e+000 -9.099726e+000 4.113995e+000 -7.029965e+000 -9.375312e-001 1.556509e+000 7.991102e-001 -3.362780e+000 -4.248905e-001 -6.889511e+000 5.939531e+001 -2.127446e+000 1.786409e-001 8.847783e-001 -1.633975e+000 2.716334e-001 -5.974024e-001 4.106529e-001 -1.601811e-001 1.952358e-001 -7.818173e-001 5.564301e-002 -4.620222e-001 2.208887e+000 7.295566e-002 -2.944169e-001 7.985201e-002 8.497974e-002 -4.131529e-001 1.159674e-002 7.700288e-002 -1.714561e-001 -9.325936e-002 -1.551507e-001 7.264349e-002 -5.570233e-002 1.619619e-001
<VARIANCE> 39
 1.991070e+002 7.195091e+001 1.178023e+002 1.349889e+002 1.172070e+002 1.535134e+002 9.598933e+001 1.407219e+002 1.207937e+002 1.025395e+002 9.983232e+001 9.255335e+001 2.448513e+002 1.793604e+001 8.018220e+000 4.600796e+000 1.183350e+001 1.267225e+001 9.535197e+000 6.381003e+000 1.123899e+001 7.713275e+000 7.263236e+000 7.484713e+000 6.415290e+000 6.270952e+000 2.279853e+000 1.040065e+000 8.394619e-001 2.034820e+000 1.670658e+000 1.760640e+000 1.217183e+000 2.125807e+000 1.465070e+000 1.283149e+000 1.403943e+000 1.050348e+000 8.677430e-001
<GCONST> 1.663585e+002
<STATE> 3
<MEAN> 39
 -2.076705e+001 2.800187e-001 1.123782e+001 -1.170132e+001 -6.914771e-001 -1.001793e+001 1.249295e+000 -1.524725e+000 4.986342e-001 -6.265746e+000 1.038009e+000 -8.107435e+000 7.070963e+001 8.191100e-001 -1.101518e+000 -1.542688e-001 1.804977e-001 -1.171079e+000 2.257877e-001 -5.723242e-002 2.153550e-001 1.155435e-001 -2.071788e-002 -1.488267e-001 -3.293086e-001 8.140685e-001 3.399855e-001 -3.915737e-002 -2.651953e-001 1.598127e-001 1.000283e-001 1.648461e-001 -3.987632e-002 1.840067e-001 8.385826e-002 1.349917e-001 -2.125143e-002 -3.115551e-002 -2.355112e-001
<VARIANCE> 39
 1.507658e+002 1.426353e+002 1.061390e+002 4.796642e+001 1.894497e+002 1.242055e+002 9.893999e+001 1.030520e+002 7.708041e+001 1.078999e+002 8.970005e+001 5.329330e+001 9.051825e+001 1.117593e+001 5.469965e+000 4.125808e+000 4.126781e+000 7.786515e+000 5.881715e+000 6.499988e+000 5.632796e+000 3.961901e+000 4.204088e+000 4.557787e+000 3.337147e+000 2.035768e+000 1.566878e+000 8.751015e-001 4.876346e-001 7.188392e-001 1.464908e+000 1.234916e+000 1.042428e+000 9.862823e-001 7.338357e-001 8.178592e-001 7.839790e-001 6.462306e-001 3.108211e-001
<GCONST> 1.496351e+002
<STATE> 4
<MEAN> 39
 -2.426854e+001 1.335278e+000 7.654248e+000 -1.146936e+001 -2.058554e+000 -3.035101e-002 7.375856e-002 -2.944651e+000 -1.128771e+000 -9.161852e+000 -1.216845e+000 -4.150121e+000 7.453046e+001 4.776874e-001 -6.317869e-001 -2.954510e-001 2.830115e-001 -8.451611e-002 3.200619e-001 2.234592e-001 9.108374e-002 1.446741e-001 -3.573286e-002 1.280363e-001 2.333808e-001 -6.086634e-001 1.025018e-001 8.795177e-002 -1.199575e-002 6.862305e-002 7.469634e-002 -9.562997e-002 -2.557046e-002 -3.836579e-002 -8.422451e-002 6.348628e-003 -3.144360e-002 -4.009942e-003 -1.796269e-001
<VARIANCE> 39
 1.187655e+002 1.048308e+002 9.490913e+001 2.984402e+001 9.551271e+001 8.378976e+001 1.324484e+002 4.582935e+001 1.197456e+002 1.019713e+002 3.959079e+001 4.927400e+001 1.382580e+002 1.769403e+000 1.094203e+000 1.156256e+000 1.246104e+000 2.001749e+000 1.936772e+000 1.913583e+000 2.299668e+000 2.464896e+000 2.039226e+000 1.726114e+000 1.792071e+000 1.263165e+000 3.082266e-001 2.281435e-001 1.922244e-001 2.202561e-001 3.338857e-001 3.019830e-001 3.300743e-001 3.955962e-001 3.998174e-001 4.052415e-001 2.934940e-001 3.898967e-001 1.016547e-001
<GCONST> 1.190889e+002
<TRANSP> 5
 0.000000e+000 1.000000e+000 0.000000e+000 0.000000e+000 0.000000e+000
 0.000000e+000 8.285103e-001 1.714897e-001 0.000000e+000 0.000000e+000
 0.000000e+000 0.000000e+000 7.969071e-001 2.030929e-001 0.000000e+000
 0.000000e+000 0.000000e+000 0.000000e+000 8.437516e-001 1.562484e-001
 0.000000e+000 0.000000e+000 0.000000e+000 0.000000e+000 0.000000e+000
<ENDHMM>
~h "eh"
<BEGINHMM>
<NUMSTATES> 5
<STATE> 2
<MEAN> 39
 -8.623119e+000 -6.163752e+000 -5.966324e+000 -1.479983e+001 -9.672178e+000 -1.377311e+001 1.192022e+000 -3.657883e+000 -4.724249e-001 -1.783945e+001 -4.523398e+000 -3.337562e+000 8.385239e+001 1.494658e-001 -4.009929e-001 -3.987346e-002 8.334754e-002 3.858665e-001 3.923096e-002 3.536316e-002 3.217262e-001 1.135169e-001 -1.064696e-001 -8.702441e-002 -1.936063e-002 4.868726e-002 4.358622e-004 1.471109e-001 1.020263e-001 1.074800e-001 1.118681e-002 -5.904830e-002 -1.358776e-001 -9.844587e-002 -7.759430e-002 1.068749e-001 -3.184082e-003 1.433338e-002 -2.485526e-001
<VARIANCE> 39
 4.308800e+001 5.426139e+001 5.307829e+001 4.434248e+001 1.035183e+002 7.262737e+001 7.814512e+001 9.814145e+001 5.767001e+001 1.737906e+002 6.813812e+001 6.262328e+001 3.415060e+001 4.738642e-001 1.079539e+000 1.192118e+000 9.954866e-001 2.715937e+000 2.156650e+000 3.456397e+000 2.261363e+000 2.061419e+000 1.940391e+000 1.778548e+000 1.458751e+000 5.319857e-001 1.591747e-001 2.023990e-001 1.760345e-001 2.453902e-001 4.920093e-001 4.183449e-001 6.265251e-001 3.615161e-001 3.643338e-001 3.210033e-001 3.278569e-001 2.797943e-001 1.474687e-001
<GCONST> 1.151114e+002
<STATE> 3
<MEAN> 39
 1.527705e+000 -1.054299e+001 -4.218174e+000 -8.205665e+000 -7.434119e+000 -5.500381e+000 -2.964136e+000 5.759327e+000 1.393070e+000 -5.474145e+000 -5.492308e+000 -1.157832e+001 7.609172e+001 5.099575e-001 -6.235422e-002 2.875756e-001 2.908512e-001 5.325785e-001 1.976216e-001 -4.415062e-001 -1.215482e-001 -3.634030e-001 1.340513e-001 -2.457920e-002 -9.745337e-002 -6.548071e-001 3.549078e-002 1.674980e-001 2.794086e-003 1.119677e-001 3.593357e-002 2.860636e-002 1.343402e-002 -6.498280e-002 -8.816217e-002 3.508996e-002 1.310690e-002 2.550104e-002 -2.656414e-001
<VARIANCE> 39
 5.095471e+001 1.027343e+002 9.223151e+001 3.659222e+001 1.315192e+002 7.807944e+001 1.131903e+002 9.287540e+001 6.781404e+001 1.098178e+002 5.592700e+001 9.146361e+001 7.239357e+001 9.138136e-001 9.333183e-001 1.200001e+000 1.222250e+000 2.910551e+000 1.980681e+000 2.515705e+000 2.103791e+000 2.483083e+000 2.177931e+000 1.709969e+000 1.634506e+000 1.083529e+000 1.286315e-001 1.995420e-001 2.234922e-001 2.406071e-001 4.484683e-001 4.127959e-001 4.079140e-001 4.090423e-001 4.755866e-001 4.110283e-001 3.524475e-001 3.348112e-001 1.528835e-001
<GCONST> 1.193269e+002
<STATE> 4
<MEAN> 39
 4.879456e+000 -1.048827e+001 -2.125934e+000 -5.859901e+000 -3.224015e+000 -7.175585e+000 -3.178625e+000 4.047805e+000 -2.663117e+000 -5.111599e+000 -4.684231e+000 -1.253508e+001 6.945860e+001 2.942969e-001 9.097341e-001 -2.759086e-001 7.311053e-001 2.707755e-001 1.419752e-001 -2.592663e-001 -3.790354e-001 -2.867992e-001 2.785941e-001 -5.906773e-002 3.231397e-002 -2.017405e+000 -2.030840e-001 1.648388e-001 -1.126732e-001 -6.688876e-002 -1.442037e-001 5.743757e-002 1.541742e-001 2.000195e-002 1.581182e-001 4.935339e-002 -2.263401e-002 7.967392e-002 -3.013402e-002
<VARIANCE> 39
 9.164307e+001 8.495982e+001 8.431920e+001 4.607380e+001 9.557153e+001 9.674998e+001 5.911998e+001 8.784770e+001 6.333176e+001 1.130124e+002 6.143497e+001 8.870264e+001 5.794996e+001 1.531111e+000 1.993202e+000 1.979081e+000 2.115566e+000 3.268142e+000 3.701255e+000 2.558790e+000 3.329514e+000 3.437498e+000 3.313161e+000 3.183586e+000 2.864325e+000 1.669547e+000 1.609347e-001 3.034984e-001 3.091320e-001 3.420350e-001 5.113332e-001 6.847329e-001 4.345055e-001 5.729600e-001 5.417189e-001 5.347592e-001 5.376174e-001 4.918996e-001 2.008844e-001
<GCONST> 1.285866e+002
<TRANSP> 5
 0.000000e+000 1.000000e+000 0.000000e+000 0.000000e+000 0.000000e+000
 0.000000e+000 8.368795e-001 1.631205e-001 0.000000e+000 0.000000e+000
 0.000000e+000 0.000000e+000 7.599409e-001 2.400591e-001 0.000000e+000
 0.000000e+000 0.000000e+000 0.000000e+000 7.543528e-001 2.456472e-001
 0.000000e+000 0.000000e+000 0.000000e+000 0.000000e+000 0.000000e+000
<ENDHMM>
~h "er"
<BEGINHMM>
<NUMSTATES> 5
<STATE> 2
<MEAN> 39
 5.433948e+000 -1.343144e+001 -1.546290e+000 -5.008487e+000 -9.348440e+000 -1.096945e+001 -8.863904e+000 5.815514e+000 1.188369e+000 -3.412407e+000 -2.966682e+000 -9.975488e+000 7.380042e+001 7.194379e-001 -1.940815e-001 -1.203380e+000 8.867932e-001 2.399022e-002 -9.360117e-002 -3.125134e-001 2.456801e-001 -6.451757e-002 -3.626483e-001 -1.473037e-001 5.065184e-001 -1.799472e-001 -1.564576e-001 3.161230e-001 2.219664e-001 1.175058e-001 1.443182e-001 -1.994373e-002 3.186978e-002 -2.184258e-001 -5.664861e-003 -9.526815e-002 5.686527e-003 1.807314e-001 -3.329605e-001
<VARIANCE> 39
 9.120734e+001 8.249148e+001 1.306535e+002 7.105759e+001 1.053211e+002 7.672601e+001 7.058660e+001 1.084707e+002 9.917310e+001 6.811087e+001 7.449406e+001 7.514474e+001 8.076815e+001 1.411609e+000 2.645963e+000 3.120980e+000 2.230184e+000 2.566360e+000 3.840756e+000 2.857162e+000 4.412560e+000 3.406930e+000 3.037245e+000 2.856436e+000 3.850277e+000 2.199716e+000 2.213396e-001 3.805701e-001 3.472281e-001 3.837553e-001 4.825654e-001 5.220300e-001 4.839059e-001 7.440187e-001 5.993717e-001 4.837541e-001 6.354747e-001 7.895499e-001 1.741852e-001
<GCONST> 1.325574e+002
<STATE> 3
<MEAN> 39
 8.250137e+000 -7.128473e+000 -4.293608e+000 7.839028e-001 -6.578963e+000 -1.438278e+001 -1.278857e+001 3.843470e+000 6.530743e-001 -8.414770e+000 -5.573082e+000 -6.871852e+000 6.530118e+001 -2.793237e-001 9.180912e-001 1.921835e-001 3.361552e-001 2.368402e-001 -1.354916e-001 -1.272613e-001 -5.442140e-001 2.651882e-002 1.192108e-001 -1.009832e-001 1.508198e-001 -1.225448e+000 -1.540010e-001 4.021491e-002 1.678280e-001 -9.474403e-002 5.496195e-002 4.416429e-002 1.586682e-001 3.794155e-002 -6.557386e-003 8.019610e-002 7.815617e-002 -8.289206e-002 -2.892313e-002
<VARIANCE> 39
 1.006098e+002 6.340670e+001 8.477889e+001 7.670557e+001 6.630994e+001 1.750853e+002 8.795655e+001 6.394959e+001 8.520747e+001 8.895285e+001 5.688527e+001 4.466546e+001 1.475749e+002 9.770786e-001 1.487547e+000 1.547187e+000 2.200019e+000 2.645061e+000 2.926905e+000 2.867806e+000 3.492434e+000 3.155662e+000 2.730021e+000 2.716404e+000 1.826300e+000 6.882123e-001 1.195503e-001 1.957998e-001 2.178755e-001 3.733645e-001 3.868174e-001 5.072789e-001 4.918852e-001 6.462922e-001 5.529662e-001 4.383456e-001 5.469325e-001 2.971646e-001 5.803841e-002
<GCONST> 1.231925e+002
<STATE> 4
<MEAN> 39
 -6.607834e+000 6.375415e-001 -1.686816e-001 -7.337407e-001 -2.165450e+000 -9.573711e+000 -5.618857e+000 1.004984e+000 2.149187e+000 -4.206429e+000 -2.529445e+000 -2.859848e+000 5.845528e+001 -9.593266e-001 4.701884e-001 7.057009e-001 4.432184e-002 5.192415e-001 3.651216e-001 7.650191e-001 7.035066e-002 -4.984361e-002 2.029978e-001 4.002383e-001 1.375630e-001 -6.231586e-001 2.734102e-002 -1.102510e-001 1.709121e-002 -1.334898e-001 -7.482329e-002 9.842476e-003 -2.927530e-002 8.188005e-003 -8.260123e-003 -2.410067e-002 -3.316108e-002 -1.163801e-001 8.922514e-002
<VARIANCE> 39
 1.656910e+002 5.657894e+001 4.245288e+001 8.076660e+001 8.167048e+001 8.829083e+001 8.294830e+001 5.056898e+001 8.972953e+001 7.081597e+001 5.891557e+001 5.809609e+001 2.868398e+002 1.994450e+000 1.629158e+000 1.468180e+000 2.633262e+000 3.181776e+000 2.756341e+000 2.769014e+000 3.536359e+000 3.487357e+000 3.593659e+000 3.747562e+000 2.697144e+000 5.606416e-001 2.678215e-001 2.451379e-001 2.974763e-001 5.481825e-001 4.593208e-001 5.333467e-001 5.099058e-001 7.357613e-001 7.084446e-001 7.144220e-001 7.957901e-001 4.360497e-001 9.749126e-002
<GCONST> 1.289971e+002
<TRANSP> 5
 0.000000e+000 1.000000e+000 0.000000e+000 0.000000e+000 0.000000e+000
 0.000000e+000 8.185219e-001 1.814781e-001 0.000000e+000 0.000000e+000
 0.000000e+000 0.000000e+000 8.445412e-001 1.554588e-001 0.000000e+000
 0.000000e+000 0.000000e+000 0.000000e+000 7.853849e-001 2.146151e-001
 0.000000e+000 0.000000e+000 0.000000e+000 0.000000e+000 0.000000e+000
<ENDHMM>
~h "ey"
<BEGINHMM>
<NUMSTATES> 5
<STATE> 2
<MEAN> 39
