~o
<STREAMINFO> 1 39
<VECSIZE> 39<NULLD><MFCC_D_A_0><DIAGC>
~s "silst"
<MEAN> 39
 -9.220811e+000 -2.936695e+000 -7.176112e-001 3.103349e+000 6.961651e+000 1.394147e+000 1.003479e+001 8.133617e+000 7.008459e+000 3.444234e+000 2.877023e+000 -2.442853e+000 4.148748e+001 -1.329726e-001 -1.170157e-001 1.102069e-002 4.516165e-002 1.589751e-001 2.285791e-001 1.828454e-001 1.793296e-001 1.039420e-001 9.355364e-002 -6.327371e-002 5.652844e-002 -9.546914e-002 1.835842e-001 6.140727e-002 7.129748e-004 -1.507378e-001 -2.023689e-001 -1.916029e-001 -2.626615e-001 -2.310296e-001 -2.434356e-001 -1.701466e-001 -1.426932e-001 -1.387268e-001 1.728075e-001
<VARIANCE> 39
 4.011662e+001 8.247420e+001 6.449046e+001 5.999325e+001 6.235680e+001 6.833743e+001 1.170923e+002 1.344994e+002 8.130829e+001 6.577201e+001 5.402775e+001 6.532512e+001 1.110978e+002 1.613311e+000 1.719064e+000 2.433172e+000 3.384048e+000 4.035173e+000 4.496953e+000 5.728150e+000 5.981718e+000 5.348762e+000 5.169272e+000 4.699489e+000 4.053675e+000 8.053489e-001 2.936715e-001 3.147928e-001 4.430322e-001 6.154916e-001 7.018099e-001 8.235536e-001 1.039883e+000 1.070692e+000 9.873590e-001 1.024984e+000 9.168489e-001 7.933221e-001 1.732509e-001
<GCONST> 1.369581e+002
~h "b"
<BEGINHMM>
<NUMSTATES> 5
<STATE> 2
<MEAN> 39
 5.315533e+000 7.808530e+000 3.748833e+000 3.521716e-001 -1.670827e+000 -4.293652e+000 -5.708617e+000 -7.923990e+000 -7.079362e+000 -7.911668e+000 -7.522281e+000 -7.949384e+000 5.656851e+001 1.393591e+000 -1.394624e+000 -1.537610e+000 -2.018411e+000 -1.059887e+000 2.371468e-001 -5.977398e-001 -8.491879e-002 7.943735e-001 6.584836e-001 -1.130027e-001 -9.605708e-002 3.548802e+000 -4.092933e-001 -7.593476e-001 -4.237930e-001 -4.899334e-001 -1.936469e-002 2.277877e-001 2.911575e-001 4.018192e-001 4.560294e-001 2.140536e-001 2.221417e-001 2.091855e-001 5.793304e-001
<VARIANCE> 39
 9.838683e+001 8.758234e+001 8.342855e+001 9.328716e+001 6.596708e+001 7.270219e+001 7.087943e+001 7.567218e+001 6.608840e+001 8.378394e+001 7.934621e+001 4.823057e+001 1.295754e+002 5.514969e+000 1.181478e+001 7.979625e+000 9.687332e+000 6.528500e+000 8.044350e+000 7.784716e+000 7.876884e+000 1.003716e+001 1.181765e+001 8.017210e+000 9.505854e+000 8.548033e+000 7.440916e-001 1.106332e+000 1.074474e+000 1.324352e+000 1.013183e+000 1.142052e+000 1.206590e+000 1.195987e+000 1.290467e+000 1.833498e+000 1.088812e+000 1.265095e+000 1.223474e+000
<GCONST> 1.584055e+002
<STATE> 3
<MEAN> 39
 2.667897e+000 -7.683443e+000 -8.105500e+000 -1.289149e+001 -5.910664e+000 -2.097853e+000 -4.940352e+000 -2.070834e+000 2.524558e+000 -3.372828e+000 -6.641048e+000 -7.833821e+000 7.825401e+001 -1.350170e+000 -2.033914e+000 -9.392177e-001 -7.741053e-001 1.265252e-001 3.078462e-001 9.132911e-001 1.634819e+000 5.911335e-001 -1.158400e+000 -3.004054e-001 -8.702105e-003 3.037276e+000 -2.761188e-001 6.623930e-001 7.205626e-001 1.057427e+000 4.541209e-001 4.532510e-002 3.679371e-001 -2.452034e-002 -7.652375e-001 -4.256940e-001 8.751079e-002 -4.168766e-002 -1.132787e+000
<VARIANCE> 39
 8.130101e+001 5.448501e+001 8.048423e+001 6.626044e+001 6.600397e+001 1.547698e+002 1.102488e+002 8.496149e+001 6.947809e+001 1.604014e+002 1.322618e+002 1.700062e+002 8.269341e+001 4.867969e+000 4.559060e+000 4.095720e+000 5.181342e+000 5.255270e+000 4.715251e+000 6.566375e+000 4.809498e+000 5.501576e+000 6.582602e+000 5.606872e+000 6.727016e+000 5.858540e+000 6.638196e-001 6.611773e-001 6.432394e-001 8.635221e-001 7.410939e-001 1.204596e+000 1.163884e+000 9.013607e-001 1.039283e+000 1.518601e+000 1.374747e+000 1.283299e+000 4.973460e-001
<GCONST> 1.514394e+002
<STATE> 4
<MEAN> 39
 -4.818706e+000 -5.501565e+000 -8.160240e+000 -1.284251e+001 -6.360113e+000 -2.307767e+000 -4.245449e+000 -3.462571e+000 -5.054049e-001 -1.049047e+001 -7.546554e+000 -2.917456e+000 8.256992e+001 -4.624207e-001 -1.586738e-001 1.712029e-001 3.866381e-001 -1.589883e-003 7.989795e-002 3.978160e-001 1.571601e-001 -6.037937e-001 -3.830456e-001 3.379517e-001 5.954675e-002 1.736237e-001 1.652831e-001 1.684940e-001 2.112736e-001 6.361439e-002 -1.043162e-001 -1.812128e-001 -1.266828e-001 -1.384258e-001 -9.349911e-003 3.156779e-001 1.123762e-001 -5.295279e-002 -3.729474e-001
<VARIANCE> 39
 6.011365e+001 7.797022e+001 9.964464e+001 7.872134e+001 1.177765e+002 8.602683e+001 1.289826e+002 9.126173e+001 6.327756e+001 1.243382e+002 7.771809e+001 1.152480e+002 6.846128e+001 5.978246e-001 9.087046e-001 1.059629e+000 1.542863e+000 2.358289e+000 2.394012e+000 2.681195e+000 2.246626e+000 2.591226e+000 2.669316e+000 2.944277e+000 1.971897e+000 5.116857e-001 1.966003e-001 1.738619e-001 2.503616e-001 2.791443e-001 3.280588e-001 3.699495e-001 5.799869e-001 4.959795e-001 4.248472e-001 5.672615e-001 4.351258e-001 4.098751e-001 1.469394e-001
<GCONST> 1.219653e+002
<TRANSP> 5
 0.000000e+000 1.000000e+000 0.000000e+000 0.000000e+000 0.000000e+000
 0.000000e+000 7.707857e-001 2.292143e-001 0.000000e+000 0.000000e+000
 0.000000e+000 0.000000e+000 6.432598e-001 3.567402e-001 0.000000e+000
 0.000000e+000 0.000000e+000 0.000000e+000 6.967438e-001 3.032562e-001
 0.000000e+000 0.000000e+000 0.000000e+000 0.000000e+000 0.000000e+000
<ENDHMM>
~h "d"
<BEGINHMM>
<NUMSTATES> 5
<STATE> 2
<MEAN> 39
 1.587536e+000 5.890252e+000 6.123171e+000 2.406739e+000 -1.300376e+000 -5.624728e+000 -3.272504e+000 -5.189288e+000 -5.487859e+000 -7.706628e+000 -6.580502e+000 -8.515502e+000 5.296753e+001 1.463892e-001 -8.668506e-001 -3.160776e-001 -4.884306e-001 1.612376e-001 -7.147031e-001 -7.900013e-001 6.473550e-001 1.040734e+000 3.380078e-001 1.845005e-003 -2.638765e-001 1.775577e+000 -1.278658e-001 -7.359087e-001 -1.382128e-001 -5.731002e-001 -4.442771e-001 -2.888746e-001 -2.305552e-001 2.814718e-001 2.038752e-001 1.881828e-001 2.428384e-001 2.155284e-002 9.137631e-001
<VARIANCE> 39
 1.112917e+002 7.996516e+001 8.571031e+001 7.024349e+001 1.050122e+002 7.952747e+001 5.461063e+001 7.460583e+001 8.127795e+001 7.705985e+001 7.175441e+001 5.091690e+001 1.482985e+002 5.500860e+000 8.749931e+000 7.658709e+000 7.968906e+000 9.669050e+000 7.563805e+000 7.404766e+000 8.472835e+000 8.148424e+000 6.450098e+000 7.443399e+000 6.245893e+000 6.369788e+000 7.274197e-001 1.267841e+000 1.000067e+000 1.201725e+000 1.514930e+000 1.265279e+000 1.319178e+000 1.487402e+000 1.452987e+000 1.176639e+000 1.239839e+000 1.047161e+000 7.426066e-001
<GCONST> 1.567584e+002
<STATE> 3
<MEAN> 39
 1.502278e+000 -5.436062e+000 5.557066e+000 -5.323941e+000 -5.089542e+000 -9.948936e+000 -9.764883e+000 1.297866e+000 9.013414e-001 -2.700359e+000 -4.000298e+000 -9.885065e+000 7.007073e+001 -4.050316e-001 -2.454947e+000 -8.686486e-001 -2.313068e+000 -1.913450e+000 -1.734734e-001 -6.734734e-001 1.002512e+000 7.366021e-001 3.854414e-001 9.121041e-001 9.596721e-002 3.760539e+000 5.599605e-002 6.167989e-001 -3.770122e-001 3.859834e-001 1.904899e-001 7.716762e-001 8.850159e-001 -3.149721e-001 -4.601834e-001 -3.975772e-001 -6.094640e-002 9.269629e-002 -6.239790e-001
<VARIANCE> 39
 1.180725e+002 7.211361e+001 9.360365e+001 1.134800e+002 1.395024e+002 7.487415e+001 9.545135e+001 1.790567e+002 1.080532e+002 6.398473e+001 8.983921e+001 9.649123e+001 1.114430e+002 4.938890e+000 9.995379e+000 5.965668e+000 7.473675e+000 8.232897e+000 9.544340e+000 1.115582e+001 9.966483e+000 7.363146e+000 6.979474e+000 7.068894e+000 6.161676e+000 7.071370e+000 5.261006e-001 1.055620e+000 1.336458e+000 1.224485e+000 1.961629e+000 1.527627e+000 1.411182e+000 1.840916e+000 1.283710e+000 1.042291e+000 1.270812e+000 1.105722e+000 8.118986e-001
<GCONST> 1.604410e+002
<STATE> 4
<MEAN> 39
 -9.455951e-001 -3.592965e+000 -4.628671e-001 -8.504842e+000 -7.591438e+000 -7.181416e+000 -6.890430e+000 -3.642436e+000 -3.689753e+000 -6.700059e+000 -1.517588e+000 -5.248438e+000 7.338274e+001 -1.931533e-001 -6.204415e-001 -1.056128e+000 -3.797355e-001 -1.061596e-001 5.527890e-001 1.127097e+000 4.781656e-001 -4.832821e-003 -5.761670e-001 3.464059e-002 1.278312e-001 7.913251e-001 2.095833e-001 1.410711e-001 1.195010e-001 2.765307e-001 3.923502e-001 1.057939e-001 1.423217e-002 -9.149062e-002 -1.901655e-001 -1.273820e-001 -3.470340e-001 -1.786389e-001 -4.780563e-001
<VARIANCE> 39
 1.524917e+002 9.596352e+001 7.386169e+001 9.709559e+001 1.008415e+002 1.033708e+002 1.235688e+002 1.949327e+002 1.753940e+002 1.112889e+002 1.022211e+002 1.184474e+002 1.641846e+002 2.173376e+000 3.159010e+000 4.557255e+000 4.393407e+000 6.073324e+000 5.370422e+000 6.948153e+000 5.446687e+000 4.623633e+000 5.914049e+000 5.299893e+000 3.774354e+000 3.001461e+000 5.020465e-001 6.054865e-001 7.424048e-001 8.650094e-001 9.546481e-001 9.679633e-001 1.176818e+000 1.022152e+000 1.041390e+000 9.290605e-001 9.377537e-001 7.712778e-001 5.874685e-001
<GCONST> 1.508976e+002
<TRANSP> 5
 0.000000e+000 1.000000e+000 0.000000e+000 0.000000e+000 0.000000e+000
 0.000000e+000 7.113335e-001 2.886665e-001 0.000000e+000 0.000000e+000
 0.000000e+000 0.000000e+000 5.058739e-001 4.941262e-001 0.000000e+000
 0.000000e+000 0.000000e+000 0.000000e+000 5.333917e-001 4.666083e-001
 0.000000e+000 0.000000e+000 0.000000e+000 0.000000e+000 0.000000e+000
<ENDHMM>
~h "f"
<BEGINHMM>
<NUMSTATES> 5
<STATE> 2
<MEAN> 39
 3.877036e+000 -9.196451e+000 1.246701e+001 -5.454451e+000 -1.894196e+001 -1.277926e+001 -2.279972e+000 -5.199032e-001 -4.842702e+000 4.799659e+000 2.947294e+000 -8.617569e+000 6.355983e+001 -8.339109e-002 3.682460e-001 -2.479298e-001 1.564012e-002 3.717547e-002 3.344030e-001 6.350771e-001 1.197845e-001 6.138034e-001 7.131743e-001 6.510078e-001 2.229870e-001 -4.448936e-001 -1.316095e-001 4.187639e-002 -9.274675e-002 2.923313e-001 4.306183e-001 9.784975e-002 7.079661e-002 -1.090871e-002 1.332324e-001 -5.375946e-002 -2.214394e-001 8.135591e-002 -1.605489e-001
<VARIANCE> 39
 1.405587e+001 2.499775e+001 1.709629e+001 2.329649e+001 3.694301e+001 3.401295e+001 2.778399e+001 2.913822e+001 2.721635e+001 4.450628e+001 3.144633e+001 2.578139e+001 1.814438e+001 3.326730e-001 9.255450e-001 1.081618e+000 3.029255e+000 3.666468e+000 1.759936e+000 1.595012e+000 2.095036e+000 2.196733e+000 1.867122e+000 2.987435e+000 1.838095e+000 7.202330e-001 8.741137e-002 1.934350e-001 1.652368e-001 2.528752e-001 3.529212e-001 3.494161e-001 3.602496e-001 4.293659e-001 4.309173e-001 3.427902e-001 3.920737e-001 2.922036e-001 3.865384e-002
<GCONST> 1.013739e+002
<STATE> 3
<MEAN> 39
 -4.097398e+000 -7.804414e+000 4.400583e+000 1.258519e+000 -5.446052e+000 -8.256236e+000 6.552647e+000 5.149480e+000 5.871046e+000 7.480612e+000 3.045215e+000 -5.064911e+000 5.484917e+001 -1.800380e+000 -9.637286e-001 -1.435572e+000 4.667420e-001 2.302335e+000 1.316472e+000 1.618307e+000 1.800641e+000 1.532632e+000 1.180302e-001 -5.130730e-002 3.024825e-001 -1.040029e+000 1.157734e-001 -3.334446e-002 1.112808e-001 -1.347594e-001 -1.313003e-001 2.686835e-002 -8.388589e-002 -1.543512e-002 -2.518153e-001 -7.334679e-002 7.458131e-004 -1.184623e-001 1.177951e-001
<VARIANCE> 39
 2.827980e+001 2.928312e+001 2.834880e+001 2.368269e+001 3.843240e+001 4.819185e+001 7.075068e+001 6.549313e+001 4.490840e+001 6.227369e+001 2.461491e+001 2.719761e+001 2.292138e+001 9.029927e-001 1.040021e+000 9.381137e-001 1.945592e+000 2.759876e+000 2.792505e+000 3.927657e+000 3.257983e+000 3.884804e+000 2.976656e+000 1.980186e+000 1.662271e+000 2.272133e-001 2.498505e-001 3.130276e-001 2.297829e-001 4.189041e-001 3.996462e-001 5.138764e-001 6.886270e-001 6.087344e-001 6.644011e-001 5.716289e-001 4.152882e-001 3.560306e-001 3.282804e-002
<GCONST> 1.120956e+002
<STATE> 4
<MEAN> 39
 -8.836916e+000 -1.042321e+001 -3.374426e+000 5.828124e+000 8.140494e+000 1.569326e+000 1.603728e+001 1.681810e+001 1.171106e+001 6.982542e+000 3.574140e+000 -5.316561e+000 4.921106e+001 -1.322327e-001 5.913313e-002 -4.360671e-001 3.207480e-001 8.566634e-001 5.249564e-001 4.640026e-001 5.022054e-001 1.164254e-001 -5.769406e-002 2.232925e-002 -1.369043e-001 -3.235770e-001 3.747135e-002 2.311727e-002 4.832916e-002 -6.405168e-002 -1.210792e-001 -1.095253e-001 -5.695021e-002 -8.391636e-002 -9.081323e-002 8.051267e-003 -1.963569e-002 -9.618371e-003 4.446959e-002
<VARIANCE> 39
 7.165842e+000 1.620617e+001 2.520873e+001 2.167931e+001 4.719988e+001 4.285140e+001 5.598475e+001 6.905008e+001 3.488190e+001 3.454442e+001 2.381974e+001 2.751350e+001 1.546414e+001 4.266443e-001 5.221425e-001 1.101721e+000 1.503000e+000 2.127750e+000 2.196592e+000 2.054200e+000 2.243168e+000 2.189683e+000 2.037505e+000 1.986991e+000 2.004452e+000 3.019117e-001 8.206596e-002 8.903167e-002 1.902371e-001 2.518186e-001 3.120177e-001 3.484994e-001 3.479929e-001 3.950057e-001 4.032131e-001 3.751934e-001 3.975953e-001 3.753753e-001 4.167807e-002
<GCONST> 9.954846e+001
<TRANSP> 5
 0.000000e+000 1.000000e+000 0.000000e+000 0.000000e+000 0.000000e+000
 0.000000e+000 8.705723e-001 1.294277e-001 0.000000e+000 0.000000e+000
 0.000000e+000 0.000000e+000 7.463949e-001 2.536052e-001 0.000000e+000
 0.000000e+000 0.000000e+000 0.000000e+000 8.708902e-001 1.291098e-001
 0.000000e+000 0.000000e+000 0.000000e+000 0.000000e+000 0.000000e+000
<ENDHMM>
~h "g"
<BEGINHMM>
<NUMSTATES> 5
<STATE> 2
<MEAN> 39
 -3.132620e-001 8.854595e-002 4.012858e+000 7.754724e+000 3.451397e+000 -5.352428e+000 2.339631e+000 -6.932442e-002 -4.007318e+000 -8.216114e+000 -9.390706e+000 -1.200005e+001 5.154764e+001 2.382091e-001 1.345256e-001 3.502793e-001 9.008783e-001 9.929343e-001 4.630470e-001 4.709908e-002 -2.651849e-001 -6.883519e-001 -6.501753e-001 -3.366743e-001 -1.513206e-001 2.585185e-001 6.767573e-002 -2.517161e-001 -1.582192e-002 -2.052467e-001 -3.408211e-001 -1.563750e-001 -1.571841e-001 -1.770275e-001 -8.379346e-003 3.241660e-001 2.368392e-001 1.021987e-001 2.442281e-001
<VARIANCE> 39
 2.577563e+001 3.728950e+001 2.706491e+001 3.740833e+001 7.254391e+001 4.622845e+001 4.439500e+001 6.013970e+001 5.646582e+001 5.396227e+001 3.931964e+001 2.858428e+001 4.085947e+001 1.149081e+000 2.500930e+000 2.034365e+000 2.313994e+000 4.709870e+000 3.706168e+000 4.275586e+000 6.098643e+000 5.987935e+000 5.178089e+000 3.641728e+000 2.889690e+000 9.554163e-001 1.977829e-001 2.931315e-001 3.783285e-001 3.698045e-001 7.666310e-001 6.450494e-001 8.296098e-001 1.104389e+000 1.036249e+000 7.422164e-001 5.631043e-001 5.166149e-001 1.592806e-001
<GCONST> 1.257568e+002
<STATE> 3
<MEAN> 39
 2.044572e+000 5.620327e+000 5.862749e+000 5.724981e+000 1.762784e+000 -5.330063e+000 -3.851554e+000 -6.943737e+000 -5.527873e+000 -6.765442e+000 -5.827859e+000 -8.153035e+000 5.479016e+001 1.090797e+000 -1.489118e+000 -1.739420e-001 -3.089602e-001 -7.497461e-001 -3.227750e-001 -1.774697e+000 -1.525710e+000 -4.427796e-001 7.371818e-001 9.609543e-001 -2.740522e-002 2.506547e+000 -5.298809e-002 -2.684053e-001 1.676464e-001 -6.999977e-001 -5.944164e-001 -9.919173e-002 -3.606397e-001 -6.059889e-004 9.182884e-002 8.273168e-002 3.033126e-001 9.347202e-002 5.569293e-001
<VARIANCE> 39
 9.817922e+001 1.178494e+002 1.241729e+002 5.647010e+001 1.192431e+002 8.333411e+001 1.208226e+002 6.852295e+001 9.006161e+001 6.928834e+001 9.395827e+001 5.151838e+001 1.261807e+002 4.532861e+000 9.100054e+000 1.248267e+001 8.116193e+000 1.363666e+001 8.360033e+000 9.990128e+000 9.681674e+000 7.075958e+000 7.917523e+000 6.093389e+000 7.117724e+000 5.040579e+000 6.362817e-001 1.358143e+000 1.588198e+000 1.274300e+000 1.835154e+000 1.244018e+000 1.769492e+000 1.808084e+000 1.482064e+000 1.399143e+000 1.008106e+000 1.016719e+000 6.678603e-001
<GCONST> 1.601323e+002
<STATE> 4
<MEAN> 39
 2.702232e+000 -4.579803e+000 7.172581e+000 -2.693279e+000 -7.084345e+000 -6.492409e+000 -1.138943e+001 -7.901333e+000 -3.234023e+000 -5.741857e+000 2.089025e+000 -8.082239e+000 7.182761e+001 -9.497514e-002 -9.540968e-001 7.110526e-001 -1.931652e+000 -2.029859e+000 -3.832967e-001 -1.206350e+000 1.627619e-001 2.971070e-001 -1.501111e-001 5.474041e-001 4.396734e-001 2.481787e+000 -1.863486e-001 4.193688e-001 -6.764016e-002 1.244868e-001 2.694068e-001 9.359652e-002 3.385941e-001 2.711135e-001 8.831957e-002 -4.313945e-002 -3.827465e-001 3.785303e-002 -5.779908e-001
<VARIANCE> 39
 7.017602e+001 8.844511e+001 3.326621e+002 1.055046e+002 1.096623e+002 1.723116e+002 1.229188e+002 1.110412e+002 8.742709e+001 1.265781e+002 1.192170e+002 1.199536e+002 7.270564e+001 3.234093e+000 7.958875e+000 7.794739e+000 7.634444e+000 5.699548e+000 1.031825e+001 1.006584e+001 1.106817e+001 6.355677e+000 8.150173e+000 5.004501e+000 6.042675e+000 4.015043e+000 4.889622e-001 1.136028e+000 1.581604e+000 1.191137e+000 1.119978e+000 1.654935e+000 1.683664e+000 2.181706e+000 1.408610e+000 1.115404e+000 8.947187e-001 1.080515e+000 3.445060e-001
<GCONST> 1.595950e+002
<TRANSP> 5
 0.000000e+000 1.000000e+000 0.000000e+000 0.000000e+000 0.000000e+000
 0.000000e+000 8.130215e-001 1.869785e-001 0.000000e+000 0.000000e+000
 0.000000e+000 0.000000e+000 6.593729e-001 3.406270e-001 0.000000e+000
 0.000000e+000 0.000000e+000 0.000000e+000 6.696265e-001 3.303734e-001
 0.000000e+000 0.000000e+000 0.000000e+000 0.000000e+000 0.000000e+000
<ENDHMM>
~h "k"
<BEGINHMM>
<NUMSTATES> 5
<STATE> 2
<MEAN> 39
 -7.155818e+000 -5.653876e-001 1.351869e+000 -2.064397e+000 -6.086486e+000 -8.921718e+000 -1.560189e+000 -2.667204e+000 -3.110538e+000 -4.655224e+000 -1.770376e+000 -5.381392e+000 5.429487e+001 -5.816453e-001 -1.260100e-001 -5.400478e-001 6.342459e-001 1.085510e+000 5.258986e-001 5.445928e-001 5.434068e-001 6.024843e-001 6.999273e-001 2.945466e-001 3.254954e-001 -6.836082e-001 -8.969031e-002 -1.507947e-001 -6.463847e-002 -1.346308e-001 -5.463154e-002 -1.332769e-002 4.421557e-002 1.379017e-001 9.713518e-002 7.003233e-002 1.747696e-002 5.970357e-002 5.072086e-001
<VARIANCE> 39
 6.126356e+001 5.211129e+001 9.737112e+001 4.973700e+001 7.438958e+001 8.477583e+001 7.050085e+001 1.048246e+002 9.423808e+001 8.138718e+001 4.689254e+001 4.001836e+001 1.050150e+002 1.567555e+000 1.832974e+000 2.326537e+000 2.848729e+000 3.975866e+000 3.869404e+000 3.933530e+000 4.418558e+000 4.395316e+000 3.883002e+000 3.357687e+000 2.709036e+000 1.808375e+000 3.915930e-001 4.254248e-001 5.969585e-001 6.219426e-001 8.377186e-001 8.708095e-001 8.593853e-001 9.818938e-001 9.136468e-001 7.709543e-001 7.554626e-001 5.968434e-001 4.357983e-001
<GCONST> 1.359517e+002
<STATE> 3
<MEAN> 39
 -8.048644e+000 -1.759995e+000 1.826134e+000 4.260231e-001 -7.345145e-001 -5.908126e+000 3.116341e+000 1.316194e+000 -7.301401e-001 -7.132307e-001 1.670271e+000 -3.694561e+000 4.881080e+001 -3.843521e-001 -2.917449e-001 -5.418893e-001 -3.926850e-002 4.551468e-001 2.132540e-001 3.778922e-001 2.229707e-001 3.048912e-001 2.767994e-001 -2.293351e-001 1.212148e-001 8.307970e-001 2.016373e-001 2.990792e-002 4.735050e-002 -3.801346e-001 -5.355910e-001 -4.465450e-001 -4.162044e-001 -3.058528e-001 -2.461094e-001 -2.836092e-001 -2.599754e-001 -1.838396e-001 6.511698e-001
<VARIANCE> 39
 5.279688e+001 6.155673e+001 1.084069e+002 5.884765e+001 9.102882e+001 9.219859e+001 1.351560e+002 1.464121e+002 1.154694e+002 8.390243e+001 6.179148e+001 4.672945e+001 1.349028e+002 2.991107e+000 3.133847e+000 5.368648e+000 5.495156e+000 8.010273e+000 6.752181e+000 7.787925e+000 8.168528e+000 6.302297e+000 6.097467e+000 5.909623e+000 4.402884e+000 2.687044e+000 6.458461e-001 4.962369e-001 9.224448e-001 8.986630e-001 1.477699e+000 1.137762e+000 1.426544e+000 1.501335e+000 1.207246e+000 1.064690e+000 1.096753e+000 7.764477e-001 4.663151e-001
<GCONST> 1.504488e+002
<STATE> 4
<MEAN> 39
 -6.430091e+000 -3.000578e+000 1.210921e+000 -2.836626e+000 -5.713640e+000 -1.133809e+001 -4.383394e+000 -3.873123e+000 -4.223058e+000 -5.548404e+000 -1.987185e+000 -5.761431e+000 6.193462e+001 4.596066e-001 -3.212551e-001 -2.741731e-001 -5.609220e-001 -4.936286e-001 -4.409739e-001 -2.402140e-001 6.056980e-002 -1.077642e-001 -2.758230e-001 -2.405167e-001 -4.688625e-001 2.031032e+000 1.336244e-001 1.176472e-001 2.412369e-001 -1.102667e-001 -1.097399e-001 8.597795e-002 -2.670556e-002 -1.957783e-004 -6.579889e-002 -9.893614e-002 2.630628e-002 -4.314670e-002 -2.786635e-002
<VARIANCE> 39
 1.524885e+002 1.053456e+002 1.899602e+002 9.942432e+001 1.361532e+002 1.373169e+002 1.349007e+002 1.331286e+002 1.077002e+002 9.627792e+001 9.390777e+001 9.290392e+001 1.550006e+002 7.986420e+000 7.590151e+000 1.106177e+001 8.775884e+000 1.390895e+001 9.459365e+000 9.844923e+000 9.802430e+000 9.994615e+000 8.141266e+000 8.267198e+000 6.462959e+000 7.330239e+000 1.068149e+000 1.167453e+000 1.408079e+000 1.500508e+000 1.852348e+000 1.594325e+000 1.595123e+000 1.532986e+000 1.701416e+000 1.223709e+000 1.433747e+000 1.118420e+000 1.243144e+000
<GCONST> 1.670712e+002
<TRANSP> 5
 0.000000e+000 1.000000e+000 0.000000e+000 0.000000e+000 0.000000e+000
 0.000000e+000 5.627687e-001 4.372313e-001 0.000000e+000 0.000000e+000
 0.000000e+000 0.000000e+000 4.555513e-001 5.444486e-001 0.000000e+000
 0.000000e+000 0.000000e+000 0.000000e+000 6.621770e-001 3.378229e-001
 0.000000e+000 0.000000e+000 0.000000e+000 0.000000e+000 0.000000e+000
<ENDHMM>
~h "l"
<BEGINHMM>
<NUMSTATES> 5
<STATE> 2
<MEAN> 39
 -4.154341e+000 -3.525586e-002 -9.708881e+000 -8.367139e+000 -6.663703e+000 -3.931843e+000 -8.673801e+000 -5.847364e+000 -9.381784e-001 -8.779662e+000 -4.821073e+000 -3.272386e+000 7.590303e+001 -1.274437e-001 3.914335e-002 2.431515e-001 -5.414755e-002 -6.674968e-002 4.963916e-001 4.495181e-001 2.157263e-002 -2.474166e-001 3.151617e-001 1.454858e-001 -5.176638e-002 -4.987829e-001 -5.223392e-002 6.879726e-003 3.202729e-002 4.178094e-002 -5.246968e-002 -4.150768e-002 9.646649e-002 1.109933e-001 1.642183e-002 1.267552e-002 1.859869e-002 -1.274388e-003 -3.016176e-002
<VARIANCE> 39
 4.573732e+001 6.992204e+001 1.208323e+002 7.928498e+001 1.514194e+002 8.407241e+001 1.083364e+002 5.712603e+001 7.422404e+001 9.504480e+001 5.188561e+001 5.929626e+001 8.914074e+001 7.252620e-001 1.449623e+000 1.679923e+000 1.845283e+000 3.468826e+000 3.255485e+000 3.195098e+000 2.315453e+000 2.467110e+000 2.446518e+000 2.184375e+000 2.137980e+000 1.538491e+000 1.458475e-001 1.702689e-001 2.443932e-001 2.900916e-001 5.231209e-001 4.755054e-001 5.997955e-001 4.776223e-001 4.352354e-001 4.135639e-001 3.627315e-001 3.807555e-001 1.205355e-001
<GCONST> 1.230631e+002
<STATE> 3
<MEAN> 39
 -6.455541e-001 -6.409534e+000 -6.761698e+000 -5.677677e+000 -1.877140e+000 -3.333267e+000 2.999576e+000 4.363214e+000 3.161794e+000 7.307866e-001 -1.786751e+000 -9.114272e+000 5.957352e+001 2.167076e-001 5.124460e-001 -3.347959e-001 -7.530110e-001 -1.032801e+000 3.705527e-001 2.617875e-001 1.415446e-002 -3.938360e-001 8.594482e-002 5.891352e-002 3.032668e-001 1.897533e-001 2.891683e-001 1.957037e-002 -2.117204e-001 -4.845941e-001 -2.321063e-001 1.213102e-001 -1.507827e-001 -2.871887e-001 -3.755025e-001 -2.487029e-001 -1.138432e-002 -4.145516e-003 5.629590e-001
<VARIANCE> 39
 8.894127e+001 5.425513e+001 7.868176e+001 6.790481e+001 7.804636e+001 6.080588e+001 1.301921e+002 1.199408e+002 9.123586e+001 9.362836e+001 7.455691e+001 6.102735e+001 1.047218e+002 3.512572e+000 2.415921e+000 3.546700e+000 6.819585e+000 6.168040e+000 4.369740e+000 6.061390e+000 6.811784e+000 6.202502e+000 4.428791e+000 3.748058e+000 3.745863e+000 4.856859e+000 5.595877e-001 3.829781e-001 6.227596e-001 9.603774e-001 9.552599e-001 7.968752e-001 8.996396e-001 1.078309e+000 9.484548e-001 6.456065e-001 6.329617e-001 5.313173e-001 5.198850e-001
<GCONST> 1.442727e+002
<STATE> 4
<MEAN> 39
 5.197234e+000 -6.864573e+000 -9.593757e+000 -1.586631e+001 -6.767934e+000 9.878156e-001 3.068826e-001 -2.825032e+000 -5.448980e+000 -2.244147e+000 -1.337560e+000 -8.547098e+000 7.269364e+001 4.731553e-001 -3.333578e-001 -5.151473e-001 -4.435636e-001 -1.092614e-001 3.042976e-001 -6.755427e-001 -3.401525e-001 -5.182170e-001 -5.534320e-003 1.289518e-001 -2.427063e-002 3.180832e-001 -1.769333e-001 -7.577871e-002 8.223552e-002 3.702914e-001 3.706293e-001 -8.062590e-002 -5.578236e-002 1.828379e-001 3.014288e-001 4.218392e-002 3.303968e-003 -8.363895e-002 -3.223474e-001
<VARIANCE> 39
 8.093048e+001 8.768922e+001 9.562711e+001 1.096145e+002 7.718649e+001 9.780831e+001 9.129589e+001 6.347379e+001 4.731765e+001 6.876757e+001 5.046036e+001 4.591629e+001 1.173777e+002 5.194881e+000 2.738296e+000 3.840896e+000 8.217131e+000 5.219812e+000 6.225278e+000 6.072745e+000 5.123198e+000 4.237730e+000 4.240148e+000 3.092818e+000 2.977299e+000 7.096359e+000 7.141753e-001 4.815516e-001 5.291955e-001 1.247525e+000 7.966788e-001 9.025775e-001 9.012085e-001 8.718534e-001 7.966270e-001 8.792915e-001 6.507425e-001 5.953287e-001 4.834503e-001
<GCONST> 1.440063e+002
<TRANSP> 5
 0.000000e+000 1.000000e+000 0.000000e+000 0.000000e+000 0.000000e+000
 0.000000e+000 8.054978e-001 1.945022e-001 0.000000e+000 0.000000e+000
 0.000000e+000 0.000000e+000 5.926699e-001 4.073301e-001 0.000000e+000
 0.000000e+000 0.000000e+000 0.000000e+000 6.595027e-001 3.404973e-001
 0.000000e+000 0.000000e+000 0.000000e+000 0.000000e+000 0.000000e+000
<ENDHMM>
~h "m"
<BEGINHMM>
<NUMSTATES> 5
<STATE> 2
<MEAN> 39
 2.496413e+000 9.075960e+000 4.536885e+000 6.358626e-001 -2.569598e+000 -7.554398e+000 -8.192747e+000 -9.702464e+000 -1.008370e+001 -8.228148e+000 -6.945503e+000 -7.798430e+000 5.648218e+001 1.432319e+000 9.923443e-001 6.513176e-001 8.888397e-001 -3.279261e-001 -6.279129e-001 -1.062414e+000 -1.125472e+000 -1.124077e+000 -3.425120e-001 -7.456399e-001 -6.905298e-001 3.938234e-001 -2.835056e-001 -4.945129e-001 -1.558656e-001 -2.941602e-001 -2.054302e-001 1.090569e-001 3.556761e-001 4.103687e-001 5.477087e-001 2.773633e-001 2.135029e-001 2.224882e-001 2.991553e-001
<VARIANCE> 39
 8.229124e+001 6.210619e+001 6.331667e+001 5.288640e+001 8.704823e+001 6.261638e+001 6.523724e+001 6.270908e+001 6.489394e+001 7.231714e+001 5.423448e+001 4.008717e+001 1.122154e+002 8.126925e+000 3.327324e+000 2.613149e+000 2.690799e+000 4.962142e+000 4.492038e+000 6.260577e+000 4.960146e+000 6.122533e+000 4.915943e+000 3.674367e+000 3.654203e+000 4.109013e+000 4.609663e-001 5.530535e-001 5.346013e-001 5.218668e-001 7.558990e-001 7.852786e-001 8.804107e-001 9.739183e-001 9.396473e-001 9.217075e-001 7.619417e-001 7.018247e-001 3.315500e-001
<GCONST> 1.401214e+002
<STATE> 3
<MEAN> 39
 5.175882e+000 8.098546e+000 5.871699e+000 2.599669e+000 -3.921242e+000 -8.701880e+000 -8.871625e+000 -8.966578e+000 -9.499753e+000 -7.997688e+000 -7.171925e+000 -9.125505e+000 5.646430e+001 -2.091495e-001 -2.533494e-001 3.631162e-002 3.527259e-002 -3.141252e-001 1.364302e-001 4.854369e-001 4.052622e-001 5.572516e-001 3.920804e-001 -4.694704e-003 -5.680134e-002 1.173894e-002 -2.786616e-001 -4.743619e-001 -9.984589e-002 -4.209165e-001 -2.051654e-001 2.434973e-001 3.891293e-001 4.501575e-001 3.215560e-001 1.235799e-001 1.564228e-001 1.132737e-001 3.138359e-001
<VARIANCE> 39
 5.785367e+001 6.276578e+001 4.727443e+001 4.454900e+001 5.551147e+001 4.914508e+001 5.493192e+001 6.613839e+001 5.798787e+001 6.000186e+001 4.570998e+001 3.026752e+001 7.658430e+001 2.446853e+000 1.644734e+000 1.826905e+000 1.989569e+000 3.960333e+000 3.079921e+000 3.565164e+000 4.277238e+000 3.637065e+000 3.362226e+000 2.778678e+000 2.385119e+000 1.546059e+000 2.743776e-001 4.942921e-001 5.473434e-001 5.525253e-001 6.875795e-001 6.613016e-001 7.854428e-001 8.208566e-001 7.386209e-001 6.154515e-001 5.171329e-001 5.389106e-001 2.969928e-001
<GCONST> 1.284001e+002
<STATE> 4
<MEAN> 39
 5.687448e+000 4.962356e+000 1.045349e+001 -5.718511e-001 -1.056329e+001 -7.684458e+000 -4.451647e+000 -5.005936e+000 -7.962894e+000 -5.105063e+000 -6.007307e+000 -1.004818e+001 6.189027e+001 -1.385775e+000 -2.516498e+000 1.431688e+000 -2.364581e+000 -1.796881e+000 1.057689e+000 1.001939e+000 1.605638e+000 4.682241e-001 2.477119e-001 6.206139e-001 4.986967e-003 2.322269e+000 -3.593960e-001 -9.711679e-002 -6.094717e-002 -6.760039e-001 1.867688e-001 3.001680e-001 -1.258461e-001 1.721066e-001 -1.789259e-002 -1.842976e-001 1.788829e-001 7.496101e-002 2.522525e-001
<VARIANCE> 39
 8.244815e+001 9.087309e+001 1.689086e+002 1.008994e+002 1.414296e+002 7.603707e+001 1.149799e+002 1.406453e+002 6.595975e+001 8.975457e+001 8.559033e+001 8.920736e+001 1.091153e+002 4.199496e+000 6.417061e+000 1.139105e+001 8.065389e+000 9.985753e+000 7.169910e+000 8.875719e+000 9.655972e+000 6.851372e+000 6.403649e+000 4.041743e+000 5.839426e+000 3.521723e+000 5.606605e-001 1.440725e+000 1.413644e+000 1.242060e+000 1.421616e+000 1.172744e+000 1.343221e+000 1.457167e+000 1.044950e+000 9.778084e-001 7.736350e-001 8.282686e-001 7.161759e-001
<GCONST> 1.571480e+002
<TRANSP> 5
 0.000000e+000 1.000000e+000 0.000000e+000 0.000000e+000 0.000000e+000
 0.000000e+000 3.136445e-001 6.863554e-001 0.000000e+000 0.000000e+000
 0.000000e+000 0.000000e+000 6.030331e-001 3.969669e-001 0.000000e+000
 0.000000e+000 0.000000e+000 0.000000e+000 5.555384e-001 4.444617e-001
 0.000000e+000 0.000000e+000 0.000000e+000 0.000000e+000 0.000000e+000
<ENDHMM>
~h "n"
<BEGINHMM>
<NUMSTATES> 5
<STATE> 2
<MEAN> 39
 -7.148252e-001 -3.157160e-001 5.382812e+000 -9.094551e+000 -8.439044e+000 -6.264000e+000 -3.151828e+000 -4.810719e+000 -1.002780e+001 -1.188027e+001 -5.889369e+000 -7.502322e+000 7.053760e+001 1.013116e+000 2.086423e+000 -1.628333e-001 1.542400e+000 -2.930914e-001 -3.779109e-001 -3.568220e-001 -7.231959e-001 -2.917941e-001 2.495338e-001 -8.591052e-001 -2.984598e-002 -1.944610e+000 -2.069513e-002 -3.204697e-002 -2.022228e-001 9.910889e-002 1.107621e-001 -1.146026e-001 -2.196658e-002 -2.622151e-002 2.479829e-001 1.804290e-001 -5.281429e-002 2.851046e-002 1.334103e-002
<VARIANCE> 39
 1.024746e+002 8.688750e+001 8.983565e+001 1.297419e+002 7.484227e+001 8.260337e+001 7.068921e+001 1.353868e+002 8.496183e+001 8.278633e+001 4.806046e+001 5.719491e+001 9.160954e+001 1.319987e+000 2.046238e+000 2.972475e+000 3.554793e+000 2.929305e+000 2.648979e+000 4.157343e+000 3.011227e+000 3.500949e+000 3.642993e+000 2.781196e+000 2.674456e+000 7.009041e-001 1.704750e-001 2.879691e-001 3.651946e-001 4.877421e-001 3.873605e-001 4.030632e-001 5.966823e-001 4.962429e-001 5.607084e-001 4.724146e-001 4.471918e-001 4.416958e-001 1.082258e-001
<GCONST> 1.284629e+002
<STATE> 3
<MEAN> 39
 9.170205e+000 1.992187e+000 5.981926e+000 1.882538e+000 -6.837012e+000 -8.670333e+000 -4.167409e+000 1.215154e+000 -4.384784e+000 -6.905320e+000 -8.172677e+000 -9.363509e+000 6.190452e+001 4.132913e-002 1.586643e+000 2.637822e-002 7.322422e-001 3.124202e-001 -3.718063e-001 -1.712274e-001 -7.328834e-001 1.744234e-001 1.494375e-001 -1.660843e-001 4.180185e-001 -1.369855e+000 -2.469843e-001 -2.461260e-001 8.170386e-002 -2.265947e-001 1.548794e-001 1.216704e-001 9.427534e-003 1.079975e-001 -1.170136e-001 -4.938557e-002 1.578028e-001 -3.800336e-002 1.499729e-001
<VARIANCE> 39
 7.224728e+001 7.647479e+001 7.636095e+001 5.288200e+001 7.086235e+001 9.759915e+001 5.854449e+001 1.343437e+002 6.650814e+001 6.503374e+001 5.504951e+001 5.281453e+001 6.418920e+001 6.905566e-001 1.239364e+000 2.035501e+000 1.974251e+000 2.444541e+000 2.303710e+000 2.744592e+000 2.992230e+000 2.516933e+000 2.668991e+000 2.386842e+000 2.035873e+000 4.073157e-001 9.625064e-002 1.865476e-001 2.898123e-001 3.569756e-001 3.921378e-001 3.923126e-001 4.970385e-001 5.762696e-001 4.358781e-001 4.512755e-001 4.156508e-001 3.714931e-001 6.396340e-002
<GCONST> 1.189212e+002
<STATE> 4
<MEAN> 39
 -8.637933e-001 6.464317e+000 4.659587e+000 1.880959e+000 -3.820229e+000 -6.657547e+000 -7.067673e+000 -8.323944e+000 -1.066772e+001 -1.161960e+001 -8.994516e+000 -7.667730e+000 5.918703e+001 -5.758795e-001 -1.273585e-001 -7.629555e-002 1.938242e-001 5.586253e-001 8.274650e-002 1.821703e-001 2.370280e-001 2.152086e-001 1.883752e-001 1.406995e-001 -5.903592e-002 -6.334887e-001 -1.635033e-001 -2.047462e-001 -9.886155e-003 -2.132541e-001 -5.781421e-003 6.781209e-002 1.000381e-001 1.888053e-001 1.153871e-001 1.585139e-002 1.138785e-001 2.364025e-002 1.581761e-001
<VARIANCE> 39
 5.241051e+001 3.614746e+001 4.335863e+001 3.159913e+001 4.476648e+001 5.144780e+001 4.203635e+001 6.340824e+001 6.688273e+001 6.313089e+001 4.197977e+001 3.892154e+001 8.639896e+001 7.459141e-001 1.133271e+000 1.249511e+000 1.628549e+000 2.049359e+000 2.057327e+000 2.699791e+000 2.532808e+000 2.441127e+000 2.531076e+000 2.379409e+000 2.159770e+000 3.936528e-001 1.862139e-001 2.049678e-001 3.080417e-001 3.785762e-001 3.897372e-001 4.316453e-001 4.778771e-001 4.470506e-001 4.516301e-001 4.803471e-001 4.457296e-001 4.254029e-001 9.967532e-002
<GCONST> 1.144748e+002
<TRANSP> 5
 0.000000e+000 1.000000e+000 0.000000e+000 0.000000e+000 0.000000e+000
 0.000000e+000 4.965265e-001 5.034735e-001 0.000000e+000 0.000000e+000
 0.000000e+000 0.000000e+000 6.502733e-001 3.497266e-001 0.000000e+000
 0.000000e+000 0.000000e+000 0.000000e+000 7.962927e-001 2.037073e-001
 0.000000e+000 0.000000e+000 0.000000e+000 0.000000e+000 0.000000e+000
<ENDHMM>
~h "p"
<BEGINHMM>
<NUMSTATES> 5
<STATE> 2
<MEAN> 39
 -1.204142e+000 -2.325765e+000 7.386369e-001 -4.330467e+000 -8.724361e+000 -7.834824e+000 -2.703099e+000 -3.172477e+000 -3.448540e+000 -3.692741e+000 -3.129070e+000 -4.808200e+000 6.072379e+001 1.580684e+000 -7.038901e-001 1.120666e+000 -2.157293e+000 -3.148181e+000 -1.540485e+000 -1.248379e+000 -1.180525e+000 -1.308455e+000 -3.083766e-001 -4.612194e-001 -8.970664e-002 4.134335e+000 -1.737962e-001 -1.564544e-001 -5.058696e-002 -6.244563e-001 1.007341e-001 4.940729e-001 7.994632e-002 7.125037e-002 9.402764e-002 5.534900e-002 7.335300e-002 5.162435e-002 2.451167e-001
<VARIANCE> 39
 8.730600e+001 6.080944e+001 2.209874e+002 1.296800e+002 1.311178e+002 1.349427e+002 1.024771e+002 9.943259e+001 7.690170e+001 7.505860e+001 7.588249e+001 6.059761e+001 1.607408e+002 5.369575e+000 5.812462e+000 1.583620e+001 1.219445e+001 1.817230e+001 1.194050e+001 8.576277e+000 1.142093e+001 8.646154e+000 7.839893e+000 7.687536e+000 6.567576e+000 1.239426e+001 1.139307e+000 8.559709e-001 1.597116e+000 1.571935e+000 2.297915e+000 2.097579e+000 1.199358e+000 1.575503e+000 1.323750e+000 1.274060e+000 1.551937e+000 1.039971e+000 1.849395e+000
<GCONST> 1.657461e+002
<STATE> 3
<MEAN> 39
 -1.887624e+000 -3.040519e+000 -1.490599e+000 -1.674984e+001 -1.747057e+001 -4.996043e+000 -8.325337e+000 -9.313962e+000 -3.934057e+000 -2.250591e+000 -2.927485e+000 -2.463181e+000 7.546874e+001 -5.433481e-001 -6.259771e-002 6.189777e-001 -1.359007e+000 6.539269e-002 3.636902e-001 -5.476828e-001 -3.719767e-001 3.138989e-001 -3.245109e-002 -1.971613e-001 -4.344990e-002 1.365997e+000 -3.825899e-001 1.834923e-001 -1.049700e-001 9.740388e-001 1.099663e+000 1.907822e-001 3.789219e-001 4.614764e-001 1.916337e-001 -2.470728e-001 -3.552503e-002 -1.961288e-001 -1.052723e+000
<VARIANCE> 39
 7.335157e+001 6.770583e+001 3.037575e+002 8.550452e+001 1.587930e+002 1.479722e+002 9.481714e+001 1.239971e+002 7.731406e+001 1.111263e+002 9.589667e+001 6.227850e+001 7.228672e+001 1.948669e+000 2.586985e+000 4.144160e+000 8.164130e+000 8.619303e+000 6.967907e+000 3.781214e+000 4.003215e+000 4.449168e+000 4.463178e+000 4.970324e+000 2.811057e+000 6.795380e+000 4.009513e-001 4.536463e-001 1.092160e+000 9.159490e-001 1.834319e+000 1.152280e+000 7.566952e-001 1.094274e+000 8.527825e-001 9.848626e-001 7.392074e-001 5.859216e-001 6.477410e-001
<GCONST> 1.487270e+002
<STATE> 4
<MEAN> 39
 -8.007848e+000 9.933355e-001 -3.128761e+000 -1.309303e+001 -1.024003e+001 -6.696925e+000 -8.035005e+000 -9.168893e+000 -2.861952e+000 -8.760229e+000 -4.337000e+000 -3.673682e+000 7.165525e+001 -3.427673e-001 8.728822e-002 3.567287e-001 8.133656e-001 5.001729e-001 1.140058e-001 2.476698e-001 3.380474e-001 -1.321989e-001 -1.656125e-001 -7.726337e-002 -2.055459e-001 -1.138133e+000 6.706180e-002 -7.355986e-002 -8.479514e-002 1.529880e-001 -2.791896e-002 -3.900493e-002 4.654256e-002 5.201009e-002 -5.493329e-002 1.295581e-001 6.827015e-002 3.251950e-002 -1.643123e-001
<VARIANCE> 39
 5.268230e+001 6.436197e+001 1.103859e+002 8.043459e+001 9.417616e+001 7.781470e+001 5.233290e+001 6.059266e+001 4.949363e+001 1.027507e+002 5.887076e+001 3.374354e+001 1.009800e+002 9.919199e-001 2.173423e+000 1.713737e+000 3.059566e+000 3.595918e+000 2.671921e+000 3.002502e+000 2.538301e+000 2.922602e+000 4.153000e+000 3.286783e+000 2.045941e+000 2.186636e+000 1.943601e-001 3.524108e-001 2.855630e-001 5.075772e-001 5.139646e-001 5.548420e-001 4.842723e-001 4.901095e-001 5.641297e-001 6.527045e-001 5.826314e-001 3.810550e-001 3.517191e-001
<GCONST> 1.276507e+002
<TRANSP> 5
 0.000000e+000 1.000000e+000 0.000000e+000 0.000000e+000 0.000000e+000
 0.000000e+000 6.053928e-001 3.946072e-001 0.000000e+000 0.000000e+000
 0.000000e+000 0.000000e+000 5.352385e-001 4.647615e-001 0.000000e+000
 0.000000e+000 0.000000e+000 0.000000e+000 7.911281e-001 2.088719e-001
 0.000000e+000 0.000000e+000 0.000000e+000 0.000000e+000 0.000000e+000
<ENDHMM>
~h "r"
<BEGINHMM>
<NUMSTATES> 5
<STATE> 2
<MEAN> 39
 6.708873e+000 -9.860975e+000 2.704554e+000 -4.300744e-001 -1.134015e+001 -1.272781e+001 -9.957317e+000 1.836882e+000 -5.133535e+000 -6.364909e+000 -2.806148e+000 -8.181708e+000 7.106686e+001 -3.380428e-001 -1.067348e+000 1.463866e+000 -7.977000e-001 -1.000212e+000 5.887625e-002 -2.612576e-002 1.312009e+000 -5.539867e-001 -3.288533e-001 3.640146e-001 -2.377256e-001 1.159868e+000 -3.827130e-001 2.789804e-001 1.772076e-001 -3.003629e-001 3.743626e-001 3.437757e-001 2.120465e-001 -1.254395e-001 -1.059226e-001 3.256501e-002 1.101465e-001 -2.543441e-003 -2.269424e-001
<VARIANCE> 39
 6.936780e+001 1.198955e+002 1.787216e+002 9.923282e+001 1.154185e+002 1.135347e+002 1.007682e+002 1.540053e+002 1.020594e+002 9.305273e+001 7.112768e+001 8.427209e+001 9.023013e+001 3.647958e+000 5.330753e+000 6.348488e+000 7.088480e+000 4.877344e+000 6.039933e+000 6.797725e+000 7.432404e+000 6.603529e+000 6.608967e+000 5.396175e+000 4.384287e+000 2.902609e+000 5.175706e-001 7.985873e-001 8.117935e-001 1.090576e+000 8.634469e-001 1.036456e+000 1.159992e+000 1.337742e+000 1.169320e+000 1.108136e+000 9.196922e-001 8.190863e-001 3.439330e-001
<GCONST> 1.522934e+002
<STATE> 3
<MEAN> 39
 1.320497e+000 -1.084904e+001 6.023268e+000 -4.434879e+000 -1.755951e+001 -1.049240e+001 -8.699847e+000 3.159670e+000 -4.233977e+000 -8.167288e+000 -1.356606e+000 -6.808419e+000 7.523966e+001 -5.635222e-001 6.637647e-001 1.393452e+000 -1.009417e+000 -1.136389e-001 4.982242e-001 4.126308e-001 -3.832917e-001 -6.012213e-001 2.542786e-001 3.086606e-001 -6.353877e-002 -6.998903e-002 -6.557801e-002 3.502915e-001 -1.018496e-001 1.177464e-001 3.111977e-001 -3.353553e-002 -5.493530e-002 -2.146524e-001 1.605042e-001 1.421630e-001 -2.295848e-001 2.989152e-002 -1.921460e-001
<VARIANCE> 39
 4.530865e+001 7.762702e+001 2.114123e+002 6.905823e+001 1.109401e+002 1.212952e+002 9.481209e+001 1.392533e+002 9.291663e+001 1.087284e+002 7.752214e+001 9.615538e+001 5.398779e+001 7.413896e-001 1.532289e+000 1.953369e+000 2.826648e+000 2.780773e+000 3.853813e+000 3.077764e+000 3.639461e+000 3.035373e+000 3.348257e+000 3.143105e+000 3.035092e+000 5.880868e-001 1.633226e-001 1.991350e-001 3.116686e-001 3.923450e-001 4.621884e-001 4.548445e-001 5.540843e-001 5.989004e-001 5.909657e-001 5.291349e-001 5.599394e-001 4.881551e-001 8.709644e-002
<GCONST> 1.281298e+002
<STATE> 4
<MEAN> 39
 4.432997e-003 -4.098840e+000 1.849826e+001 -7.013455e+000 -1.357123e+001 -1.451775e+001 -9.107492e+000 3.073758e+000 -1.128093e+001 -8.748633e+000 1.267074e-001 -9.053525e+000 7.041181e+001 3.766524e-002 1.374895e+000 1.798057e-001 1.257588e-001 2.666441e-001 4.216951e-001 -1.413601e-001 -9.112741e-001 7.192178e-002 5.029751e-002 -1.815744e-001 3.836112e-001 -1.180996e+000 6.263544e-002 -4.520016e-002 -2.662221e-001 1.978782e-001 6.016741e-002 -7.161045e-003 -6.885993e-002 3.431362e-003 8.120055e-002 -5.855283e-002 -3.593850e-002 -1.364681e-003 -1.148706e-001
<VARIANCE> 39
 6.976800e+001 8.406116e+001 2.657025e+002 1.389131e+002 1.112430e+002 9.140477e+001 1.116135e+002 1.681641e+002 1.100122e+002 8.883845e+001 5.699464e+001 7.531287e+001 9.876744e+001 7.663770e-001 1.226313e+000 2.385587e+000 2.086789e+000 2.726094e+000 2.480504e+000 2.468862e+000 3.404987e+000 2.492005e+000 2.514592e+000 2.351616e+000 2.051963e+000 8.034984e-001 1.014555e-001 1.674275e-001 2.965718e-001 3.839660e-001 4.370052e-001 3.918775e-001 4.793764e-001 5.269067e-001 4.586216e-001 4.488286e-001 4.201149e-001 3.805416e-001 6.888752e-002
<GCONST> 1.253776e+002
<TRANSP> 5
 0.000000e+000 1.000000e+000 0.000000e+000 0.000000e+000 0.000000e+000
 0.000000e+000 6.076059e-001 3.923941e-001 0.000000e+000 0.000000e+000
 0.000000e+000 0.000000e+000 7.063100e-001 2.936901e-001 0.000000e+000
 0.000000e+000 0.000000e+000 0.000000e+000 7.457383e-001 2.542616e-001
 0.000000e+000 0.000000e+000 0.000000e+000 0.000000e+000 0.000000e+000
<ENDHMM>
~h "s"
<BEGINHMM>
<NUMSTATES> 5
<STATE> 2
<MEAN> 39
 -6.466372e+000 4.099904e+000 -3.368972e-001 -8.700061e+000 4.446449e+000 -1.456590e+001 -1.999132e+000 -3.219589e+000 -1.560505e+000 -4.404397e+000 -3.936013e-001 -9.528253e+000 6.222675e+001 -3.619512e+000 2.472579e+000 -9.149675e-001 -6.118321e-001 2.917932e+000 -2.043688e+000 2.073877e+000 -4.308741e-001 7.856148e-001 -4.594783e-001 4.332626e-001 -2.273388e-001 6.266451e-001 -3.185079e-001 -3.504778e-002 8.800538e-003 -1.343901e-001 -8.927058e-002 3.346603e-001 4.787400e-002 9.866134e-003 6.061369e-004 -3.523021e-002 3.763016e-002 -4.602230e-002 1.538668e-001
<VARIANCE> 39
 1.551449e+002 9.926093e+001 1.489281e+002 1.378444e+002 2.405954e+002 2.491512e+002 1.524852e+002 1.403582e+002 1.110174e+002 1.207356e+002 8.691557e+001 9.758599e+001 1.284012e+002 4.517033e+000 3.777554e+000 5.704293e+000 5.248456e+000 7.014644e+000 8.675580e+000 6.097222e+000 7.896628e+000 6.555561e+000 5.995779e+000 4.003635e+000 3.930130e+000 3.245582e+000 1.012049e+000 7.538058e-001 7.137799e-001 8.467568e-001 1.484658e+000 1.655409e+000 1.301410e+000 1.349122e+000 1.037794e+000 1.026442e+000 7.553236e-001 6.814143e-001 4.034171e-001
<GCONST> 1.566281e+002
<STATE> 3
<MEAN> 39
 -2.509644e+001 1.207357e+001 -4.606583e+000 -8.228803e+000 9.576200e+000 -1.156028e+001 2.729961e+000 -2.914762e+000 -1.906770e-001 -5.844478e+000 7.994969e-001 -7.010930e+000 6.625222e+001 -6.540242e-001 1.947588e-001 7.178382e-002 5.263085e-002 4.405133e-001 3.831193e-001 2.027326e-001 4.744729e-002 2.686630e-001 1.233397e-001 1.382098e-001 1.099755e-001 -6.087861e-001 4.286496e-001 -2.131504e-001 6.572438e-002 5.836099e-002 -2.373409e-001 -2.145330e-002 -1.344313e-001 -3.228652e-002 -3.330715e-002 2.469730e-002 -6.170841e-002 -5.483570e-003 -1.202134e-001
<VARIANCE> 39
 4.212503e+001 4.650924e+001 9.486679e+001 1.337561e+002 1.952870e+002 1.410670e+002 9.526673e+001 5.574442e+001 8.255302e+001 6.012226e+001 6.059312e+001 8.260712e+001 6.087367e+001 2.485540e+000 1.794685e+000 1.753228e+000 1.996436e+000 2.521363e+000 2.546113e+000 2.752100e+000 2.681041e+000 2.539550e+000 2.389091e+000 2.149267e+000 2.051313e+000 1.158656e+000 2.604305e-001 2.619566e-001 2.685492e-001 3.498290e-001 4.413129e-001 5.199487e-001 5.323170e-001 4.630988e-001 4.702317e-001 4.561545e-001 3.930168e-001 3.910993e-001 1.434301e-001
<GCONST> 1.254075e+002
<STATE> 4
<MEAN> 39
 -1.793607e+001 8.874457e+000 -4.612923e-001 -9.086057e+000 1.087128e+001 -1.505668e+001 3.042307e+000 -3.566405e+000 1.854867e+000 -3.901579e+000 5.127794e-001 -8.747635e+000 5.773290e+001 2.142675e+000 -8.696991e-001 -1.681615e-001 -3.556983e-002 -9.084536e-001 9.430493e-002 -1.220301e-001 -2.003746e-001 -1.814017e-001 4.726390e-002 -4.007524e-001 -2.823171e-001 1.297973e-001 3.181762e-001 -1.945841e-001 -2.279580e-002 -5.644901e-002 -2.174450e-001 1.627009e-001 -9.710191e-002 8.869986e-005 -1.191270e-001 -1.529237e-002 -6.666496e-002 -1.602039e-002 3.206728e-001
<VARIANCE> 39
 8.940318e+001 9.189371e+001 1.033565e+002 1.093659e+002 2.218458e+002 1.507684e+002 1.503503e+002 1.111668e+002 1.256372e+002 9.620016e+001 7.649580e+001 7.410715e+001 1.904367e+002 7.732664e+000 5.448374e+000 3.826572e+000 5.771241e+000 6.655123e+000 8.039591e+000 5.855439e+000 6.787665e+000 6.151008e+000 4.665512e+000 4.993165e+000 4.099187e+000 4.541232e+000 1.331868e+000 8.883006e-001 6.394569e-001 7.845030e-001 1.323046e+000 1.263063e+000 1.001841e+000 1.193659e+000 9.954716e-001 7.950826e-001 9.103454e-001 7.444943e-001 6.001871e-001
<GCONST> 1.548815e+002
<TRANSP> 5
 0.000000e+000 1.000000e+000 0.000000e+000 0.000000e+000 0.000000e+000
 0.000000e+000 6.989962e-001 3.010038e-001 0.000000e+000 0.000000e+000
 0.000000e+000 0.000000e+000 8.741545e-001 1.258455e-001 0.000000e+000
 0.000000e+000 0.000000e+000 0.000000e+000 7.550790e-001 2.449210e-001
 0.000000e+000 0.000000e+000 0.000000e+000 0.000000e+000 0.000000e+000
<ENDHMM>
~h "t"
<BEGINHMM>
<NUMSTATES> 5
<STATE> 2
<MEAN> 39
 -4.680752e+000 -1.741885e+000 -3.000055e+000 -8.716478e+000 1.024011e+000 -8.189135e+000 -2.531904e+000 -1.359222e+000 7.068099e-001 -2.019949e+000 -2.423503e+000 -8.230311e+000 6.014952e+001 4.459257e-001 -5.848278e-001 -2.885575e-001 -1.126902e+000 -7.677771e-001 -5.190988e-001 -6.990654e-001 -1.192023e-001 -4.585536e-001 -3.960309e-001 -5.463570e-001 -6.685309e-001 3.227900e+000 2.548706e-001 -6.448015e-003 1.212472e-001 -2.977056e-002 -3.025998e-001 1.403753e-001 -1.227583e-001 -1.060082e-001 -2.491266e-001 -1.745903e-001 1.274386e-001 5.117712e-003 2.010930e-001
<VARIANCE> 39
 1.599351e+002 8.811599e+001 1.078186e+002 1.198495e+002 1.193496e+002 1.462091e+002 1.633094e+002 1.409363e+002 1.038547e+002 9.556845e+001 1.223850e+002 1.197825e+002 1.719144e+002 1.144240e+001 8.141665e+000 8.771425e+000 9.976502e+000 1.183233e+001 1.165798e+001 1.101619e+001 1.181505e+001 1.086476e+001 8.092117e+000 9.463362e+000 8.862414e+000 1.022080e+001 1.647431e+000 1.158472e+000 1.236427e+000 1.841714e+000 1.704863e+000 1.783119e+000 1.975984e+000 1.983416e+000 1.719237e+000 1.499502e+000 1.796148e+000 1.514249e+000 1.547625e+000
<GCONST> 1.708140e+002
<STATE> 3
<MEAN> 39
 -8.663383e+000 7.703334e-002 -3.741183e+000 -9.413964e+000 -8.423968e+000 -9.653719e+000 -5.563811e+000 -4.320729e+000 -3.568564e+000 -7.414317e+000 -2.524781e+000 -4.149942e+000 7.273239e+001 1.678459e+000 -1.901042e-002 1.972359e-001 -1.027498e+000 -1.786299e+000 -6.362203e-001 -8.602592e-001 -4.512944e-001 -5.704327e-001 -1.468385e+000 -2.490425e-001 -3.430459e-002 1.541376e+000 2.329041e-001 -1.676530e-001 1.136300e-002 1.353313e-001 5.447726e-001 4.644130e-001 2.134210e-001 7.357951e-002 1.225050e-001 8.739350e-002 -6.812379e-002 -6.917650e-002 -6.110802e-001
<VARIANCE> 39
 1.752673e+002 8.249714e+001 1.009697e+002 6.712570e+001 1.019826e+002 1.064789e+002 1.039291e+002 1.184888e+002 7.674052e+001 1.076327e+002 6.562161e+001 9.445045e+001 9.120687e+001 6.038010e+000 3.523355e+000 4.784616e+000 4.818574e+000 8.007210e+000 7.208162e+000 8.931826e+000 6.742323e+000 5.806121e+000 7.235516e+000 5.943342e+000 3.924334e+000 3.467818e+000 1.215339e+000 6.227881e-001 7.370189e-001 8.197494e-001 1.267769e+000 1.300783e+000 1.167496e+000 1.155280e+000 1.101587e+000 1.098493e+000 1.019611e+000 7.901524e-001 6.486835e-001
<GCONST> 1.530919e+002
<STATE> 4
<MEAN> 39
 -2.302894e+000 -4.043461e+000 -5.274667e+000 -1.439018e+001 -5.917357e+000 -7.404569e+000 -4.804397e+000 -5.767441e+000 -3.925650e+000 -1.022852e+001 -3.653845e+000 -5.387354e+000 7.566973e+001 8.417913e-001 -2.825823e-001 -8.411665e-002 -2.012865e-003 4.289972e-001 6.466353e-001 -1.729646e-001 6.622029e-004 -7.586393e-002 -1.176321e-001 -4.188055e-002 -9.456060e-002 -2.693755e-002 -2.344996e-001 1.198210e-001 2.073233e-002 3.696584e-001 3.033755e-001 1.667689e-001 1.627589e-001 5.895433e-002 3.735777e-002 3.090730e-001 1.067456e-001 -2.722190e-002 -4.514222e-001
<VARIANCE> 39
 1.254897e+002 8.822243e+001 1.076970e+002 8.736911e+001 1.141789e+002 1.508521e+002 1.086750e+002 1.319771e+002 7.385826e+001 1.965827e+002 7.270061e+001 1.052062e+002 1.143842e+002 2.449340e+000 2.698097e+000 2.559081e+000 3.648798e+000 4.538393e+000 4.415992e+000 4.894424e+000 4.144761e+000 3.911088e+000 3.684742e+000 3.656573e+000 3.206226e+000 2.547704e+000 5.416688e-001 4.434039e-001 5.116898e-001 6.525016e-001 1.024266e+000 7.786279e-001 9.293414e-001 9.175092e-001 7.709462e-001 8.172824e-001 6.316720e-001 5.776881e-001 3.817846e-001
<GCONST> 1.435820e+002
<TRANSP> 5
 0.000000e+000 1.000000e+000 0.000000e+000 0.000000e+000 0.000000e+000
 0.000000e+000 6.204019e-001 3.795982e-001 0.000000e+000 0.000000e+000
 0.000000e+000 0.000000e+000 4.713040e-001 5.286960e-001 0.000000e+000
 0.000000e+000 0.000000e+000 0.000000e+000 5.340620e-001 4.659380e-001
 0.000000e+000 0.000000e+000 0.000000e+000 0.000000e+000 0.000000e+000
<ENDHMM>
~h "v"
<BEGINHMM>
<NUMSTATES> 5
<STATE> 2
<MEAN> 39
 3.359743e+000 -2.893098e+000 -8.099786e+000 -1.673878e+001 -2.235028e+000 1.487718e+000 4.754199e-001 -4.419557e+000 -3.753788e+000 -2.539726e+000 -6.513001e-001 -7.378074e+000 6.199416e+001 -1.478368e+000 -9.833320e-002 -4.507343e-001 1.238514e+000 6.324559e-001 -4.546957e-001 1.351328e+000 8.461425e-001 1.356902e+000 -1.192916e-001 5.638199e-002 1.383300e-001 -1.085885e+000 -2.730104e-001 -2.040725e-001 1.387148e-002 -8.479570e-002 6.780224e-002 -5.451719e-002 -6.610091e-002 1.567373e-001 9.081712e-002 1.459338e-002 7.303276e-002 -1.197790e-003 1.360189e-001
<VARIANCE> 39
 8.297966e+001 6.051176e+001 1.515580e+002 2.148373e+002 6.618605e+001 1.204643e+002 9.777250e+001 6.190506e+001 7.088354e+001 5.469539e+001 6.016089e+001 5.297934e+001 6.371661e+001 1.682069e+000 1.639946e+000 2.987739e+000 3.007971e+000 3.637200e+000 4.139287e+000 3.458163e+000 5.186771e+000 4.837817e+000 3.534899e+000 3.285948e+000 2.301454e+000 5.788717e-001 2.228381e-001 1.608712e-001 3.625798e-001 5.049257e-001 5.093523e-001 5.684556e-001 6.254812e-001 7.909454e-001 7.927716e-001 6.500254e-001 4.985233e-001 4.278812e-001 8.494191e-002
<GCONST> 1.302472e+002
<STATE> 3
<MEAN> 39
 -7.069921e+000 -6.508224e+000 3.141653e-001 4.713448e-001 2.021629e-001 -3.196001e+000 9.350797e+000 6.597702e+000 5.424173e+000 3.247492e+000 1.110854e+000 -6.263400e+000 5.653361e+001 -1.184910e+000 -6.235481e-001 -5.012315e-001 5.021820e-001 1.089452e+000 6.101131e-001 1.081894e+000 1.183662e+000 7.067007e-001 7.104713e-002 -1.034431e-001 1.172431e-001 -4.512719e-001 5.107546e-001 3.113208e-002 2.342018e-001 -1.357723e-001 -5.636359e-001 -3.384129e-001 -3.381647e-001 -4.601147e-001 -6.601320e-001 -9.923060e-002 -4.119297e-002 -2.014266e-001 2.351881e-001
<VARIANCE> 39
 3.801513e+001 3.972727e+001 6.811031e+001 8.079694e+001 5.116430e+001 7.467495e+001 8.472453e+001 8.282454e+001 5.161040e+001 6.451597e+001 4.110987e+001 3.102121e+001 5.499799e+001 1.772828e+000 9.688088e-001 1.979674e+000 1.467918e+000 2.846289e+000 3.126832e+000 2.968508e+000 3.930313e+000 4.178602e+000 2.848591e+000 1.996896e+000 1.851384e+000 5.499514e-001 2.771911e-001 1.931414e-001 2.838742e-001 3.555696e-001 7.246944e-001 8.213330e-001 6.920410e-001 8.087671e-001 7.594579e-001 6.058153e-001 4.323336e-001 3.231367e-001 1.410198e-001
<GCONST> 1.223971e+002
<STATE> 4
<MEAN> 39
 -6.556880e+000 -5.297124e+000 -6.054616e+000 -1.213557e+001 3.046624e+000 1.772705e+000 8.745344e+000 3.777917e+000 2.575319e+000 -1.010762e+000 2.702409e+000 -8.395326e+000 5.068269e+001 -1.531144e-001 3.027620e-001 6.073528e-001 9.072599e-001 2.967887e-003 -3.093548e-001 -2.448295e-001 -2.281619e-001 -3.571304e-001 5.849158e-002 -2.185642e-001 1.344526e-001 -6.614911e-001 2.719552e-001 5.276157e-002 7.946953e-002 -2.582703e-002 -2.413119e-001 -1.236230e-001 -1.645469e-001 -1.562151e-001 -1.378800e-001 -1.640633e-002 -4.105438e-002 3.381038e-002 8.413829e-002
<VARIANCE> 39
 4.881089e+001 4.882829e+001 8.016228e+001 1.336085e+002 7.343783e+001 9.964893e+001 1.161791e+002 1.276343e+002 6.298251e+001 6.901834e+001 7.179818e+001 6.149952e+001 1.498115e+002 1.998462e+000 1.470158e+000 1.925505e+000 3.014137e+000 4.000531e+000 4.241615e+000 3.764168e+000 4.544941e+000 4.151132e+000 3.500541e+000 3.249513e+000 3.293158e+000 1.418391e+000 2.253824e-001 2.227155e-001 3.440976e-001 5.592076e-001 7.926762e-001 8.471878e-001 7.156282e-001 8.055692e-001 7.473742e-001 6.226693e-001 6.147385e-001 6.057687e-001 1.438835e-001
<GCONST> 1.336373e+002
<TRANSP> 5
 0.000000e+000 1.000000e+000 0.000000e+000 0.000000e+000 0.000000e+000
 0.000000e+000 7.063993e-001 2.936007e-001 0.000000e+000 0.000000e+000
 0.000000e+000 0.000000e+000 6.576421e-001 3.423579e-001 0.000000e+000
 0.000000e+000 0.000000e+000 0.000000e+000 7.217937e-001 2.782063e-001
 0.000000e+000 0.000000e+000 0.000000e+000 0.000000e+000 0.000000e+000
<ENDHMM>
~h "w"
<BEGINHMM>
<NUMSTATES> 5
<STATE> 2
<MEAN> 39
 3.819835e+000 4.635275e+000 -1.405108e+001 -1.308029e+001 -8.642171e+000 1.200130e+000 -1.144664e+001 -7.570648e+000 -6.063055e+000 -4.326577e+000 -6.994573e+000 -3.458307e+000 7.067813e+001 -4.110975e-001 -1.374212e+000 -7.355644e-001 -2.888083e-001 1.104521e+000 4.249232e-001 1.751394e-002 5.259207e-001 1.351750e+000 -5.274356e-001 -1.321433e+000 7.255599e-002 1.241562e+000 -2.516138e-001 -2.645916e-001 2.595466e-001 2.226355e-001 7.242165e-002 -2.200713e-001 3.117884e-001 1.649030e-001 8.379242e-002 -2.691960e-001 5.079626e-002 9.692194e-002 6.013414e-002
<VARIANCE> 39
 3.333529e+001 5.256032e+001 1.239265e+002 6.254551e+001 7.163403e+001 1.145475e+002 9.574670e+001 8.897734e+001 8.045982e+001 6.998889e+001 8.331621e+001 4.977238e+001 6.640838e+001 1.308408e+000 2.079011e+000 3.963403e+000 3.990990e+000 6.689847e+000 6.525565e+000 5.586423e+000 4.083943e+000 4.677175e+000 5.039821e+000 4.195012e+000 4.032674e+000 7.403014e-001 1.631055e-001 3.515519e-001 4.992085e-001 5.337856e-001 9.973227e-001 9.033595e-001 9.420129e-001 7.079142e-001 8.805050e-001 9.161534e-001 9.853070e-001 7.125406e-001 1.238584e-001
<GCONST> 1.363314e+002
<STATE> 3
<MEAN> 39
 -4.540320e+000 -7.096519e+000 -9.708379e+000 -1.174090e+001 3.338577e+000 -6.250044e+000 -4.164882e+000 -5.646892e+000 -2.937593e+000 -1.629354e+001 -1.404749e+001 1.113838e+000 7.880249e+001 -4.672734e-001 -1.450662e-001 7.960701e-001 2.110596e-001 -8.760535e-001 -2.327511e-001 1.092184e+000 7.351069e-001 -3.724438e-001 -1.022929e+000 7.128540e-001 3.550235e-001 3.602864e-001 5.232942e-002 1.492995e-001 8.700307e-002 -5.564851e-002 -2.754469e-001 2.312900e-001 -6.183144e-002 -8.276021e-002 -2.078673e-001 3.972781e-001 2.939431e-001 -1.875408e-001 -1.137559e-001
<VARIANCE> 39
 7.811903e+001 5.968817e+001 9.369963e+001 5.840467e+001 1.239842e+002 5.596503e+001 6.861238e+001 6.123979e+001 7.345949e+001 8.150708e+001 6.833068e+001 4.776329e+001 9.407540e+001 6.952950e-001 1.333412e+000 1.970283e+000 2.907614e+000 4.768770e+000 2.587816e+000 2.836087e+000 2.138069e+000 2.239530e+000 3.062653e+000 2.599679e+000 2.513406e+000 7.617707e-001 1.215113e-001 2.217023e-001 1.848200e-001 2.675367e-001 4.322267e-001 4.007861e-001 5.169055e-001 4.416759e-001 3.623267e-001 4.308680e-001 4.594367e-001 4.359699e-001 8.292805e-002
<GCONST> 1.209618e+002
<STATE> 4
<MEAN> 39
 1.091852e+001 1.140155e+000 -5.592265e+000 -1.700060e+001 -1.117809e+001 8.570317e-001 3.400704e+000 1.880732e+000 -6.208243e+000 -8.385109e+000 -3.233669e+000 -6.496312e+000 6.733356e+001 -1.208995e+000 -2.053324e+000 3.289320e-001 -1.094223e+000 -3.726642e-001 1.637378e+000 7.652397e-001 3.244197e-001 -4.026812e-001 1.094554e+000 1.405122e+000 -7.587264e-001 2.233983e+000 -2.786553e-001 -2.325974e-001 9.411301e-002 6.057364e-001 5.958694e-001 -5.803239e-002 -3.163382e-001 -3.993438e-001 3.353787e-002 2.027473e-001 -8.416666e-003 -2.270716e-001 4.629056e-003
<VARIANCE> 39
 1.082407e+002 8.056088e+001 1.198525e+002 1.448758e+002 4.988785e+001 1.583278e+002 6.604530e+001 6.846334e+001 4.775607e+001 6.426228e+001 6.480066e+001 6.044041e+001 9.380920e+001 4.298273e+000 5.036065e+000 4.258548e+000 7.578329e+000 6.776048e+000 6.450508e+000 5.079840e+000 4.677218e+000 3.931491e+000 3.336416e+000 3.180319e+000 4.155925e+000 4.204320e+000 4.793441e-001 5.486835e-001 5.094889e-001 1.306600e+000 6.982582e-001 1.456555e+000 8.288022e-001 6.837723e-001 7.199488e-001 6.002176e-001 7.366813e-001 6.851186e-001 3.252369e-001
<GCONST> 1.438938e+002
<TRANSP> 5
 0.000000e+000 1.000000e+000 0.000000e+000 0.000000e+000 0.000000e+000
 0.000000e+000 7.242277e-001 2.757723e-001 0.000000e+000 0.000000e+000
 0.000000e+000 0.000000e+000 7.507994e-001 2.492006e-001 0.000000e+000
 0.000000e+000 0.000000e+000 0.000000e+000 6.329817e-001 3.670184e-001
 0.000000e+000 0.000000e+000 0.000000e+000 0.000000e+000 0.000000e+000
<ENDHMM>
~h "z"
<BEGINHMM>
<NUMSTATES> 5
<STATE> 2
<MEAN> 39
 -1.834632e-001 1.915848e+000 -7.066669e+000 -1.697145e+001 -5.294443e+000 1.662144e+000 -5.432540e-001 -5.840185e+000 -5.806565e+000 -4.681103e+000 -1.422474e+000 -4.119507e+000 6.171603e+001 -1.676436e+000 4.173003e-001 5.117837e-001 4.176193e-001 8.461568e-001 -3.655240e-001 7.349896e-001 3.547803e-001 4.475713e-001 1.016901e-001 -1.480157e-002 -2.081860e-001 -5.359426e-001 -4.864180e-001 1.469371e-001 3.655634e-002 -1.359968e-001 3.065499e-001 -1.356612e-001 3.192082e-002 4.931614e-002 1.738679e-001 -6.355744e-002 1.031240e-001 3.749586e-002 3.545154e-001
<VARIANCE> 39
 1.253673e+002 5.031974e+001 1.103998e+002 2.073712e+002 6.987393e+001 1.400688e+002 1.233446e+002 7.175999e+001 5.620988e+001 4.384102e+001 3.359858e+001 4.506220e+001 5.827880e+001 5.189350e+000 2.198284e+000 4.335210e+000 4.068311e+000 5.852369e+000 4.316854e+000 6.373391e+000 4.738058e+000 4.609049e+000 4.228057e+000 4.094312e+000 3.772971e+000 3.604798e+000 5.209578e-001 3.336247e-001 5.431929e-001 4.491650e-001 6.618835e-001 6.946742e-001 8.456984e-001 8.466804e-001 7.159905e-001 7.196673e-001 7.386760e-001 6.209447e-001 3.100281e-001
<GCONST> 1.399859e+002
<STATE> 3
<MEAN> 39
 -2.093809e+001 1.070923e+001 -1.462659e+000 -1.840015e+001 8.932806e+000 -1.087188e+001 8.955612e+000 -3.764455e+000 6.770161e-001 -6.608725e+000 2.209401e+000 -8.371630e+000 6.129679e+001 -1.569245e+000 6.762754e-001 -4.019668e-001 9.731666e-001 1.582054e+000 -5.046545e-001 6.692806e-001 2.198642e-001 3.901044e-001 1.513087e-001 3.093075e-001 1.628944e-001 -2.055385e-001 4.936016e-001 -1.913589e-001 -7.649257e-002 2.271268e-001 -3.466313e-001 1.549350e-001 -4.145746e-002 -1.012139e-001 -1.032396e-001 6.504816e-002 -8.936319e-002 5.374302e-002 -2.458557e-001
<VARIANCE> 39
 6.057644e+001 1.205838e+002 1.368257e+002 2.143749e+002 1.423996e+002 1.881366e+002 2.616612e+002 1.484061e+002 1.505694e+002 9.721141e+001 9.604913e+001 6.754678e+001 5.485585e+001 5.120495e+000 3.208008e+000 3.316643e+000 3.727859e+000 5.189198e+000 5.834505e+000 6.078587e+000 6.157740e+000 4.504984e+000 4.539686e+000 3.888571e+000 2.106990e+000 2.040445e+000 3.478239e-001 3.821608e-001 5.559987e-001 6.475890e-001 6.895626e-001 7.535794e-001 1.099639e+000 1.167527e+000 8.787063e-001 7.356172e-001 7.459891e-001 4.951629e-001 1.903000e-001
<GCONST> 1.456418e+002
<STATE> 4
<MEAN> 39
 -2.527225e+001 1.267647e+001 -7.290955e+000 -1.247810e+000 4.593775e+000 -6.268380e+000 1.948535e+000 -4.825933e+000 -6.534314e-001 -5.590708e+000 2.018235e-002 -1.291317e+000 6.413509e+001 1.637847e-001 -2.504409e-001 1.351898e-002 1.571421e-001 3.400114e-003 9.739207e-002 1.118438e-001 1.456087e-001 1.177151e-001 1.431241e-001 1.589716e-002 9.067465e-002 -5.039432e-001 1.214056e-001 -5.641712e-002 7.526854e-002 -7.046238e-002 -4.122051e-002 2.707203e-002 -4.292975e-002 2.087486e-003 8.183475e-003 3.649777e-003 7.798438e-003 -1.667452e-003 -2.658092e-002
<VARIANCE> 39
 2.110069e+001 3.472515e+001 4.293824e+001 6.961731e+001 1.396529e+002 9.846196e+001 1.733562e+002 3.343718e+001 3.614000e+001 5.155042e+001 3.858391e+001 2.758291e+001 5.680975e+001 8.978307e-001 8.444051e-001 1.153789e+000 1.430496e+000 1.589616e+000 1.999850e+000 1.807227e+000 2.077642e+000 2.214902e+000 1.697422e+000 1.792960e+000 1.562701e+000 5.665567e-001 9.606613e-002 1.413622e-001 1.809774e-001 2.355456e-001 2.912166e-001 3.657779e-001 3.671836e-001 3.478293e-001 4.186740e-001 3.396958e-001 3.806217e-001 2.842593e-001 4.963579e-002
<GCONST> 1.085715e+002
<TRANSP> 5
 0.000000e+000 1.000000e+000 0.000000e+000 0.000000e+000 0.000000e+000
 0.000000e+000 8.074958e-001 1.925043e-001 0.000000e+000 0.000000e+000
 0.000000e+000 0.000000e+000 8.177416e-001 1.822584e-001 0.000000e+000
 0.000000e+000 0.000000e+000 0.000000e+000 9.152450e-001 8.475504e-002
 0.000000e+000 0.000000e+000 0.000000e+000 0.000000e+000 0.000000e+000
<ENDHMM>
~h "aa"
<BEGINHMM>
<NUMSTATES> 5
<STATE> 2
<MEAN> 39
 -5.162521e-001 -4.164414e+000 -2.334827e+000 -1.431377e+001 -3.408767e+000 -1.566694e+000 5.187688e+000 -2.681863e+000 -4.581316e+000 -2.142236e+000 -2.644578e+000 -1.161943e+001 6.510143e+001 1.340415e+000 -1.400099e+000 -1.110259e+000 -2.045491e+000 -2.110325e-001 1.915321e+000 -3.544993e-001 6.959677e-001 -5.345979e-001 -2.268032e-001 -1.623208e-001 -8.148169e-001 2.644852e+000 -1.199139e-001 -3.388301e-002 9.529733e-002 1.284876e-001 1.311087e-001 -4.727738e-002 -2.247002e-001 1.006033e-001 2.760246e-002 1.060914e-002 7.765504e-002 1.186201e-001 1.037786e-001
<VARIANCE> 39
 1.374163e+002 1.067412e+002 1.386738e+002 2.250752e+002 8.694888e+001 1.776485e+002 1.849050e+002 1.379571e+002 1.050053e+002 1.090119e+002 5.606602e+001 9.443880e+001 2.523534e+002 1.122464e+001 7.341204e+000 1.058852e+001 1.837986e+001 7.909564e+000 1.082233e+001 1.404875e+001 1.103593e+001 9.531180e+000 7.010644e+000 4.778952e+000 5.419888e+000 1.158432e+001 1.872645e+000 1.395291e+000 1.845654e+000 3.682995e+000 1.306857e+000 2.062757e+000 2.642118e+000 2.153844e+000 1.777777e+000 1.467526e+000 7.836674e-001 9.658453e-001 1.667666e+000
<GCONST> 1.707432e+002
<STATE> 3
<MEAN> 39
 3.176520e+000 -1.443163e+001 -7.156295e+000 -1.619563e+001 -4.968463e-001 7.026766e+000 4.105842e+000 3.141343e+000 -3.334593e+000 -2.183626e+000 -1.832005e+000 -1.461561e+001 7.668045e+001 8.254074e-001 -2.720233e-001 1.932311e-001 4.579415e-001 1.431226e-001 5.072264e-002 -6.241089e-001 5.509879e-002 -1.852303e-001 -2.011896e-001 -1.041422e-001 2.016815e-001 -4.227017e-001 1.713659e-001 2.416165e-001 1.396615e-003 9.858207e-002 -5.203103e-002 -2.183502e-001 -1.345754e-001 -1.655094e-001 3.275093e-002 7.735571e-002 6.735276e-003 1.593166e-001 -3.442006e-001
<VARIANCE> 39
 4.259901e+001 3.513521e+001 1.075246e+002 9.146486e+001 7.711165e+001 7.720900e+001 6.521855e+001 6.251344e+001 5.727240e+001 8.103355e+001 4.356767e+001 4.976702e+001 1.140688e+002 1.449863e+000 1.503501e+000 1.597440e+000 3.620663e+000 3.961935e+000 3.373465e+000 2.861790e+000 2.909019e+000 2.919350e+000 3.216024e+000 1.754931e+000 2.239789e+000 2.002479e+000 1.923344e-001 2.158355e-001 3.102534e-001 5.042261e-001 6.179936e-001 5.652508e-001 4.847483e-001 5.835471e-001 5.572410e-001 5.024242e-001 3.486468e-001 3.747481e-001 2.207023e-001
<GCONST> 1.254263e+002
<STATE> 4
<MEAN> 39
 8.276442e+000 -1.063417e+001 -6.189031e+000 -1.184557e+001 -1.364520e+000 3.070261e+000 -7.458517e-001 8.552352e-001 -3.496862e+000 -2.682232e+000 -1.911398e+000 -9.988300e+000 6.598996e+001 3.799184e-001 1.187315e+000 -8.505439e-002 8.763969e-001 2.021787e-001 -5.695077e-001 -3.487813e-001 -3.170134e-001 6.994118e-002 -2.447050e-002 -1.530936e-001 4.987011e-001 -1.557200e+000 -1.753918e-001 1.375911e-001 -3.151394e-002 -2.243281e-002 -2.400902e-002 3.775459e-002 2.047419e-001 -6.490289e-002 -3.350408e-002 -6.298079e-002 -7.104602e-002 -1.044688e-001 5.602793e-002
<VARIANCE> 39
 7.149799e+001 6.793200e+001 9.218848e+001 1.683411e+002 7.899213e+001 7.043405e+001 5.722393e+001 5.642992e+001 6.147701e+001 5.314880e+001 5.998912e+001 5.080347e+001 1.057604e+002 1.580820e+000 1.644011e+000 2.593251e+000 3.845128e+000 2.987389e+000 3.927033e+000 3.792922e+000 3.124060e+000 3.287335e+000 3.776021e+000 2.479589e+000 2.589960e+000 1.209025e+000 1.339953e-001 3.210132e-001 3.924712e-001 5.438049e-001 5.626532e-001 6.822919e-001 6.732083e-001 6.244545e-001 4.907675e-001 4.596199e-001 4.510922e-001 4.194296e-001 1.958119e-001
<GCONST> 1.287526e+002
<TRANSP> 5
 0.000000e+000 1.000000e+000 0.000000e+000 0.000000e+000 0.000000e+000
 0.000000e+000 6.893642e-001 3.106358e-001 0.000000e+000 0.000000e+000
 0.000000e+000 0.000000e+000 7.662342e-001 2.337657e-001 0.000000e+000
 0.000000e+000 0.000000e+000 0.000000e+000 6.681505e-001 3.318495e-001
 0.000000e+000 0.000000e+000 0.000000e+000 0.000000e+000 0.000000e+000
<ENDHMM>
~h "ae"
<BEGINHMM>
<NUMSTATES> 5
<STATE> 2
<MEAN> 39
 -8.963399e-001 -7.778032e+000 -1.871099e+000 -1.013625e+001 -4.483209e+000 -6.457321e+000 1.247039e+000 2.880485e+000 -1.459738e+000 -4.199325e+000 -4.963233e+000 -1.070345e+001 6.533720e+001 1.295361e+000 -2.837008e+000 4.446969e-001 -1.851032e+000 -2.161491e+000 1.340206e-001 -2.192261e-001 1.389051e+000 -6.977239e-001 -7.796156e-001 -6.478691e-001 -8.715768e-001 3.897083e+000 -3.856590e-001 2.901623e-001 2.215578e-001 3.643651e-001 2.082064e-001 -1.148898e-002 5.930033e-002 -9.299781e-003 8.099021e-003 1.716225e-001 3.653225e-001 2.914046e-001 -2.537652e-001
<VARIANCE> 39
 1.027526e+002 1.305147e+002 1.206896e+002 1.222758e+002 1.819316e+002 1.048698e+002 1.539289e+002 2.638155e+002 1.019574e+002 1.120081e+002 1.095669e+002 1.557090e+002 2.624964e+002 9.723267e+000 1.050323e+001 7.866709e+000 1.089312e+001 1.583703e+001 1.173075e+001 8.977139e+000 1.293092e+001 9.756937e+000 1.000345e+001 9.099687e+000 8.229074e+000 7.441575e+000 1.178702e+000 1.907158e+000 1.167936e+000 1.747999e+000 2.318135e+000 1.428296e+000 1.543358e+000 2.191032e+000 1.457069e+000 1.526879e+000 1.444448e+000 1.407741e+000 1.603097e+000
<GCONST> 1.717869e+002
<STATE> 3
<MEAN> 39
 2.041107e+000 -1.520783e+001 2.821834e+000 -8.605381e+000 -9.714499e+000 -6.304217e+000 6.222865e+000 1.266750e+001 -1.065205e+000 -4.484282e+000 -4.574030e+000 -1.194456e+001 7.007075e+001 4.194471e-001 3.618014e-001 4.832673e-001 5.190186e-002 -7.204366e-001 -5.297900e-001 -3.136804e-001 -6.669089e-001 -2.025609e-001 3.071448e-001 2.222371e-001 3.703144e-001 1.962748e-001 -8.371180e-002 4.556212e-001 -1.081529e-001 3.955739e-001 4.313506e-001 -2.241625e-002 -1.900575e-001 -3.176784e-001 2.074234e-001 2.969131e-001 6.989179e-002 1.204336e-001 -5.795813e-001
<VARIANCE> 39
 3.289031e+001 4.210936e+001 1.009432e+002 4.179652e+001 6.819608e+001 5.848084e+001 9.291232e+001 1.258465e+002 8.095887e+001 9.328717e+001 7.305336e+001 5.481859e+001 1.230788e+002 1.719866e+000 2.259588e+000 2.344859e+000 2.567274e+000 3.758111e+000 4.040587e+000 3.169269e+000 4.869689e+000 4.545797e+000 3.828798e+000 2.372846e+000 2.379197e+000 1.797407e+000 2.997990e-001 3.689155e-001 3.368913e-001 4.400001e-001 6.275517e-001 6.332479e-001 4.668090e-001 7.953567e-001 8.689600e-001 7.471235e-001 4.737175e-001 4.684471e-001 2.853062e-001
<GCONST> 1.315207e+002
<STATE> 4
<MEAN> 39
 5.725899e+000 -1.072640e+001 1.155966e+001 -4.115426e+000 -1.311395e+001 -1.527902e+001 4.093939e-001 1.127186e+001 -8.764234e+000 -5.678742e+000 -3.749655e+000 -1.011725e+001 6.795834e+001 -7.568961e-003 1.296618e+000 2.482510e-001 8.992063e-001 1.089542e-001 -2.839608e-001 -4.825974e-001 -6.382666e-001 2.970883e-001 -1.055373e-001 1.843307e-001 3.318014e-001 -1.339744e+000 -1.341142e-001 2.906177e-002 -7.418077e-002 -3.885513e-002 1.207806e-001 1.278300e-001 1.399396e-001 3.010044e-002 3.384588e-002 -2.631544e-002 -4.289977e-002 -1.426742e-001 -9.710041e-002
<VARIANCE> 39
 5.111520e+001 6.944186e+001 2.153736e+002 8.299569e+001 9.189494e+001 1.516224e+002 7.921770e+001 1.362436e+002 1.212205e+002 9.926421e+001 5.806017e+001 5.400501e+001 1.070440e+002 1.106387e+000 2.712780e+000 5.714243e+000 4.605028e+000 4.820106e+000 4.440890e+000 3.784292e+000 5.148575e+000 6.438593e+000 4.478084e+000 3.478439e+000 3.304975e+000 3.053660e+000 2.554151e-001 4.943973e-001 1.076631e+000 9.031622e-001 8.516348e-001 8.402675e-001 7.544472e-001 8.677606e-001 1.168768e+000 7.713123e-001 5.672135e-001 5.987307e-001 5.178718e-001
<GCONST> 1.432159e+002
<TRANSP> 5
 0.000000e+000 1.000000e+000 0.000000e+000 0.000000e+000 0.000000e+000
 0.000000e+000 6.376085e-001 3.623916e-001 0.000000e+000 0.000000e+000
 0.000000e+000 0.000000e+000 7.407241e-001 2.592759e-001 0.000000e+000
 0.000000e+000 0.000000e+000 0.000000e+000 7.173893e-001 2.826107e-001
 0.000000e+000 0.000000e+000 0.000000e+000 0.000000e+000 0.000000e+000
<ENDHMM>
~h "ah"
<BEGINHMM>
<NUMSTATES> 5
<STATE> 2
<MEAN> 39
 3.441693e+000 -1.304386e+001 -6.089935e+000 -1.433997e+001 9.648123e-001 3.448983e+000 -8.577678e-001 2.767553e+000 -2.722755e+000 -1.881382e+000 -5.070117e+000 -1.526040e+001 7.848354e+001 2.059993e-001 -1.001848e+000 9.258953e-002 6.276985e-001 1.043768e+000 2.367618e-001 -6.043390e-001 1.181615e-001 -2.857708e-001 4.941234e-001 -3.879001e-001 -8.675696e-001 6.003015e-001 1.978191e-001 4.125673e-001 1.623664e-001 1.886904e-001 -2.137417e-002 -1.543719e-001 -1.095704e-001 -9.422015e-002 7.574714e-003 -5.522058e-002 -4.239469e-002 2.256638e-001 -5.515114e-001
<VARIANCE> 39
 7.588827e+001 6.004953e+001 7.502613e+001 7.451717e+001 8.410525e+001 1.238348e+002 1.276850e+002 8.274698e+001 5.954670e+001 1.040245e+002 1.124370e+002 1.275191e+002 9.302087e+001 3.205962e+000 3.441133e+000 3.910254e+000 4.221527e+000 4.519790e+000 4.252867e+000 4.940897e+000 4.434335e+000 3.798932e+000 4.411442e+000 4.506423e+000 4.579299e+000 3.953614e+000 5.573167e-001 5.791445e-001 5.413941e-001 7.342334e-001 7.510768e-001 6.948692e-001 9.117939e-001 8.633690e-001 6.391351e-001 7.663726e-001 8.137469e-001 7.821587e-001 3.466859e-001
<GCONST> 1.433822e+002
<STATE> 3
<MEAN> 39
 -6.406362e-001 -1.062239e+001 -1.029425e+001 -1.103738e+001 -1.723860e+000 -8.487288e-001 -5.680213e+000 -8.798962e-001 -2.329978e+000 -6.253836e+000 -3.917930e+000 -1.058033e+001 7.917272e+001 3.172657e-001 1.929084e-001 -1.121035e-002 2.262531e-001 1.881256e-001 2.405618e-001 -1.613576e-001 -1.289628e-001 -2.898662e-001 -3.021847e-003 4.890107e-002 -1.213384e-002 -4.251164e-001 6.467926e-002 1.684758e-001 1.408216e-001 1.257010e-002 -7.060695e-002 -1.752139e-001 3.803402e-002 -2.162136e-002 -4.547988e-002 1.625181e-002 2.033663e-002 1.276043e-001 -1.814567e-001
<VARIANCE> 39
 6.193946e+001 7.927919e+001 5.575612e+001 5.024260e+001 6.780145e+001 8.335287e+001 1.699547e+002 9.016590e+001 8.405736e+001 9.516807e+001 8.192945e+001 9.564280e+001 8.415802e+001 5.169701e-001 1.003264e+000 1.266516e+000 1.452317e+000 2.085395e+000 2.249758e+000 1.951917e+000 2.117898e+000 2.306109e+000 1.894498e+000 1.932779e+000 1.997242e+000 5.459275e-001 7.147262e-002 1.277947e-001 1.664365e-001 2.035880e-001 3.031230e-001 2.819868e-001 3.494616e-001 3.631476e-001 3.610067e-001 3.610020e-001 3.252061e-001 3.256453e-001 4.705801e-002
<GCONST> 1.139715e+002
<STATE> 4
<MEAN> 39
 1.169765e+001 -9.516800e+000 -8.966863e+000 -9.233479e+000 5.210106e+000 1.758809e+000 -4.478944e+000 -1.257227e+000 -4.554818e+000 -2.251838e+000 -7.716605e+000 -1.679493e+001 6.485837e+001 8.030643e-002 1.204079e+000 -9.260898e-003 3.566771e-001 -5.798831e-002 -3.246196e-001 1.243722e-001 -5.234985e-001 6.275518e-002 -2.755281e-001 -2.255698e-001 4.804532e-001 -1.677444e+000 -2.248170e-001 8.673467e-002 2.669980e-002 -8.360568e-004 -3.397767e-003 -1.552882e-002 1.523892e-001 -7.423164e-004 1.162599e-001 7.453063e-003 3.986810e-002 1.634047e-002 6.648291e-005
<VARIANCE> 39
 5.617010e+001 7.259204e+001 6.977566e+001 8.573804e+001 7.536302e+001 1.100215e+002 6.380463e+001 8.997957e+001 7.513972e+001 6.781087e+001 6.090995e+001 6.967723e+001 1.097180e+002 1.685762e+000 1.790597e+000 3.055111e+000 2.431386e+000 2.562231e+000 2.715425e+000 3.669068e+000 3.908475e+000 3.419731e+000 3.348522e+000 2.395860e+000 2.418037e+000 4.888048e-001 1.658389e-001 2.308519e-001 3.737988e-001 3.976975e-001 4.617288e-001 4.521200e-001 5.907634e-001 6.783540e-001 6.174804e-001 5.809453e-001 4.645049e-001 4.026643e-001 6.544881e-002
<GCONST> 1.260667e+002
<TRANSP> 5
 0.000000e+000 1.000000e+000 0.000000e+000 0.000000e+000 0.000000e+000
 0.000000e+000 6.583489e-001 3.416511e-001 0.000000e+000 0.000000e+000
 0.000000e+000 0.000000e+000 8.250632e-001 1.749368e-001 0.000000e+000
 0.000000e+000 0.000000e+000 0.000000e+000 8.137333e-001 1.862667e-001
 0.000000e+000 0.000000e+000 0.000000e+000 0.000000e+000 0.000000e+000
<ENDHMM>
~h "ao"
<BEGINHMM>
<NUMSTATES> 5
<STATE> 2
<MEAN> 39
 7.995530e+000 -7.571248e+000 -1.771110e+001 -1.565667e+001 -2.830618e+000 2.572570e-001 -1.466120e+000 -6.161452e+000 -3.682773e+000 4.574420e-001 1.836953e+000 -8.360832e+000 5.785643e+001 -7.140112e-001 3.864099e-001 4.697732e-001 4.722795e-001 2.741134e-001 -7.688982e-002 4.258527e-001 4.435951e-001 4.797728e-001 3.786104e-001 4.123149e-001 4.321139e-001 -1.291946e+000 -1.456246e-001 2.695690e-003 2.260431e-001 -4.443494e-002 2.048696e-002 -8.264631e-002 -7.004080e-002 2.146571e-001 -4.359533e-002 -1.093899e-001 -2.079185e-003 -1.764474e-002 1.425216e-001
<VARIANCE> 39
 8.809866e+001 3.558736e+001 6.344306e+001 6.544835e+001 4.552147e+001 6.441685e+001 7.884744e+001 8.566228e+001 7.383759e+001 6.457310e+001 8.161071e+001 4.587965e+001 8.706799e+001 1.017619e+000 1.391516e+000 2.584596e+000 3.098125e+000 3.089464e+000 3.605221e+000 3.959942e+000 4.362516e+000 4.511325e+000 4.963701e+000 4.048562e+000 3.056264e+000 6.116354e-001 1.593138e-001 2.331190e-001 3.938795e-001 4.695613e-001 5.914232e-001 6.492810e-001 6.771120e-001 8.979173e-001 8.348134e-001 9.249848e-001 7.896462e-001 6.494879e-001 1.709206e-001
<GCONST> 1.297172e+002
<STATE> 3
<MEAN> 39
 -1.787663e+000 -5.564671e+000 -9.321638e+000 -1.292078e+001 1.792426e+000 -7.074230e-001 -1.487455e+000 2.410647e+000 5.909452e-001 1.697921e+000 2.474711e+000 -6.828798e+000 5.502658e+001 -8.175758e-001 1.929289e-001 2.095682e+000 1.049678e-001 7.790260e-001 -9.913434e-001 -1.225915e+000 1.603136e+000 -1.755838e-001 -6.092172e-001 -4.712829e-001 -8.772766e-001 5.445923e-001 2.713011e-001 2.916906e-001 -4.651068e-002 -1.123760e-001 -3.261055e-001 -4.512412e-001 -4.716876e-001 -5.640137e-001 -4.397000e-001 -2.717153e-001 -1.998357e-001 -3.444783e-002 5.973930e-001
<VARIANCE> 39
 6.034941e+001 4.020108e+001 5.667788e+001 1.572124e+002 6.534099e+001 5.685937e+001 1.077973e+002 1.440922e+002 7.151591e+001 1.184555e+002 1.227839e+002 5.841768e+001 1.091024e+002 3.099043e+000 2.620871e+000 3.974095e+000 7.625841e+000 6.689845e+000 4.962055e+000 7.985447e+000 1.296721e+001 6.322105e+000 6.975532e+000 6.203794e+000 5.778327e+000 1.848921e+000 8.682687e-001 6.986055e-001 6.269561e-001 1.548948e+000 1.044347e+000 1.000178e+000 1.287464e+000 2.775157e+000 1.340243e+000 1.268833e+000 1.282314e+000 1.038177e+000 4.526145e-001
<GCONST> 1.514928e+002
<STATE> 4
<MEAN> 39
 -1.074117e+001 5.211077e-001 -4.041594e+000 -9.625858e+000 -7.851111e+000 -1.320243e+001 -6.281135e+000 -7.782878e+000 -8.815308e+000 -1.214873e+001 -5.255875e+000 -2.672152e+000 6.777641e+001 -3.866708e-001 4.974711e-001 4.703217e-001 -1.465816e-001 -2.127667e-001 -6.040916e-001 -1.503667e-001 -3.291544e-002 -2.079729e-001 -1.966013e-002 3.769341e-001 3.006817e-001 3.710340e-001 1.165813e-001 1.437175e-003 -1.353934e-001 -1.421271e-001 -7.482390e-003 -7.929242e-002 -1.314361e-002 -1.019644e-001 2.990041e-002 -1.097795e-001 -1.164561e-001 1.046209e-001 2.007370e-001
<VARIANCE> 39
 6.694925e+001 3.840754e+001 2.637387e+001 4.389419e+001 6.070612e+001 8.191287e+001 5.414316e+001 5.007182e+001 6.400457e+001 1.056049e+002 6.730610e+001 6.197920e+001 9.311915e+001 6.101993e+000 3.866519e+000 2.352575e+000 5.807599e+000 5.958638e+000 7.607183e+000 5.795024e+000 5.707428e+000 6.801510e+000 8.275308e+000 7.982302e+000 6.085520e+000 8.924571e+000 1.047349e+000 6.264298e-001 4.483270e-001 9.455572e-001 1.162517e+000 1.189274e+000 1.028331e+000 8.116698e-001 1.287001e+000 1.529697e+000 1.614521e+000 9.979153e-001 1.143468e+000
<GCONST> 1.480316e+002
<TRANSP> 5
 0.000000e+000 1.000000e+000 0.000000e+000 0.000000e+000 0.000000e+000
 0.000000e+000 7.655379e-001 2.344622e-001 0.000000e+000 0.000000e+000
 0.000000e+000 0.000000e+000 4.470228e-001 5.529771e-001 0.000000e+000
 0.000000e+000 0.000000e+000 0.000000e+000 8.160740e-001 1.839260e-001
 0.000000e+000 0.000000e+000 0.000000e+000 0.000000e+000 0.000000e+000
<ENDHMM>
~h "aw"
<BEGINHMM>
<NUMSTATES> 5
<STATE> 2
<MEAN> 39
 1.715602e+000 -4.921017e+000 -1.466765e+001 -1.335890e+001 -6.224257e+000 6.186722e-001 -8.588380e+000 -7.794569e+000 -4.605205e+000 -1.047935e+001 -7.454265e+000 -5.708997e+000 7.493215e+001 3.473362e-001 1.001764e-001 3.412393e-002 2.344441e-001 -4.515252e-001 -6.222441e-002 -1.153664e-001 -1.155031e-001 -2.875709e-001 4.691269e-001 2.521443e-001 -4.417115e-002 -2.726702e-001 -3.863966e-002 1.996282e-002 5.747570e-002 6.955342e-002 -6.702747e-002 -1.816022e-001 5.968873e-003 8.117268e-002 6.165866e-002 5.216435e-003 3.272546e-002 6.757881e-003 -1.719092e-002
<VARIANCE> 39
 7.928750e+001 7.132752e+001 4.697014e+001 4.455003e+001 7.267655e+001 1.262878e+002 1.187242e+002 7.483625e+001 6.878426e+001 1.716149e+002 1.112267e+002 6.296096e+001 5.510612e+001 5.554066e-001 1.527705e+000 1.288878e+000 1.481231e+000 1.953799e+000 2.577523e+000 2.537919e+000 3.049481e+000 3.218086e+000 2.935194e+000 2.773389e+000 2.381447e+000 6.423041e-001 8.437406e-002 2.308372e-001 1.797841e-001 2.243597e-001 2.654811e-001 3.570622e-001 3.822431e-001 4.268252e-001 5.404350e-001 4.937863e-001 4.056152e-001 4.026218e-001 1.033049e-001
<GCONST> 1.195345e+002
<STATE> 3
<MEAN> 39
 1.480568e+001 -1.002536e+001 -1.791121e+001 -3.269706e+000 -2.104099e+000 -5.629449e+000 -4.684382e+000 -1.071448e+000 -5.454460e+000 -2.340343e+000 1.927354e+000 -5.562919e+000 6.861304e+001 2.465970e-002 1.507409e-001 1.282018e-001 5.669057e-001 1.842183e-001 -1.054831e+000 -6.959350e-001 1.879711e-001 4.765380e-001 -2.111798e-001 -5.602787e-002 3.790700e-001 -5.113413e-001 -9.465890e-002 2.471534e-001 1.913706e-001 -2.477941e-001 -2.662841e-003 1.826610e-001 7.791705e-002 -1.531121e-001 -1.748868e-003 -9.706569e-004 -5.981687e-002 -3.338423e-003 -1.334719e-001
<VARIANCE> 39
 8.091851e+001 4.567331e+001 4.185162e+001 5.418710e+001 8.897186e+001 8.389439e+001 8.321976e+001 5.407871e+001 7.766058e+001 5.955085e+001 4.469686e+001 4.760793e+001 4.425525e+001 9.346679e-001 2.854982e+000 1.836353e+000 3.777426e+000 2.246715e+000 3.925059e+000 2.858240e+000 4.078729e+000 3.738141e+000 2.772699e+000 2.711716e+000 2.282716e+000 9.439074e-001 1.697364e-001 2.636028e-001 2.619437e-001 3.668683e-001 3.281612e-001 4.370121e-001 4.551660e-001 5.886208e-001 6.052528e-001 4.401300e-001 4.367678e-001 4.125481e-001 9.199797e-002
<GCONST> 1.223645e+002
<STATE> 4
<MEAN> 39
 6.933645e+000 -5.172368e+000 -1.119522e+001 -7.408513e+000 -5.033597e+000 -6.129733e+000 -8.546065e+000 -2.246208e+000 -2.572831e+000 -2.311857e+000 -9.070442e-001 -7.259004e+000 6.492780e+001 -6.098760e-001 9.992645e-001 1.118443e+000 -2.100894e-001 -1.906682e-002 -5.751784e-001 5.528066e-001 -3.016243e-001 -1.890806e-001 -2.275497e-001 1.647861e-001 -2.122840e-002 -9.163602e-001 -1.448298e-001 1.821578e-001 -7.753929e-002 1.507654e-002 2.682365e-001 1.314261e-001 2.061133e-001 -1.232910e-001 -2.024483e-001 -8.971831e-002 -3.081873e-002 -4.228129e-002 -6.767620e-002
<VARIANCE> 39
 7.491200e+001 3.640589e+001 5.253335e+001 5.813835e+001 1.701563e+002 7.148293e+001 1.154004e+002 6.379874e+001 1.104272e+002 9.488450e+001 6.659432e+001 6.091754e+001 8.328014e+001 1.173650e+000 2.105788e+000 2.783049e+000 3.806813e+000 4.522089e+000 4.094497e+000 4.145564e+000 5.098390e+000 5.534447e+000 3.533242e+000 3.447455e+000 3.086986e+000 9.058707e-001 2.535544e-001 3.070385e-001 4.039118e-001 6.352057e-001 9.535434e-001 6.953571e-001 8.536938e-001 9.216583e-001 1.091295e+000 7.901188e-001 7.032934e-001 5.859892e-001 1.225063e-001
<GCONST> 1.346859e+002
<TRANSP> 5
 0.000000e+000 1.000000e+000 0.000000e+000 0.000000e+000 0.000000e+000
 0.000000e+000 9.269637e-001 7.303626e-002 0.000000e+000 0.000000e+000
 0.000000e+000 0.000000e+000 8.054527e-001 1.945473e-001 0.000000e+000
 0.000000e+000 0.000000e+000 0.000000e+000 6.827204e-001 3.172796e-001
 0.000000e+000 0.000000e+000 0.000000e+000 0.000000e+000 0.000000e+000
<ENDHMM>
~h "ax"
<BEGINHMM>
<NUMSTATES> 5
<STATE> 2
<MEAN> 39
 -2.527792e-001 2.533128e+000 -4.707130e+000 -1.018716e+001 -8.425091e+000 -1.049891e+001 -1.036650e+001 -6.878646e+000 -7.880826e+000 -1.113001e+001 -5.529816e+000 -7.089326e+000 6.915830e+001 -6.945509e-002 1.556552e+000 3.145393e-001 1.091320e+000 3.636027e-001 8.108639e-001 4.144801e-001 -6.521831e-001 -6.158839e-001 5.146744e-001 -2.893943e-001 -6.974117e-001 -1.803963e+000 -1.732258e-001 -2.685511e-001 2.213897e-002 1.143604e-001 3.899419e-002 2.662518e-002 1.581065e-001 1.290844e-001 1.122727e-001 7.624263e-002 -4.860809e-002 2.065774e-001 -3.570873e-002
<VARIANCE> 39
 1.147815e+002 5.396522e+001 5.243520e+001 4.355506e+001 1.060537e+002 9.427660e+001 6.823324e+001 5.324061e+001 7.380031e+001 1.409997e+002 7.145184e+001 6.062700e+001 5.139919e+001 2.378010e+000 3.057095e+000 2.575770e+000 3.379456e+000 5.656413e+000 3.851418e+000 4.501163e+000 4.089241e+000 4.597623e+000 4.949355e+000 3.828405e+000 4.418889e+000 1.657910e+000 4.044071e-001 4.218807e-001 3.893684e-001 4.748163e-001 7.149477e-001 7.063563e-001 7.147757e-001 6.536785e-001 6.564785e-001 8.174787e-001 6.441659e-001 6.041749e-001 2.623166e-001
<GCONST> 1.359090e+002
<STATE> 3
<MEAN> 39
 1.162495e+001 3.467857e+000 -4.119681e+000 -5.915878e+000 -1.228597e+000 -4.104687e+000 -7.465178e+000 -5.721519e+000 -7.102785e+000 -3.165798e+000 -3.242887e+000 -8.965631e+000 6.000983e+001 -4.695759e-001 6.585594e-001 5.775800e-001 8.311355e-001 -1.414216e-001 -1.632090e-001 3.325510e-001 -4.295095e-001 -1.325537e-002 -2.501802e-001 -1.290766e-001 3.976468e-001 -1.221622e+000 -1.284659e-001 -1.608712e-001 -4.221863e-002 -1.039232e-001 -3.413838e-002 -9.964375e-002 -6.023923e-002 1.110918e-001 1.248435e-001 2.267884e-002 1.534688e-002 3.507868e-002 9.093308e-002
<VARIANCE> 39
 9.321831e+001 1.087241e+002 5.719291e+001 6.482918e+001 7.030008e+001 8.797440e+001 8.102893e+001 7.910339e+001 6.951508e+001 6.962990e+001 5.325730e+001 6.116272e+001 7.726192e+001 1.051483e+000 1.291734e+000 2.023146e+000 2.389078e+000 2.504667e+000 3.003578e+000 3.355110e+000 2.896341e+000 2.912630e+000 3.037553e+000 2.704171e+000 2.162025e+000 6.073155e-001 1.033149e-001 1.759401e-001 2.515831e-001 3.170252e-001 4.154944e-001 4.721003e-001 4.526903e-001 5.603570e-001 5.306724e-001 4.791085e-001 4.598291e-001 4.311588e-001 9.292553e-002
<GCONST> 1.222555e+002
<STATE> 4
<MEAN> 39
 -3.669094e+000 5.203784e+000 -2.849274e+000 -3.925129e+000 -6.405146e+000 -6.457668e+000 -8.126688e+000 -6.735013e+000 -5.591698e+000 -6.230373e+000 -5.902193e+000 -4.406727e+000 6.310999e+001 -5.881946e-001 -1.216139e-001 2.860037e-001 2.203883e-001 4.252054e-001 3.505687e-001 4.686075e-001 2.800841e-002 1.048514e-001 3.025427e-001 2.719578e-001 2.197659e-001 -4.788688e-001 -1.270051e-001 -1.012856e-001 -1.182261e-001 -2.347976e-001 3.844648e-002 -5.107680e-002 -1.024009e-001 7.775921e-002 1.060530e-001 8.041657e-003 4.691589e-002 7.179035e-002 3.329164e-001
<VARIANCE> 39
 6.711411e+001 3.066595e+001 2.848758e+001 2.383950e+001 4.289458e+001 3.974587e+001 4.538810e+001 3.648882e+001 6.160120e+001 6.209868e+001 4.699838e+001 2.805480e+001 4.034288e+001 9.342663e-001 9.391835e-001 1.060266e+000 1.438004e+000 1.917109e+000 1.886513e+000 2.604384e+000 2.427408e+000 2.264128e+000 2.301011e+000 2.218382e+000 1.906112e+000 7.633767e-001 2.040622e-001 2.217852e-001 2.524005e-001 2.938603e-001 3.684812e-001 3.940201e-001 5.026051e-001 4.648065e-001 4.977551e-001 4.810012e-001 4.602329e-001 4.276321e-001 2.297407e-001
<GCONST> 1.124487e+002
<TRANSP> 5
 0.000000e+000 1.000000e+000 0.000000e+000 0.000000e+000 0.000000e+000
 0.000000e+000 5.056086e-001 4.943914e-001 0.000000e+000 0.000000e+000
 0.000000e+000 0.000000e+000 7.052671e-001 2.947329e-001 0.000000e+000
 0.000000e+000 0.000000e+000 0.000000e+000 7.438465e-001 2.561535e-001
 0.000000e+000 0.000000e+000 0.000000e+000 0.000000e+000 0.000000e+000
<ENDHMM>
~h "ay"
<BEGINHMM>
<NUMSTATES> 5
<STATE> 2
<MEAN> 39
 -7.530871e+000 -1.088275e+001 -8.885365e+000 -8.742552e+000 -5.400583e+000 -4.154208e+000 7.240719e-001 1.559622e-002 -3.415013e+000 -1.203068e+001 -6.271246e+000 -3.020524e+000 8.575750e+001 -9.003400e-002 9.236997e-002 8.094404e-001 -2.761631e-001 -1.211152e+000 -2.489288e-001 6.811455e-002 4.854105e-002 -4.249065e-001 4.759966e-001 -2.098861e-002 -2.767914e-001 -1.508398e-001 1.013025e-001 1.848149e-001 2.309054e-001 -2.224233e-001 -2.377077e-001 -9.156255e-002 -2.396050e-001 -9.281468e-002 9.796229e-002 2.462232e-001 -2.586032e-002 8.162045e-003 -1.422235e-001
<VARIANCE> 39
 6.613866e+001 5.252272e+001 5.334293e+001 3.090215e+001 1.131352e+002 5.078719e+001 7.234559e+001 8.067388e+001 8.020370e+001 1.080286e+002 4.727473e+001 1.353831e+002 7.833723e+001 3.793395e-001 9.610265e-001 1.348803e+000 1.798889e+000 2.970879e+000 2.092094e+000 2.784796e+000 2.344318e+000 2.256211e+000 3.490293e+000 2.805795e+000 2.088644e+000 2.181338e-001 5.570347e-002 1.207714e-001 1.463599e-001 2.051882e-001 3.045683e-001 3.097954e-001 4.935485e-001 3.994162e-001 4.701419e-001 5.557287e-001 4.934187e-001 3.547244e-001 2.036447e-002
<GCONST> 1.131770e+002
<STATE> 3
<MEAN> 39
 4.801683e-001 -1.261016e+001 7.523471e+000 -1.193432e+001 -1.376945e+001 -9.289605e+000 -3.961955e+000 4.917735e+000 -5.667477e+000 -1.603588e+000 -4.163189e+000 -9.318799e+000 7.852811e+001 2.934913e-001 8.632458e-001 1.538668e+000 -1.390422e-001 -8.255325e-001 -4.473938e-001 -1.088497e+000 -7.911017e-001 -4.082021e-001 3.857224e-001 3.177038e-001 4.149708e-001 -9.998649e-001 1.029670e-002 1.601590e-001 -2.187610e-001 1.950686e-001 2.784208e-001 9.059080e-002 5.597372e-002 -7.851250e-002 1.181286e-001 -2.347216e-001 -9.640860e-002 -1.582321e-002 -1.225331e-001
<VARIANCE> 39
 7.906870e+001 1.270715e+002 1.252782e+002 4.952264e+001 1.254752e+002 7.271064e+001 7.785658e+001 1.395936e+002 7.264586e+001 7.222444e+001 4.983712e+001 9.215852e+001 5.868041e+001 8.227283e-001 2.475010e+000 2.452800e+000 1.940886e+000 2.490941e+000 2.788411e+000 3.131127e+000 3.908083e+000 3.883690e+000 3.004272e+000 2.548324e+000 1.992783e+000 3.974760e-001 1.117592e-001 1.929428e-001 3.324513e-001 2.932812e-001 4.785310e-001 4.492435e-001 5.607036e-001 6.160843e-001 6.013487e-001 5.134405e-001 5.170674e-001 4.032891e-001 4.804897e-002
<GCONST> 1.244372e+002
<STATE> 4
<MEAN> 39
 -2.228941e+000 2.655309e+000 5.864254e+000 -6.806582e+000 -1.407469e+001 -7.931642e+000 -7.670170e+000 -4.927825e+000 -4.295493e+000 -6.684246e+000 -5.701857e+000 -5.248872e+000 6.819609e+001 1.975563e-002 7.997110e-001 -3.237247e-001 1.064686e+000 1.097764e+000 9.583326e-002 4.386852e-001 2.001503e-002 2.286275e-001 -2.027224e-001 -7.858158e-002 -2.553667e-001 -1.381713e+000 -8.084506e-002 -1.358434e-001 -1.623624e-001 5.292768e-002 1.599124e-001 3.387401e-002 1.462371e-001 1.527344e-001 1.596805e-002 7.807228e-002 6.502127e-002 -2.998824e-002 5.268791e-002
<VARIANCE> 39
 1.189423e+002 9.445511e+001 6.212221e+001 9.246844e+001 8.527566e+001 1.005834e+002 7.656929e+001 1.228953e+002 5.591756e+001 8.038688e+001 5.670377e+001 6.450887e+001 9.277601e+001 1.171202e+000 2.090900e+000 1.482249e+000 2.474535e+000 3.436635e+000 2.852572e+000 3.149756e+000 3.306787e+000 3.435938e+000 3.310167e+000 2.533432e+000 2.699116e+000 8.375790e-001 1.624352e-001 2.191615e-001 2.792158e-001 4.343743e-001 5.165388e-001 4.846180e-001 6.234854e-001 6.376551e-001 5.812839e-001 5.232061e-001 4.580461e-001 4.556274e-001 1.074891e-001
<GCONST> 1.272698e+002
<TRANSP> 5
 0.000000e+000 1.000000e+000 0.000000e+000 0.000000e+000 0.000000e+000
 0.000000e+000 8.346307e-001 1.653693e-001 0.000000e+000 0.000000e+000
 0.000000e+000 0.000000e+000 8.426074e-001 1.573927e-001 0.000000e+000
 0.000000e+000 0.000000e+000 0.000000e+000 8.481345e-001 1.518655e-001
 0.000000e+000 0.000000e+000 0.000000e+000 0.000000e+000 0.000000e+000
<ENDHMM>
~h "ch"
<BEGINHMM>
<NUMSTATES> 5
<STATE> 2
<MEAN> 39
 -1.125171e+001 5.316442e+000 6.822089e+000 -9.339256e+000 5.935545e+000 -8.385534e+000 -2.788752e+000 2.108206e+000 -1.473847e+000 -4.622712e+000 -1.781590e+000 -8.057977e+000 6.048689e+001 -3.245063e+000 7.080714e-001 9.569507e-001 -2.008917e+000 8.141747e-001 -5.340559e-001 5.218329e-001 -5.896421e-002 5.180789e-001 -7.679414e-001 2.499359e-001 -3.882616e-001 2.646398e+000 1.027923e-002 -2.887338e-001 1.856038e-001 1.739900e-001 -6.351281e-001 3.007935e-003 1.597710e-001 -2.917525e-001 -4.282717e-002 -1.062059e-001 1.319624e-001 -4.202768e-002 2.438284e-001
<VARIANCE> 39
 2.040489e+002 7.390366e+001 1.166924e+002 1.479014e+002 1.098552e+002 1.797518e+002 9.001926e+001 1.577649e+002 1.090392e+002 8.531594e+001 1.078433e+002 9.409409e+001 1.430522e+002 1.604285e+001 8.129128e+000 4.983248e+000 1.215093e+001 1.302808e+001 9.840590e+000 5.898676e+000 1.097243e+001 6.048558e+000 6.282831e+000 7.723054e+000 6.746824e+000 6.215710e+000 2.385302e+000 1.161252e+000 8.229039e-001 2.212554e+000 1.540328e+000 1.645605e+000 1.073605e+000 1.998203e+000 1.114791e+000 1.103031e+000 1.367636e+000 1.113227e+000 9.148430e-001
<GCONST> 1.650980e+002
<STATE> 3
<MEAN> 39
 -2.109628e+001 1.691247e+000 9.625023e+000 -1.158305e+001 -8.767173e-001 -1.410168e+001 1.808851e+000 -1.074186e+000 7.030746e-001 -8.099276e+000 2.336798e-001 -9.093956e+000 7.134583e+001 1.020636e+000 -1.169812e+000 -1.360028e-001 1.324835e-001 -1.293689e+000 -1.703621e-002 1.812760e-003 3.396654e-002 -5.998383e-002 -2.105994e-001 -2.919930e-001 -4.045324e-001 7.305237e-001 3.386842e-001 -1.013058e-001 -2.817555e-001 7.838532e-002 1.284972e-001 1.811355e-001 -7.349279e-002 2.197267e-001 6.166577e-002 1.096940e-001 -4.895919e-002 -1.726571e-002 -2.540140e-001
<VARIANCE> 39
 1.481494e+002 1.348332e+002 1.386923e+002 4.757105e+001 1.813144e+002 2.112426e+002 8.363147e+001 1.001118e+002 6.812789e+001 1.015575e+002 9.073677e+001 6.020538e+001 9.383561e+001 1.047019e+001 5.778665e+000 4.233134e+000 4.715271e+000 7.244930e+000 7.062479e+000 6.528041e+000 6.832643e+000 4.553340e+000 5.375883e+000 4.704637e+000 3.552755e+000 2.521544e+000 1.592021e+000 8.888486e-001 5.539025e-001 7.576866e-001 1.356532e+000 1.319532e+000 1.083787e+000 1.214123e+000 8.483051e-001 9.651733e-001 8.689764e-001 6.382425e-001 3.344355e-001
<GCONST> 1.521683e+002
<STATE> 4
<MEAN> 39
 -2.543691e+001 3.810881e+000 9.827512e+000 -1.052122e+001 -2.004295e+000 1.634603e+000 -3.403973e+000 -2.907095e+000 2.105346e+000 -6.520436e+000 -1.375059e+000 -4.175295e+000 7.101318e+001 5.234048e-001 -7.223029e-001 -3.553011e-001 3.010222e-001 -1.749094e-001 3.772648e-001 2.336500e-001 2.032475e-002 2.284026e-001 9.148248e-003 1.316044e-001 1.409998e-001 -7.146131e-001 1.383499e-001 7.516819e-002 -2.349467e-002 1.183042e-001 1.450809e-001 -7.795306e-002 2.567631e-003 8.253737e-004 -1.206127e-001 6.673589e-003 -8.094246e-003 1.167055e-002 -1.986109e-001
<VARIANCE> 39
 1.230017e+002 8.357659e+001 6.820794e+001 2.935477e+001 1.078552e+002 9.311160e+001 1.152830e+002 4.862279e+001 6.012599e+001 7.616717e+001 4.414334e+001 5.004067e+001 8.903400e+001 2.053416e+000 1.125099e+000 1.160327e+000 1.278117e+000 2.235181e+000 2.077038e+000 2.172903e+000 2.597336e+000 2.786084e+000 2.359611e+000 1.901838e+000 1.841711e+000 1.435187e+000 3.318062e-001 2.062944e-001 2.149328e-001 2.461529e-001 3.154093e-001 3.084924e-001 3.505509e-001 4.233922e-001 4.445784e-001 4.569747e-001 3.499816e-001 4.412618e-001 1.159770e-001
<GCONST> 1.195025e+002
<TRANSP> 5
 0.000000e+000 1.000000e+000 0.000000e+000 0.000000e+000 0.000000e+000
 0.000000e+000 7.843335e-001 2.156665e-001 0.000000e+000 0.000000e+000
 0.000000e+000 0.000000e+000 8.310843e-001 1.689157e-001 0.000000e+000
 0.000000e+000 0.000000e+000 0.000000e+000 8.174078e-001 1.825922e-001
 0.000000e+000 0.000000e+000 0.000000e+000 0.000000e+000 0.000000e+000
<ENDHMM>
~h "eh"
<BEGINHMM>
<NUMSTATES> 5
<STATE> 2
<MEAN> 39
 -1.027600e+001 -6.152931e+000 -5.920233e+000 -1.595837e+001 -8.665233e+000 -1.492897e+001 2.051845e+000 -5.783061e+000 -1.908691e+000 -2.098570e+001 -4.522188e+000 -2.517478e+000 8.456136e+001 1.349974e-001 -3.638396e-001 -1.383454e-002 9.863766e-002 3.265830e-001 -1.905273e-002 -8.319832e-003 2.848460e-001 4.892804e-002 -1.321312e-001 -8.037410e-002 2.084700e-002 4.856195e-003 2.066393e-002 1.756698e-001 9.382623e-002 1.222340e-001 -5.311299e-002 -5.941882e-002 -1.619461e-001 -8.682230e-002 -9.209475e-002 1.235321e-001 -8.775828e-003 8.840889e-003 -2.448088e-001
<VARIANCE> 39
 3.679428e+001 5.424231e+001 4.818982e+001 4.192552e+001 7.785921e+001 6.420586e+001 7.720126e+001 7.410931e+001 6.704851e+001 1.321560e+002 7.079610e+001 5.200764e+001 3.081471e+001 3.777261e-001 1.018408e+000 1.143335e+000 9.430770e-001 2.408209e+000 2.059276e+000 3.092006e+000 2.254729e+000 2.024774e+000 1.819058e+000 1.702078e+000 1.501337e+000 4.225093e-001 1.292927e-001 1.878749e-001 1.536384e-001 2.325122e-001 3.574142e-001 3.929915e-001 5.586198e-001 3.463657e-001 3.617017e-001 2.816849e-001 2.988668e-001 2.723529e-001 1.342112e-001
<GCONST> 1.113725e+002
<STATE> 3
<MEAN> 39
 1.414679e+000 -1.058057e+001 -4.590611e+000 -8.279033e+000 -8.200727e+000 -4.656395e+000 -1.928562e+000 7.148156e+000 1.862706e+000 -4.806603e+000 -6.091366e+000 -1.213681e+001 7.638020e+001 4.347096e-001 -8.970758e-002 2.495365e-001 2.641277e-001 5.497221e-001 2.123831e-001 -3.844636e-001 -3.368429e-002 -2.410932e-001 1.535051e-001 -6.199138e-004 -9.654424e-002 -4.574960e-001 7.092685e-002 1.333953e-001 5.157933e-002 5.441666e-002 1.096703e-001 -3.133006e-002 -2.170488e-002 -1.035323e-001 -8.912878e-002 7.092421e-002 5.272875e-002 2.054731e-002 -2.767633e-001
<VARIANCE> 39
 3.821008e+001 9.822371e+001 8.530958e+001 2.790953e+001 1.450025e+002 6.970882e+001 1.118935e+002 7.874303e+001 6.488317e+001 9.074084e+001 5.439482e+001 7.465961e+001 8.506518e+001 8.473558e-001 8.588340e-001 1.147184e+000 1.157355e+000 2.604143e+000 1.936112e+000 2.567274e+000 2.165179e+000 2.676187e+000 2.441332e+000 1.847376e+000 1.581126e+000 8.438577e-001 1.447505e-001 2.174637e-001 2.166060e-001 2.359408e-001 4.391284e-001 4.081522e-001 4.363177e-001 4.150819e-001 4.942784e-001 4.813783e-001 3.695074e-001 3.292603e-001 1.490131e-001
<GCONST> 1.181926e+002
<STATE> 4
<MEAN> 39
 8.630073e+000 -1.341489e+001 -2.360897e-001 -6.334630e+000 -8.306574e-001 -7.071511e+000 -3.920493e+000 6.198109e+000 -2.683312e+000 -2.393380e+000 -3.249452e+000 -1.550427e+001 7.087305e+001 6.140633e-001 1.025778e+000 -3.423312e-001 8.080840e-001 1.434728e-001 -1.340367e-001 -4.339524e-001 -5.179183e-001 -2.454244e-001 1.515151e-001 -1.428329e-001 2.031702e-001 -2.154442e+000 -2.371644e-001 2.144842e-001 -1.469428e-001 8.059660e-003 -1.692882e-001 7.435557e-002 1.921230e-001 5.319433e-002 1.595678e-001 -2.856534e-002 -1.271568e-001 4.736135e-002 -1.221495e-001
<VARIANCE> 39
 6.988604e+001 6.509798e+001 9.597442e+001 5.601111e+001 1.020040e+002 1.188195e+002 6.162124e+001 9.303241e+001 6.662365e+001 1.187483e+002 6.199556e+001 7.834882e+001 6.286676e+001 1.495228e+000 2.180668e+000 2.341659e+000 2.741215e+000 3.651583e+000 3.252136e+000 2.656633e+000 3.716498e+000 3.505672e+000 3.186787e+000 3.074434e+000 2.654284e+000 1.248072e+000 1.349675e-001 3.000313e-001 3.606680e-001 4.126124e-001 5.716999e-001 6.873835e-001 4.552408e-001 6.500851e-001 5.373585e-001 4.977027e-001 5.176598e-001 4.409480e-001 1.517117e-001
<GCONST> 1.289462e+002
<TRANSP> 5
 0.000000e+000 1.000000e+000 0.000000e+000 0.000000e+000 0.000000e+000
 0.000000e+000 8.146520e-001 1.853480e-001 0.000000e+000 0.000000e+000
 0.000000e+000 0.000000e+000 7.749670e-001 2.250330e-001 0.000000e+000
 0.000000e+000 0.000000e+000 0.000000e+000 7.475598e-001 2.524402e-001
 0.000000e+000 0.000000e+000 0.000000e+000 0.000000e+000 0.000000e+000
<ENDHMM>
~h "er"
<BEGINHMM>
<NUMSTATES> 5
<STATE> 2
<MEAN> 39
 2.897973e+000 -1.233848e+001 7.092150e-001 -7.395437e+000 -1.022755e+001 -1.119413e+001 -7.507122e+000 3.503391e+000 -3.307879e-003 -4.456616e+000 -1.279301e+000 -8.873416e+000 7.557066e+001 7.340169e-001 -5.396315e-001 -1.140589e+000 7.583340e-001 4.210121e-002 -1.620332e-001 -2.609536e-001 6.240017e-001 -1.265014e-001 -1.938106e-001 -1.482511e-001 3.797594e-001 -1.897820e-001 -1.304204e-001 3.466180e-001 1.997886e-001 1.558028e-001 9.388955e-002 1.406793e-002 -4.677081e-002 -1.972494e-001 1.645999e-002 -7.553943e-002 -1.261868e-001 1.229950e-001 -2.910003e-001
<VARIANCE> 39
 9.610182e+001 8.308778e+001 1.305625e+002 7.818878e+001 1.254877e+002 7.432307e+001 8.522108e+001 1.442952e+002 8.441100e+001 8.084749e+001 6.337142e+001 5.968902e+001 7.439170e+001 8.012965e-001 2.250316e+000 2.621894e+000 2.106054e+000 2.675465e+000 4.200539e+000 2.924941e+000 4.507069e+000 3.340079e+000 3.014106e+000 2.606840e+000 3.382726e+000 1.110574e+000 1.424876e-001 3.106115e-001 2.746924e-001 3.292624e-001 4.906073e-001 5.272630e-001 5.057320e-001 6.260661e-001 4.807463e-001 4.839238e-001 4.918390e-001 5.456284e-001 1.293643e-001
<GCONST> 1.288728e+002
<STATE> 3
<MEAN> 39
 4.796419e+000 -8.699563e+000 -2.204618e+000 -9.431307e-001 -9.458847e+000 -1.282557e+001 -1.040407e+001 4.132982e+000 -2.550497e+000 -8.914652e+000 -4.467648e+000 -5.939938e+000 6.944856e+001 -9.511182e-002 8.633295e-001 1.115212e-001 5.118657e-001 2.048254e-001 -1.913410e-001 -1.165229e-002 -4.825534e-001 -4.611882e-002 -2.621552e-002 -1.536907e-001 4.505096e-002 -1.115130e+000 -1.287195e-001 3.941585e-002 1.381720e-001 -7.498419e-002 6.673010e-002 2.092478e-002 1.202774e-001 -5.681403e-002 -2.761831e-002 3.479876e-002 4.081218e-002 -8.864192e-002 -5.587598e-002
<VARIANCE> 39
 1.043985e+002 5.895596e+001 8.492475e+001 8.301544e+001 6.491502e+001 1.386748e+002 8.097192e+001 4.918497e+001 1.164532e+002 7.802639e+001 4.852666e+001 3.879254e+001 1.282698e+002 6.088586e-001 1.132785e+000 1.373339e+000 1.534984e+000 2.383900e+000 2.396932e+000 2.059059e+000 2.424113e+000 2.616688e+000 2.337865e+000 2.252677e+000 1.478155e+000 6.217797e-001 7.405548e-002 1.386697e-001 1.690501e-001 2.768108e-001 3.165988e-001 4.262082e-001 3.364637e-001 4.222923e-001 4.727087e-001 3.790135e-001 4.059066e-001 2.386974e-001 3.413655e-002
<GCONST> 1.154048e+002
<STATE> 4
<MEAN> 39
 -1.961914e+000 4.434154e-001 -1.374380e+000 2.175040e+000 -2.021012e+000 -1.139581e+001 -5.477404e+000 -2.254342e-001 5.751392e-001 -4.244555e+000 -2.845374e+000 -5.404777e+000 5.456469e+001 -1.167724e+000 4.651189e-001 4.226574e-001 2.073818e-002 6.949785e-001 6.926953e-001 7.525983e-001 -2.682913e-002 6.164579e-002 2.943572e-001 1.941819e-001 2.339083e-001 -9.296580e-001 -3.759121e-002 -1.190673e-001 -2.599769e-002 -1.722590e-001 -4.091438e-002 1.058221e-001 3.421391e-002 1.919302e-001 1.509192e-001 9.238291e-002 9.832879e-002 -3.339889e-003 1.184829e-001
<VARIANCE> 39
 1.392528e+002 5.405870e+001 4.144473e+001 4.577649e+001 6.252060e+001 9.332990e+001 9.387257e+001 5.926712e+001 7.186204e+001 7.579669e+001 5.243397e+001 5.369066e+001 2.011305e+002 1.748680e+000 1.675613e+000 2.192587e+000 2.837922e+000 3.411913e+000 2.593803e+000 3.601194e+000 4.726482e+000 3.603481e+000 3.742966e+000 3.457872e+000 3.151576e+000 4.948405e-001 2.790451e-001 2.341223e-001 3.395400e-001 5.717572e-001 4.856372e-001 4.810718e-001 5.946279e-001 8.974738e-001 6.338477e-001 7.538143e-001 7.088457e-001 5.208367e-001 8.179381e-002
<GCONST> 1.288137e+002
<TRANSP> 5
 0.000000e+000 1.000000e+000 0.000000e+000 0.000000e+000 0.000000e+000
 0.000000e+000 8.404337e-001 1.595664e-001 0.000000e+000 0.000000e+000
 0.000000e+000 0.000000e+000 8.767202e-001 1.232798e-001 0.000000e+000
 0.000000e+000 0.000000e+000 0.000000e+000 7.934383e-001 2.065617e-001
 0.000000e+000 0.000000e+000 0.000000e+000 0.000000e+000 0.000000e+000
<ENDHMM>
~h "ey"
<BEGINHMM>
<NUMSTATES> 5
<STATE> 2
<MEAN> 39
 2.612809e-001 -9.524935e+000 9.635041e+000 -4.832090e-001 -1.324360e+001 -1.428180e+001 -1.792086e+000 1.585280e+000 -4.002403e+000 -3.201170e+000 2.020306e-001 -8.865568e+000 6.828905e+001 1.137393e+000 -7.798093e-001 3.613966e-001 -1.036763e+000 -1.874869e+000 -4.847929e-001 -8.198901e-001 -1.311086e-001 -1.056839e+000 1.049803e-001 4.495860e-001 -1.692536e-001 8.372971e-001 -1.911087e-001 1.870904e-001 2.176899e-003 -8.075634e-002 3.036028e-001 3.341925e-001 5.591509e-002 1.838770e-001 2.107744e-001 8.207960e-003 2.435539e-002 1.452472e-001 -2.572610e-001
