~o
<STREAMINFO> 1 39
<VECSIZE> 39<NULLD><MFCC_D_A_0><DIAGC>
~h "b"
<BEGINHMM>
<NUMSTATES> 5
<STATE> 2
<MEAN> 39
 -2.002532e+000 -2.109222e+000 -2.669658e+000 -6.782949e+000 -4.279415e+000 -3.856924e+000 -3.140014e+000 -2.364430e+000 -2.412637e+000 -6.265317e+000 -5.297225e+000 -5.562455e+000 6.904563e+001 3.392045e-002 -3.139571e-001 -1.969656e-001 -2.945143e-001 -2.522689e-001 9.730867e-003 -2.167133e-002 1.119207e-001 2.203356e-002 4.474774e-002 -9.323100e-003 1.117353e-002 7.917033e-001 -3.919519e-002 -8.485373e-003 2.450928e-002 6.285538e-003 -1.090257e-002 2.658080e-003 1.632988e-002 9.141771e-003 -1.343468e-002 2.483572e-002 2.359202e-002 -2.189428e-003 -4.986769e-002
<VARIANCE> 39
 1.149787e+002 1.151564e+002 1.248367e+002 1.083820e+002 1.245793e+002 9.349033e+001 1.101468e+002 9.894154e+001 8.331680e+001 1.122211e+002 7.530933e+001 1.039876e+002 2.643156e+002 3.377337e+000 4.517265e+000 4.114195e+000 4.963954e+000 4.786986e+000 4.287984e+000 5.370101e+000 4.746963e+000 5.063098e+000 5.946578e+000 4.424813e+000 4.260540e+000 6.467835e+000 4.727500e-001 5.924964e-001 6.209709e-001 8.119453e-001 7.144131e-001 7.327232e-001 9.318169e-001 7.951334e-001 8.880546e-001 1.067555e+000 8.071659e-001 7.146803e-001 6.768764e-001
<GCONST> 1.493379e+002
<STATE> 3
<MEAN> 39
 -2.146549e+000 -2.996145e+000 -2.954274e+000 -7.571546e+000 -5.144331e+000 -3.854378e+000 -3.168247e+000 -2.009284e+000 -2.495775e+000 -5.979250e+000 -5.224112e+000 -5.594377e+000 7.106073e+001 -4.821026e-002 -2.338643e-001 -3.945992e-002 -2.239096e-001 -2.734112e-001 -2.100309e-002 -1.642512e-002 9.377887e-002 -3.769959e-002 1.016234e-001 2.726879e-002 -1.645526e-002 5.220482e-001 -2.095090e-002 3.142062e-002 5.073131e-002 2.529428e-002 -1.779077e-003 -1.009291e-002 -1.205088e-003 -9.806373e-003 -1.659932e-002 1.340784e-002 7.121192e-003 -6.137732e-003 -8.606938e-002
<VARIANCE> 39
 1.187456e+002 1.188732e+002 1.252669e+002 1.007752e+002 1.325340e+002 9.362637e+001 1.118780e+002 1.006146e+002 8.139835e+001 1.140553e+002 7.149538e+001 1.097388e+002 2.497606e+002 3.027562e+000 4.123935e+000 3.828429e+000 4.601308e+000 4.736972e+000 4.133733e+000 5.126551e+000 4.584950e+000 4.577241e+000 5.560469e+000 4.129989e+000 3.816037e+000 5.568089e+000 4.227981e-001 5.173963e-001 5.593037e-001 7.489173e-001 6.899418e-001 6.916208e-001 8.823832e-001 7.620140e-001 7.987172e-001 9.964272e-001 7.542318e-001 6.523714e-001 5.563597e-001
<GCONST> 1.472405e+002
<STATE> 4
<MEAN> 39
 -2.721179e+000 -3.185881e+000 -2.256115e+000 -8.341291e+000 -6.204144e+000 -4.153049e+000 -3.518806e+000 -1.973745e+000 -2.903977e+000 -5.405199e+000 -5.114026e+000 -5.622749e+000 7.189193e+001 -6.667252e-002 -2.267708e-002 1.463493e-001 -9.633746e-002 -1.957357e-001 -7.877298e-002 -6.289075e-002 1.422411e-002 -6.820393e-002 1.213546e-001 2.943176e-002 -2.707099e-002 9.469327e-002 -2.820473e-003 4.061296e-002 3.122644e-002 2.466070e-002 1.924133e-002 -9.506585e-003 -8.897413e-003 -1.697813e-002 -3.023176e-003 1.719991e-003 1.142647e-003 7.052201e-004 -7.729323e-002
<VARIANCE> 39
 1.247353e+002 1.275046e+002 1.249617e+002 9.776798e+001 1.430889e+002 9.599211e+001 1.156550e+002 1.068261e+002 8.133528e+001 1.088346e+002 6.915040e+001 1.086959e+002 2.353545e+002 2.631645e+000 3.538922e+000 3.465458e+000 4.103373e+000 4.756801e+000 3.984895e+000 4.872333e+000 4.449272e+000 4.187397e+000 4.854840e+000 3.720089e+000 3.433782e+000 4.311033e+000 3.623047e-001 4.315661e-001 4.950037e-001 6.574071e-001 6.743896e-001 6.542639e-001 8.330441e-001 7.490544e-001 7.280440e-001 8.717064e-001 6.856337e-001 6.002795e-001 4.240478e-001
<GCONST> 1.446427e+002
<TRANSP> 5
 0.000000e+000 1.000000e+000 0.000000e+000 0.000000e+000 0.000000e+000
 0.000000e+000 7.022423e-001 2.977577e-001 0.000000e+000 0.000000e+000
 0.000000e+000 0.000000e+000 7.022401e-001 2.977599e-001 0.000000e+000
 0.000000e+000 0.000000e+000 0.000000e+000 8.220305e-001 1.779695e-001
 0.000000e+000 0.000000e+000 0.000000e+000 0.000000e+000 0.000000e+000
<ENDHMM>
~h "d"
<BEGINHMM>
<NUMSTATES> 5
<STATE> 2
<MEAN> 39
 5.230338e-001 -3.225614e+000 7.505941e-001 -6.292971e+000 -5.578988e+000 -5.481518e+000 -4.441681e+000 -2.175866e+000 -4.369147e+000 -7.008027e+000 -3.295582e+000 -7.687585e+000 6.694323e+001 1.237163e-001 7.505577e-003 -1.139378e-001 -6.828915e-002 1.606693e-002 6.554549e-002 -1.014779e-001 4.003235e-002 3.405142e-002 7.553348e-002 -5.536697e-003 -1.036081e-002 8.238400e-002 -7.661684e-003 6.106659e-003 4.187697e-003 -3.956498e-003 -1.949531e-003 -3.635276e-004 3.405794e-003 -1.793081e-003 -3.655168e-003 8.117795e-003 6.501060e-003 4.136410e-004 -5.377516e-003
<VARIANCE> 39
 1.038980e+002 1.185145e+002 1.896808e+002 1.215059e+002 1.278637e+002 1.112020e+002 1.124993e+002 1.237676e+002 1.078273e+002 1.130237e+002 8.136285e+001 7.944137e+001 2.118201e+002 2.611672e+000 3.930097e+000 3.680821e+000 4.374767e+000 5.115159e+000 4.621722e+000 5.084799e+000 5.188408e+000 4.815935e+000 4.332961e+000 3.894440e+000 3.411796e+000 3.792601e+000 3.670169e-001 5.198950e-001 5.222323e-001 6.660865e-001 8.018494e-001 7.933863e-001 8.929581e-001 8.967314e-001 8.634941e-001 7.321820e-001 6.893163e-001 5.937075e-001 3.932610e-001
<GCONST> 1.466116e+002
<STATE> 3
<MEAN> 39
 8.608610e-001 -3.139401e+000 3.946097e-001 -6.540586e+000 -5.504579e+000 -5.268501e+000 -4.728264e+000 -2.053858e+000 -4.265898e+000 -6.738753e+000 -3.301081e+000 -7.706034e+000 6.717915e+001 9.292030e-002 2.894392e-002 -9.317677e-002 -7.456823e-002 1.224229e-002 6.510477e-002 -8.321279e-002 3.229874e-002 2.062101e-002 9.451697e-002 1.144604e-002 -8.081501e-003 5.945472e-002 -1.117494e-002 7.637396e-003 8.920613e-003 6.560737e-004 3.936809e-004 -1.899585e-003 6.551851e-003 -2.893151e-003 -5.116817e-003 4.178894e-003 5.616670e-003 2.589373e-003 -1.048460e-002
<VARIANCE> 39
 1.063285e+002 1.206342e+002 1.901458e+002 1.220896e+002 1.238971e+002 1.116184e+002 1.144314e+002 1.254622e+002 1.086646e+002 1.105404e+002 8.070012e+001 8.041624e+001 2.032952e+002 2.622288e+000 3.901253e+000 3.572489e+000 4.325477e+000 4.898047e+000 4.568518e+000 4.952773e+000 5.145422e+000 4.741641e+000 4.217484e+000 3.835565e+000 3.369529e+000 3.666572e+000 3.663099e-001 5.134475e-001 5.050105e-001 6.527483e-001 7.692869e-001 7.779026e-001 8.653652e-001 8.862215e-001 8.450760e-001 7.133508e-001 6.727460e-001 5.855033e-001 3.770449e-001
<GCONST> 1.460724e+002
<STATE> 4
<MEAN> 39
 9.277048e-001 -2.513686e+000 3.200869e-001 -6.912510e+000 -5.154592e+000 -5.190398e+000 -4.876100e+000 -2.073456e+000 -4.518395e+000 -6.363135e+000 -3.334897e+000 -7.616119e+000 6.678202e+001 3.232308e-002 6.596325e-002 -4.599210e-002 -5.027140e-002 3.231109e-002 5.924695e-002 -3.909426e-002 1.705088e-002 9.110888e-003 8.865590e-002 1.801112e-002 4.366083e-003 2.585163e-003 -1.324044e-002 7.712065e-003 1.202675e-002 7.767568e-003 4.355208e-003 -3.347134e-003 8.413292e-003 -2.724591e-003 -3.624476e-003 -9.633040e-004 3.047386e-003 4.040542e-003 -1.535462e-002
<VARIANCE> 39
 1.124340e+002 1.254831e+002 1.882226e+002 1.238106e+002 1.224730e+002 1.102928e+002 1.174138e+002 1.285122e+002 1.155836e+002 1.054043e+002 7.896220e+001 8.457398e+001 2.114431e+002 2.647608e+000 3.821502e+000 3.420915e+000 4.281389e+000 4.639522e+000 4.506135e+000 4.847938e+000 5.169652e+000 4.688621e+000 4.138074e+000 3.818011e+000 3.338090e+000 3.479373e+000 3.644595e-001 5.023322e-001 4.817739e-001 6.426206e-001 7.340679e-001 7.626864e-001 8.396434e-001 8.912065e-001 8.342295e-001 7.050117e-001 6.703787e-001 5.806350e-001 3.461694e-001
<GCONST> 1.457310e+002
<TRANSP> 5
 0.000000e+000 1.000000e+000 0.000000e+000 0.000000e+000 0.000000e+000
 0.000000e+000 6.967940e-001 3.032060e-001 0.000000e+000 0.000000e+000
 0.000000e+000 0.000000e+000 6.967936e-001 3.032064e-001 0.000000e+000
 0.000000e+000 0.000000e+000 0.000000e+000 8.194695e-001 1.805306e-001
 0.000000e+000 0.000000e+000 0.000000e+000 0.000000e+000 0.000000e+000
<ENDHMM>
~h "f"
<BEGINHMM>
<NUMSTATES> 5
<STATE> 2
<MEAN> 39
 -4.935467e+000 -5.926847e+000 5.926681e+000 8.281339e-001 -4.630373e+000 -7.631186e+000 3.065603e+000 3.043574e+000 2.032758e+000 1.314027e+000 1.779372e+000 -5.138948e+000 5.759266e+001 -3.166764e-001 -4.466075e-002 -4.642444e-001 2.829851e-001 7.750348e-001 3.823346e-001 4.113258e-001 4.126420e-001 3.971082e-001 5.683886e-002 8.405760e-002 3.603050e-002 -5.561392e-001 5.195227e-003 2.571638e-003 -3.838143e-003 -2.084163e-003 8.220284e-003 1.528035e-002 -1.228641e-002 1.168783e-003 -1.345100e-002 -1.823162e-002 -7.883819e-003 -1.427428e-002 5.425137e-003
<VARIANCE> 39
 6.795244e+001 5.453393e+001 1.181106e+002 8.091592e+001 1.611415e+002 1.203085e+002 1.334891e+002 1.568624e+002 9.352209e+001 1.024144e+002 5.020371e+001 4.676660e+001 1.314556e+002 1.534733e+000 1.791120e+000 1.975130e+000 2.523169e+000 3.825147e+000 3.492479e+000 3.547615e+000 3.639214e+000 3.270239e+000 2.846830e+000 2.561013e+000 2.572782e+000 1.793470e+000 2.027194e-001 2.787859e-001 2.914037e-001 4.088538e-001 5.164620e-001 5.190121e-001 5.667028e-001 5.954019e-001 5.557028e-001 5.024257e-001 4.850900e-001 4.780475e-001 1.645821e-001
<GCONST> 1.312116e+002
<STATE> 3
<MEAN> 39
 -5.686454e+000 -6.032083e+000 4.713105e+000 1.530217e+000 -2.634979e+000 -6.648416e+000 4.032936e+000 4.107148e+000 2.972145e+000 1.358810e+000 1.962531e+000 -5.102529e+000 5.612551e+001 -2.960416e-001 -3.213767e-002 -4.635101e-001 2.628229e-001 7.608336e-001 4.173961e-001 3.807307e-001 4.088489e-001 3.590299e-001 1.310254e-002 6.565172e-002 -9.846392e-003 -5.298074e-001 5.628330e-003 3.621536e-003 6.051628e-004 -1.071619e-002 -8.398996e-003 5.294467e-003 -8.047390e-004 -1.482715e-003 -2.007266e-002 -1.709138e-002 -8.216880e-003 -1.639429e-002 1.593660e-002
<VARIANCE> 39
 6.312719e+001 5.369445e+001 1.180502e+002 7.799570e+001 1.552150e+002 1.240046e+002 1.431878e+002 1.668592e+002 9.461510e+001 1.036849e+002 4.838470e+001 4.427618e+001 1.242185e+002 1.518149e+000 1.644783e+000 1.872888e+000 2.352044e+000 3.538704e+000 3.373907e+000 3.416620e+000 3.504292e+000 3.169529e+000 2.784869e+000 2.423988e+000 2.529654e+000 1.740048e+000 2.056121e-001 2.527924e-001 2.881223e-001 3.906860e-001 4.918786e-001 5.029613e-001 5.486997e-001 5.826420e-001 5.504410e-001 4.961811e-001 4.645123e-001 4.709318e-001 1.599139e-001
<GCONST> 1.301391e+002
<STATE> 4
<MEAN> 39
 -6.223166e+000 -5.811599e+000 4.029268e+000 2.072939e+000 -1.130584e+000 -5.839239e+000 4.263708e+000 4.570977e+000 3.323187e+000 5.469008e-001 1.956952e+000 -5.203934e+000 5.490924e+001 -2.517159e-001 -1.121344e-002 -4.294575e-001 1.998403e-001 6.550619e-001 3.958064e-001 3.535426e-001 3.576287e-001 2.722939e-001 -2.835995e-002 3.991500e-002 -5.417399e-002 -4.570375e-001 1.467579e-003 2.301865e-003 7.323711e-004 -1.952516e-002 -1.343664e-002 -6.319620e-003 1.275705e-002 -1.117439e-002 -2.642438e-002 -5.528523e-003 -5.714762e-003 -3.030890e-003 2.149313e-002
<VARIANCE> 39
 6.212735e+001 5.776359e+001 1.309367e+002 7.946717e+001 1.520296e+002 1.293035e+002 1.594921e+002 1.788240e+002 9.686424e+001 1.116113e+002 4.985934e+001 4.575245e+001 1.262569e+002 1.564669e+000 1.641419e+000 1.944433e+000 2.352711e+000 3.379400e+000 3.363842e+000 3.412937e+000 3.455352e+000 3.218249e+000 2.914421e+000 2.460191e+000 2.652513e+000 1.899205e+000 2.187527e-001 2.441885e-001 3.042471e-001 3.903894e-001 4.775998e-001 5.114571e-001 5.539349e-001 5.777839e-001 5.604820e-001 5.191989e-001 4.661602e-001 4.923853e-001 1.723287e-001
<GCONST> 1.311609e+002
<TRANSP> 5
 0.000000e+000 1.000000e+000 0.000000e+000 0.000000e+000 0.000000e+000
 0.000000e+000 6.402917e-001 3.597083e-001 0.000000e+000 0.000000e+000
 0.000000e+000 0.000000e+000 6.402919e-001 3.597082e-001 0.000000e+000
 0.000000e+000 0.000000e+000 0.000000e+000 7.529632e-001 2.470368e-001
 0.000000e+000 0.000000e+000 0.000000e+000 0.000000e+000 0.000000e+000
<ENDHMM>
~h "g"
<BEGINHMM>
<NUMSTATES> 5
<STATE> 2
<MEAN> 39
 -1.296025e+000 -2.349526e+000 4.470670e+000 -1.252420e+000 -5.743554e+000 -8.286937e+000 -4.437998e+000 -2.873764e+000 -3.303880e+000 -3.679451e+000 -2.990869e+000 -7.251327e+000 6.171585e+001 1.286238e-001 4.122206e-002 1.519665e-001 -9.807624e-002 -1.248602e-001 -6.265766e-002 -2.716267e-001 -1.263329e-001 -5.247675e-002 5.524025e-002 1.121042e-001 6.125719e-002 2.035150e-001 2.209748e-003 -1.632219e-002 -9.074283e-003 -4.281293e-002 -2.951723e-002 2.700915e-003 5.872962e-003 1.311984e-002 1.158138e-002 2.093150e-002 2.721167e-002 1.052920e-002 2.497547e-002
<VARIANCE> 39
 7.855704e+001 1.012643e+002 1.301508e+002 1.168183e+002 1.572710e+002 1.197950e+002 1.324823e+002 9.825873e+001 8.151942e+001 8.496407e+001 8.710439e+001 8.172550e+001 1.983972e+002 2.155503e+000 3.607651e+000 3.907943e+000 4.431576e+000 6.035840e+000 4.666764e+000 5.677242e+000 5.731881e+000 5.071783e+000 4.751302e+000 4.263057e+000 3.812597e+000 2.755309e+000 3.088653e-001 5.297746e-001 6.362008e-001 6.737887e-001 8.568286e-001 7.674581e-001 9.662514e-001 1.060681e+000 9.284559e-001 7.988953e-001 7.601759e-001 6.737736e-001 2.705237e-001
<GCONST> 1.459901e+002
<STATE> 3
<MEAN> 39
 -8.946383e-001 -2.232009e+000 4.808076e+000 -1.691779e+000 -6.129879e+000 -8.387580e+000 -5.223684e+000 -3.236185e+000 -3.401201e+000 -3.477937e+000 -2.579113e+000 -7.064393e+000 6.242574e+001 1.240326e-001 -3.660956e-003 1.224796e-001 -2.117040e-001 -1.885908e-001 -2.955988e-002 -2.375364e-001 -8.536216e-002 -1.668113e-002 1.145744e-001 1.786041e-001 8.686662e-002 2.636624e-001 -3.929698e-003 -1.360736e-002 -1.163232e-002 -3.368282e-002 -2.046694e-002 1.006927e-002 1.763398e-002 1.657253e-002 1.518123e-002 2.073970e-002 2.164337e-002 7.474220e-003 1.035265e-002
<VARIANCE> 39
 7.906409e+001 1.018833e+002 1.388057e+002 1.174935e+002 1.570869e+002 1.218962e+002 1.384962e+002 9.708298e+001 8.046218e+001 8.617828e+001 8.775652e+001 8.199897e+001 1.924319e+002 2.180707e+000 3.604356e+000 3.856281e+000 4.434635e+000 5.803148e+000 4.748053e+000 5.679174e+000 5.772255e+000 4.903266e+000 4.599309e+000 4.262548e+000 3.814718e+000 2.787756e+000 3.084301e-001 5.298001e-001 6.217668e-001 6.732439e-001 8.355147e-001 7.740677e-001 9.512402e-001 1.065292e+000 8.943806e-001 7.760971e-001 7.556751e-001 6.710950e-001 2.682918e-001
<GCONST> 1.458944e+002
<STATE> 4
<MEAN> 39
 -4.908892e-001 -2.081998e+000 4.672753e+000 -3.208610e+000 -6.617919e+000 -7.893517e+000 -6.138091e+000 -3.653084e+000 -3.320580e+000 -3.183846e+000 -1.720451e+000 -6.670247e+000 6.359185e+001 8.024120e-002 -4.785879e-002 4.933060e-002 -2.810180e-001 -1.790008e-001 5.374924e-002 -1.351222e-001 -3.119248e-002 3.838941e-002 1.555799e-001 2.129638e-001 8.734225e-002 2.717195e-001 -1.365675e-002 -1.084900e-002 -1.526049e-002 -1.156497e-002 -5.538194e-004 1.441155e-002 3.156484e-002 1.883898e-002 1.704666e-002 1.238665e-002 1.024764e-002 2.131183e-003 -9.253187e-003
<VARIANCE> 39
 8.438140e+001 1.053807e+002 1.562144e+002 1.228644e+002 1.551233e+002 1.371423e+002 1.486219e+002 1.024163e+002 7.999888e+001 8.769899e+001 8.852596e+001 8.232287e+001 2.033798e+002 2.293059e+000 3.591004e+000 3.784489e+000 4.450652e+000 5.406796e+000 4.905756e+000 5.655557e+000 5.979853e+000 4.663459e+000 4.454374e+000 4.256869e+000 3.781056e+000 3.023416e+000 3.136010e-001 5.163721e-001 5.978784e-001 6.726533e-001 7.957762e-001 7.840152e-001 9.270271e-001 1.088697e+000 8.421531e-001 7.594604e-001 7.508684e-001 6.647912e-001 2.715397e-001
<GCONST> 1.463036e+002
<TRANSP> 5
 0.000000e+000 1.000000e+000 0.000000e+000 0.000000e+000 0.000000e+000
 0.000000e+000 6.666781e-001 3.333220e-001 0.000000e+000 0.000000e+000
 0.000000e+000 0.000000e+000 6.666772e-001 3.333229e-001 0.000000e+000
 0.000000e+000 0.000000e+000 0.000000e+000 7.860554e-001 2.139446e-001
 0.000000e+000 0.000000e+000 0.000000e+000 0.000000e+000 0.000000e+000
<ENDHMM>
~h "k"
<BEGINHMM>
<NUMSTATES> 5
<STATE> 2
<MEAN> 39
 -6.057405e+000 -1.085181e+000 3.046092e+000 -5.521992e+000 -7.183041e+000 -8.468404e+000 -2.834104e+000 -2.415294e+000 -4.158175e+000 -5.612325e+000 -1.351513e+000 -5.731070e+000 6.242098e+001 1.270195e-002 4.974759e-002 -1.420491e-001 6.730226e-002 1.298505e-001 4.677364e-002 1.600398e-002 1.157442e-002 4.773873e-002 -5.289472e-003 -2.361305e-002 -2.121378e-002 -3.466257e-002 3.408052e-003 -5.245992e-003 5.688059e-003 -6.174660e-003 -2.815591e-003 3.120633e-003 3.720752e-003 2.745060e-003 1.877573e-004 -1.367171e-003 -5.493240e-003 -1.875576e-003 2.358049e-002
<VARIANCE> 39
 1.166887e+002 1.009636e+002 1.692619e+002 1.077326e+002 1.502063e+002 1.145403e+002 1.107294e+002 1.255548e+002 1.084530e+002 9.734142e+001 6.805276e+001 6.350504e+001 1.888120e+002 3.033840e+000 3.123057e+000 3.812282e+000 4.374591e+000 6.158642e+000 4.721344e+000 4.686438e+000 4.942794e+000 4.870243e+000 4.365701e+000 3.842282e+000 3.212690e+000 4.129886e+000 4.228815e-001 4.655348e-001 5.571378e-001 6.890174e-001 9.158004e-001 8.159710e-001 8.105921e-001 8.547488e-001 8.593577e-001 7.632732e-001 7.112855e-001 5.895603e-001 4.757284e-001
<GCONST> 1.463210e+002
<STATE> 3
<MEAN> 39
 -5.923160e+000 -9.682510e-001 2.643743e+000 -5.399045e+000 -6.870744e+000 -8.313525e+000 -2.780169e+000 -2.349696e+000 -4.045415e+000 -5.683145e+000 -1.476389e+000 -5.823143e+000 6.255457e+001 3.191977e-002 3.299468e-002 -1.145677e-001 4.414514e-002 1.012918e-001 4.517424e-002 1.736770e-002 9.161874e-003 4.063050e-002 -1.272471e-002 -3.953475e-002 -2.405287e-002 4.357662e-002 7.788814e-003 -6.381644e-003 9.901389e-003 -8.388321e-003 -1.202698e-002 -1.565552e-003 -1.466652e-004 -8.687283e-004 -5.645778e-003 -2.537633e-003 -4.849225e-003 -9.250961e-004 2.520289e-002
<VARIANCE> 39
 1.190765e+002 1.032654e+002 1.685817e+002 1.091983e+002 1.483874e+002 1.138644e+002 1.142293e+002 1.253203e+002 1.076357e+002 9.995145e+001 6.969670e+001 6.410534e+001 1.951203e+002 3.097010e+000 3.135311e+000 3.922421e+000 4.334102e+000 6.205979e+000 4.795716e+000 4.805112e+000 4.991892e+000 4.884500e+000 4.379431e+000 3.878201e+000 3.257078e+000 4.039014e+000 4.321255e-001 4.644541e-001 5.703126e-001 6.847342e-001 9.321004e-001 8.302017e-001 8.353550e-001 8.655075e-001 8.585625e-001 7.646993e-001 7.144819e-001 5.940605e-001 4.641426e-001
<GCONST> 1.466806e+002
<STATE> 4
<MEAN> 39
 -5.861505e+000 -6.521236e-001 2.097336e+000 -5.801558e+000 -6.768311e+000 -8.128984e+000 -3.030024e+000 -2.662891e+000 -4.268780e+000 -6.241457e+000 -1.836351e+000 -5.830130e+000 6.375525e+001 6.275792e-002 1.065878e-002 -6.924035e-002 1.186691e-002 4.917194e-002 3.834682e-002 1.541185e-002 6.864817e-003 1.700355e-002 -2.024444e-002 -5.096209e-002 -2.107268e-002 1.177639e-001 4.712396e-003 -4.523683e-003 8.652253e-003 -5.334595e-003 -9.346599e-003 -8.690257e-004 -6.502201e-004 -9.869231e-004 -5.336383e-003 5.647492e-004 -1.427202e-003 3.498161e-004 1.106760e-002
<VARIANCE> 39
 1.237177e+002 1.091346e+002 1.667274e+002 1.145032e+002 1.468736e+002 1.130754e+002 1.185219e+002 1.230739e+002 1.072062e+002 1.038222e+002 7.041573e+001 6.526427e+001 2.084958e+002 3.132210e+000 3.200838e+000 3.889132e+000 4.324517e+000 6.074401e+000 4.813842e+000 4.822573e+000 4.966968e+000 4.794244e+000 4.331094e+000 3.873654e+000 3.300910e+000 3.982856e+000 4.384936e-001 4.652133e-001 5.629399e-001 6.788840e-001 9.245933e-001 8.360853e-001 8.372604e-001 8.620250e-001 8.408294e-001 7.525180e-001 7.101430e-001 5.965055e-001 4.537402e-001
<GCONST> 1.468415e+002
<TRANSP> 5
 0.000000e+000 1.000000e+000 0.000000e+000 0.000000e+000 0.000000e+000
 0.000000e+000 6.965932e-001 3.034068e-001 0.000000e+000 0.000000e+000
 0.000000e+000 0.000000e+000 6.965930e-001 3.034070e-001 0.000000e+000
 0.000000e+000 0.000000e+000 0.000000e+000 8.178332e-001 1.821668e-001
 0.000000e+000 0.000000e+000 0.000000e+000 0.000000e+000 0.000000e+000
<ENDHMM>
~h "l"
<BEGINHMM>
<NUMSTATES> 5
<STATE> 2
<MEAN> 39
 -1.236147e+000 -3.906501e+000 -4.848666e+000 -8.701312e+000 -4.427615e+000 -5.509962e+000 -3.270431e+000 -2.230996e+000 -1.749828e+000 -5.189194e+000 -3.226671e+000 -7.465037e+000 6.787910e+001 7.675751e-002 8.710110e-004 -7.016682e-002 -1.306988e-001 -5.360356e-002 1.782995e-001 9.960101e-003 -1.064215e-001 -9.637162e-002 1.254128e-001 9.706505e-002 4.358371e-002 -1.171595e-001 -1.461190e-002 -2.730658e-003 -3.103396e-003 3.176646e-003 1.156931e-003 4.690746e-003 1.410492e-002 4.360238e-003 9.987919e-004 3.213993e-003 5.670267e-003 7.485593e-003 -9.589156e-004
<VARIANCE> 39
 1.089272e+002 9.565974e+001 1.489352e+002 1.144277e+002 1.367598e+002 1.251225e+002 1.222915e+002 1.067524e+002 8.131600e+001 1.265638e+002 7.696513e+001 7.794907e+001 1.826735e+002 2.764185e+000 2.972045e+000 3.300438e+000 4.556530e+000 5.156538e+000 4.617792e+000 4.802194e+000 4.890513e+000 4.127870e+000 4.036878e+000 3.640691e+000 3.089034e+000 4.178388e+000 4.082370e-001 4.237408e-001 5.237429e-001 7.473187e-001 7.805440e-001 7.646579e-001 7.933332e-001 8.615340e-001 7.365369e-001 6.917726e-001 6.535092e-001 5.467744e-001 4.136921e-001
<GCONST> 1.446739e+002
<STATE> 3
<MEAN> 39
 -1.057235e+000 -3.923596e+000 -5.080916e+000 -9.076386e+000 -4.566477e+000 -4.933085e+000 -3.210626e+000 -2.547865e+000 -2.068565e+000 -4.834528e+000 -2.926779e+000 -7.316431e+000 6.756377e+001 3.586893e-002 -1.515025e-002 -7.684256e-002 -1.097453e-001 -4.662507e-002 1.775937e-001 3.783229e-002 -8.842709e-002 -8.767208e-002 1.261809e-001 1.053310e-001 6.198571e-002 -1.097492e-001 -1.339456e-002 -4.943750e-003 -4.613750e-003 8.936917e-003 6.448675e-003 -5.585008e-004 7.708089e-003 6.123773e-003 5.665573e-003 -1.084965e-003 2.251314e-003 6.004499e-003 1.806644e-003
<VARIANCE> 39
 1.083354e+002 9.332762e+001 1.512384e+002 1.166805e+002 1.312342e+002 1.235675e+002 1.211664e+002 1.086312e+002 8.171086e+001 1.188385e+002 7.835423e+001 7.480080e+001 1.738883e+002 2.851891e+000 2.983320e+000 3.389154e+000 4.846381e+000 5.144436e+000 4.670187e+000 4.807805e+000 5.082696e+000 4.179181e+000 4.082582e+000 3.732272e+000 3.101076e+000 4.288553e+000 4.216813e-001 4.224328e-001 5.334331e-001 7.901904e-001 7.764167e-001 7.687824e-001 7.863591e-001 8.844628e-001 7.436761e-001 7.007715e-001 6.686503e-001 5.488901e-001 4.225704e-001
<GCONST> 1.449440e+002
<STATE> 4
<MEAN> 39
 -1.055105e+000 -3.884212e+000 -5.414084e+000 -9.630884e+000 -4.475742e+000 -4.151161e+000 -3.254413e+000 -3.082095e+000 -2.603851e+000 -4.569337e+000 -2.535904e+000 -7.067924e+000 6.716484e+001 -9.585248e-003 -3.805405e-002 -6.673943e-002 -4.572111e-002 -2.473043e-002 1.397260e-001 4.207097e-002 -5.360801e-002 -5.978848e-002 1.058687e-001 9.423997e-002 6.922773e-002 -1.124603e-001 -1.104649e-002 -4.139203e-003 -6.827151e-005 1.525506e-002 8.846218e-003 -8.048618e-003 7.359304e-004 8.272176e-003 1.001465e-002 -3.151126e-003 -3.986745e-004 3.066665e-003 -3.621844e-003
<VARIANCE> 39
 1.108620e+002 9.195766e+001 1.554914e+002 1.221114e+002 1.250845e+002 1.249360e+002 1.208793e+002 1.113381e+002 8.434179e+001 1.102534e+002 7.980002e+001 7.161005e+001 1.762639e+002 2.941063e+000 3.007856e+000 3.487150e+000 5.062832e+000 5.058257e+000 4.730122e+000 4.863957e+000 5.279625e+000 4.263039e+000 4.148432e+000 3.868824e+000 3.109318e+000 4.236827e+000 4.317559e-001 4.223270e-001 5.394771e-001 8.189960e-001 7.711704e-001 7.752753e-001 7.912976e-001 9.074802e-001 7.594569e-001 7.187300e-001 6.969031e-001 5.530031e-001 4.128698e-001
<GCONST> 1.453507e+002
<TRANSP> 5
 0.000000e+000 1.000000e+000 0.000000e+000 0.000000e+000 0.000000e+000
 0.000000e+000 6.764206e-001 3.235794e-001 0.000000e+000 0.000000e+000
 0.000000e+000 0.000000e+000 6.764214e-001 3.235786e-001 0.000000e+000
 0.000000e+000 0.000000e+000 0.000000e+000 7.936157e-001 2.063843e-001
 0.000000e+000 0.000000e+000 0.000000e+000 0.000000e+000 0.000000e+000
<ENDHMM>
~h "m"
<BEGINHMM>
<NUMSTATES> 5
<STATE> 2
<MEAN> 39
 -3.528258e-001 6.542856e-001 2.063807e+000 -6.932220e+000 -5.127329e+000 -5.004808e+000 -5.265556e+000 -4.336711e+000 -5.307239e+000 -6.483860e+000 -3.299686e+000 -7.134292e+000 6.472713e+001 2.378084e-002 -2.288641e-002 -7.703502e-002 4.357534e-002 6.860697e-002 7.213761e-002 2.242869e-002 3.090595e-002 5.919921e-005 -2.876110e-002 2.731422e-002 -8.854664e-003 -9.118225e-002 -6.856415e-003 -5.192528e-003 -7.635214e-003 -1.865859e-003 4.077691e-003 -7.851128e-004 7.131591e-003 3.979969e-003 1.137029e-003 8.124767e-004 1.872445e-003 1.517324e-003 -5.059636e-003
<VARIANCE> 39
 1.291811e+002 1.154690e+002 1.843244e+002 1.161417e+002 1.318682e+002 1.187605e+002 1.051991e+002 1.155857e+002 9.005614e+001 1.049902e+002 8.565173e+001 7.633843e+001 1.799753e+002 3.193856e+000 3.460065e+000 3.443544e+000 4.465354e+000 4.980217e+000 4.478714e+000 4.610606e+000 4.819106e+000 4.394460e+000 4.128014e+000 3.277085e+000 3.141490e+000 3.672538e+000 4.116352e-001 4.725529e-001 5.052277e-001 6.763932e-001 7.580422e-001 7.412757e-001 7.824032e-001 8.151820e-001 7.632880e-001 7.114742e-001 5.867869e-001 5.511783e-001 3.780007e-001
<GCONST> 1.448788e+002
<STATE> 3
<MEAN> 39
 -3.214596e-001 5.425169e-001 1.797282e+000 -6.788701e+000 -4.900077e+000 -4.791559e+000 -5.153277e+000 -4.212020e+000 -5.299602e+000 -6.585042e+000 -3.200644e+000 -7.164141e+000 6.438602e+001 -2.397796e-003 -3.905154e-002 -1.019173e-001 3.018342e-002 7.636232e-002 6.936388e-002 4.549664e-002 4.353452e-002 3.498141e-003 -2.278213e-002 3.496161e-002 -3.103265e-003 -1.089496e-001 -8.188498e-003 -5.387492e-003 -6.981572e-003 -6.096969e-003 6.514308e-004 -6.685285e-004 7.217484e-003 5.346620e-003 2.119153e-003 2.079961e-003 2.381922e-003 2.211081e-003 -2.314515e-003
<VARIANCE> 39
 1.273392e+002 1.128493e+002 1.890347e+002 1.199569e+002 1.312717e+002 1.188738e+002 1.053796e+002 1.159779e+002 8.882464e+001 1.042164e+002 8.510029e+001 7.510847e+001 1.791987e+002 3.176206e+000 3.388449e+000 3.373333e+000 4.534865e+000 4.930264e+000 4.487742e+000 4.531216e+000 4.756846e+000 4.312892e+000 4.068233e+000 3.242937e+000 3.116818e+000 3.599933e+000 4.100594e-001 4.676559e-001 4.945733e-001 6.856943e-001 7.510682e-001 7.349753e-001 7.732587e-001 8.008648e-001 7.499624e-001 7.007183e-001 5.796605e-001 5.460016e-001 3.714883e-001
<GCONST> 1.445697e+002
<STATE> 4
<MEAN> 39
 -3.183196e-001 6.339980e-001 1.925401e+000 -6.598215e+000 -4.499096e+000 -4.766069e+000 -4.963798e+000 -4.091087e+000 -5.590220e+000 -6.809039e+000 -3.199758e+000 -7.270736e+000 6.330289e+001 -3.183958e-002 -5.146974e-002 -1.231839e-001 1.949096e-003 6.304882e-002 5.863426e-002 6.155699e-002 5.353741e-002 1.119830e-002 -1.512683e-002 4.026290e-002 6.513646e-003 -1.295249e-001 -6.413466e-003 -3.001404e-003 -4.729641e-003 -7.957109e-003 -3.018597e-003 -9.027476e-004 3.530417e-003 3.809830e-003 2.685670e-003 3.005777e-003 2.418761e-003 3.775538e-003 -3.168169e-004
<VARIANCE> 39
 1.280120e+002 1.082424e+002 1.921661e+002 1.287572e+002 1.316304e+002 1.167297e+002 1.035771e+002 1.192968e+002 8.901920e+001 1.020508e+002 8.250253e+001 7.485687e+001 1.896190e+002 3.154506e+000 3.295881e+000 3.307762e+000 4.641176e+000 4.879070e+000 4.518784e+000 4.470029e+000 4.795108e+000 4.295591e+000 4.021474e+000 3.249349e+000 3.121615e+000 3.500171e+000 4.091683e-001 4.615255e-001 4.862967e-001 7.009643e-001 7.512577e-001 7.395114e-001 7.733742e-001 8.100513e-001 7.550008e-001 6.959968e-001 5.815427e-001 5.476522e-001 3.545738e-001
<GCONST> 1.445063e+002
<TRANSP> 5
 0.000000e+000 1.000000e+000 0.000000e+000 0.000000e+000 0.000000e+000
 0.000000e+000 6.944084e-001 3.055916e-001 0.000000e+000 0.000000e+000
 0.000000e+000 0.000000e+000 6.944061e-001 3.055938e-001 0.000000e+000
 0.000000e+000 0.000000e+000 0.000000e+000 8.164607e-001 1.835393e-001
 0.000000e+000 0.000000e+000 0.000000e+000 0.000000e+000 0.000000e+000
<ENDHMM>
~h "n"
<BEGINHMM>
<NUMSTATES> 5
<STATE> 2
<MEAN> 39
 -3.314018e-001 -1.455783e+000 4.416694e+000 -4.598137e+000 -4.123752e+000 -5.385592e+000 -3.568289e+000 -1.617669e+000 -5.188013e+000 -7.251387e+000 -4.108551e+000 -8.382872e+000 6.550624e+001 -6.781929e-002 7.437219e-002 8.373814e-002 1.381318e-001 1.248532e-001 -2.589789e-002 -5.331951e-002 3.401824e-002 4.074122e-002 2.360768e-002 -1.236584e-002 -1.472647e-002 -2.683787e-001 -1.945694e-002 -7.932513e-003 -1.345828e-002 -9.259984e-003 2.117358e-004 5.842527e-003 8.544281e-003 5.696011e-003 1.412039e-002 -1.299471e-004 8.647054e-003 1.308868e-002 -3.995358e-003
<VARIANCE> 39
 1.349862e+002 1.282593e+002 1.360899e+002 1.129472e+002 1.230732e+002 1.168114e+002 8.841930e+001 1.250605e+002 9.206064e+001 9.851797e+001 7.311040e+001 7.617290e+001 1.683054e+002 2.968124e+000 3.987687e+000 3.144150e+000 3.863043e+000 4.177284e+000 3.650112e+000 3.936211e+000 4.277687e+000 3.607491e+000 3.683858e+000 3.350715e+000 2.978408e+000 2.884058e+000 3.746051e-001 4.549615e-001 4.652007e-001 5.912552e-001 6.320223e-001 6.251274e-001 6.677294e-001 6.903055e-001 6.415845e-001 6.340113e-001 5.911939e-001 5.164830e-001 2.660623e-001
<GCONST> 1.411141e+002
<STATE> 3
<MEAN> 39
 -6.206238e-001 -1.248055e+000 4.619105e+000 -4.179686e+000 -3.707152e+000 -5.424525e+000 -3.751316e+000 -1.503984e+000 -5.017653e+000 -7.170802e+000 -4.110223e+000 -8.387013e+000 6.459068e+001 -1.295137e-001 4.600452e-002 4.206462e-002 1.037343e-001 1.204200e-001 -3.982324e-003 -2.323285e-002 4.817944e-002 8.674773e-002 2.658426e-002 2.097356e-002 2.848934e-002 -2.737093e-001 -1.840353e-002 -1.132102e-002 -1.354918e-002 -1.108463e-002 -2.116282e-003 9.288041e-003 1.325130e-002 7.463663e-003 1.528011e-002 3.658241e-003 1.235980e-002 1.169399e-002 1.572509e-003
<VARIANCE> 39
 1.398616e+002 1.223819e+002 1.338498e+002 1.101049e+002 1.218675e+002 1.143052e+002 8.693607e+001 1.250251e+002 9.319708e+001 9.687846e+001 7.402800e+001 7.531164e+001 1.646185e+002 2.920482e+000 3.832600e+000 3.070948e+000 3.778963e+000 4.119313e+000 3.592964e+000 3.891611e+000 4.264003e+000 3.589268e+000 3.657274e+000 3.324899e+000 2.949226e+000 2.758177e+000 3.630275e-001 4.410588e-001 4.543242e-001 5.793998e-001 6.267686e-001 6.175594e-001 6.601916e-001 6.870859e-001 6.366454e-001 6.323361e-001 5.876001e-001 5.158269e-001 2.592105e-001
<GCONST> 1.405793e+002
<STATE> 4
<MEAN> 39
 -1.486831e+000 -9.223496e-001 4.742287e+000 -3.945368e+000 -3.197913e+000 -5.454877e+000 -3.965968e+000 -1.577571e+000 -4.927827e+000 -7.318673e+000 -4.138028e+000 -8.159356e+000 6.325875e+001 -1.778964e-001 6.559503e-003 -4.197972e-003 5.591047e-002 9.616710e-002 2.809327e-002 1.287696e-002 5.602976e-002 1.305255e-001 5.183990e-002 7.104342e-002 6.511053e-002 -2.586753e-001 -1.206378e-002 -9.425917e-003 -9.987326e-003 -1.040939e-002 -5.442394e-003 6.601333e-003 1.327932e-002 4.846103e-003 1.251979e-002 8.307417e-003 1.166231e-002 6.573881e-003 3.982801e-003
<VARIANCE> 39
 1.458097e+002 1.157024e+002 1.326753e+002 1.084029e+002 1.192499e+002 1.115856e+002 8.753971e+001 1.252936e+002 9.580703e+001 9.750139e+001 7.412315e+001 7.446806e+001 1.752466e+002 2.816932e+000 3.537794e+000 2.919318e+000 3.686439e+000 3.970089e+000 3.542264e+000 3.870174e+000 4.264699e+000 3.636161e+000 3.694105e+000 3.334397e+000 2.933731e+000 2.651394e+000 3.472388e-001 4.163918e-001 4.317401e-001 5.694740e-001 6.117719e-001 6.162790e-001 6.604533e-001 6.993789e-001 6.451601e-001 6.446940e-001 5.875902e-001 5.180895e-001 2.518748e-001
<GCONST> 1.401532e+002
<TRANSP> 5
 0.000000e+000 1.000000e+000 0.000000e+000 0.000000e+000 0.000000e+000
 0.000000e+000 6.979421e-001 3.020578e-001 0.000000e+000 0.000000e+000
 0.000000e+000 0.000000e+000 6.979406e-001 3.020594e-001 0.000000e+000
 0.000000e+000 0.000000e+000 0.000000e+000 8.214223e-001 1.785776e-001
 0.000000e+000 0.000000e+000 0.000000e+000 0.000000e+000 0.000000e+000
<ENDHMM>
~h "p"
<BEGINHMM>
<NUMSTATES> 5
<STATE> 2
<MEAN> 39
 -3.446536e+000 -2.927157e+000 -1.457289e+000 -8.735669e+000 -8.181742e+000 -4.761660e+000 -3.201546e+000 -3.136966e+000 -3.701132e+000 -4.023247e+000 -2.008717e+000 -4.859390e+000 6.480560e+001 9.433658e-002 7.394028e-002 2.905346e-001 -2.097008e-001 -3.765924e-001 -2.119638e-001 -2.994723e-001 -2.030985e-001 -2.218228e-001 -3.822052e-002 3.499894e-002 2.757166e-003 2.406670e-001 -1.523953e-002 1.933658e-002 -1.855383e-002 2.543441e-002 4.864108e-002 8.137143e-003 1.029117e-002 -3.448563e-003 1.276004e-002 -6.042304e-003 5.931038e-003 5.402454e-003 -6.883876e-002
<VARIANCE> 39
 1.010495e+002 7.431396e+001 2.299036e+002 1.168448e+002 1.481109e+002 1.196340e+002 1.238196e+002 1.218937e+002 1.051209e+002 9.441163e+001 6.364865e+001 5.283597e+001 1.658585e+002 2.637725e+000 2.612119e+000 4.062457e+000 5.493652e+000 7.507764e+000 5.188694e+000 4.713383e+000 4.942054e+000 4.460254e+000 4.148566e+000 3.975553e+000 3.041218e+000 6.627132e+000 4.455198e-001 4.037108e-001 5.638140e-001 8.701740e-001 1.206304e+000 9.146563e-001 7.556971e-001 8.520476e-001 7.556546e-001 7.508876e-001 7.427660e-001 5.665421e-001 7.481977e-001
<GCONST> 1.472942e+002
<STATE> 3
<MEAN> 39
 -3.244304e+000 -2.570058e+000 -7.675348e-001 -9.157643e+000 -8.960875e+000 -5.335618e+000 -3.974314e+000 -3.750129e+000 -4.272341e+000 -4.218989e+000 -1.878559e+000 -4.817991e+000 6.509286e+001 5.079166e-002 1.225131e-001 1.991289e-001 -8.142088e-002 -1.880483e-001 -1.797549e-001 -2.286671e-001 -1.898696e-001 -1.733735e-001 -5.999413e-002 4.524497e-002 8.860190e-003 1.120282e-002 -1.424726e-002 1.418970e-002 -2.882499e-002 4.102479e-002 5.807584e-002 8.789596e-003 2.393000e-002 6.916840e-003 1.773061e-002 -6.495664e-003 1.648716e-003 2.189879e-003 -6.635919e-002
<VARIANCE> 39
 1.028312e+002 7.506789e+001 2.361066e+002 1.118993e+002 1.434423e+002 1.226065e+002 1.176006e+002 1.133347e+002 1.087873e+002 9.599656e+001 6.336835e+001 5.378353e+001 1.526459e+002 2.527382e+000 2.510176e+000 3.674265e+000 5.241694e+000 6.748775e+000 4.852014e+000 4.706582e+000 4.823055e+000 4.360059e+000 4.137524e+000 3.927496e+000 2.993200e+000 5.859470e+000 4.219539e-001 3.936576e-001 5.154943e-001 8.110878e-001 1.069725e+000 8.520929e-001 7.482370e-001 8.266100e-001 7.576139e-001 7.473313e-001 7.309685e-001 5.559734e-001 6.594518e-001
<GCONST> 1.459147e+002
<STATE> 4
<MEAN> 39
 -3.646639e+000 -1.639946e+000 -2.373671e-001 -9.090551e+000 -9.126138e+000 -6.074756e+000 -4.673847e+000 -4.647873e+000 -4.830146e+000 -4.894240e+000 -1.811086e+000 -4.602055e+000 6.455478e+001 -1.723625e-004 1.312983e-001 5.384218e-002 8.506399e-002 3.638802e-002 -1.293298e-001 -9.955378e-002 -1.093968e-001 -9.366807e-002 -7.064995e-002 3.597941e-002 6.934599e-003 -1.727972e-001 -1.155008e-002 2.997019e-003 -2.446071e-002 3.064828e-002 4.156146e-002 7.985197e-003 2.358498e-002 1.645179e-002 1.742013e-002 -1.865512e-003 -3.346997e-003 5.820259e-004 -3.058810e-002
<VARIANCE> 39
 1.070251e+002 7.299308e+001 2.135815e+002 1.108749e+002 1.324104e+002 1.208480e+002 1.045732e+002 1.002854e+002 1.063877e+002 9.566177e+001 6.204801e+001 5.425307e+001 1.463720e+002 2.397784e+000 2.470213e+000 3.216533e+000 4.858476e+000 5.672295e+000 4.500281e+000 4.572138e+000 4.595737e+000 4.258117e+000 4.158614e+000 3.827376e+000 3.008994e+000 5.049643e+000 3.914194e-001 3.875325e-001 4.590501e-001 7.421584e-001 8.921391e-001 7.865814e-001 7.328357e-001 7.905241e-001 7.616479e-001 7.453261e-001 7.126805e-001 5.537719e-001 5.767082e-001
<GCONST> 1.438277e+002
<TRANSP> 5
 0.000000e+000 1.000000e+000 0.000000e+000 0.000000e+000 0.000000e+000
 0.000000e+000 6.923031e-001 3.076968e-001 0.000000e+000 0.000000e+000
 0.000000e+000 0.000000e+000 6.923054e-001 3.076945e-001 0.000000e+000
 0.000000e+000 0.000000e+000 0.000000e+000 8.120359e-001 1.879641e-001
 0.000000e+000 0.000000e+000 0.000000e+000 0.000000e+000 0.000000e+000
<ENDHMM>
~h "r"
<BEGINHMM>
<NUMSTATES> 5
<STATE> 2
<MEAN> 39
 -1.626367e+000 -3.543487e+000 4.282470e+000 -5.127311e+000 -7.194775e+000 -7.995615e+000 -5.779006e+000 -9.074504e-001 -3.599054e+000 -6.312903e+000 -2.410166e+000 -7.132300e+000 6.680670e+001 3.084995e-003 7.905906e-002 1.650896e-001 2.843357e-002 1.967180e-002 -2.262406e-002 -2.047673e-002 -6.911010e-006 2.434618e-002 -1.789059e-002 2.198187e-002 6.430084e-002 -5.972906e-002 -1.187828e-002 8.451209e-003 -8.099170e-003 -7.520088e-004 1.456385e-002 1.572912e-003 6.607776e-003 -2.948359e-003 4.227908e-003 3.753059e-003 6.287989e-004 -3.129497e-003 -1.664408e-002
<VARIANCE> 39
 1.317020e+002 1.262967e+002 1.714748e+002 1.184987e+002 1.544975e+002 1.315081e+002 1.172094e+002 1.388859e+002 1.013483e+002 8.741103e+001 7.461847e+001 9.777123e+001 1.859676e+002 3.541055e+000 3.801429e+000 3.718638e+000 4.291520e+000 5.219570e+000 4.599928e+000 4.671375e+000 5.031983e+000 4.438122e+000 4.047673e+000 3.706847e+000 3.269000e+000 3.126642e+000 4.681732e-001 4.651725e-001 5.305064e-001 6.709205e-001 7.734552e-001 7.787086e-001 7.832294e-001 8.419819e-001 7.686805e-001 6.983630e-001 6.819778e-001 5.735851e-001 3.044752e-001
<GCONST> 1.461404e+002
<STATE> 3
<MEAN> 39
 -1.676919e+000 -3.268149e+000 4.799524e+000 -5.059052e+000 -7.081953e+000 -8.073626e+000 -5.834530e+000 -9.105217e-001 -3.509485e+000 -6.376356e+000 -2.335701e+000 -6.953339e+000 6.658789e+001 -3.413962e-002 1.037089e-001 1.377496e-001 2.860263e-002 6.610051e-002 -1.559161e-002 1.869613e-003 -9.657408e-003 3.524233e-002 -6.667593e-003 2.604748e-002 5.187567e-002 -1.159474e-001 -1.316418e-002 5.574235e-003 -1.173207e-002 2.216468e-003 1.426415e-002 3.584738e-003 7.896061e-003 -2.254348e-003 2.630170e-003 3.907191e-003 4.745063e-004 -4.984023e-003 -1.881384e-002
<VARIANCE> 39
 1.307371e+002 1.265648e+002 1.739538e+002 1.190319e+002 1.499844e+002 1.296368e+002 1.163102e+002 1.429611e+002 9.975311e+001 8.556805e+001 7.263538e+001 9.642611e+001 1.842985e+002 3.309942e+000 3.728738e+000 3.679560e+000 4.137296e+000 4.938214e+000 4.367717e+000 4.456634e+000 4.897426e+000 4.299474e+000 3.870074e+000 3.560552e+000 3.160989e+000 3.031522e+000 4.406519e-001 4.494758e-001 5.195215e-001 6.477282e-001 7.370811e-001 7.398375e-001 7.471857e-001 8.151727e-001 7.464614e-001 6.673379e-001 6.533183e-001 5.550008e-001 2.878458e-001
<GCONST> 1.450109e+002
<STATE> 4
<MEAN> 39
 -2.016840e+000 -2.839292e+000 5.202661e+000 -4.986073e+000 -6.537230e+000 -8.278616e+000 -5.818428e+000 -9.204760e-001 -3.589461e+000 -6.520489e+000 -2.297271e+000 -6.854598e+000 6.573163e+001 -7.379739e-002 1.175868e-001 9.822676e-002 3.996297e-002 1.047090e-001 -6.646345e-003 2.137749e-002 -1.952606e-002 3.459370e-002 -1.632533e-003 2.794215e-002 3.299017e-002 -1.760338e-001 -1.075303e-002 1.935360e-003 -1.330779e-002 6.777888e-003 1.041725e-002 5.033968e-003 7.465684e-003 -1.519564e-003 -1.007232e-003 2.953195e-003 -5.251760e-004 -4.331556e-003 -1.784168e-002
<VARIANCE> 39
 1.299438e+002 1.257830e+002 1.775141e+002 1.186683e+002 1.434786e+002 1.293083e+002 1.176605e+002 1.471719e+002 1.021871e+002 8.602278e+001 7.034096e+001 9.501523e+001 2.017206e+002 3.091927e+000 3.624442e+000 3.637400e+000 4.038923e+000 4.610283e+000 4.206697e+000 4.331260e+000 4.872149e+000 4.283950e+000 3.845307e+000 3.492182e+000 3.115944e+000 2.985956e+000 4.163324e-001 4.371163e-001 5.150746e-001 6.369552e-001 7.042140e-001 7.138236e-001 7.307753e-001 8.114810e-001 7.511483e-001 6.653705e-001 6.437402e-001 5.464830e-001 2.762842e-001
<GCONST> 1.444653e+002
<TRANSP> 5
 0.000000e+000 1.000000e+000 0.000000e+000 0.000000e+000 0.000000e+000
 0.000000e+000 6.915176e-001 3.084824e-001 0.000000e+000 0.000000e+000
 0.000000e+000 0.000000e+000 6.915150e-001 3.084850e-001 0.000000e+000
 0.000000e+000 0.000000e+000 0.000000e+000 8.123966e-001 1.876034e-001
 0.000000e+000 0.000000e+000 0.000000e+000 0.000000e+000 0.000000e+000
<ENDHMM>
~h "s"
<BEGINHMM>
<NUMSTATES> 5
<STATE> 2
<MEAN> 39
 -9.290549e+000 1.475848e+000 -9.636911e-001 -7.371045e+000 -2.922430e-001 -7.617446e+000 -1.409653e+000 -1.823068e+000 -2.357650e+000 -4.133445e+000 -1.265158e+000 -7.063050e+000 6.580225e+001 -1.366266e-001 8.083718e-002 -1.760021e-001 1.689455e-003 2.720345e-001 -4.738691e-004 1.319243e-001 -3.515589e-002 8.612029e-002 -2.050957e-002 1.041352e-002 -2.870725e-002 -1.309147e-001 2.183592e-002 -1.582300e-002 -3.635819e-003 -1.789947e-003 -4.438730e-003 8.696224e-003 2.141493e-003 -2.888325e-003 1.744413e-003 -7.092111e-003 -9.405380e-004 2.925392e-003 -2.441156e-003
<VARIANCE> 39
 2.068118e+002 1.413792e+002 1.546227e+002 1.148931e+002 1.939760e+002 1.431988e+002 1.346974e+002 1.216350e+002 1.065042e+002 9.100750e+001 7.514339e+001 8.745438e+001 1.930621e+002 5.205551e+000 4.176675e+000 3.344924e+000 3.947874e+000 5.926997e+000 5.440998e+000 4.857530e+000 4.724032e+000 4.458667e+000 3.944946e+000 3.438784e+000 3.260613e+000 3.409799e+000 6.068391e-001 5.538656e-001 5.027379e-001 6.176772e-001 8.406385e-001 8.677546e-001 8.201429e-001 8.135770e-001 7.559250e-001 7.024518e-001 6.273227e-001 5.815683e-001 3.528062e-001
<GCONST> 1.480287e+002
<STATE> 3
<MEAN> 39
 -9.606463e+000 1.649777e+000 -1.538381e+000 -7.401322e+000 5.422343e-001 -7.600778e+000 -9.968936e-001 -1.980524e+000 -2.094945e+000 -4.265422e+000 -1.231552e+000 -7.141045e+000 6.537639e+001 -6.323956e-002 3.703416e-002 -1.712853e-001 -1.539181e-002 2.428080e-001 1.692903e-002 1.269414e-001 -4.853639e-002 8.537622e-002 -3.956003e-002 7.116196e-003 -1.851396e-002 -1.320926e-001 2.570918e-002 -1.306398e-002 6.150093e-003 -8.156018e-003 -1.590171e-002 5.671012e-003 -5.205786e-003 -3.233441e-003 -3.927085e-003 -3.891200e-003 -5.815921e-004 2.651498e-003 3.366936e-003
<VARIANCE> 39
 2.026667e+002 1.385005e+002 1.511813e+002 1.179096e+002 1.915652e+002 1.509647e+002 1.389637e+002 1.201592e+002 1.079622e+002 9.093033e+001 7.405814e+001 8.583173e+001 1.881954e+002 5.340288e+000 4.149127e+000 3.296549e+000 4.011474e+000 5.922850e+000 5.482254e+000 4.853093e+000 4.701650e+000 4.451216e+000 3.876021e+000 3.397620e+000 3.194552e+000 3.295323e+000 6.107983e-001 5.460240e-001 4.930396e-001 6.284508e-001 8.363710e-001 8.696619e-001 8.131096e-001 8.162845e-001 7.509078e-001 6.890261e-001 6.194112e-001 5.694832e-001 3.457204e-001
<GCONST> 1.478420e+002
<STATE> 4
<MEAN> 39
 -9.508727e+000 1.732948e+000 -2.183956e+000 -7.843132e+000 1.596542e+000 -7.520998e+000 -6.952690e-001 -2.276025e+000 -2.090407e+000 -4.527426e+000 -1.378075e+000 -7.386820e+000 6.474139e+001 2.907861e-002 1.886003e-003 -1.196127e-001 -5.503542e-002 1.567734e-001 3.366928e-002 9.159455e-002 -5.589554e-002 5.525267e-002 -4.504594e-002 1.264920e-003 -9.600665e-003 -1.191325e-001 2.271894e-002 -8.300298e-003 1.444669e-002 -8.645105e-003 -2.212465e-002 6.795261e-003 -8.215621e-003 1.027974e-003 -7.534919e-003 2.019061e-003 -5.054821e-004 1.522610e-003 4.949228e-003
<VARIANCE> 39
 1.938669e+002 1.344352e+002 1.493548e+002 1.230607e+002 1.931384e+002 1.586890e+002 1.440656e+002 1.181183e+002 1.145073e+002 9.081489e+001 7.384759e+001 8.562862e+001 1.942044e+002 5.289495e+000 4.140237e+000 3.251275e+000 4.167024e+000 5.873372e+000 5.487136e+000 4.875487e+000 4.814499e+000 4.471469e+000 3.908890e+000 3.463705e+000 3.185996e+000 3.242290e+000 5.980532e-001 5.419709e-001 4.816164e-001 6.569822e-001 8.333098e-001 8.647625e-001 8.196199e-001 8.465993e-001 7.597402e-001 6.944048e-001 6.299860e-001 5.665956e-001 3.444222e-001
<GCONST> 1.480610e+002
<TRANSP> 5
 0.000000e+000 1.000000e+000 0.000000e+000 0.000000e+000 0.000000e+000
 0.000000e+000 6.966946e-001 3.033055e-001 0.000000e+000 0.000000e+000
 0.000000e+000 0.000000e+000 6.966947e-001 3.033052e-001 0.000000e+000
 0.000000e+000 0.000000e+000 0.000000e+000 8.166958e-001 1.833042e-001
 0.000000e+000 0.000000e+000 0.000000e+000 0.000000e+000 0.000000e+000
<ENDHMM>
~h "t"
<BEGINHMM>
<NUMSTATES> 5
<STATE> 2
<MEAN> 39
 -2.540770e+000 -1.180041e+000 -3.279239e+000 -8.241181e+000 -4.428793e+000 -6.093784e+000 -3.632707e+000 -2.964199e+000 -2.992031e+000 -5.566765e+000 -3.099036e+000 -6.156826e+000 6.565285e+001 9.702342e-002 -9.139294e-004 2.671468e-002 -5.454469e-002 -7.437322e-002 -7.683466e-002 -4.468048e-002 -1.978633e-002 -5.248294e-002 -9.278243e-002 -6.349863e-002 -4.145548e-002 2.242899e-001 -3.533076e-003 -5.896142e-003 1.589364e-003 4.871903e-003 2.898777e-003 8.015762e-003 -3.196159e-003 5.906743e-003 3.400431e-003 2.870886e-003 6.250399e-003 6.626966e-003 -1.376969e-002
<VARIANCE> 39
 1.353159e+002 9.228442e+001 1.317370e+002 1.046753e+002 1.187225e+002 1.274421e+002 1.272778e+002 1.205114e+002 9.417902e+001 1.241991e+002 7.820266e+001 8.263448e+001 1.765463e+002 3.526911e+000 3.086600e+000 3.404882e+000 4.387065e+000 5.434522e+000 4.937538e+000 5.495574e+000 5.059730e+000 4.738823e+000 4.479857e+000 4.154082e+000 3.777553e+000 4.931355e+000 5.391666e-001 4.520595e-001 5.148686e-001 7.124513e-001 8.755735e-001 8.444019e-001 9.053769e-001 8.775530e-001 8.372678e-001 7.798728e-001 7.597960e-001 6.610320e-001 5.561119e-001
<GCONST> 1.476805e+002
<STATE> 3
<MEAN> 39
 -2.300944e+000 -1.169368e+000 -3.201419e+000 -8.365310e+000 -4.595267e+000 -6.253478e+000 -3.761774e+000 -2.994987e+000 -3.102238e+000 -5.803504e+000 -3.232096e+000 -6.226031e+000 6.617002e+001 7.424846e-002 -7.415841e-003 3.245505e-002 -3.326657e-002 -5.782511e-002 -4.895752e-002 -4.817625e-002 -5.694992e-003 -3.756643e-002 -7.099920e-002 -4.020169e-002 -1.908009e-002 1.569068e-001 -8.268150e-003 -2.587060e-003 1.567371e-003 7.003648e-003 6.298196e-003 1.029091e-002 -1.021065e-004 5.023746e-003 5.545645e-003 8.325079e-003 7.657151e-003 6.387419e-003 -2.357862e-002
<VARIANCE> 39
 1.361616e+002 9.498642e+001 1.356729e+002 1.039083e+002 1.206133e+002 1.275747e+002 1.251975e+002 1.184903e+002 9.329724e+001 1.270574e+002 7.734007e+001 8.275491e+001 1.730517e+002 3.346740e+000 2.988302e+000 3.334173e+000 4.243257e+000 5.298339e+000 4.801548e+000 5.371336e+000 4.940443e+000 4.606904e+000 4.319996e+000 3.965002e+000 3.553755e+000 4.595366e+000 5.075473e-001 4.359393e-001 5.018451e-001 6.881372e-001 8.482682e-001 8.212963e-001 8.824958e-001 8.515858e-001 8.119894e-001 7.494274e-001 7.242911e-001 6.260062e-001 5.202966e-001
<GCONST> 1.467114e+002
<STATE> 4
<MEAN> 39
 -2.174443e+000 -9.853999e-001 -2.950814e+000 -8.642612e+000 -4.661876e+000 -6.339160e+000 -4.054760e+000 -3.186363e+000 -3.286188e+000 -6.107437e+000 -3.365516e+000 -6.256935e+000 6.641270e+001 3.624805e-002 -3.729654e-003 3.519358e-002 -9.216397e-003 -3.140405e-002 -6.362332e-003 -3.302809e-002 6.757881e-004 -2.134691e-002 -2.965521e-002 -1.218973e-002 -1.505100e-003 4.365601e-002 -8.723656e-003 -1.783239e-003 5.943016e-004 5.471129e-003 5.411129e-003 1.021218e-002 4.247510e-003 2.179512e-003 3.506177e-003 9.406792e-003 6.150586e-003 2.891836e-003 -2.393648e-002
<VARIANCE> 39
 1.401098e+002 9.839681e+001 1.431992e+002 1.049866e+002 1.249777e+002 1.280424e+002 1.231603e+002 1.167082e+002 9.444701e+001 1.292487e+002 7.649296e+001 8.327375e+001 1.745635e+002 3.157380e+000 2.911394e+000 3.254786e+000 4.136151e+000 5.057784e+000 4.661538e+000 5.157065e+000 4.844596e+000 4.494174e+000 4.197108e+000 3.799628e+000 3.375907e+000 4.308114e+000 4.702785e-001 4.205505e-001 4.903320e-001 6.707035e-001 8.059800e-001 7.976898e-001 8.488502e-001 8.312048e-001 7.897716e-001 7.270830e-001 6.934326e-001 5.963336e-001 4.855310e-001
<GCONST> 1.458743e+002
<TRANSP> 5
 0.000000e+000 1.000000e+000 0.000000e+000 0.000000e+000 0.000000e+000
 0.000000e+000 6.728674e-001 3.271326e-001 0.000000e+000 0.000000e+000
 0.000000e+000 0.000000e+000 6.728709e-001 3.271291e-001 0.000000e+000
 0.000000e+000 0.000000e+000 0.000000e+000 7.882296e-001 2.117703e-001
 0.000000e+000 0.000000e+000 0.000000e+000 0.000000e+000 0.000000e+000
<ENDHMM>
~h "v"
<BEGINHMM>
<NUMSTATES> 5
<STATE> 2
<MEAN> 39
 -3.704441e+000 -3.926787e+000 -2.614005e-001 -7.164316e+000 -4.487577e+000 -5.176390e+000 -2.416621e-001 -8.519784e-001 -1.209890e+000 -2.310452e+000 -3.186466e-001 -6.627102e+000 6.293079e+001 -1.078819e-001 -6.994832e-002 -1.915783e-003 1.559687e-001 6.128440e-002 -6.514580e-002 1.093003e-001 8.054440e-002 6.441595e-002 1.653556e-002 -3.370297e-002 1.904112e-002 -2.967950e-001 -6.507651e-004 9.300320e-003 7.221744e-004 5.524344e-003 6.368523e-003 -8.942251e-003 -1.144262e-002 -7.359738e-003 -2.564840e-003 -9.305424e-003 -5.208252e-003 -6.116429e-003 -9.513867e-003
<VARIANCE> 39
 1.160551e+002 8.122746e+001 1.446943e+002 1.605912e+002 1.385234e+002 1.652953e+002 1.316390e+002 1.074750e+002 7.042619e+001 8.141734e+001 6.472131e+001 5.687347e+001 1.537328e+002 2.980150e+000 2.659999e+000 2.763187e+000 4.064538e+000 5.570688e+000 4.679048e+000 4.390107e+000 4.746335e+000 4.750068e+000 3.639899e+000 3.072852e+000 2.600292e+000 2.762937e+000 4.038949e-001 3.772077e-001 4.181146e-001 6.015161e-001 8.622209e-001 7.926934e-001 7.272803e-001 8.119921e-001 8.454838e-001 6.542577e-001 5.541754e-001 4.745533e-001 2.817872e-001
<GCONST> 1.417459e+002
<STATE> 3
<MEAN> 39
 -4.082269e+000 -4.115244e+000 -2.136376e-001 -6.590616e+000 -4.265650e+000 -5.411890e+000 7.381049e-002 -6.082306e-001 -1.003929e+000 -2.284225e+000 -4.328219e-001 -6.557425e+000 6.185230e+001 -1.097599e-001 -3.915703e-002 3.715205e-003 1.812586e-001 9.155539e-002 -7.970213e-002 8.022127e-002 6.332808e-002 5.796511e-002 -1.745748e-002 -4.947853e-002 2.558152e-003 -3.196110e-001 2.931315e-003 1.360737e-002 3.754035e-003 7.734676e-003 1.289336e-002 3.157027e-003 -1.385346e-002 -1.094925e-002 -6.001220e-003 -1.385759e-002 -6.849307e-003 -4.130114e-003 -6.124184e-003
<VARIANCE> 39
 1.158859e+002 7.630589e+001 1.358538e+002 1.587311e+002 1.394646e+002 1.618757e+002 1.291258e+002 1.069921e+002 6.935130e+001 8.023820e+001 6.499072e+001 5.787698e+001 1.476584e+002 2.755925e+000 2.584173e+000 2.678348e+000 3.810632e+000 5.452865e+000 4.512947e+000 4.251142e+000 4.598842e+000 4.711320e+000 3.716518e+000 3.082932e+000 2.650722e+000 2.611402e+000 3.691369e-001 3.693318e-001 4.137432e-001 5.689678e-001 8.410362e-001 7.735452e-001 7.045667e-001 7.960840e-001 8.491749e-001 6.687090e-001 5.544291e-001 4.841458e-001 2.663189e-001
<GCONST> 1.408874e+002
<STATE> 4
<MEAN> 39
 -4.556930e+000 -4.081112e+000 -6.372110e-001 -6.272752e+000 -3.473108e+000 -5.196983e+000 1.006725e-001 -5.382162e-001 -7.811351e-001 -2.644749e+000 -7.544590e-001 -6.418306e+000 6.035955e+001 -1.030044e-001 1.629600e-003 3.452088e-002 2.208115e-001 1.361227e-001 -5.843285e-002 5.358214e-002 4.826828e-002 3.846908e-002 -6.030665e-002 -6.667622e-002 -3.170298e-003 -3.268293e-001 5.745310e-003 1.467084e-002 4.825823e-003 7.986518e-003 1.266422e-002 1.311553e-002 -1.185493e-002 -9.762947e-003 -7.876055e-003 -1.149619e-002 -6.380042e-003 -1.126644e-003 7.230074e-004
<VARIANCE> 39
 1.159632e+002 7.245580e+001 1.316801e+002 1.548796e+002 1.379113e+002 1.586122e+002 1.289872e+002 1.089939e+002 7.089993e+001 7.899975e+001 6.837698e+001 6.175193e+001 1.549390e+002 2.501491e+000 2.594106e+000 2.691702e+000 3.587953e+000 5.064528e+000 4.226524e+000 4.179042e+000 4.555753e+000 4.622038e+000 3.858352e+000 3.213953e+000 2.834384e+000 2.544572e+000 3.300512e-001 3.758772e-001 4.248889e-001 5.442580e-001 7.871790e-001 7.297555e-001 7.003459e-001 7.949994e-001 8.428705e-001 6.924264e-001 5.744077e-001 5.194754e-001 2.530706e-001
<GCONST> 1.405617e+002
<TRANSP> 5
 0.000000e+000 1.000000e+000 0.000000e+000 0.000000e+000 0.000000e+000
 0.000000e+000 6.776478e-001 3.223522e-001 0.000000e+000 0.000000e+000
 0.000000e+000 0.000000e+000 6.776477e-001 3.223523e-001 0.000000e+000
 0.000000e+000 0.000000e+000 0.000000e+000 7.977965e-001 2.022034e-001
 0.000000e+000 0.000000e+000 0.000000e+000 0.000000e+000 0.000000e+000
<ENDHMM>
~h "w"
<BEGINHMM>
<NUMSTATES> 5
<STATE> 2
<MEAN> 39
 2.729098e+000 -2.045176e+000 -5.043865e+000 -8.157384e+000 -3.593015e+000 -3.340131e+000 -3.227933e+000 -3.279844e+000 -4.744138e+000 -6.581495e+000 -3.936037e+000 -5.381952e+000 6.591594e+001 -5.281318e-002 -1.295560e-002 1.647169e-001 2.766316e-002 7.274784e-002 1.889053e-001 1.346038e-001 1.053036e-001 2.398239e-002 -8.867744e-002 -6.886148e-002 -9.856535e-002 7.403708e-002 1.172791e-003 -2.656990e-003 1.601807e-002 1.599736e-002 -7.078572e-003 -2.058126e-003 -9.729082e-003 -6.179809e-003 -1.627028e-002 1.605008e-002 6.466131e-003 -1.298737e-002 -7.197423e-003
<VARIANCE> 39
 1.225183e+002 9.520693e+001 1.720309e+002 1.068394e+002 1.320671e+002 1.210285e+002 9.845358e+001 8.102840e+001 8.804914e+001 9.642764e+001 8.398391e+001 8.075639e+001 1.921846e+002 2.315376e+000 3.438394e+000 2.989094e+000 4.048118e+000 4.728475e+000 4.134843e+000 4.240870e+000 4.074969e+000 3.927959e+000 4.090039e+000 3.807520e+000 3.104269e+000 2.730567e+000 2.973838e-001 3.900816e-001 4.005765e-001 6.127332e-001 6.624832e-001 6.737622e-001 7.168364e-001 6.870192e-001 6.848674e-001 6.718395e-001 6.671900e-001 5.266836e-001 2.192517e-001
<GCONST> 1.408795e+002
<STATE> 3
<MEAN> 39
 2.577923e+000 -2.115786e+000 -4.481571e+000 -8.029545e+000 -3.431330e+000 -2.802410e+000 -2.840086e+000 -2.989346e+000 -4.763128e+000 -6.806448e+000 -4.122285e+000 -5.729232e+000 6.620380e+001 -5.207215e-002 -2.070156e-002 2.206736e-001 8.403303e-002 6.339853e-002 1.722248e-001 1.018395e-001 7.590964e-002 -1.931791e-002 -3.635757e-002 -4.467189e-002 -1.388282e-001 5.081625e-002 3.111148e-003 2.968804e-003 1.717407e-002 2.141628e-002 -5.766499e-004 -1.044446e-002 -1.386773e-002 -1.284238e-002 -1.416710e-002 1.718138e-002 5.104849e-003 -1.092618e-002 -1.456421e-002
<VARIANCE> 39
 1.205024e+002 9.736021e+001 1.628230e+002 1.095255e+002 1.277985e+002 1.201402e+002 9.628658e+001 8.189152e+001 8.554359e+001 1.010441e+002 8.054978e+001 8.567142e+001 1.961798e+002 2.375435e+000 3.519210e+000 3.047096e+000 4.059765e+000 4.697155e+000 4.090411e+000 4.381926e+000 4.063137e+000 3.780496e+000 4.078048e+000 3.773886e+000 3.137619e+000 2.785343e+000 3.035965e-001 3.969532e-001 4.119184e-001 6.270734e-001 6.559191e-001 6.741697e-001 7.363216e-001 6.849588e-001 6.645846e-001 6.652460e-001 6.591913e-001 5.312120e-001 2.127676e-001
<GCONST> 1.409530e+002
<STATE> 4
<MEAN> 39
 2.601574e+000 -2.164997e+000 -3.360282e+000 -7.834965e+000 -3.176073e+000 -2.334895e+000 -2.511480e+000 -2.747182e+000 -5.049913e+000 -6.802928e+000 -4.463446e+000 -6.506091e+000 6.638054e+001 -3.646330e-002 -1.986829e-002 2.607795e-001 1.536198e-001 6.315267e-002 1.204419e-001 4.329769e-002 2.350271e-002 -6.201706e-002 1.734749e-002 -2.722615e-002 -1.690913e-001 -9.272465e-003 4.418683e-003 6.813647e-003 1.004471e-002 2.129596e-002 3.872589e-003 -1.538369e-002 -1.593936e-002 -1.406275e-002 -8.457019e-003 1.323522e-002 1.027431e-003 -6.940114e-003 -2.508765e-002
<VARIANCE> 39
 1.193893e+002 1.001679e+002 1.551633e+002 1.133487e+002 1.282030e+002 1.186442e+002 9.398950e+001 8.558124e+001 8.459296e+001 1.045038e+002 7.615366e+001 9.134656e+001 2.016236e+002 2.517343e+000 3.683004e+000 3.160081e+000 4.135872e+000 4.601310e+000 4.038668e+000 4.563417e+000 4.135540e+000 3.687186e+000 4.106594e+000 3.785345e+000 3.226759e+000 3.008639e+000 3.197408e-001 4.153576e-001 4.372033e-001 6.521076e-001 6.452289e-001 6.754330e-001 7.647598e-001 6.933165e-001 6.560746e-001 6.660894e-001 6.603410e-001 5.475380e-001 2.237587e-001
<GCONST> 1.416023e+002
<TRANSP> 5
 0.000000e+000 1.000000e+000 0.000000e+000 0.000000e+000 0.000000e+000
 0.000000e+000 6.729541e-001 3.270458e-001 0.000000e+000 0.000000e+000
 0.000000e+000 0.000000e+000 6.729555e-001 3.270445e-001 0.000000e+000
 0.000000e+000 0.000000e+000 0.000000e+000 7.909138e-001 2.090862e-001
 0.000000e+000 0.000000e+000 0.000000e+000 0.000000e+000 0.000000e+000
<ENDHMM>
~h "z"
<BEGINHMM>
<NUMSTATES> 5
<STATE> 2
<MEAN> 39
 -1.205946e+001 3.862808e+000 -1.879978e+000 -8.477784e+000 2.008012e-002 -4.413459e+000 2.419456e+000 -2.731090e+000 -1.544438e+000 -4.907998e+000 2.959104e-001 -4.639050e+000 6.235946e+001 -3.446163e-001 1.645223e-001 -1.192591e-001 1.192638e-001 4.127641e-001 -4.991999e-002 2.757737e-001 3.623643e-002 1.976648e-001 9.410732e-002 4.559366e-002 3.518833e-002 -2.451060e-001 1.417664e-002 -1.554918e-002 7.208209e-003 2.742628e-003 9.547661e-003 1.994463e-003 1.277408e-003 7.889090e-003 7.045496e-003 3.116940e-003 -2.015240e-004 -1.667894e-003 -1.039135e-002
<VARIANCE> 39
 2.262130e+002 1.251925e+002 2.096982e+002 1.741980e+002 1.365173e+002 1.723913e+002 1.534532e+002 1.001626e+002 6.957095e+001 7.557323e+001 5.631966e+001 5.396349e+001 8.978925e+001 4.139535e+000 2.726284e+000 3.458209e+000 3.668368e+000 4.577947e+000 4.937549e+000 4.356111e+000 4.323915e+000 3.563718e+000 3.570183e+000 3.020567e+000 2.594451e+000 2.691943e+000 4.510932e-001 3.624499e-001 4.660224e-001 5.707793e-001 6.605422e-001 7.736673e-001 7.597244e-001 7.544302e-001 6.351207e-001 6.442673e-001 5.670860e-001 4.645429e-001 3.134051e-001
<GCONST> 1.420845e+002
<STATE> 3
<MEAN> 39
 -1.318029e+001 4.409307e+000 -2.213884e+000 -8.076873e+000 1.403644e+000 -4.659379e+000 3.353274e+000 -2.646500e+000 -9.051458e-001 -4.609194e+000 4.616674e-001 -4.508370e+000 6.149719e+001 -2.752463e-001 1.049384e-001 -8.717562e-002 1.263886e-001 4.196821e-001 -5.714722e-002 2.624878e-001 5.596284e-002 2.092883e-001 1.010479e-001 5.069412e-002 3.099242e-002 -2.738731e-001 2.552228e-002 -2.365396e-002 1.192175e-002 4.813919e-003 -8.548564e-003 -2.987354e-004 -8.937699e-003 5.707448e-003 -2.047498e-003 2.682109e-003 1.097500e-003 1.012297e-003 -8.313585e-003
<VARIANCE> 39
 2.137612e+002 1.220500e+002 1.898091e+002 1.702270e+002 1.427398e+002 1.669585e+002 1.665354e+002 1.031060e+002 7.459564e+001 7.591183e+001 5.734152e+001 5.300347e+001 8.500186e+001 4.037523e+000 2.675383e+000 3.184500e+000 3.492026e+000 4.458293e+000 4.738366e+000 4.256431e+000 4.145040e+000 3.412390e+000 3.536860e+000 3.023797e+000 2.493040e+000 2.357039e+000 4.231241e-001 3.517659e-001 4.343615e-001 5.538200e-001 6.340798e-001 7.417594e-001 7.301075e-001 7.235369e-001 6.037355e-001 6.437017e-001 5.670882e-001 4.488465e-001 2.781104e-001
<GCONST> 1.409251e+002
<STATE> 4
<MEAN> 39
 -1.445936e+001 5.240741e+000 -2.784417e+000 -7.811884e+000 3.156606e+000 -4.972653e+000 4.374717e+000 -2.741529e+000 -4.727919e-001 -4.391927e+000 3.774981e-001 -4.199076e+000 6.047342e+001 -1.493512e-001 1.549984e-002 -2.463602e-002 1.355151e-001 3.311297e-001 -1.005352e-001 1.975982e-001 5.874702e-002 1.788561e-001 9.512862e-002 5.746534e-002 3.266367e-002 -2.955228e-001 3.335591e-002 -2.645534e-002 1.459324e-002 4.595184e-003 -2.817181e-002 -3.104749e-003 -1.385555e-002 4.574043e-003 -8.924617e-003 4.954460e-004 -1.930279e-003 3.684859e-004 -8.877438e-003
<VARIANCE> 39
 1.928547e+002 1.161586e+002 1.618515e+002 1.671707e+002 1.491663e+002 1.558891e+002 1.840514e+002 1.033773e+002 8.043452e+001 7.457140e+001 5.820418e+001 5.300971e+001 8.610281e+001 3.792946e+000 2.585178e+000 2.812129e+000 3.348509e+000 4.304617e+000 4.439330e+000 4.095421e+000 3.882592e+000 3.357513e+000 3.547838e+000 3.059783e+000 2.459370e+000 2.062851e+000 3.922722e-001 3.358837e-001 3.956901e-001 5.427291e-001 6.148772e-001 7.056577e-001 7.017816e-001 6.800321e-001 5.962522e-001 6.553889e-001 5.839807e-001 4.514926e-001 2.447388e-001
<GCONST> 1.396386e+002
<TRANSP> 5
 0.000000e+000 1.000000e+000 0.000000e+000 0.000000e+000 0.000000e+000
 0.000000e+000 7.104730e-001 2.895270e-001 0.000000e+000 0.000000e+000
 0.000000e+000 0.000000e+000 7.104720e-001 2.895280e-001 0.000000e+000
 0.000000e+000 0.000000e+000 0.000000e+000 8.326449e-001 1.673551e-001
 0.000000e+000 0.000000e+000 0.000000e+000 0.000000e+000 0.000000e+000
<ENDHMM>
~h "aa"
<BEGINHMM>
<NUMSTATES> 5
<STATE> 2
<MEAN> 39
 -1.428130e+000 -5.013640e+000 -8.890355e-001 -9.439613e+000 -4.294314e+000 -4.167759e+000 -1.795368e+000 -1.341111e+000 -3.608665e+000 -5.450609e+000 -2.363082e+000 -8.561069e+000 6.914085e+001 4.642269e-002 6.582907e-002 -1.327329e-003 -7.093889e-002 7.986168e-002 1.334182e-001 -4.744708e-003 -1.500193e-002 -1.853738e-002 -3.526600e-003 4.453312e-002 -1.059276e-002 -1.320430e-002 -1.396855e-002 1.382934e-002 6.782944e-003 1.763190e-002 9.922639e-003 -8.893977e-003 -1.340931e-003 3.741769e-003 1.327956e-003 -1.984893e-005 -2.259679e-003 6.211815e-003 -1.717967e-002
<VARIANCE> 39
 1.325526e+002 1.287088e+002 1.688793e+002 1.459265e+002 1.510049e+002 1.428840e+002 1.134046e+002 1.086600e+002 1.027032e+002 9.450668e+001 6.748441e+001 8.507702e+001 2.024222e+002 3.817127e+000 3.942714e+000 4.030446e+000 5.237862e+000 4.936033e+000 4.931437e+000 5.027278e+000 4.952949e+000 4.389922e+000 3.921628e+000 3.367006e+000 3.295130e+000 4.460166e+000 4.787620e-001 4.805471e-001 6.000783e-001 8.041909e-001 7.369388e-001 7.736475e-001 8.710600e-001 8.841919e-001 7.762096e-001 6.634808e-001 6.040486e-001 5.889299e-001 4.351939e-001
<GCONST> 1.474445e+002
<STATE> 3
<MEAN> 39
 -1.425211e+000 -4.668849e+000 -8.682230e-001 -9.569201e+000 -3.940817e+000 -3.794937e+000 -1.746990e+000 -1.378901e+000 -3.657980e+000 -5.450398e+000 -2.230025e+000 -8.584476e+000 6.895908e+001 -1.160298e-002 1.034549e-001 1.669610e-002 -1.458772e-002 1.076519e-001 1.002213e-001 -1.528153e-003 6.185709e-003 -6.795419e-003 -1.241323e-003 3.010799e-002 6.797167e-003 -6.162174e-002 -1.863561e-002 1.061621e-002 3.871031e-003 1.594719e-002 6.041550e-003 -1.188271e-002 1.316502e-003 8.052300e-003 6.414603e-003 1.972427e-003 -4.017071e-003 6.007095e-003 -1.365136e-002
<VARIANCE> 39
 1.375120e+002 1.294794e+002 1.633792e+002 1.492510e+002 1.446622e+002 1.455054e+002 1.098056e+002 1.072155e+002 9.998401e+001 9.070342e+001 6.613704e+001 8.169784e+001 1.920188e+002 3.878017e+000 3.893878e+000 3.867995e+000 5.153281e+000 4.891402e+000 4.887459e+000 4.912081e+000 4.791906e+000 4.326448e+000 3.807395e+000 3.335217e+000 3.242012e+000 4.428464e+000 4.805316e-001 4.742274e-001 5.790070e-001 7.755960e-001 7.462960e-001 7.777544e-001 8.569498e-001 8.557182e-001 7.672080e-001 6.441682e-001 6.066186e-001 5.781154e-001 4.347435e-001
<GCONST> 1.468503e+002
<STATE> 4
<MEAN> 39
 -2.056908e+000 -3.875508e+000 -1.028204e+000 -9.636842e+000 -3.210304e+000 -3.835386e+000 -1.537149e+000 -1.235109e+000 -3.830449e+000 -5.514455e+000 -2.263130e+000 -8.385014e+000 6.829070e+001 -1.320660e-001 1.374226e-001 1.704350e-002 4.557854e-002 1.388627e-001 4.859341e-002 3.068023e-002 4.622276e-002 3.487144e-002 1.082569e-002 8.485327e-003 2.618909e-002 -1.004080e-001 -2.259603e-002 5.514538e-003 -1.604438e-003 9.446428e-003 4.333126e-003 -9.755827e-003 3.445203e-003 9.283462e-003 1.143660e-002 4.056168e-003 -2.561168e-003 5.740420e-003 -7.232531e-003
<VARIANCE> 39
 1.550994e+002 1.318507e+002 1.522909e+002 1.545386e+002 1.356058e+002 1.535815e+002 1.093708e+002 1.062885e+002 9.691119e+001 8.602144e+001 6.316385e+001 7.940385e+001 1.932027e+002 3.995170e+000 3.723306e+000 3.649290e+000 5.123118e+000 4.875463e+000 4.878918e+000 5.016413e+000 4.692158e+000 4.265137e+000 3.701146e+000 3.324801e+000 3.222152e+000 4.449030e+000 4.874975e-001 4.616651e-001 5.541279e-001 7.665430e-001 7.697908e-001 7.978542e-001 8.862782e-001 8.380934e-001 7.652309e-001 6.365162e-001 6.198022e-001 5.733116e-001 4.372519e-001
<GCONST> 1.466518e+002
<TRANSP> 5
 0.000000e+000 1.000000e+000 0.000000e+000 0.000000e+000 0.000000e+000
 0.000000e+000 7.086915e-001 2.913085e-001 0.000000e+000 0.000000e+000
 0.000000e+000 0.000000e+000 7.086917e-001 2.913083e-001 0.000000e+000
 0.000000e+000 0.000000e+000 0.000000e+000 8.321540e-001 1.678459e-001
 0.000000e+000 0.000000e+000 0.000000e+000 0.000000e+000 0.000000e+000
<ENDHMM>
~h "ae"
<BEGINHMM>
<NUMSTATES> 5
<STATE> 2
<MEAN> 39
 -3.099449e+000 -5.350095e+000 -3.682093e-001 -7.077521e+000 -5.192209e+000 -6.261625e+000 4.347262e-001 3.007549e+000 -1.500227e+000 -5.168756e+000 -3.193551e+000 -7.574654e+000 6.581493e+001 1.792195e-001 3.219075e-002 9.859212e-002 -1.478738e-001 -3.683231e-001 -1.637379e-001 -1.580969e-001 -1.490016e-001 -1.496552e-001 -1.068740e-001 -2.482707e-002 -5.669846e-002 2.520801e-001 -3.124732e-002 3.620596e-002 -8.054688e-004 3.729384e-002 3.230026e-002 1.945561e-002 -1.539653e-003 -2.846572e-002 2.885214e-002 5.085240e-002 2.671176e-002 2.549306e-002 -6.219882e-002
<VARIANCE> 39
 1.148105e+002 1.344123e+002 1.508066e+002 1.098831e+002 1.594057e+002 1.369635e+002 1.446875e+002 1.845813e+002 9.540733e+001 1.094912e+002 7.722575e+001 7.636260e+001 2.284310e+002 3.379802e+000 4.368070e+000 3.344293e+000 4.849011e+000 6.524118e+000 5.055952e+000 4.466230e+000 5.672346e+000 4.742366e+000 4.981638e+000 3.524594e+000 3.462824e+000 4.878335e+000 4.720325e-001 6.036081e-001 5.324544e-001 7.626942e-001 9.847041e-001 7.844303e-001 7.743695e-001 9.832034e-001 8.168539e-001 8.462770e-001 6.410061e-001 6.334500e-001 5.566532e-001
<GCONST> 1.494996e+002
<STATE> 3
<MEAN> 39
 -2.764556e+000 -5.095585e+000 -9.832487e-002 -7.346037e+000 -5.996912e+000 -6.510615e+000 7.517830e-002 2.558209e+000 -1.781331e+000 -5.242099e+000 -3.155834e+000 -7.633190e+000 6.618019e+001 8.258124e-002 1.276197e-001 1.216699e-001 -4.388277e-002 -2.545915e-001 -9.755438e-002 -1.360715e-001 -1.888275e-001 -7.356914e-002 2.473532e-002 3.797282e-002 -6.988095e-003 6.166110e-002 -3.865649e-002 2.909104e-002 5.466088e-003 3.723047e-002 5.087650e-002 2.474780e-002 1.340682e-002 -8.713406e-003 2.926524e-002 4.509211e-002 2.141092e-002 1.514814e-002 -6.575647e-002
<VARIANCE> 39
 1.120223e+002 1.326085e+002 1.636670e+002 1.104030e+002 1.599726e+002 1.358327e+002 1.373610e+002 1.720137e+002 9.689495e+001 1.078408e+002 7.528805e+001 7.491251e+001 2.192903e+002 3.336864e+000 4.224875e+000 3.374183e+000 4.824892e+000 6.531645e+000 5.015377e+000 4.489426e+000 5.547337e+000 4.820145e+000 4.749622e+000 3.476909e+000 3.287038e+000 4.611598e+000 4.706089e-001 5.847139e-001 5.375878e-001 7.504056e-001 9.858015e-001 7.869951e-001 7.838707e-001 9.620928e-001 8.321341e-001 8.108609e-001 6.327438e-001 6.045597e-001 5.264450e-001
<GCONST> 1.489298e+002
<STATE> 4
<MEAN> 39
 -2.817586e+000 -4.204170e+000 4.764341e-001 -7.760678e+000 -6.327381e+000 -6.625207e+000 -6.531882e-001 1.517962e+000 -2.239556e+000 -5.157904e+000 -2.907087e+000 -7.588173e+000 6.617580e+001 -1.964856e-002 1.718136e-001 1.903156e-001 3.647791e-002 -1.260728e-001 -4.348696e-002 -7.077698e-002 -1.637689e-001 -2.402934e-002 1.061931e-001 8.833013e-002 1.263511e-002 -9.958863e-002 -2.668568e-002 8.518947e-003 1.924804e-002 1.972394e-002 3.203111e-002 7.183304e-003 1.512289e-002 2.476916e-003 8.590401e-003 1.755729e-002 1.213564e-002 4.192687e-003 -3.314836e-002
<VARIANCE> 39
 1.134289e+002 1.312578e+002 1.936333e+002 1.201445e+002 1.698065e+002 1.386715e+002 1.343198e+002 1.588016e+002 1.018622e+002 1.039185e+002 7.331226e+001 7.331557e+001 2.165282e+002 3.363202e+000 4.046526e+000 3.651859e+000 4.816051e+000 6.589277e+000 4.902446e+000 4.637964e+000 5.458116e+000 4.931736e+000 4.433303e+000 3.450135e+000 3.161602e+000 4.202928e+000 4.787095e-001 5.594132e-001 5.680144e-001 7.491785e-001 1.005314e+000 7.825672e-001 8.189524e-001 9.380931e-001 8.548807e-001 7.614524e-001 6.330173e-001 5.788838e-001 4.828022e-001
<GCONST> 1.488671e+002
<TRANSP> 5
 0.000000e+000 1.000000e+000 0.000000e+000 0.000000e+000 0.000000e+000
 0.000000e+000 6.702442e-001 3.297558e-001 0.000000e+000 0.000000e+000
 0.000000e+000 0.000000e+000 6.702431e-001 3.297569e-001 0.000000e+000
 0.000000e+000 0.000000e+000 0.000000e+000 7.874379e-001 2.125621e-001
 0.000000e+000 0.000000e+000 0.000000e+000 0.000000e+000 0.000000e+000
<ENDHMM>
~h "ah"
<BEGINHMM>
<NUMSTATES> 5
<STATE> 2
<MEAN> 39
 -2.808506e-001 -3.483384e+000 -4.189541e+000 -7.968801e+000 -8.285207e-001 -2.759566e+000 -2.802964e+000 -1.260061e+000 -2.824794e+000 -5.280443e+000 -3.518369e+000 -8.140002e+000 6.772620e+001 -7.254329e-002 5.700989e-002 3.571784e-002 7.798622e-002 1.602275e-001 6.443492e-002 6.189986e-002 2.959860e-002 -1.016822e-002 6.209888e-002 -2.622015e-002 -1.105713e-001 -8.890571e-002 -1.101253e-002 9.316605e-003 6.160661e-003 1.607135e-002 4.398520e-003 -1.103190e-002 5.014295e-003 -8.636420e-003 1.276718e-003 2.789985e-003 -1.870452e-003 5.197451e-003 -3.251413e-002
<VARIANCE> 39
 1.353000e+002 1.207803e+002 1.223562e+002 1.133868e+002 1.151336e+002 1.121690e+002 1.194751e+002 9.747545e+001 9.048299e+001 9.424545e+001 8.406926e+001 9.730029e+001 2.023731e+002 2.826709e+000 3.759796e+000 2.943193e+000 4.004396e+000 4.222075e+000 4.045197e+000 4.435587e+000 4.407241e+000 3.789651e+000 3.755769e+000 3.674463e+000 3.173274e+000 3.734044e+000 3.661633e-001 4.543703e-001 4.408371e-001 6.062772e-001 6.417894e-001 6.570792e-001 7.411840e-001 7.587588e-001 6.772356e-001 6.349939e-001 6.336621e-001 5.216512e-001 3.296373e-001
<GCONST> 1.425735e+002
<STATE> 3
<MEAN> 39
 -5.708935e-001 -3.280185e+000 -4.090351e+000 -7.696862e+000 -3.103836e-001 -2.569792e+000 -2.575145e+000 -1.196976e+000 -2.841395e+000 -5.071136e+000 -3.608348e+000 -8.468325e+000 6.733588e+001 -1.088082e-001 8.159013e-002 5.038472e-002 1.234810e-001 1.769406e-001 3.426189e-002 7.472188e-002 5.277791e-003 -4.014808e-005 6.467115e-002 -2.818847e-002 -9.297735e-002 -1.941098e-001 -1.482208e-002 7.262169e-003 2.213391e-003 1.210307e-002 6.037001e-003 -9.472772e-003 6.983269e-003 -3.152036e-003 7.058518e-003 -1.952351e-003 5.995781e-004 6.933488e-003 -3.157765e-002
<VARIANCE> 39
 1.417770e+002 1.220546e+002 1.160045e+002 1.139646e+002 1.129595e+002 1.100379e+002 1.145508e+002 9.822810e+001 9.183752e+001 9.189628e+001 8.224770e+001 9.722466e+001 1.920940e+002 2.819289e+000 3.735394e+000 2.864364e+000 3.858827e+000 3.986203e+000 3.897977e+000 4.338788e+000 4.246544e+000 3.712555e+000 3.705861e+000 3.526790e+000 3.118028e+000 3.562006e+000 3.587514e-001 4.543692e-001 4.303913e-001 5.826970e-001 6.084093e-001 6.364499e-001 7.208896e-001 7.275360e-001 6.636615e-001 6.303511e-001 6.090145e-001 5.129668e-001 3.102084e-001
<GCONST> 1.416740e+002
<STATE> 4
<MEAN> 39
 -1.296079e+000 -2.862517e+000 -3.978679e+000 -7.439014e+000 5.642420e-001 -2.507758e+000 -2.030090e+000 -1.206240e+000 -2.733227e+000 -4.799629e+000 -3.735734e+000 -8.739430e+000 6.612941e+001 -1.570374e-001 8.966546e-002 4.695273e-002 1.401471e-001 1.834073e-001 1.219556e-002 8.700292e-002 -5.060034e-004 3.127063e-002 4.665921e-002 -1.643064e-002 -5.895914e-002 -2.885543e-001 -1.543284e-002 1.677775e-003 -6.099711e-004 3.499906e-003 3.126540e-003 -5.903011e-003 7.256113e-003 3.507339e-003 1.101807e-002 -4.984688e-003 4.878541e-003 8.130645e-003 -2.215728e-002
<VARIANCE> 39
 1.528745e+002 1.203425e+002 1.103825e+002 1.173504e+002 1.146397e+002 1.078054e+002 1.119004e+002 1.010519e+002 9.716775e+001 8.991380e+001 8.099229e+001 9.605547e+001 1.991307e+002 2.810287e+000 3.676494e+000 2.823309e+000 3.738351e+000 3.768408e+000 3.819959e+000 4.336330e+000 4.205917e+000 3.797220e+000 3.811970e+000 3.489582e+000 3.069475e+000 3.383401e+000 3.493763e-001 4.556186e-001 4.269091e-001 5.650512e-001 5.806833e-001 6.316421e-001 7.208523e-001 7.210051e-001 6.831409e-001 6.586775e-001 6.107227e-001 5.137054e-001 2.924317e-001
<GCONST> 1.414705e+002
<TRANSP> 5
 0.000000e+000 1.000000e+000 0.000000e+000 0.000000e+000 0.000000e+000
 0.000000e+000 6.927319e-001 3.072681e-001 0.000000e+000 0.000000e+000
 0.000000e+000 0.000000e+000 6.927307e-001 3.072692e-001 0.000000e+000
 0.000000e+000 0.000000e+000 0.000000e+000 8.137853e-001 1.862148e-001
 0.000000e+000 0.000000e+000 0.000000e+000 0.000000e+000 0.000000e+000
<ENDHMM>
~h "ao"
<BEGINHMM>
<NUMSTATES> 5
<STATE> 2
<MEAN> 39
 -1.035424e+000 -1.738794e+000 -7.930360e+000 -1.070514e+001 -4.686496e+000 -4.348509e+000 -5.393950e+000 -4.247963e+000 -3.644916e+000 -4.271355e+000 -1.971707e+000 -5.503839e+000 6.433663e+001 -7.338547e-002 2.469023e-001 3.824318e-001 1.180179e-001 1.045197e-001 -2.059290e-001 -2.658821e-002 3.488975e-002 -2.538955e-002 -6.685336e-002 -3.517706e-002 2.522998e-002 -1.340255e-001 5.674905e-003 1.197500e-003 4.348956e-003 7.489484e-004 -3.747309e-003 -5.990188e-003 1.020782e-002 -3.212872e-004 -5.508394e-004 -1.181925e-002 -1.462677e-002 -5.364477e-004 2.057534e-002
<VARIANCE> 39
 1.243233e+002 7.273019e+001 9.784210e+001 7.891262e+001 7.523305e+001 1.246249e+002 1.127467e+002 9.396695e+001 8.197176e+001 1.153418e+002 8.276163e+001 6.742760e+001 1.117388e+002 3.720034e+000 2.753730e+000 3.368504e+000 4.865832e+000 4.843288e+000 5.787593e+000 5.994536e+000 5.446928e+000 5.195838e+000 5.619441e+000 5.014558e+000 4.130773e+000 4.201767e+000 6.221793e-001 4.476018e-001 5.060484e-001 8.284416e-001 8.506384e-001 9.953274e-001 9.774597e-001 1.017720e+000 9.879563e-001 1.034976e+000 9.563880e-001 7.405469e-001 5.192283e-001
<GCONST> 1.471355e+002
<STATE> 3
<MEAN> 39
 -1.200631e+000 -9.972709e-001 -6.795577e+000 -1.038007e+001 -4.418403e+000 -4.966950e+000 -5.418767e+000 -4.156428e+000 -3.724183e+000 -4.534483e+000 -2.153743e+000 -5.436530e+000 6.408015e+001 -4.802800e-002 2.394025e-001 3.720655e-001 1.110948e-001 8.168947e-002 -2.096742e-001 6.354301e-005 2.536542e-002 -2.945893e-002 -9.938873e-002 -7.531197e-002 2.068764e-002 -6.338687e-002 8.261723e-003 -5.077510e-003 -7.163730e-003 -3.187937e-003 -1.002640e-002 1.451651e-003 8.792223e-003 -2.730552e-003 -1.449534e-004 -9.163481e-003 -1.210198e-002 -1.840338e-003 2.289803e-002
<VARIANCE> 39
 1.271974e+002 7.371030e+001 9.612375e+001 8.073975e+001 7.554784e+001 1.247597e+002 1.149169e+002 9.634217e+001 8.367499e+001 1.166490e+002 8.261817e+001 7.004993e+001 1.124176e+002 3.822374e+000 2.823153e+000 3.312128e+000 4.921531e+000 4.857350e+000 5.799197e+000 6.255043e+000 5.498378e+000 5.235012e+000 5.619961e+000 4.995098e+000 4.325340e+000 4.338212e+000 6.386678e-001 4.573580e-001 5.018492e-001 8.375793e-001 8.580893e-001 1.002254e+000 1.023157e+000 1.028306e+000 9.945221e-001 1.037826e+000 9.561720e-001 7.722225e-001 5.486600e-001
<GCONST> 1.477138e+002
<STATE> 4
<MEAN> 39
 -1.360624e+000 -4.983664e-002 -5.371921e+000 -1.011403e+001 -4.330432e+000 -5.828632e+000 -5.459634e+000 -4.253159e+000 -3.889714e+000 -5.163073e+000 -2.656141e+000 -5.322464e+000 6.420000e+001 -1.306976e-002 2.016411e-001 3.135862e-001 8.615556e-002 2.953435e-002 -1.766988e-001 3.339325e-002 6.075781e-003 -3.140423e-002 -1.231355e-001 -1.102039e-001 7.358012e-003 2.542374e-002 6.392202e-003 -1.270888e-002 -1.713933e-002 -5.663683e-003 -1.351714e-002 1.028849e-002 8.221609e-003 -3.245907e-003 1.348180e-003 -3.252739e-003 -6.796407e-003 -3.420476e-003 1.908328e-002
<VARIANCE> 39
 1.300039e+002 7.502755e+001 9.419896e+001 8.285393e+001 7.657789e+001 1.252867e+002 1.171235e+002 1.012504e+002 8.629230e+001 1.201278e+002 8.275523e+001 7.277566e+001 1.173024e+002 3.871050e+000 2.937100e+000 3.280841e+000 5.010993e+000 4.851278e+000 5.791835e+000 6.496645e+000 5.530254e+000 5.220089e+000 5.545804e+000 4.907164e+000 4.524284e+000 4.633703e+000 6.442445e-001 4.667087e-001 4.984877e-001 8.470687e-001 8.589420e-001 1.004643e+000 1.063228e+000 1.026688e+000 9.855994e-001 1.021188e+000 9.426264e-001 8.036693e-001 5.956307e-001
<GCONST> 1.483232e+002
<TRANSP> 5
 0.000000e+000 1.000000e+000 0.000000e+000 0.000000e+000 0.000000e+000
 0.000000e+000 6.638450e-001 3.361549e-001 0.000000e+000 0.000000e+000
 0.000000e+000 0.000000e+000 6.638444e-001 3.361556e-001 0.000000e+000
 0.000000e+000 0.000000e+000 0.000000e+000 7.748129e-001 2.251871e-001
 0.000000e+000 0.000000e+000 0.000000e+000 0.000000e+000 0.000000e+000
<ENDHMM>
~h "aw"
<BEGINHMM>
<NUMSTATES> 5
<STATE> 2
<MEAN> 39
 3.853752e-002 -2.738929e+000 -8.850435e+000 -8.503693e+000 -4.984883e+000 -3.883112e+000 -6.308454e+000 -3.588791e+000 -3.949678e+000 -4.292088e+000 -2.074842e+000 -5.498892e+000 6.790571e+001 -1.466049e-001 1.102336e-001 2.113231e-001 9.924714e-002 2.572150e-002 -2.033966e-001 -5.399698e-002 5.693538e-002 3.890548e-002 5.871154e-002 9.539882e-002 1.432680e-001 -1.372145e-001 1.902073e-003 -4.342355e-004 4.517219e-003 -1.479958e-002 -5.315413e-003 9.081509e-003 -3.339211e-004 -6.237239e-003 6.641970e-003 -1.565206e-002 -1.227983e-002 1.293914e-003 1.305455e-002
<VARIANCE> 39
 1.873516e+002 7.771170e+001 9.116870e+001 7.412776e+001 1.121678e+002 1.173438e+002 1.114384e+002 9.456818e+001 9.030591e+001 1.052452e+002 7.818642e+001 6.119668e+001 1.042880e+002 3.472543e+000 2.903587e+000 2.474338e+000 3.599332e+000 4.338209e+000 4.815192e+000 4.210751e+000 4.818542e+000 4.478448e+000 3.844187e+000 3.616446e+000 3.185852e+000 2.554028e+000 4.755942e-001 4.180915e-001 3.830650e-001 5.883096e-001 6.506841e-001 7.518329e-001 6.880131e-001 8.006688e-001 7.718157e-001 6.653348e-001 6.343692e-001 5.746192e-001 3.113405e-001
<GCONST> 1.406250e+002
<STATE> 3
<MEAN> 39
 -4.081676e-001 -2.405590e+000 -8.209544e+000 -8.261157e+000 -4.910246e+000 -4.449056e+000 -6.478756e+000 -3.442493e+000 -3.817211e+000 -4.162244e+000 -1.824430e+000 -5.072880e+000 6.753210e+001 -1.316709e-001 1.075878e-001 2.241574e-001 5.394861e-002 5.803532e-003 -1.715401e-001 -5.482839e-002 3.599366e-002 5.363912e-002 9.668926e-003 5.712023e-002 1.460670e-001 -9.319394e-002 9.771609e-003 -1.697182e-003 3.106131e-003 -1.513858e-002 -8.493620e-003 1.305164e-002 5.504570e-004 -8.618422e-003 1.817867e-003 -1.689438e-002 -1.319176e-002 -1.772550e-003 1.667368e-002
<VARIANCE> 39
 1.954416e+002 7.860245e+001 9.527757e+001 7.286469e+001 1.192818e+002 1.150956e+002 1.114395e+002 9.987933e+001 9.290631e+001 1.011760e+002 7.669242e+001 6.412017e+001 1.055388e+002 3.735253e+000 2.943032e+000 2.472522e+000 3.721162e+000 4.614421e+000 4.936244e+000 4.271709e+000 4.991749e+000 4.622173e+000 3.965116e+000 3.663898e+000 3.251621e+000 2.527436e+000 4.996523e-001 4.265614e-001 3.865822e-001 6.189903e-001 6.841718e-001 7.696220e-001 6.968823e-001 8.291442e-001 7.907881e-001 6.854132e-001 6.510575e-001 5.848094e-001 3.092891e-001
<GCONST> 1.415131e+002
<STATE> 4
<MEAN> 39
 -9.517370e-001 -1.961814e+000 -7.351267e+000 -8.232645e+000 -4.997335e+000 -5.084249e+000 -6.808251e+000 -3.447276e+000 -3.622360e+000 -4.286909e+000 -1.721416e+000 -4.545412e+000 6.738948e+001 -9.378633e-002 1.030069e-001 2.398402e-001 6.214861e-003 -2.187153e-002 -1.284617e-001 -5.128846e-002 8.211797e-003 5.007688e-002 -4.840378e-002 1.509422e-002 1.427338e-001 -3.614721e-002 1.469362e-002 -2.083498e-003 3.780625e-003 -1.152828e-002 -8.747623e-003 1.300667e-002 3.053905e-003 -8.637602e-003 -3.840616e-003 -1.616316e-002 -1.163342e-002 -3.345822e-003 1.655076e-002
<VARIANCE> 39
 2.015217e+002 7.958515e+001 1.015078e+002 7.222820e+001 1.287296e+002 1.141775e+002 1.108953e+002 1.059883e+002 9.480298e+001 9.878300e+001 7.597932e+001 6.930538e+001 1.080124e+002 4.031972e+000 3.002979e+000 2.494811e+000 3.866588e+000 4.964455e+000 5.030411e+000 4.351311e+000 5.166592e+000 4.783626e+000 4.102541e+000 3.713998e+000 3.352938e+000 2.512192e+000 5.256287e-001 4.362333e-001 3.913015e-001 6.573793e-001 7.258270e-001 7.787821e-001 7.088087e-001 8.576899e-001 8.073331e-001 7.058425e-001 6.677375e-001 5.989252e-001 3.086665e-001
<GCONST> 1.425811e+002
<TRANSP> 5
 0.000000e+000 1.000000e+000 0.000000e+000 0.000000e+000 0.000000e+000
 0.000000e+000 6.639645e-001 3.360355e-001 0.000000e+000 0.000000e+000
 0.000000e+000 0.000000e+000 6.639652e-001 3.360348e-001 0.000000e+000
 0.000000e+000 0.000000e+000 0.000000e+000 7.748968e-001 2.251032e-001
 0.000000e+000 0.000000e+000 0.000000e+000 0.000000e+000 0.000000e+000
<ENDHMM>
~h "ax"
<BEGINHMM>
<NUMSTATES> 5
<STATE> 2
<MEAN> 39
 -9.223638e-001 -9.730077e-001 -4.766148e+000 -8.846131e+000 -5.211146e+000 -5.621314e+000 -6.384786e+000 -4.212146e+000 -4.460003e+000 -6.198382e+000 -3.796816e+000 -5.505032e+000 6.780861e+001 -3.302789e-002 -2.253897e-002 1.880456e-002 -1.482105e-002 -2.330789e-002 4.335335e-002 2.427327e-002 3.171179e-003 3.106576e-002 -3.869962e-002 6.493992e-003 4.471482e-002 9.688575e-003 4.046792e-003 8.280458e-005 -1.707876e-004 -1.925231e-003 1.540519e-003 2.486536e-003 2.292354e-004 -3.838421e-003 -2.084706e-003 -3.301431e-003 9.901520e-004 1.295591e-004 1.201673e-004
<VARIANCE> 39
 1.574601e+002 8.370480e+001 1.252614e+002 8.515505e+001 1.161520e+002 1.172897e+002 1.045236e+002 1.044914e+002 8.990977e+001 1.196367e+002 7.741388e+001 8.049644e+001 1.293070e+002 3.436146e+000 2.966367e+000 3.164144e+000 4.066276e+000 4.918002e+000 4.861434e+000 4.933846e+000 4.963027e+000 4.561612e+000 4.399843e+000 3.727056e+000 3.366489e+000 4.048401e+000 4.847121e-001 4.178813e-001 4.763503e-001 6.734921e-001 7.715189e-001 7.983888e-001 8.030686e-001 8.406844e-001 7.893232e-001 7.469363e-001 6.883515e-001 5.893900e-001 4.760310e-001
<GCONST> 1.445314e+002
<STATE> 3
<MEAN> 39
 -1.011910e+000 -1.029691e+000 -4.715623e+000 -8.876938e+000 -5.246392e+000 -5.490012e+000 -6.318375e+000 -4.213316e+000 -4.373954e+000 -6.325301e+000 -3.768838e+000 -5.355779e+000 6.780701e+001 -2.161271e-002 -1.800572e-002 2.269082e-002 -1.721725e-002 -1.571129e-002 4.532619e-002 2.553411e-002 -8.800046e-003 2.362277e-002 -4.903403e-002 9.069897e-003 4.715058e-002 7.851190e-003 3.322024e-003 1.760948e-003 2.043884e-003 1.367191e-003 3.952281e-003 -4.837000e-004 -1.624029e-004 -3.476090e-003 -3.052694e-003 -1.826090e-003 1.309929e-003 -2.076469e-004 -1.990546e-003
<VARIANCE> 39
 1.541935e+002 8.328455e+001 1.274011e+002 8.604228e+001 1.181139e+002 1.192834e+002 1.058627e+002 1.044172e+002 8.954268e+001 1.197924e+002 7.735593e+001 8.390614e+001 1.307349e+002 3.388917e+000 2.921232e+000 3.133316e+000 4.008089e+000 4.939619e+000 4.759809e+000 4.839077e+000 4.890022e+000 4.529248e+000 4.370796e+000 3.680963e+000 3.304041e+000 3.936871e+000 4.731406e-001 4.080091e-001 4.715459e-001 6.653493e-001 7.687906e-001 7.789569e-001 7.868268e-001 8.254305e-001 7.771052e-001 7.377852e-001 6.790574e-001 5.755114e-001 4.583139e-001
<GCONST> 1.442095e+002
<STATE> 4
<MEAN> 39
 -1.097126e+000 -1.118848e+000 -4.513284e+000 -8.892495e+000 -5.222008e+000 -5.468944e+000 -6.290483e+000 -4.265657e+000 -4.365872e+000 -6.563508e+000 -3.761620e+000 -5.244967e+000 6.775807e+001 -1.230291e-002 -3.609708e-003 3.105924e-002 -6.941663e-003 6.655529e-003 3.666812e-002 2.396205e-002 -2.181835e-002 1.431618e-002 -5.456262e-002 1.044092e-002 5.051368e-002 -7.659027e-003 1.694363e-003 3.175023e-003 3.666662e-003 3.880398e-003 5.567573e-003 -2.070339e-003 -8.608715e-004 -3.020855e-003 -2.578796e-003 4.434003e-004 4.291116e-004 -1.445051e-003 -4.244987e-003
<VARIANCE> 39
 1.514108e+002 8.303619e+001 1.288970e+002 8.818126e+001 1.187016e+002 1.223698e+002 1.052976e+002 1.034676e+002 8.900351e+001 1.211483e+002 7.719254e+001 8.904095e+001 1.339777e+002 3.284373e+000 2.867480e+000 3.079313e+000 3.925466e+000 4.897102e+000 4.594875e+000 4.689820e+000 4.766862e+000 4.463573e+000 4.307487e+000 3.623029e+000 3.231845e+000 3.795900e+000 4.542454e-001 3.967409e-001 4.629764e-001 6.507021e-001 7.580519e-001 7.500629e-001 7.639208e-001 8.057919e-001 7.604291e-001 7.222615e-001 6.668692e-001 5.590044e-001 4.346105e-001
<GCONST> 1.436769e+002
<TRANSP> 5
 0.000000e+000 1.000000e+000 0.000000e+000 0.000000e+000 0.000000e+000
 0.000000e+000 6.722807e-001 3.277192e-001 0.000000e+000 0.000000e+000
 0.000000e+000 0.000000e+000 6.722799e-001 3.277200e-001 0.000000e+000
 0.000000e+000 0.000000e+000 0.000000e+000 7.859259e-001 2.140741e-001
 0.000000e+000 0.000000e+000 0.000000e+000 0.000000e+000 0.000000e+000
<ENDHMM>
~h "ay"
<BEGINHMM>
<NUMSTATES> 5
<STATE> 2
<MEAN> 39
 -3.842507e+000 -4.135844e+000 2.617093e-001 -8.445016e+000 -8.943659e+000 -5.227289e+000 -3.423576e+000 -7.559662e-001 -2.863148e+000 -5.776583e+000 -5.242411e+000 -5.980770e+000 7.444228e+001 -2.656292e-002 1.761957e-001 3.540256e-001 -3.507130e-002 -2.422988e-001 -1.602900e-001 -1.643882e-001 -5.956427e-002 -1.059520e-001 1.640296e-001 4.210183e-002 -3.521529e-002 -2.045062e-001 1.702536e-003 4.588610e-002 4.416618e-003 3.163507e-002 4.894155e-002 -9.685414e-004 -8.394075e-003 -1.756780e-002 1.079585e-002 -4.513760e-003 4.128752e-003 8.363726e-003 -7.686733e-002
<VARIANCE> 39
 1.060952e+002 1.511661e+002 1.414292e+002 8.126237e+001 1.344127e+002 8.498029e+001 1.052878e+002 1.288052e+002 7.184457e+001 1.070069e+002 6.335061e+001 1.040236e+002 1.736623e+002 2.144417e+000 3.127412e+000 3.502867e+000 3.583591e+000 4.764889e+000 3.476739e+000 4.473053e+000 4.329546e+000 4.036046e+000 4.348243e+000 3.409528e+000 2.984535e+000 2.968862e+000 2.979698e-001 3.546003e-001 4.487568e-001 5.545730e-001 6.153122e-001 5.599360e-001 7.589737e-001 7.177935e-001 6.909785e-001 7.721388e-001 6.200361e-001 5.261804e-001 2.801102e-001
<GCONST> 1.406105e+002
<STATE> 3
<MEAN> 39
 -3.867258e+000 -3.289994e+000 1.356057e+000 -8.376636e+000 -9.363892e+000 -5.763876e+000 -4.037789e+000 -1.032617e+000 -3.138250e+000 -5.308830e+000 -5.081995e+000 -6.058042e+000 7.329597e+001 -1.663946e-002 2.718842e-001 2.931263e-001 4.690757e-002 -6.664579e-002 -1.463642e-001 -1.675921e-001 -9.417289e-002 -5.898013e-002 1.310377e-001 5.867277e-002 -8.228443e-003 -3.659448e-001 1.901359e-003 2.201188e-002 -2.675018e-002 2.161327e-002 5.505082e-002 8.633160e-003 2.129560e-003 -7.318154e-003 1.608365e-002 -1.132164e-002 4.549677e-003 6.771643e-003 -3.823990e-002
<VARIANCE> 39
 1.111449e+002 1.577713e+002 1.427732e+002 8.491228e+001 1.294869e+002 8.827410e+001 1.060097e+002 1.332153e+002 7.232919e+001 1.009655e+002 6.499358e+001 9.665433e+001 1.595129e+002 2.159542e+000 2.972623e+000 3.487699e+000 3.565135e+000 4.925503e+000 3.560265e+000 4.452619e+000 4.282552e+000 4.082479e+000 3.980240e+000 3.247908e+000 3.010495e+000 2.579202e+000 2.970716e-001 3.462051e-001 4.450026e-001 5.413481e-001 6.342105e-001 5.720065e-001 7.561398e-001 7.184401e-001 6.971857e-001 7.012355e-001 5.928462e-001 5.292577e-001 2.604838e-001
<GCONST> 1.401309e+002
<STATE> 4
<MEAN> 39
 -3.873756e+000 -1.700101e+000 2.223358e+000 -8.187491e+000 -8.892102e+000 -6.265899e+000 -5.083254e+000 -1.689932e+000 -3.362894e+000 -5.191676e+000 -4.869770e+000 -5.967432e+000 7.144347e+001 -2.408920e-003 2.753364e-001 1.038995e-001 1.016386e-001 1.371022e-001 -8.902835e-002 -1.188859e-001 -9.404967e-002 -3.983234e-003 5.720902e-002 6.721388e-002 1.516177e-002 -3.859291e-001 1.916699e-003 -5.392890e-003 -4.063542e-002 7.085269e-003 3.803389e-002 1.475960e-002 1.196561e-002 1.440402e-003 1.157871e-002 -1.474992e-002 1.565299e-004 3.665175e-003 4.380194e-003
<VARIANCE> 39
 1.209728e+002 1.574673e+002 1.503815e+002 9.318233e+001 1.233046e+002 9.490135e+001 1.093799e+002 1.338369e+002 7.444573e+001 9.707235e+001 6.695412e+001 8.988091e+001 1.485118e+002 2.347860e+000 2.954782e+000 3.516615e+000 3.751132e+000 4.960720e+000 3.752733e+000 4.478664e+000 4.245140e+000 4.123537e+000 3.797022e+000 3.167244e+000 3.143796e+000 2.586837e+000 3.196231e-001 3.560727e-001 4.611676e-001 5.613266e-001 6.614249e-001 6.033633e-001 7.595536e-001 7.248783e-001 7.059661e-001 6.641095e-001 5.769569e-001 5.522633e-001 2.728351e-001
<GCONST> 1.407725e+002
<TRANSP> 5
 0.000000e+000 1.000000e+000 0.000000e+000 0.000000e+000 0.000000e+000
 0.000000e+000 7.022370e-001 2.977630e-001 0.000000e+000 0.000000e+000
 0.000000e+000 0.000000e+000 7.022371e-001 2.977628e-001 0.000000e+000
 0.000000e+000 0.000000e+000 0.000000e+000 8.208718e-001 1.791282e-001
 0.000000e+000 0.000000e+000 0.000000e+000 0.000000e+000 0.000000e+000
<ENDHMM>
~h "ch"
<BEGINHMM>
<NUMSTATES> 5
<STATE> 2
<MEAN> 39
 -1.066894e+001 -1.144227e-003 5.856743e+000 -7.454781e+000 -3.014227e+000 -6.441478e+000 -7.673030e-001 -7.372466e-002 -2.588395e+000 -6.383014e+000 -1.897508e+000 -6.753819e+000 6.618857e+001 -1.335931e-001 -3.670439e-002 1.769390e-002 -1.094906e-001 5.086890e-002 6.887989e-002 9.352567e-002 9.098762e-002 1.147912e-001 -7.161186e-002 3.260639e-002 1.660326e-002 1.371112e-001 2.920217e-002 -2.154998e-002 -2.899290e-003 1.506295e-002 -6.301933e-003 2.870713e-003 -2.069315e-003 -1.026790e-002 -8.405683e-003 -5.200026e-003 1.705015e-003 -3.164830e-005 -1.495759e-002
<VARIANCE> 39
 2.159342e+002 1.300219e+002 9.872445e+001 1.109262e+002 1.575352e+002 1.536706e+002 1.136398e+002 1.152667e+002 1.032153e+002 1.063775e+002 7.025148e+001 7.137478e+001 2.592478e+002 6.359290e+000 4.283024e+000 2.722400e+000 4.783775e+000 5.992462e+000 4.865724e+000 3.877939e+000 4.829397e+000 4.028521e+000 4.148076e+000 3.807196e+000 3.515544e+000 3.838775e+000 7.796313e-001 5.865576e-001 4.244157e-001 7.337031e-001 9.019862e-001 8.635659e-001 6.873908e-001 8.824213e-001 7.231293e-001 7.330300e-001 6.900564e-001 6.247624e-001 3.552229e-001
<GCONST> 1.478968e+002
<STATE> 3
<MEAN> 39
 -1.099900e+001 -2.302179e-001 5.926668e+000 -7.791684e+000 -2.804266e+000 -6.193290e+000 -3.996442e-001 1.904499e-001 -2.300512e+000 -6.711297e+000 -1.761296e+000 -6.688556e+000 6.662659e+001 -2.476200e-002 -9.983307e-002 6.649501e-003 -3.913137e-002 4.519594e-002 8.185853e-002 7.963746e-002 5.126786e-002 8.119934e-002 -8.280669e-002 3.325229e-002 2.091894e-002 5.247385e-002 3.625366e-002 -1.658667e-002 -5.292800e-003 2.704227e-002 -2.944565e-004 -1.690128e-003 -4.049694e-003 -1.093005e-002 -1.338254e-002 -9.555530e-004 -4.984036e-003 3.488751e-004 -3.286451e-002
<VARIANCE> 39
 2.155537e+002 1.301729e+002 9.612941e+001 1.098553e+002 1.600710e+002 1.517517e+002 1.170674e+002 1.134738e+002 1.051008e+002 1.074970e+002 6.834281e+001 7.061621e+001 2.541636e+002 5.824925e+000 4.164216e+000 2.583262e+000 4.605573e+000 5.507796e+000 4.663842e+000 3.699079e+000 4.650739e+000 3.798966e+000 3.976772e+000 3.615615e+000 3.325059e+000 3.635504e+000 7.174953e-001 5.709468e-001 4.092141e-001 7.135954e-001 8.324648e-001 8.242559e-001 6.531549e-001 8.464378e-001 6.797685e-001 7.043761e-001 6.507152e-001 5.983110e-001 3.271562e-001
<GCONST> 1.464875e+002
<STATE> 4
<MEAN> 39
 -1.065001e+001 -8.366787e-001 5.694076e+000 -7.808996e+000 -2.699503e+000 -6.472999e+000 4.113432e-001 -5.598289e-002 -3.298189e+000 -7.969141e+000 -2.029668e+000 -6.532449e+000 6.694468e+001 1.262077e-001 -1.096432e-001 3.650532e-003 9.261931e-002 6.227317e-002 5.465774e-002 3.885173e-002 -4.768331e-003 4.594136e-003 -6.960404e-002 -1.193033e-002 1.124827e-002 -1.284145e-001 3.327557e-002 -3.308361e-003 -8.941826e-003 3.103932e-002 4.989565e-003 -1.079144e-002 -5.400146e-003 -4.880486e-003 -1.227209e-002 7.620204e-003 -1.276653e-002 -2.387975e-003 -4.292498e-002
<VARIANCE> 39
 2.009455e+002 1.271253e+002 9.535869e+001 1.113960e+002 1.525047e+002 1.408971e+002 1.173348e+002 1.134258e+002 1.164976e+002 1.171502e+002 6.446047e+001 6.720530e+001 2.706367e+002 4.786616e+000 3.834467e+000 2.389213e+000 4.174547e+000 4.739571e+000 4.274269e+000 3.472891e+000 4.403368e+000 3.554705e+000 3.772693e+000 3.302941e+000 3.020991e+000 3.228759e+000 5.974232e-001 5.224984e-001 3.851494e-001 6.505656e-001 7.316439e-001 7.452506e-001 6.136307e-001 7.975566e-001 6.423653e-001 6.762714e-001 5.945073e-001 5.536507e-001 2.813743e-001
<GCONST> 1.439953e+002
<TRANSP> 5
 0.000000e+000 1.000000e+000 0.000000e+000 0.000000e+000 0.000000e+000
 0.000000e+000 7.234619e-001 2.765382e-001 0.000000e+000 0.000000e+000
 0.000000e+000 0.000000e+000 7.234615e-001 2.765385e-001 0.000000e+000
 0.000000e+000 0.000000e+000 0.000000e+000 8.503817e-001 1.496183e-001
 0.000000e+000 0.000000e+000 0.000000e+000 0.000000e+000 0.000000e+000
<ENDHMM>
~h "eh"
<BEGINHMM>
<NUMSTATES> 5
<STATE> 2
<MEAN> 39
 -3.150015e+000 -4.459114e+000 -2.150847e+000 -8.355334e+000 -6.021995e+000 -8.255974e+000 -1.558117e+000 4.858684e-001 -1.253606e+000 -8.344685e+000 -4.133608e+000 -7.663333e+000 7.151317e+001 2.277137e-001 -3.532659e-002 -4.447860e-002 1.905041e-002 -2.095837e-003 -1.213586e-003 -1.401589e-001 -1.915658e-002 -6.192993e-002 -2.889097e-002 -7.373340e-002 -4.567767e-002 -4.795417e-002 -1.970839e-002 2.328738e-002 1.170979e-002 1.788037e-002 1.274630e-002 2.436295e-002 1.885214e-002 -1.854831e-002 -4.262617e-003 3.063151e-002 1.096603e-002 1.058854e-002 -7.543813e-002
<VARIANCE> 39
 1.237945e+002 1.098018e+002 1.313065e+002 8.540635e+001 1.292215e+002 1.108882e+002 1.044347e+002 1.178798e+002 8.243110e+001 1.556845e+002 6.832271e+001 8.739782e+001 1.860912e+002 3.075584e+000 2.809565e+000 2.670777e+000 3.365084e+000 5.134490e+000 4.020255e+000 4.385482e+000 3.937000e+000 3.845521e+000 3.762108e+000 3.203405e+000 2.762970e+000 4.067347e+000 4.605294e-001 3.923972e-001 4.178599e-001 5.715125e-001 8.136528e-001 7.223219e-001 7.393657e-001 6.900898e-001 6.883342e-001 6.468447e-001 5.835885e-001 5.086804e-001 4.072546e-001
<GCONST> 1.421030e+002
<STATE> 3
<MEAN> 39
 -2.553490e+000 -4.439815e+000 -2.233305e+000 -8.180623e+000 -5.951866e+000 -8.127320e+000 -1.860184e+000 3.338735e-001 -1.500961e+000 -8.276235e+000 -4.313881e+000 -7.753971e+000 7.095159e+001 1.741159e-001 2.753841e-002 -2.829583e-002 4.988705e-002 2.074216e-002 6.206974e-002 -8.861327e-002 -7.619009e-002 -8.265982e-002 4.987925e-002 -4.516481e-002 -2.263694e-002 -2.210249e-001 -2.091052e-002 2.033369e-002 4.759182e-003 7.450732e-003 7.119296e-003 2.022309e-002 1.962631e-002 -1.753164e-002 -4.926435e-003 2.483306e-002 1.176807e-002 9.733435e-003 -5.194654e-002
<VARIANCE> 39
 1.229461e+002 1.096193e+002 1.332846e+002 8.590382e+001 1.250306e+002 1.106800e+002 1.017697e+002 1.162420e+002 8.283548e+001 1.487195e+002 6.819080e+001 8.391225e+001 1.756697e+002 2.969440e+000 2.829980e+000 2.703529e+000 3.492266e+000 4.925412e+000 3.990719e+000 4.241290e+000 3.975197e+000 3.843486e+000 3.744227e+000 3.186129e+000 2.766921e+000 4.053325e+000 4.360333e-001 3.865359e-001 4.253884e-001 5.932519e-001 7.802634e-001 7.103581e-001 7.163789e-001 6.940945e-001 6.867977e-001 6.451340e-001 5.807258e-001 5.068396e-001 4.092098e-001
<GCONST> 1.417278e+002
<STATE> 4
<MEAN> 39
 -2.198997e+000 -3.829736e+000 -1.713812e+000 -7.779999e+000 -5.695692e+000 -7.795071e+000 -2.140229e+000 -4.211029e-001 -2.422626e+000 -8.136395e+000 -4.476148e+000 -7.692924e+000 6.947459e+001 1.074636e-001 8.032903e-002 -4.405378e-002 5.910215e-002 4.256657e-002 1.138319e-001 -5.231731e-002 -1.294650e-001 -1.008290e-001 1.057865e-001 -7.008141e-003 5.958845e-003 -3.118815e-001 -1.762943e-002 1.104953e-002 -5.039911e-003 -3.800538e-003 3.615219e-003 1.262888e-002 9.837182e-003 -1.264645e-002 -2.183745e-003 1.243011e-002 1.169462e-002 9.409838e-003 -1.631196e-002
<VARIANCE> 39
 1.221135e+002 1.103877e+002 1.420780e+002 9.305012e+001 1.157454e+002 1.083426e+002 9.870961e+001 1.200242e+002 8.833446e+001 1.344529e+002 6.937745e+001 7.650687e+001 1.714983e+002 3.003149e+000 2.991423e+000 2.917519e+000 3.930921e+000 4.859565e+000 4.057302e+000 4.158400e+000 4.216663e+000 3.903823e+000 3.805433e+000 3.334563e+000 2.909199e+000 4.255116e+000 4.374557e-001 3.996388e-001 4.569750e-001 6.618509e-001 7.615718e-001 7.094712e-001 6.995429e-001 7.278035e-001 6.968527e-001 6.558437e-001 6.060480e-001 5.290216e-001 4.274015e-001
<GCONST> 1.424944e+002
<TRANSP> 5
 0.000000e+000 1.000000e+000 0.000000e+000 0.000000e+000 0.000000e+000
 0.000000e+000 6.834646e-001 3.165354e-001 0.000000e+000 0.000000e+000
 0.000000e+000 0.000000e+000 6.834631e-001 3.165368e-001 0.000000e+000
 0.000000e+000 0.000000e+000 0.000000e+000 8.024550e-001 1.975449e-001
 0.000000e+000 0.000000e+000 0.000000e+000 0.000000e+000 0.000000e+000
<ENDHMM>
~h "er"
<BEGINHMM>
<NUMSTATES> 5
<STATE> 2
<MEAN> 39
 -1.627887e+000 -2.760128e+000 2.561492e+000 -3.589689e+000 -5.858786e+000 -8.478642e+000 -6.238460e+000 1.388304e+000 -9.683776e-001 -6.201136e+000 -2.167494e+000 -6.595788e+000 6.384052e+001 -2.505349e-001 1.694111e-001 -1.034420e-001 1.073755e-002 2.325333e-001 6.700327e-002 2.322821e-002 -6.741995e-002 4.480203e-002 -2.629884e-002 2.027739e-002 6.039030e-003 -2.039316e-001 -3.217022e-002 1.320951e-002 2.746228e-002 -8.078589e-003 6.228707e-003 7.142461e-003 1.241212e-002 -1.550861e-002 -6.143674e-003 6.748042e-003 1.732068e-002 5.669195e-003 -1.807438e-002
<VARIANCE> 39
 1.849915e+002 1.025663e+002 1.450068e+002 1.135468e+002 1.120169e+002 1.488356e+002 9.381731e+001 1.020588e+002 9.996332e+001 9.035860e+001 7.554485e+001 7.062697e+001 1.933327e+002 3.729017e+000 3.507685e+000 3.772191e+000 4.512721e+000 4.370497e+000 4.541879e+000 3.923418e+000 4.486143e+000 4.177766e+000 3.705346e+000 3.937497e+000 3.666180e+000 3.589134e+000 4.494683e-001 4.845088e-001 5.204879e-001 7.430900e-001 6.547091e-001 7.311281e-001 6.671066e-001 7.779797e-001 7.472093e-001 6.337686e-001 7.178911e-001 6.244602e-001 3.750898e-001
<GCONST> 1.446323e+002
<STATE> 3
<MEAN> 39
 -2.638744e+000 -2.119901e+000 2.451710e+000 -3.658569e+000 -5.102664e+000 -8.241042e+000 -6.144867e+000 1.094700e+000 -8.071636e-001 -6.228079e+000 -1.998760e+000 -6.563876e+000 6.318977e+001 -3.393212e-001 1.988110e-001 -1.356456e-002 -2.298973e-002 2.446756e-001 9.384646e-002 6.493653e-002 -1.131075e-001 3.316661e-002 1.512946e-003 7.225526e-002 2.198780e-002 -2.510667e-001 -2.488369e-002 3.764326e-003 2.719947e-002 -1.240696e-002 5.785444e-004 9.154624e-003 1.521370e-002 -7.397204e-003 1.496457e-003 1.264939e-002 1.580139e-002 2.366297e-003 -8.271453e-003
<VARIANCE> 39
 2.021499e+002 9.742587e+001 1.361678e+002 1.154504e+002 1.084741e+002 1.556826e+002 9.952811e+001 9.961014e+001 9.458826e+001 8.927339e+001 7.338478e+001 6.971217e+001 1.929288e+002 3.855693e+000 3.360497e+000 3.504254e+000 4.359664e+000 4.372819e+000 4.524437e+000 3.924727e+000 4.405054e+000 4.069270e+000 3.684927e+000 3.794569e+000 3.562839e+000 3.386715e+000 4.523236e-001 4.673629e-001 4.886937e-001 7.089972e-001 6.579142e-001 7.189171e-001 6.680144e-001 7.641504e-001 7.269048e-001 6.305919e-001 6.942409e-001 6.109700e-001 3.518724e-001
<GCONST> 1.439451e+002
<STATE> 4
<MEAN> 39
 -4.714911e+000 -1.066161e+000 2.722398e+000 -4.696306e+000 -4.492928e+000 -7.711275e+000 -5.952153e+000 3.320144e-001 -8.279563e-001 -6.210567e+000 -1.591251e+000 -6.477975e+000 6.281834e+001 -3.731059e-001 1.689925e-001 9.120344e-002 -7.669272e-002 1.996958e-001 1.024364e-001 1.051921e-001 -1.389106e-001 4.621036e-002 4.844832e-002 1.144140e-001 3.018217e-002 -2.237943e-001 -7.309897e-003 -8.140708e-003 1.733410e-002 -1.059857e-002 -7.277573e-003 5.391526e-003 1.497171e-002 5.243567e-004 6.419326e-003 1.257126e-002 9.145108e-003 8.561650e-004 5.506992e-003
<VARIANCE> 39
 2.269071e+002 9.332088e+001 1.293284e+002 1.236454e+002 1.073203e+002 1.556790e+002 1.028884e+002 9.948607e+001 8.906564e+001 8.574165e+001 7.047826e+001 6.779827e+001 2.010075e+002 4.162583e+000 3.253864e+000 3.233660e+000 4.280521e+000 4.533531e+000 4.587908e+000 3.955876e+000 4.391970e+000 4.067946e+000 3.721496e+000 3.634022e+000 3.394260e+000 3.290263e+000 4.743576e-001 4.514375e-001 4.604235e-001 6.867190e-001 6.898932e-001 7.189602e-001 6.751487e-001 7.647949e-001 7.277229e-001 6.446969e-001 6.681726e-001 5.906199e-001 3.452152e-001
<GCONST> 1.437301e+002
<TRANSP> 5
 0.000000e+000 1.000000e+000 0.000000e+000 0.000000e+000 0.000000e+000
 0.000000e+000 7.025926e-001 2.974074e-001 0.000000e+000 0.000000e+000
 0.000000e+000 0.000000e+000 7.025928e-001 2.974072e-001 0.000000e+000
 0.000000e+000 0.000000e+000 0.000000e+000 8.237769e-001 1.762231e-001
 0.000000e+000 0.000000e+000 0.000000e+000 0.000000e+000 0.000000e+000
<ENDHMM>
~h "ey"
<BEGINHMM>
<NUMSTATES> 5
<STATE> 2
<MEAN> 39
 -2.319922e+000 -3.534866e+000 6.775456e+000 -3.840266e+000 -9.212739e+000 -9.557710e+000 -3.538107e+000 -1.283199e+000 -3.124800e+000 -5.101451e+000 -1.368320e+000 -6.637064e+000 6.484736e+001 3.534153e-002 2.000961e-002 -1.534326e-002 1.074184e-001 1.139609e-001 -5.921492e-002 -6.140668e-002 3.538124e-002 -2.489758e-002 -6.952767e-002 -3.001718e-002 -2.220743e-002 -7.566273e-002 -2.327388e-003 6.930108e-003 -6.354216e-003 1.559661e-002 1.893230e-002 7.318296e-003 -3.107375e-003 -2.607713e-003 1.109134e-003 -3.999440e-003 -7.471221e-003 -1.282157e-003 -1.583051e-002
<VARIANCE> 39
 1.216202e+002 1.105782e+002 1.303335e+002 1.179853e+002 1.306919e+002 1.228318e+002 1.066790e+002 1.253887e+002 7.977852e+001 8.348881e+001 6.654570e+001 5.518628e+001 1.859485e+002 3.304625e+000 3.904023e+000 3.416165e+000 4.330384e+000 5.939302e+000 4.650582e+000 4.303783e+000 5.013671e+000 4.529337e+000 4.094309e+000 3.672751e+000 3.022822e+000 3.370573e+000 4.655773e-001 5.136579e-001 5.112879e-001 6.717642e-001 8.945409e-001 7.811543e-001 7.370727e-001 8.497443e-001 8.222212e-001 7.088792e-001 6.571914e-001 5.464159e-001 3.381474e-001
<GCONST> 1.444577e+002
<STATE> 3
<MEAN> 39
