~o
<STREAMINFO> 1 39
<VECSIZE> 39<NULLD><MFCC_D_A_0><DIAGC>
~h "proto"
<BEGINHMM>
<NUMSTATES> 5
<STATE> 2
<MEAN> 39
 -3.576653e+000 -1.447580e+000 -2.066179e-001 -6.450627e+000 -4.672917e+000 -5.721734e+000 -3.150269e+000 -2.303550e+000 -3.176291e+000 -5.447028e+000 -2.730150e+000 -5.986740e+000 6.426183e+001 4.351114e-003 5.425582e-003 4.470592e-003 -3.159727e-003 1.429996e-003 -1.449523e-002 -9.165834e-003 -6.101752e-003 -6.533276e-003 -6.732864e-003 -3.436674e-003 -8.093012e-003 1.864067e-002 -1.963269e-003 -1.330328e-003 -1.575707e-003 -6.920749e-004 4.752921e-004 1.232142e-003 7.640584e-004 1.360842e-003 1.371865e-003 2.544337e-003 2.055716e-003 1.134018e-003 -4.958203e-003
<VARIANCE> 39
 1.310738e+002 1.016005e+002 1.598881e+002 1.113287e+002 1.360441e+002 1.179127e+002 1.208817e+002 1.223001e+002 9.662955e+001 1.049914e+002 7.318085e+001 7.646028e+001 2.002619e+002 2.988554e+000 3.064935e+000 3.294593e+000 4.161105e+000 5.096710e+000 4.424663e+000 4.580271e+000 4.679573e+000 4.373079e+000 4.172928e+000 3.704736e+000 3.273444e+000 4.160016e+000 4.173147e-001 4.227838e-001 4.790416e-001 6.564319e-001 7.752959e-001 7.415611e-001 7.627487e-001 7.947277e-001 7.593230e-001 7.249751e-001 6.677171e-001 5.742589e-001 4.385143e-001
<GCONST> 1.449123e+002
<STATE> 3
<MEAN> 39
 -3.576653e+000 -1.447580e+000 -2.066179e-001 -6.450627e+000 -4.672917e+000 -5.721734e+000 -3.150269e+000 -2.303550e+000 -3.176291e+000 -5.447028e+000 -2.730150e+000 -5.986740e+000 6.426183e+001 4.351114e-003 5.425582e-003 4.470592e-003 -3.159727e-003 1.429996e-003 -1.449523e-002 -9.165834e-003 -6.101752e-003 -6.533276e-003 -6.732864e-003 -3.436674e-003 -8.093012e-003 1.864067e-002 -1.963269e-003 -1.330328e-003 -1.575707e-003 -6.920749e-004 4.752921e-004 1.232142e-003 7.640584e-004 1.360842e-003 1.371865e-003 2.544337e-003 2.055716e-003 1.134018e-003 -4.958203e-003
<VARIANCE> 39
 1.310738e+002 1.016005e+002 1.598881e+002 1.113287e+002 1.360441e+002 1.179127e+002 1.208817e+002 1.223001e+002 9.662955e+001 1.049914e+002 7.318085e+001 7.646028e+001 2.002619e+002 2.988554e+000 3.064935e+000 3.294593e+000 4.161105e+000 5.096710e+000 4.424663e+000 4.580271e+000 4.679573e+000 4.373079e+000 4.172928e+000 3.704736e+000 3.273444e+000 4.160016e+000 4.173147e-001 4.227838e-001 4.790416e-001 6.564319e-001 7.752959e-001 7.415611e-001 7.627487e-001 7.947277e-001 7.593230e-001 7.249751e-001 6.677171e-001 5.742589e-001 4.385143e-001
<GCONST> 1.449123e+002
<STATE> 4
<MEAN> 39
 -3.576653e+000 -1.447580e+000 -2.066179e-001 -6.450627e+000 -4.672917e+000 -5.721734e+000 -3.150269e+000 -2.303550e+000 -3.176291e+000 -5.447028e+000 -2.730150e+000 -5.986740e+000 6.426183e+001 4.351114e-003 5.425582e-003 4.470592e-003 -3.159727e-003 1.429996e-003 -1.449523e-002 -9.165834e-003 -6.101752e-003 -6.533276e-003 -6.732864e-003 -3.436674e-003 -8.093012e-003 1.864067e-002 -1.963269e-003 -1.330328e-003 -1.575707e-003 -6.920749e-004 4.752921e-004 1.232142e-003 7.640584e-004 1.360842e-003 1.371865e-003 2.544337e-003 2.055716e-003 1.134018e-003 -4.958203e-003
<VARIANCE> 39
 1.310738e+002 1.016005e+002 1.598881e+002 1.113287e+002 1.360441e+002 1.179127e+002 1.208817e+002 1.223001e+002 9.662955e+001 1.049914e+002 7.318085e+001 7.646028e+001 2.002619e+002 2.988554e+000 3.064935e+000 3.294593e+000 4.161105e+000 5.096710e+000 4.424663e+000 4.580271e+000 4.679573e+000 4.373079e+000 4.172928e+000 3.704736e+000 3.273444e+000 4.160016e+000 4.173147e-001 4.227838e-001 4.790416e-001 6.564319e-001 7.752959e-001 7.415611e-001 7.627487e-001 7.947277e-001 7.593230e-001 7.249751e-001 6.677171e-001 5.742589e-001 4.385143e-001
<GCONST> 1.449123e+002
<TRANSP> 5
 0.000000e+000 1.000000e+000 0.000000e+000 0.000000e+000 0.000000e+000
 0.000000e+000 6.000000e-001 4.000000e-001 0.000000e+000 0.000000e+000
 0.000000e+000 0.000000e+000 6.000000e-001 4.000000e-001 0.000000e+000
 0.000000e+000 0.000000e+000 0.000000e+000 7.000000e-001 3.000000e-001
 0.000000e+000 0.000000e+000 0.000000e+000 0.000000e+000 0.000000e+000
<ENDHMM>
