~o
<STREAMINFO> 1 39
<VECSIZE> 39<NULLD><MFCC_D_A_0><DIAGC>
~h "b"
<BEGINHMM>
<NUMSTATES> 5
<STATE> 2
<MEAN> 39
 2.279669e+000 3.083254e+000 2.140788e-002 -3.373603e+000 -2.165529e+000 -3.314655e+000 -4.439861e+000 -5.712958e+000 -3.156037e+000 -6.108999e+000 -6.508747e+000 -6.135555e+000 5.985648e+001 5.022364e-001 -1.663447e+000 -1.373701e+000 -1.714652e+000 -7.026098e-001 2.633211e-001 -1.444666e-001 3.038471e-001 6.852119e-001 1.196864e-001 -1.181064e-001 -1.448807e-001 3.548606e+000 -3.103247e-001 -2.775467e-001 -2.819513e-002 -2.955493e-002 7.525139e-002 1.373640e-001 2.160467e-001 2.010085e-001 -6.113871e-003 -4.546588e-002 1.391238e-001 3.726535e-002 1.697800e-001
<VARIANCE> 39
 1.288292e+002 1.084867e+002 1.041998e+002 1.197483e+002 7.189372e+001 9.253165e+001 8.990810e+001 8.735184e+001 9.489523e+001 1.144225e+002 1.019978e+002 8.574554e+001 2.882481e+002 7.605372e+000 1.054244e+001 7.661229e+000 9.700792e+000 6.897367e+000 7.463657e+000 8.747134e+000 8.517006e+000 9.802416e+000 1.219069e+001 8.104126e+000 9.571558e+000 9.052068e+000 9.100965e-001 1.532403e+000 1.323344e+000 1.869525e+000 1.096894e+000 1.302248e+000 1.420668e+000 1.363930e+000 1.723065e+000 2.096796e+000 1.431141e+000 1.434770e+000 1.706497e+000
<GCONST> 1.655354e+002
<STATE> 3
<MEAN> 39
 -4.148889e-001 -7.362617e+000 -8.312574e+000 -1.113618e+001 -5.462615e+000 -2.197194e+000 -3.276094e+000 -1.269652e+000 2.965246e-001 -6.042907e+000 -6.221714e+000 -6.619025e+000 7.858088e+001 -7.658335e-001 -1.055390e+000 -3.246311e-001 -6.461275e-002 9.718765e-002 4.353338e-001 4.368592e-001 8.831770e-001 -3.679757e-001 -7.183170e-001 6.374533e-002 -1.642068e-001 1.602312e+000 3.646745e-002 4.690107e-001 4.534817e-001 5.641357e-001 2.653239e-001 -3.331459e-002 2.577348e-002 -1.794701e-001 -3.553399e-001 3.164982e-003 3.323152e-002 1.743454e-002 -8.748047e-001
<VARIANCE> 39
 9.189124e+001 6.551435e+001 9.588640e+001 7.493439e+001 7.483508e+001 9.911057e+001 1.151951e+002 8.497077e+001 7.873338e+001 1.635792e+002 8.906323e+001 1.561375e+002 1.170824e+002 3.480745e+000 2.704658e+000 3.298282e+000 4.615061e+000 4.838253e+000 4.240459e+000 5.829257e+000 4.883143e+000 4.852715e+000 6.686044e+000 5.472156e+000 4.736123e+000 2.442331e+000 6.154138e-001 5.245711e-001 6.268661e-001 8.553780e-001 7.178946e-001 7.692692e-001 1.137403e+000 8.371942e-001 8.822968e-001 1.388565e+000 1.010677e+000 8.893044e-001 5.233802e-001
<GCONST> 1.471412e+002
<STATE> 4
<MEAN> 39
 -5.188999e+000 -6.983588e+000 -7.804945e+000 -1.226529e+001 -5.565331e+000 -2.691784e+000 -3.718752e+000 -3.144928e+000 -2.874336e+000 -9.581097e+000 -7.979752e+000 -3.186551e+000 8.211727e+001 -2.157991e-001 -1.293930e-001 2.593698e-001 1.598760e-001 4.914319e-002 -5.909979e-003 5.688467e-002 2.104418e-001 -2.673922e-001 -9.845265e-002 4.018302e-002 -9.524854e-002 -7.172296e-003 9.903651e-002 1.678671e-001 1.173574e-001 1.183178e-002 -4.687497e-002 -1.053067e-001 -5.382785e-002 -1.225589e-001 2.064431e-002 1.368183e-001 2.058968e-002 -1.392658e-003 -3.050212e-001
<VARIANCE> 39
 8.338958e+001 8.488568e+001 8.626727e+001 7.124794e+001 1.164091e+002 7.348261e+001 1.104411e+002 9.108529e+001 7.184638e+001 1.321805e+002 7.284408e+001 1.438698e+002 9.304623e+001 1.620080e+000 1.977439e+000 1.871508e+000 2.698301e+000 3.565868e+000 2.765136e+000 3.854157e+000 3.170516e+000 3.026079e+000 3.554511e+000 3.306049e+000 2.987804e+000 2.004374e+000 2.544338e-001 2.820355e-001 3.612836e-001 4.340672e-001 4.978681e-001 4.712531e-001 6.829513e-001 5.544199e-001 5.700307e-001 6.888871e-001 5.742352e-001 5.873078e-001 2.717754e-001
<GCONST> 1.331889e+002
<TRANSP> 5
 0.000000e+000 1.000000e+000 0.000000e+000 0.000000e+000 0.000000e+000
 0.000000e+000 8.329388e-001 1.670612e-001 0.000000e+000 0.000000e+000
 0.000000e+000 0.000000e+000 4.204939e-001 5.795061e-001 0.000000e+000
 0.000000e+000 0.000000e+000 0.000000e+000 7.259108e-001 2.740892e-001
 0.000000e+000 0.000000e+000 0.000000e+000 0.000000e+000 0.000000e+000
<ENDHMM>
~h "d"
<BEGINHMM>
<NUMSTATES> 5
<STATE> 2
<MEAN> 39
 2.031355e+000 2.430206e+000 5.577815e+000 2.720497e-001 -2.924367e+000 -6.537700e+000 -4.937537e+000 -3.250476e+000 -4.212011e+000 -6.996677e+000 -5.973346e+000 -9.519572e+000 5.797441e+001 1.434390e-001 -1.160236e+000 -3.468588e-001 -6.613995e-001 -4.179909e-002 -2.626721e-001 -6.936258e-001 6.500171e-001 8.234958e-001 2.215657e-001 3.597484e-002 -2.270313e-001 1.608806e+000 -3.914421e-002 -3.183280e-001 -1.130992e-001 -3.038323e-001 -1.805082e-001 2.499275e-002 -5.514003e-003 7.469670e-002 4.780016e-002 8.691025e-002 1.205557e-001 4.519214e-002 3.837070e-001
<VARIANCE> 39
 9.892315e+001 1.024601e+002 9.757533e+001 8.592188e+001 1.267717e+002 8.267818e+001 9.173622e+001 1.158228e+002 1.017449e+002 9.042383e+001 9.520634e+001 6.528564e+001 2.072323e+002 4.006784e+000 9.856999e+000 6.088211e+000 7.854454e+000 9.417987e+000 7.761751e+000 9.520369e+000 8.646396e+000 7.657341e+000 6.669345e+000 7.049131e+000 5.885189e+000 7.378632e+000 5.173746e-001 1.511403e+000 9.459538e-001 1.200833e+000 1.574414e+000 1.492233e+000 1.701610e+000 1.602465e+000 1.450661e+000 1.189757e+000 1.265651e+000 1.054679e+000 9.283913e-001
<GCONST> 1.600612e+002
<STATE> 3
<MEAN> 39
 2.208929e+000 -3.613331e+000 3.147774e+000 -4.060876e+000 -5.445356e+000 -7.050279e+000 -6.857990e+000 -4.816952e-001 -1.279490e+000 -5.395500e+000 -4.143082e+000 -9.049465e+000 6.693436e+001 -9.299874e-002 -1.270298e+000 -8.217995e-001 -1.108915e+000 -2.876513e-001 2.444913e-001 3.689680e-002 7.040447e-001 4.197250e-001 2.865671e-001 3.376088e-001 1.453267e-001 1.485234e+000 -4.613470e-002 1.835286e-001 -6.606467e-002 7.110173e-002 9.508160e-002 2.050353e-001 2.950344e-001 -7.342320e-002 -1.853704e-001 -3.660354e-002 2.314259e-002 -5.130815e-003 -1.632431e-001
<VARIANCE> 39
 9.882181e+001 1.010954e+002 1.032160e+002 1.062131e+002 1.029900e+002 8.773920e+001 1.250465e+002 1.612421e+002 1.121951e+002 9.160677e+001 9.856789e+001 7.955904e+001 1.662328e+002 3.072197e+000 7.270212e+000 4.850266e+000 6.514445e+000 6.668164e+000 6.331155e+000 8.814220e+000 7.307168e+000 6.202741e+000 5.432594e+000 5.728904e+000 4.779054e+000 5.643932e+000 4.066016e-001 1.110146e+000 7.965583e-001 1.073481e+000 1.167074e+000 1.131878e+000 1.509947e+000 1.313131e+000 1.165163e+000 8.326642e-001 9.137399e-001 8.285716e-001 7.571710e-001
<GCONST> 1.549771e+002
<STATE> 4
<MEAN> 39
 3.041944e+000 -3.356320e+000 1.176837e+000 -6.548079e+000 -5.190385e+000 -5.985762e+000 -6.564940e+000 -1.777615e+000 -4.191146e+000 -5.558303e+000 -4.279281e+000 -8.341787e+000 6.682701e+001 -2.003413e-001 -4.905339e-001 -6.983579e-001 -4.404054e-001 1.863723e-001 5.024539e-001 4.754955e-001 3.987189e-001 9.106962e-002 1.547882e-001 1.733413e-001 6.241332e-002 5.225966e-001 -2.781222e-002 1.376005e-001 1.710689e-002 8.640768e-002 6.693105e-002 5.313196e-002 5.439571e-002 -7.325201e-002 -6.985790e-002 -3.966217e-002 -5.584563e-002 -4.767661e-002 -9.765553e-002
<VARIANCE> 39
 1.105339e+002 1.129792e+002 9.976142e+001 1.109709e+002 9.429861e+001 8.814012e+001 1.286690e+002 1.861793e+002 1.705944e+002 1.020402e+002 9.049897e+001 1.035814e+002 2.066560e+002 2.276299e+000 4.031830e+000 3.794864e+000 4.499867e+000 4.396765e+000 4.863649e+000 5.935299e+000 6.977591e+000 5.284554e+000 5.111119e+000 4.353615e+000 4.019797e+000 3.165526e+000 3.573946e-001 6.550993e-001 6.062871e-001 8.508645e-001 7.825582e-001 8.586460e-001 1.120955e+000 1.090490e+000 1.057611e+000 7.938998e-001 7.503310e-001 6.969585e-001 5.313803e-001
<GCONST> 1.491582e+002
<TRANSP> 5
 0.000000e+000 1.000000e+000 0.000000e+000 0.000000e+000 0.000000e+000
 0.000000e+000 7.196493e-001 2.803507e-001 0.000000e+000 0.000000e+000
 0.000000e+000 0.000000e+000 4.768976e-001 5.231025e-001 0.000000e+000
 0.000000e+000 0.000000e+000 0.000000e+000 5.520367e-001 4.479633e-001
 0.000000e+000 0.000000e+000 0.000000e+000 0.000000e+000 0.000000e+000
<ENDHMM>
~h "f"
<BEGINHMM>
<NUMSTATES> 5
<STATE> 2
<MEAN> 39
 1.742696e+000 -7.738140e+000 1.192021e+001 -2.896849e+000 -1.541605e+001 -1.363313e+001 -1.428824e+000 -8.767043e-001 -2.293104e+000 4.983534e+000 3.074744e+000 -7.733714e+000 6.228719e+001 -5.704983e-001 2.208930e-001 -5.950429e-001 5.303411e-001 1.052874e+000 4.496338e-001 7.253241e-001 2.609617e-001 8.514391e-001 3.759654e-001 1.093010e-001 2.962394e-001 -8.223839e-001 -1.153493e-001 -6.469587e-002 -9.319584e-002 1.077859e-001 2.193474e-001 1.181823e-001 1.015610e-001 1.235369e-001 8.099863e-002 -9.370252e-002 -9.315188e-002 3.295247e-002 -9.159286e-002
<VARIANCE> 39
 3.790576e+001 2.926246e+001 3.599556e+001 5.000941e+001 7.995184e+001 6.972775e+001 5.158030e+001 5.410705e+001 3.840343e+001 5.742753e+001 3.138062e+001 3.221318e+001 3.193523e+001 1.037829e+000 1.348559e+000 1.318016e+000 1.895218e+000 3.562929e+000 2.579860e+000 2.730075e+000 2.967944e+000 2.970696e+000 1.906902e+000 1.846382e+000 1.915303e+000 4.838785e-001 1.328024e-001 2.282806e-001 1.830171e-001 3.412315e-001 4.515640e-001 4.327622e-001 4.391529e-001 4.362338e-001 4.831907e-001 3.631393e-001 3.611223e-001 3.406968e-001 5.001273e-002
<GCONST> 1.122733e+002
<STATE> 3
<MEAN> 39
 -7.397904e+000 -7.509440e+000 3.257848e+000 2.241385e+000 -2.138844e+000 -7.571055e+000 6.063989e+000 5.056899e+000 6.014956e+000 5.232323e+000 2.729895e+000 -4.708285e+000 5.520873e+001 -9.304731e-001 -3.999894e-001 -9.497919e-001 4.110148e-001 1.636989e+000 1.038669e+000 8.999003e-001 1.062209e+000 8.189588e-001 3.029624e-002 5.270803e-002 1.020936e-001 -8.539010e-001 1.565363e-001 5.064452e-002 8.197081e-002 -3.268807e-002 -1.310958e-001 -9.900220e-004 -7.444847e-002 -6.582681e-002 -1.665161e-001 -4.370222e-002 -1.880938e-002 -6.702286e-002 6.602769e-002
<VARIANCE> 39
 3.697845e+001 3.456524e+001 5.163875e+001 2.885851e+001 5.622203e+001 8.899268e+001 1.104270e+002 1.139407e+002 5.947646e+001 7.236295e+001 3.095783e+001 3.238255e+001 5.076683e+001 1.199950e+000 1.074516e+000 1.129874e+000 1.558954e+000 2.494524e+000 2.582372e+000 3.050670e+000 3.272676e+000 3.098464e+000 2.555321e+000 2.031672e+000 1.749861e+000 2.890291e-001 1.495379e-001 1.807449e-001 1.929176e-001 2.912373e-001 3.719825e-001 4.611681e-001 5.377545e-001 5.068995e-001 5.504435e-001 4.715010e-001 4.249251e-001 3.340754e-001 3.831387e-002
<GCONST> 1.142643e+002
<STATE> 4
<MEAN> 39
 -9.324722e+000 -8.251429e+000 -1.358347e+000 6.053928e+000 7.523945e+000 -1.159527e+000 1.157511e+001 1.258831e+001 9.606427e+000 5.258088e+000 3.670021e+000 -5.064013e+000 4.871235e+001 -1.465855e-001 2.647639e-002 -4.396842e-001 1.614548e-001 6.324652e-001 5.517976e-001 4.747320e-001 4.208419e-001 6.336742e-002 -1.906437e-002 -3.629412e-002 -5.300342e-002 -4.334973e-001 4.144353e-002 2.305604e-002 4.006524e-002 -6.214758e-002 -1.091165e-001 -8.017208e-002 -3.125028e-002 -6.597707e-002 -7.387690e-002 7.401651e-003 -2.259986e-002 1.888034e-002 4.386626e-002
<VARIANCE> 39
 1.426249e+001 4.027314e+001 5.485021e+001 2.597737e+001 4.936724e+001 9.523840e+001 1.595755e+002 1.622168e+002 5.611327e+001 5.334164e+001 3.247939e+001 3.806687e+001 5.655334e+001 6.821208e-001 6.538607e-001 1.174065e+000 1.573070e+000 2.279650e+000 2.327355e+000 2.410627e+000 2.541314e+000 2.296565e+000 2.207770e+000 2.073730e+000 2.146851e+000 4.602401e-001 9.836523e-002 1.181590e-001 2.000282e-001 2.745474e-001 3.586816e-001 3.784621e-001 3.970769e-001 4.376173e-001 4.204402e-001 4.044244e-001 3.954227e-001 3.750971e-001 4.229921e-002
<GCONST> 1.107500e+002
<TRANSP> 5
 0.000000e+000 1.000000e+000 0.000000e+000 0.000000e+000 0.000000e+000
 0.000000e+000 8.779209e-001 1.220790e-001 0.000000e+000 0.000000e+000
 0.000000e+000 0.000000e+000 7.730805e-001 2.269195e-001 0.000000e+000
 0.000000e+000 0.000000e+000 0.000000e+000 8.850641e-001 1.149360e-001
 0.000000e+000 0.000000e+000 0.000000e+000 0.000000e+000 0.000000e+000
<ENDHMM>
~h "g"
<BEGINHMM>
<NUMSTATES> 5
<STATE> 2
<MEAN> 39
 -6.393290e-001 1.012403e-001 4.007799e+000 5.247344e+000 -6.210870e-001 -7.611339e+000 -1.817702e-001 -1.301859e+000 -3.468732e+000 -6.220667e+000 -6.588779e+000 -9.676692e+000 5.153753e+001 3.530250e-001 1.104582e-001 3.906350e-001 7.530349e-001 5.650623e-001 2.705865e-002 -6.788124e-001 -7.574239e-001 -5.488933e-001 -3.230451e-001 -2.410452e-001 -1.781632e-001 4.376717e-001 4.631953e-002 -1.134859e-001 3.606881e-002 -2.355744e-001 -2.213696e-001 -8.570476e-002 -1.905289e-001 -1.093785e-001 -6.164735e-002 1.235000e-001 1.150997e-001 1.146140e-001 2.394233e-001
<VARIANCE> 39
 4.538028e+001 7.055537e+001 6.556263e+001 6.118250e+001 1.265026e+002 1.072698e+002 1.074320e+002 8.873670e+001 8.585011e+001 8.390961e+001 8.828825e+001 6.468674e+001 1.284749e+002 2.284957e+000 4.865723e+000 5.146884e+000 4.522364e+000 7.955539e+000 5.755325e+000 7.356696e+000 8.090740e+000 7.995423e+000 7.903718e+000 5.475222e+000 5.196799e+000 2.441863e+000 3.458172e-001 7.089165e-001 8.911339e-001 7.753998e-001 1.196922e+000 8.540843e-001 1.302761e+000 1.554167e+000 1.472541e+000 1.298594e+000 9.968471e-001 9.956042e-001 2.841214e-001
<GCONST> 1.492998e+002
<STATE> 3
<MEAN> 39
 1.984448e+000 6.284043e-001 5.658205e+000 5.867014e+000 -5.498971e-001 -8.159419e+000 -5.565343e+000 -6.063507e+000 -5.889452e+000 -5.627379e+000 -6.419745e+000 -9.234226e+000 5.815277e+001 6.193798e-001 -5.384359e-001 6.153324e-001 -6.680173e-001 -1.038748e+000 -2.626784e-001 -1.243157e+000 -7.038183e-001 -2.749779e-001 4.641935e-001 5.340104e-001 3.499476e-001 1.443519e+000 -1.754256e-002 -7.561070e-002 6.984022e-002 -3.882713e-001 -3.053422e-001 4.248085e-002 4.264734e-002 1.571818e-001 9.515610e-002 7.547240e-003 1.411597e-001 6.547090e-002 1.058151e-001
<VARIANCE> 39
 5.281401e+001 1.072633e+002 1.361223e+002 5.691706e+001 1.003191e+002 6.980044e+001 1.311501e+002 6.869180e+001 8.260334e+001 7.215382e+001 8.072795e+001 7.405806e+001 1.333851e+002 2.058380e+000 5.764122e+000 6.913231e+000 4.806348e+000 7.929790e+000 6.267715e+000 7.906390e+000 7.412302e+000 5.722484e+000 6.627031e+000 4.605802e+000 5.281049e+000 3.623352e+000 3.425890e-001 8.581337e-001 1.176673e+000 8.537761e-001 1.237036e+000 9.046393e-001 1.385696e+000 1.438982e+000 1.228542e+000 1.043479e+000 8.131317e-001 8.012933e-001 3.963696e-001
<GCONST> 1.500622e+002
<STATE> 4
<MEAN> 39
 1.538819e+000 -2.527400e+000 9.011165e+000 -1.375130e+000 -7.003044e+000 -9.409836e+000 -1.337621e+001 -7.488348e+000 -5.488766e+000 -5.537550e+000 -1.574673e+000 -6.267074e+000 6.670674e+001 2.870349e-002 -8.094577e-001 2.043189e-001 -1.228138e+000 -9.765879e-001 1.952834e-001 -4.838703e-001 5.038301e-002 2.296629e-001 1.083544e-001 5.802252e-001 1.551990e-001 1.200048e+000 -1.138558e-001 2.762722e-002 -1.364042e-001 -5.029600e-002 8.299791e-002 1.054640e-001 2.384097e-001 1.824522e-001 8.250867e-002 -1.525027e-002 -9.643172e-002 -7.726686e-002 -1.185922e-001
<VARIANCE> 39
 7.123225e+001 1.269247e+002 1.956141e+002 8.156525e+001 1.003441e+002 1.445654e+002 1.622057e+002 1.004298e+002 8.221539e+001 8.722318e+001 1.196303e+002 1.157318e+002 2.062759e+002 1.769634e+000 5.303309e+000 5.714814e+000 5.040449e+000 5.315082e+000 6.470477e+000 7.642077e+000 8.731717e+000 4.720824e+000 5.108263e+000 5.850147e+000 5.367525e+000 4.279025e+000 2.777357e-001 7.707398e-001 9.108972e-001 8.016750e-001 8.766946e-001 1.002256e+000 1.350752e+000 1.602985e+000 8.788084e-001 8.178165e-001 1.046888e+000 8.862754e-001 3.554989e-001
<GCONST> 1.522570e+002
<TRANSP> 5
 0.000000e+000 1.000000e+000 0.000000e+000 0.000000e+000 0.000000e+000
 0.000000e+000 8.086331e-001 1.913668e-001 0.000000e+000 0.000000e+000
 0.000000e+000 0.000000e+000 6.459987e-001 3.540013e-001 0.000000e+000
 0.000000e+000 0.000000e+000 0.000000e+000 7.710345e-001 2.289655e-001
 0.000000e+000 0.000000e+000 0.000000e+000 0.000000e+000 0.000000e+000
<ENDHMM>
~h "k"
<BEGINHMM>
<NUMSTATES> 5
<STATE> 2
<MEAN> 39
 -6.837828e+000 -1.145346e+000 3.108668e+000 -1.779925e+000 -7.218127e+000 -9.646936e+000 -2.425388e+000 -3.013061e+000 -4.207971e+000 -4.879004e+000 -5.271432e-001 -4.856266e+000 5.593177e+001 -2.691721e-001 -1.403350e-001 -5.318686e-001 5.205359e-001 7.367854e-001 2.175517e-001 3.525395e-001 3.748441e-001 3.181650e-001 3.197957e-001 1.774312e-001 6.528853e-002 -2.402096e-001 3.039030e-002 -4.245158e-002 -4.368676e-002 -1.371088e-001 2.512526e-003 -1.201448e-002 1.113832e-002 7.229522e-002 2.017509e-002 -1.505752e-002 -8.065824e-002 -5.486979e-002 2.569645e-001
<VARIANCE> 39
 7.451990e+001 6.980027e+001 1.248695e+002 7.318922e+001 1.004978e+002 1.066093e+002 8.601151e+001 1.147596e+002 1.010747e+002 8.280615e+001 6.310145e+001 4.844291e+001 1.625264e+002 2.525120e+000 3.254494e+000 4.053956e+000 4.496448e+000 6.821980e+000 5.397289e+000 5.437716e+000 6.102162e+000 5.810954e+000 4.752380e+000 5.031795e+000 3.534789e+000 3.834291e+000 4.467252e-001 5.899713e-001 6.690944e-001 7.977536e-001 1.167315e+000 1.019526e+000 9.544318e-001 1.085367e+000 1.107321e+000 8.892089e-001 9.500950e-001 6.869774e-001 6.372148e-001
<GCONST> 1.469926e+002
<STATE> 3
<MEAN> 39
 -7.030646e+000 -1.315678e+000 1.947650e+000 -1.157045e+000 -4.926929e+000 -8.432994e+000 -1.213133e+000 -2.024143e+000 -3.085474e+000 -3.704039e+000 -2.572627e-001 -4.865726e+000 5.505493e+001 -3.300017e-002 -1.038077e-001 -5.321857e-001 1.722964e-002 5.665787e-001 1.501255e-001 2.686601e-001 3.527954e-001 2.932733e-001 9.112233e-002 -1.751134e-001 -1.397362e-001 5.348951e-001 6.510349e-002 2.337689e-002 4.524021e-002 -2.047055e-001 -1.275353e-001 -6.332207e-002 -7.460477e-002 -3.663184e-002 -4.198478e-002 -1.038617e-001 -1.132823e-001 -5.797461e-002 3.184154e-001
<VARIANCE> 39
 7.932542e+001 7.493140e+001 1.297840e+002 8.132200e+001 1.143641e+002 1.087000e+002 1.162246e+002 1.295311e+002 1.103317e+002 8.980579e+001 6.818062e+001 5.345013e+001 1.819246e+002 4.024506e+000 3.914689e+000 6.324575e+000 5.791697e+000 9.305140e+000 6.864838e+000 7.315395e+000 6.990954e+000 6.942632e+000 6.201507e+000 6.298619e+000 4.745214e+000 5.008409e+000 5.850523e-001 6.553526e-001 9.052539e-001 9.532431e-001 1.366225e+000 1.233140e+000 1.279470e+000 1.254943e+000 1.269848e+000 1.057907e+000 1.087742e+000 8.162674e-001 6.963341e-001
<GCONST> 1.542088e+002
<STATE> 4
<MEAN> 39
 -6.084746e+000 -2.142639e-001 1.065963e+000 -3.411040e+000 -5.357026e+000 -8.801507e+000 -2.978187e+000 -3.690991e+000 -4.948512e+000 -6.210414e+000 -1.688622e+000 -5.454584e+000 6.068015e+001 1.355352e-001 -1.001031e-001 -1.885500e-001 -2.855193e-001 1.415363e-002 -7.386659e-002 -6.794398e-002 2.580700e-001 8.056502e-002 -1.583144e-001 -2.096421e-001 -1.571388e-001 1.103514e+000 -5.428506e-003 -9.928910e-003 9.756462e-002 -1.292243e-001 -1.340496e-001 -6.960890e-003 -7.097091e-002 -3.491071e-002 3.989773e-004 -9.982080e-003 3.588194e-003 -2.567503e-004 1.368073e-001
<VARIANCE> 39
 1.259737e+002 9.838872e+001 1.372686e+002 1.139658e+002 1.481786e+002 1.059634e+002 1.366913e+002 1.311656e+002 1.112780e+002 1.068215e+002 7.314565e+001 6.792134e+001 2.091311e+002 5.130085e+000 4.978506e+000 6.481978e+000 6.423983e+000 9.246410e+000 7.159765e+000 7.586776e+000 6.817254e+000 7.115549e+000 6.333506e+000 5.909600e+000 5.000384e+000 5.433781e+000 7.067674e-001 7.506559e-001 1.001821e+000 1.153509e+000 1.437593e+000 1.344725e+000 1.358624e+000 1.282717e+000 1.281772e+000 1.077988e+000 1.110527e+000 8.747729e-001 7.502204e-001
<GCONST> 1.581798e+002
<TRANSP> 5
 0.000000e+000 1.000000e+000 0.000000e+000 0.000000e+000 0.000000e+000
 0.000000e+000 5.297912e-001 4.702088e-001 0.000000e+000 0.000000e+000
 0.000000e+000 0.000000e+000 5.410514e-001 4.589486e-001 0.000000e+000
 0.000000e+000 0.000000e+000 0.000000e+000 6.361790e-001 3.638210e-001
 0.000000e+000 0.000000e+000 0.000000e+000 0.000000e+000 0.000000e+000
<ENDHMM>
~h "l"
<BEGINHMM>
<NUMSTATES> 5
<STATE> 2
<MEAN> 39
 -2.356708e-001 -5.509468e+000 -9.305929e+000 -8.637318e+000 -2.460281e+000 -3.682207e+000 -5.700971e+000 -2.530014e+000 -1.228223e-001 -5.684503e+000 -4.148172e+000 -8.171392e+000 7.161044e+001 8.789722e-003 8.041485e-002 -2.375540e-001 -3.514481e-001 -1.968677e-001 6.372879e-001 8.478239e-002 -1.211198e-001 1.718658e-002 2.947430e-001 1.173117e-001 1.049279e-001 -2.388412e-001 -4.623343e-002 7.431721e-002 1.465232e-002 -5.925488e-002 -4.638507e-002 -3.124939e-002 1.312351e-001 7.694704e-003 -3.378241e-002 -2.252857e-003 2.141269e-002 6.418094e-002 3.276085e-002
<VARIANCE> 39
 8.491170e+001 7.350424e+001 1.127551e+002 7.919450e+001 1.169771e+002 9.714501e+001 1.272852e+002 8.694526e+001 7.101844e+001 1.328945e+002 7.060709e+001 8.350880e+001 1.618448e+002 1.795011e+000 2.460100e+000 2.450185e+000 3.437167e+000 3.981463e+000 4.107765e+000 4.055984e+000 4.252594e+000 3.737571e+000 3.508239e+000 3.167456e+000 3.050836e+000 3.242297e+000 3.257127e-001 3.319251e-001 4.276888e-001 6.212005e-001 7.069598e-001 7.120518e-001 7.574819e-001 8.202459e-001 6.782244e-001 6.015068e-001 5.725572e-001 5.031481e-001 3.564097e-001
<GCONST> 1.384757e+002
<STATE> 3
<MEAN> 39
 8.922350e-001 -5.309618e+000 -8.736988e+000 -1.007733e+001 -3.979366e+000 -2.456367e+000 -3.208852e+000 -2.231277e+000 -4.967360e-001 -3.467382e+000 -3.051375e+000 -8.448800e+000 6.874522e+001 9.827563e-002 1.582563e-001 -2.277631e-001 -6.409984e-001 -4.207247e-001 4.990181e-001 2.413289e-001 -1.897239e-001 -1.880551e-001 2.572476e-001 1.963475e-001 2.647407e-001 1.388198e-001 2.399709e-002 -1.329918e-002 -2.297069e-003 -6.186379e-002 1.330137e-002 -2.031158e-002 3.859754e-002 -1.772689e-002 -6.825931e-002 -4.088865e-002 2.503123e-003 9.458260e-003 1.131918e-001
<VARIANCE> 39
 8.355989e+001 6.953383e+001 1.152199e+002 9.551267e+001 1.081107e+002 8.813339e+001 1.255967e+002 1.017571e+002 7.596130e+001 1.128550e+002 7.390250e+001 7.102499e+001 1.559249e+002 2.759303e+000 2.358034e+000 3.217582e+000 5.351105e+000 5.002020e+000 4.396623e+000 4.598145e+000 5.662308e+000 4.470967e+000 3.744516e+000 3.555205e+000 3.233058e+000 4.870937e+000 4.486730e-001 3.383964e-001 5.149934e-001 9.283368e-001 8.087534e-001 7.740654e-001 7.822189e-001 9.346557e-001 7.714172e-001 6.709261e-001 6.599819e-001 5.174395e-001 5.056128e-001
<GCONST> 1.430322e+002
<STATE> 4
<MEAN> 39
 3.338689e+000 -6.619407e+000 -1.120914e+001 -1.465951e+001 -3.964667e+000 3.423777e-001 -9.790348e-001 -3.571922e+000 -3.012301e+000 -2.621484e+000 -1.962182e+000 -8.557170e+000 7.050144e+001 1.620355e-001 -1.766218e-001 -1.885453e-001 -1.247883e-001 -1.244375e-001 2.875782e-002 -8.343622e-002 -5.188886e-002 -2.912849e-001 -1.099910e-002 1.316724e-001 5.523413e-002 3.876626e-002 -2.885192e-002 -3.101903e-003 3.086053e-002 1.189919e-001 5.761396e-002 -7.360985e-002 -4.360181e-002 6.650390e-002 3.366597e-002 -2.497911e-002 -1.980767e-002 -2.796586e-002 -1.245157e-001
<VARIANCE> 39
 8.824435e+001 8.010229e+001 9.405475e+001 1.155358e+002 9.163590e+001 9.538598e+001 1.094838e+002 1.170643e+002 7.661459e+001 9.685829e+001 7.434260e+001 5.573664e+001 1.415481e+002 3.506482e+000 2.613965e+000 3.549089e+000 7.168200e+000 4.885761e+000 4.922420e+000 5.200642e+000 6.180136e+000 4.320478e+000 4.411133e+000 3.969491e+000 2.742840e+000 4.971620e+000 5.229636e-001 3.633306e-001 5.367286e-001 1.134510e+000 7.565197e-001 8.039573e-001 8.069392e-001 9.989805e-001 7.792853e-001 8.142705e-001 7.016641e-001 5.147249e-001 4.241727e-001
<GCONST> 1.444029e+002
<TRANSP> 5
 0.000000e+000 1.000000e+000 0.000000e+000 0.000000e+000 0.000000e+000
 0.000000e+000 5.985202e-001 4.014798e-001 0.000000e+000 0.000000e+000
 0.000000e+000 0.000000e+000 5.521877e-001 4.478124e-001 0.000000e+000
 0.000000e+000 0.000000e+000 0.000000e+000 7.654075e-001 2.345924e-001
 0.000000e+000 0.000000e+000 0.000000e+000 0.000000e+000 0.000000e+000
<ENDHMM>
~h "m"
<BEGINHMM>
<NUMSTATES> 5
<STATE> 2
<MEAN> 39
 4.412487e+000 5.765122e+000 4.643609e+000 -2.331132e+000 -5.634378e+000 -6.092182e+000 -7.928170e+000 -7.725779e+000 -8.148974e+000 -7.181697e+000 -5.824140e+000 -7.816703e+000 6.109191e+001 3.625489e-001 4.133388e-001 5.775706e-001 3.184578e-001 -3.538593e-001 4.250934e-002 -9.808673e-002 -2.521715e-001 -3.408000e-001 3.929926e-002 -1.682818e-001 -2.592691e-001 3.738523e-003 -2.198790e-001 -1.976139e-001 -5.743600e-002 -1.323373e-001 6.173676e-002 7.678352e-002 1.625681e-001 2.370441e-001 1.779428e-001 5.582887e-002 1.047728e-001 7.227047e-003 8.166339e-002
<VARIANCE> 39
 9.939000e+001 1.048159e+002 8.335976e+001 8.842535e+001 9.694323e+001 7.601140e+001 7.243680e+001 8.061642e+001 6.640639e+001 7.952623e+001 7.734668e+001 5.207616e+001 1.300114e+002 3.954581e+000 4.090644e+000 3.619361e+000 4.142249e+000 4.795382e+000 4.435719e+000 4.781952e+000 5.097393e+000 4.871951e+000 4.199898e+000 3.081127e+000 3.072181e+000 3.224734e+000 4.055362e-001 6.129903e-001 5.839906e-001 6.476841e-001 6.816335e-001 6.966943e-001 8.322504e-001 9.113064e-001 8.727056e-001 7.604452e-001 5.972348e-001 5.347527e-001 2.506762e-001
<GCONST> 1.410105e+002
<STATE> 3
<MEAN> 39
 4.577004e+000 5.707042e+000 5.472842e+000 -2.014371e+000 -6.174810e+000 -5.726542e+000 -7.839729e+000 -7.562687e+000 -8.140230e+000 -7.007767e+000 -5.807272e+000 -8.191520e+000 6.156654e+001 -2.277013e-001 -6.616700e-002 4.026431e-001 -1.738762e-003 -2.039896e-001 1.873395e-001 3.018334e-001 2.727901e-001 6.161185e-002 5.672510e-002 5.258546e-002 -1.438998e-001 -3.198580e-002 -2.276575e-001 -2.108652e-001 -6.551418e-002 -2.088377e-001 3.518145e-002 5.020428e-002 1.232102e-001 2.372368e-001 1.513491e-001 3.074966e-002 1.024438e-001 3.033784e-002 8.297863e-002
<VARIANCE> 39
 9.472514e+001 9.561739e+001 9.605382e+001 1.025960e+002 9.829941e+001 8.021793e+001 7.364198e+001 8.295256e+001 5.956419e+001 7.799707e+001 7.470930e+001 5.278766e+001 1.151884e+002 2.515545e+000 3.976564e+000 3.693797e+000 4.224264e+000 5.186741e+000 4.202315e+000 4.367132e+000 4.806536e+000 3.864810e+000 3.677004e+000 2.664561e+000 2.808820e+000 2.797687e+000 3.323152e-001 5.769917e-001 5.735869e-001 6.988897e-001 7.200554e-001 6.946167e-001 7.442036e-001 7.877859e-001 7.538091e-001 6.360254e-001 5.365540e-001 4.892196e-001 2.762776e-001
<GCONST> 1.388650e+002
<STATE> 4
<MEAN> 39
 4.372247e+000 5.489810e+000 7.261179e+000 -1.028001e+000 -5.408964e+000 -5.601968e+000 -6.102612e+000 -6.508792e+000 -8.505644e+000 -6.976941e+000 -5.925313e+000 -9.033768e+000 5.798072e+001 -6.304688e-001 -4.772643e-001 2.818066e-001 -5.121228e-001 -2.872473e-001 2.734219e-001 4.857373e-001 6.610735e-001 3.319210e-001 1.990184e-001 2.478534e-001 -7.499177e-002 1.726142e-001 -1.243789e-001 -1.466185e-001 -9.290708e-002 -2.436479e-001 -3.215173e-002 4.031345e-002 1.702476e-002 1.596631e-001 8.297311e-002 3.053963e-002 6.762478e-002 1.847033e-002 1.401779e-001
<VARIANCE> 39
 9.021845e+001 8.262556e+001 1.193494e+002 1.150312e+002 1.095506e+002 7.698548e+001 9.675961e+001 1.034827e+002 6.299809e+001 7.872829e+001 6.650786e+001 5.959865e+001 1.561042e+002 2.446861e+000 4.171150e+000 4.428621e+000 5.282481e+000 5.890133e+000 4.616523e+000 5.552345e+000 6.169803e+000 4.537190e+000 4.105835e+000 3.093286e+000 3.034634e+000 3.131420e+000 3.582611e-001 6.013511e-001 6.055605e-001 8.305485e-001 8.121080e-001 7.677847e-001 9.278535e-001 9.565715e-001 8.325395e-001 6.843321e-001 5.867295e-001 5.437258e-001 3.368865e-001
<GCONST> 1.432280e+002
<TRANSP> 5
 0.000000e+000 1.000000e+000 0.000000e+000 0.000000e+000 0.000000e+000
 0.000000e+000 5.095531e-001 4.904469e-001 0.000000e+000 0.000000e+000
 0.000000e+000 0.000000e+000 4.909168e-001 5.090832e-001 0.000000e+000
 0.000000e+000 0.000000e+000 0.000000e+000 6.714956e-001 3.285044e-001
 0.000000e+000 0.000000e+000 0.000000e+000 0.000000e+000 0.000000e+000
<ENDHMM>
~h "n"
<BEGINHMM>
<NUMSTATES> 5
<STATE> 2
<MEAN> 39
 2.625468e+000 -3.718929e+000 6.514954e+000 -5.216873e+000 -7.715737e+000 -6.094803e+000 -3.175631e+000 -1.182204e+000 -8.330978e+000 -9.098186e+000 -5.986052e+000 -9.784004e+000 6.981995e+001 5.092489e-001 1.403251e+000 1.730572e-001 8.639922e-001 3.325256e-002 -8.703094e-002 -3.489067e-001 -4.874175e-001 -1.363329e-001 1.541790e-001 -3.918700e-001 1.095840e-001 -1.252102e+000 -6.393175e-002 -1.234174e-002 -7.584154e-002 1.929155e-002 4.010843e-002 -5.866994e-002 -2.971458e-002 4.009299e-002 1.097619e-001 3.263901e-002 1.614603e-002 5.882309e-002 1.271719e-002
<VARIANCE> 39
 9.889633e+001 1.242182e+002 1.047118e+002 9.567767e+001 9.963464e+001 9.792584e+001 7.351965e+001 1.393728e+002 8.670471e+001 9.066862e+001 5.197680e+001 6.361391e+001 9.491368e+001 1.255364e+000 2.243586e+000 2.491758e+000 2.979455e+000 2.792459e+000 2.539318e+000 2.915626e+000 2.972090e+000 2.566518e+000 2.799718e+000 2.424936e+000 2.180736e+000 1.055259e+000 1.503692e-001 2.796524e-001 3.340334e-001 4.458728e-001 4.021249e-001 4.148180e-001 4.647022e-001 5.053471e-001 4.631116e-001 4.500819e-001 4.070342e-001 3.672442e-001 9.668854e-002
<GCONST> 1.270841e+002
<STATE> 3
<MEAN> 39
 4.721606e+000 4.146722e-001 6.306378e+000 -1.491968e+000 -7.223078e+000 -6.434770e+000 -4.846934e+000 -2.006572e+000 -7.455511e+000 -8.114854e+000 -7.107406e+000 -9.451358e+000 6.507890e+001 1.316576e-001 1.108643e+000 4.640296e-002 6.965482e-001 2.614048e-001 -2.145108e-001 -2.548404e-001 -3.494352e-001 1.230670e-001 7.297094e-002 -2.058413e-001 2.195460e-001 -1.090378e+000 -1.490228e-001 -1.545821e-001 -1.208395e-002 -1.128660e-001 6.269543e-002 1.536978e-002 4.985536e-002 8.733995e-002 3.590667e-002 -2.503442e-002 8.160257e-002 6.329185e-003 8.076339e-002
<VARIANCE> 39
 8.924554e+001 1.113142e+002 8.537663e+001 7.660999e+001 8.435970e+001 9.363409e+001 6.279269e+001 1.246322e+002 8.141002e+001 7.117910e+001 5.400319e+001 5.548093e+001 8.321513e+001 1.092944e+000 2.050932e+000 2.128044e+000 2.440181e+000 2.596727e+000 2.349955e+000 2.715659e+000 2.800724e+000 2.522717e+000 2.655628e+000 2.405153e+000 2.046370e+000 9.144226e-001 1.388451e-001 2.491339e-001 3.117177e-001 3.727196e-001 4.049241e-001 3.959076e-001 4.492144e-001 4.733697e-001 4.508811e-001 4.501389e-001 4.320417e-001 3.649238e-001 8.455613e-002
<GCONST> 1.235880e+002
<STATE> 4
<MEAN> 39
 1.565353e+000 4.031902e+000 6.539865e+000 8.855754e-001 -4.384831e+000 -6.469702e+000 -6.150593e+000 -5.009819e+000 -8.436328e+000 -1.018991e+001 -7.488387e+000 -8.385084e+000 5.837942e+001 -4.403655e-001 2.258354e-001 -6.657827e-002 2.122578e-001 4.123551e-001 1.087042e-001 1.035706e-001 1.488630e-002 2.189095e-001 1.019705e-001 1.478622e-001 1.794174e-001 -7.358351e-001 -1.128006e-001 -1.465526e-001 -1.839415e-002 -1.081279e-001 2.599169e-002 2.247202e-002 5.392524e-002 9.080794e-002 4.222273e-002 2.820870e-002 7.106906e-002 2.342439e-003 1.008656e-001
<VARIANCE> 39
 8.431359e+001 6.948757e+001 6.126309e+001 5.738999e+001 6.863763e+001 7.818134e+001 6.304469e+001 1.044950e+002 8.292817e+001 8.179327e+001 5.813106e+001 4.759880e+001 1.303595e+002 1.014931e+000 1.787251e+000 1.551024e+000 2.083588e+000 2.273554e+000 2.281142e+000 2.978934e+000 3.034779e+000 2.780174e+000 2.764152e+000 2.573637e+000 2.313724e+000 7.362875e-001 1.611642e-001 2.260190e-001 2.828823e-001 3.761368e-001 4.015737e-001 4.231196e-001 5.143250e-001 5.044807e-001 4.967103e-001 4.839406e-001 4.563187e-001 4.307105e-001 9.677632e-002
<GCONST> 1.225879e+002
<TRANSP> 5
 0.000000e+000 1.000000e+000 0.000000e+000 0.000000e+000 0.000000e+000
 0.000000e+000 6.271245e-001 3.728755e-001 0.000000e+000 0.000000e+000
 0.000000e+000 0.000000e+000 6.280822e-001 3.719178e-001 0.000000e+000
 0.000000e+000 0.000000e+000 0.000000e+000 8.309847e-001 1.690152e-001
 0.000000e+000 0.000000e+000 0.000000e+000 0.000000e+000 0.000000e+000
<ENDHMM>
~h "p"
<BEGINHMM>
<NUMSTATES> 5
<STATE> 2
<MEAN> 39
 -2.809378e+000 -3.322207e+000 9.213575e-001 -6.603948e+000 -1.038005e+001 -7.244156e+000 -2.654766e+000 -2.839196e+000 -2.833924e+000 -2.864977e+000 -2.744523e+000 -4.051746e+000 6.436478e+001 7.902130e-001 -4.565136e-001 1.323509e+000 -1.996412e+000 -2.894679e+000 -1.069449e+000 -1.234173e+000 -7.779883e-001 -1.055377e+000 -2.133307e-001 -1.531828e-001 -1.030886e-001 3.514618e+000 -1.607034e-001 3.640956e-002 -8.080336e-002 -2.287834e-001 2.928137e-001 3.633407e-001 3.347150e-002 6.145656e-002 5.105558e-002 -6.250673e-003 9.376439e-002 2.457456e-003 -1.148094e-001
<VARIANCE> 39
 7.926067e+001 6.559579e+001 2.385987e+002 1.468517e+002 1.781020e+002 1.294435e+002 1.047393e+002 1.200924e+002 8.397662e+001 7.977975e+001 6.886751e+001 5.281905e+001 1.927455e+002 5.095120e+000 5.179306e+000 1.136382e+001 1.097941e+001 1.632605e+001 1.124987e+001 7.335739e+000 8.728641e+000 7.548460e+000 6.019182e+000 6.194971e+000 5.001192e+000 1.235135e+001 9.160955e-001 7.544287e-001 1.414241e+000 1.917393e+000 2.994275e+000 1.922719e+000 1.126476e+000 1.415884e+000 1.194816e+000 1.036006e+000 1.156058e+000 8.762387e-001 2.020157e+000
<GCONST> 1.634635e+002
<STATE> 3
<MEAN> 39
 -2.320719e+000 -3.810373e+000 -1.866096e-001 -1.366260e+001 -1.510858e+001 -5.802315e+000 -5.982759e+000 -5.608662e+000 -4.521727e+000 -3.195271e+000 -1.720600e+000 -4.081800e+000 7.257697e+001 -1.016208e-001 3.725699e-001 3.034481e-001 -7.091166e-001 -8.586428e-002 1.655306e-001 -5.232505e-001 -3.476146e-001 -1.909018e-001 -2.491721e-001 2.525990e-001 1.051042e-002 3.906656e-001 -9.800318e-002 1.172672e-001 -2.193880e-001 5.217058e-001 6.142297e-001 8.442611e-002 2.071676e-001 1.467931e-001 1.877279e-001 -9.437630e-002 -6.958741e-002 -6.750052e-002 -6.642470e-001
<VARIANCE> 39
 7.496992e+001 7.563677e+001 3.283820e+002 9.239003e+001 1.345005e+002 1.297404e+002 9.099460e+001 1.034978e+002 9.419517e+001 1.057514e+002 6.083059e+001 4.937758e+001 1.186225e+002 2.464053e+000 2.117899e+000 4.171008e+000 6.270477e+000 7.409561e+000 5.430362e+000 4.189370e+000 4.092847e+000 4.442436e+000 4.408922e+000 4.213447e+000 2.712919e+000 4.773093e+000 4.540283e-001 4.340889e-001 7.205832e-001 1.006013e+000 1.419115e+000 1.033281e+000 7.610130e-001 8.761998e-001 8.148454e-001 8.005591e-001 7.164357e-001 4.996125e-001 7.371719e-001
<GCONST> 1.462470e+002
<STATE> 4
<MEAN> 39
 -7.307702e+000 6.848171e-001 -1.818409e+000 -1.306688e+001 -1.281049e+001 -6.243321e+000 -7.402695e+000 -8.181550e+000 -3.159031e+000 -6.482422e+000 -2.061018e+000 -2.724282e+000 7.056251e+001 -1.363962e-001 1.732001e-001 -9.556394e-003 4.804652e-001 5.001919e-001 7.839135e-002 4.452839e-002 3.646715e-003 -3.739078e-002 -1.513926e-001 -7.054748e-002 -1.392437e-001 -7.874492e-001 2.453987e-002 -5.916925e-002 -5.078629e-002 1.546471e-001 4.898126e-002 -5.850790e-002 5.713786e-002 6.985428e-002 -6.100815e-003 7.409611e-002 -1.131310e-002 -2.184917e-002 -1.201450e-001
<VARIANCE> 39
 6.805441e+001 6.225748e+001 1.577789e+002 8.787504e+001 8.926120e+001 9.698590e+001 6.606110e+001 6.639221e+001 6.454625e+001 1.017600e+002 4.738578e+001 3.703689e+001 1.157317e+002 1.471542e+000 1.923615e+000 2.285299e+000 3.879307e+000 3.792582e+000 3.174316e+000 3.196115e+000 2.998679e+000 3.058741e+000 3.875767e+000 3.108885e+000 2.277143e+000 3.153187e+000 2.664791e-001 3.174007e-001 3.450879e-001 6.537538e-001 6.729661e-001 6.316227e-001 5.574839e-001 5.671973e-001 5.896056e-001 6.571127e-001 5.874612e-001 4.170146e-001 4.729073e-001
<GCONST> 1.325094e+002
<TRANSP> 5
 0.000000e+000 1.000000e+000 0.000000e+000 0.000000e+000 0.000000e+000
 0.000000e+000 6.989985e-001 3.010015e-001 0.000000e+000 0.000000e+000
 0.000000e+000 0.000000e+000 4.482683e-001 5.517318e-001 0.000000e+000
 0.000000e+000 0.000000e+000 0.000000e+000 7.820899e-001 2.179101e-001
 0.000000e+000 0.000000e+000 0.000000e+000 0.000000e+000 0.000000e+000
<ENDHMM>
~h "r"
<BEGINHMM>
<NUMSTATES> 5
<STATE> 2
<MEAN> 39
 2.212021e+000 -9.207635e+000 5.300325e+000 -1.821092e+000 -1.211524e+001 -1.171643e+001 -8.963632e+000 2.127083e+000 -4.025632e+000 -7.404015e+000 -1.918174e+000 -7.871790e+000 7.228236e+001 -2.198690e-001 -3.814447e-001 1.340940e+000 -4.369967e-001 -8.360488e-001 -1.958378e-001 -2.797989e-001 5.632776e-001 -4.186396e-001 -2.152804e-001 4.283529e-001 1.314367e-001 5.485510e-001 -1.515666e-001 2.930100e-001 4.704234e-002 -1.545524e-001 2.205152e-001 1.609732e-001 1.366718e-001 -1.573682e-001 -1.692114e-002 3.131978e-002 -1.677469e-002 2.659691e-002 -2.143164e-001
<VARIANCE> 39
 1.223869e+002 1.279881e+002 1.636652e+002 8.869480e+001 1.284935e+002 1.249459e+002 1.060139e+002 1.417897e+002 1.144389e+002 8.711221e+001 7.753516e+001 9.530264e+001 1.023783e+002 5.046222e+000 5.271338e+000 5.060834e+000 5.382450e+000 5.224687e+000 6.001569e+000 5.289056e+000 6.718973e+000 5.254942e+000 4.643327e+000 4.456147e+000 3.785890e+000 3.036492e+000 6.622196e-001 6.010205e-001 7.444518e-001 8.584559e-001 7.991963e-001 9.600881e-001 9.302243e-001 1.037014e+000 9.197702e-001 7.677580e-001 8.148456e-001 6.632138e-001 2.503083e-001
<GCONST> 1.496789e+002
<STATE> 3
<MEAN> 39
 6.246200e-001 -9.030924e+000 9.297793e+000 -4.473143e+000 -1.415200e+001 -1.189468e+001 -9.294846e+000 2.885119e+000 -5.541007e+000 -7.822113e+000 -1.382608e+000 -7.538402e+000 7.358107e+001 -3.075235e-001 6.952585e-001 1.032735e+000 -5.708399e-001 -1.588474e-001 1.585828e-001 3.840065e-002 -1.693834e-001 -2.199306e-001 -1.042323e-002 1.239437e-001 2.924401e-001 -3.656095e-001 -9.127302e-003 2.192722e-001 -1.654059e-001 8.620331e-002 1.970338e-001 2.870689e-002 6.541304e-002 -1.632790e-001 7.929064e-002 2.599864e-002 -8.193598e-002 4.992147e-003 -1.871412e-001
<VARIANCE> 39
 8.146853e+001 1.137108e+002 1.936816e+002 8.694220e+001 1.182019e+002 1.181265e+002 1.037753e+002 1.676535e+002 1.085829e+002 8.880328e+001 7.021809e+001 9.507139e+001 8.341666e+001 1.721306e+000 2.268746e+000 3.077884e+000 3.436339e+000 3.618463e+000 3.734377e+000 3.609452e+000 4.227900e+000 3.437366e+000 3.248025e+000 3.260000e+000 2.719439e+000 1.236356e+000 2.956120e-001 3.113739e-001 4.071603e-001 4.842581e-001 5.365786e-001 6.026677e-001 5.896854e-001 7.068963e-001 6.392776e-001 5.444604e-001 5.920087e-001 4.711408e-001 1.299863e-001
<GCONST> 1.357261e+002
<STATE> 4
<MEAN> 39
 -5.370778e-001 -4.116247e+000 1.431041e+001 -5.015156e+000 -1.308286e+001 -1.357233e+001 -1.018123e+001 1.567272e+000 -8.468044e+000 -9.202394e+000 -1.169877e+000 -7.385025e+000 6.928457e+001 -1.817425e-001 1.046479e+000 1.905536e-001 -5.468160e-002 1.706832e-001 1.793312e-001 5.886748e-002 -5.095390e-001 7.425917e-002 -9.203428e-003 -6.429667e-002 2.751259e-001 -9.508310e-001 3.943668e-002 -1.020122e-003 -1.711919e-001 1.053288e-001 7.104372e-002 2.657284e-003 9.131972e-003 -2.559552e-002 5.194017e-002 6.335401e-003 -1.543724e-002 -3.929835e-002 -8.431680e-002
<VARIANCE> 39
 8.130322e+001 1.134165e+002 2.285802e+002 1.240342e+002 1.137084e+002 1.072183e+002 1.113505e+002 1.810199e+002 1.163103e+002 8.382256e+001 5.929415e+001 8.722726e+001 1.354536e+002 1.210003e+000 1.772451e+000 2.675553e+000 2.591667e+000 2.953122e+000 2.867685e+000 2.894627e+000 3.644944e+000 3.016616e+000 2.878003e+000 2.675846e+000 2.381591e+000 1.011188e+000 1.943031e-001 2.543944e-001 3.486345e-001 3.907590e-001 4.703578e-001 4.364573e-001 5.020667e-001 5.996014e-001 5.428309e-001 4.745820e-001 4.896829e-001 4.143243e-001 9.933601e-002
<GCONST> 1.311947e+002
<TRANSP> 5
 0.000000e+000 1.000000e+000 0.000000e+000 0.000000e+000 0.000000e+000
 0.000000e+000 6.056938e-001 3.943062e-001 0.000000e+000 0.000000e+000
 0.000000e+000 0.000000e+000 5.655369e-001 4.344632e-001 0.000000e+000
 0.000000e+000 0.000000e+000 0.000000e+000 7.741805e-001 2.258195e-001
 0.000000e+000 0.000000e+000 0.000000e+000 0.000000e+000 0.000000e+000
<ENDHMM>
~h "s"
<BEGINHMM>
<NUMSTATES> 5
<STATE> 2
<MEAN> 39
 -1.224471e+001 4.624300e+000 -5.641647e-001 -6.365374e+000 2.197176e+000 -1.082709e+001 -1.634919e+000 -1.621280e+000 -2.543332e+000 -4.234165e+000 6.640070e-001 -6.490246e+000 6.480668e+001 -2.424381e+000 1.692255e+000 -6.862315e-001 -3.580262e-001 2.146427e+000 -1.053931e+000 1.327306e+000 -2.041748e-001 7.763061e-001 -2.287734e-001 2.995853e-001 -1.980405e-001 2.369979e-001 -8.605148e-002 -7.580273e-002 -3.740527e-002 -1.098931e-001 -1.218705e-001 7.076316e-002 2.533058e-002 -1.238871e-001 5.158985e-002 -4.312949e-002 -8.590959e-003 -8.752245e-002 8.879381e-002
<VARIANCE> 39
 2.259159e+002 1.049888e+002 1.256465e+002 1.239526e+002 1.937090e+002 1.688739e+002 1.164724e+002 1.088911e+002 8.914606e+001 9.163443e+001 7.714525e+001 9.332877e+001 1.147103e+002 6.166757e+000 4.678292e+000 4.429628e+000 3.909563e+000 6.638846e+000 8.796864e+000 5.707537e+000 5.890061e+000 5.332428e+000 4.656945e+000 3.354017e+000 3.386901e+000 2.698011e+000 1.094508e+000 6.918582e-001 6.235815e-001 6.777411e-001 1.122810e+000 1.281075e+000 1.043643e+000 9.214531e-001 8.417725e-001 8.208690e-001 6.765065e-001 6.131905e-001 3.839472e-001
<GCONST> 1.512897e+002
<STATE> 3
<MEAN> 39
 -1.927353e+001 8.518059e+000 -2.456949e+000 -7.547035e+000 7.615480e+000 -1.301502e+001 1.904705e+000 -2.512125e+000 -3.790175e-002 -4.971225e+000 1.302794e+000 -7.224677e+000 6.542670e+001 -1.270895e+000 6.997916e-001 -5.050162e-001 -3.115949e-001 9.517348e-001 -4.448649e-001 6.857938e-001 -2.281332e-001 5.018837e-001 -1.593625e-001 9.124870e-002 -1.891343e-001 7.928505e-002 4.035729e-001 -2.837300e-001 8.687003e-002 -3.780628e-003 -3.523830e-001 1.586593e-001 -1.634862e-001 2.960250e-002 -1.030316e-001 5.676639e-003 -6.582286e-002 -1.685830e-002 -2.406491e-002
<VARIANCE> 39
 1.420959e+002 8.856861e+001 1.102440e+002 1.302000e+002 1.729090e+002 1.927495e+002 1.145302e+002 8.996198e+001 9.204211e+001 8.264273e+001 6.328339e+001 8.331293e+001 8.461291e+001 8.478770e+000 4.751476e+000 3.338745e+000 3.499180e+000 6.096344e+000 6.775089e+000 5.393210e+000 5.065102e+000 4.113412e+000 3.647881e+000 3.003766e+000 2.772993e+000 2.167895e+000 7.199608e-001 5.390803e-001 4.841193e-001 6.278637e-001 8.573149e-001 1.113978e+000 8.373423e-001 8.167986e-001 7.203143e-001 6.369901e-001 5.579903e-001 5.022355e-001 3.029262e-001
<GCONST> 1.452646e+002
<STATE> 4
<MEAN> 39
 -1.865699e+001 9.726544e+000 -2.409281e+000 -1.098748e+001 1.386164e+001 -1.527406e+001 5.738738e+000 -2.779305e+000 2.292154e+000 -4.149377e+000 9.198968e-001 -1.018043e+001 5.841731e+001 8.004636e-001 -2.849505e-001 2.530210e-002 -5.135421e-002 -4.338856e-001 3.142736e-001 3.756850e-002 -1.919831e-001 -1.158805e-001 8.362497e-002 -1.070605e-001 -3.624612e-002 -9.045680e-002 2.654553e-001 -2.068150e-001 3.825075e-002 -2.392982e-002 -2.129232e-001 1.382362e-001 -1.222061e-001 3.163302e-002 -6.791463e-002 1.046173e-002 -3.145739e-002 8.737423e-003 1.109735e-001
<VARIANCE> 39
 1.078675e+002 9.271159e+001 1.161615e+002 1.407252e+002 1.730748e+002 1.837025e+002 1.356283e+002 1.036157e+002 1.138513e+002 9.254031e+001 7.345464e+001 8.176316e+001 1.540579e+002 8.725282e+000 5.222958e+000 3.466951e+000 5.219516e+000 6.748401e+000 6.843678e+000 6.144024e+000 6.124022e+000 5.212269e+000 4.425366e+000 4.108567e+000 3.597730e+000 3.803475e+000 8.908849e-001 7.540478e-001 5.772110e-001 8.368239e-001 1.006411e+000 1.110207e+000 1.033982e+000 1.126615e+000 8.862492e-001 7.836665e-001 7.169802e-001 6.220472e-001 4.016442e-001
<GCONST> 1.519042e+002
<TRANSP> 5
 0.000000e+000 1.000000e+000 0.000000e+000 0.000000e+000 0.000000e+000
 0.000000e+000 6.469917e-001 3.530084e-001 0.000000e+000 0.000000e+000
 0.000000e+000 0.000000e+000 6.916656e-001 3.083344e-001 0.000000e+000
 0.000000e+000 0.000000e+000 0.000000e+000 8.916094e-001 1.083906e-001
 0.000000e+000 0.000000e+000 0.000000e+000 0.000000e+000 0.000000e+000
<ENDHMM>
~h "t"
<BEGINHMM>
<NUMSTATES> 5
<STATE> 2
<MEAN> 39
 -5.967789e+000 -1.232938e+000 -3.972737e+000 -7.489119e+000 -1.146163e+000 -7.621635e+000 -2.279477e+000 -1.888058e+000 -5.088964e-001 -3.693280e+000 -2.536136e+000 -6.705685e+000 6.236244e+001 4.350710e-001 -4.528536e-001 -3.409798e-001 -8.643700e-001 -6.563451e-001 -4.048623e-001 -2.887539e-001 -6.080729e-002 -2.118760e-001 -4.716241e-001 -4.111271e-001 -4.535625e-001 2.278305e+000 2.351372e-001 -3.945920e-002 1.243226e-001 -1.997185e-002 -1.655580e-001 1.111604e-001 -1.453160e-001 -9.130364e-002 -1.807864e-001 -1.360038e-001 4.508498e-003 -1.330498e-002 9.588726e-002
<VARIANCE> 39
 1.547500e+002 8.269990e+001 8.144378e+001 9.658588e+001 1.196574e+002 1.276587e+002 1.524536e+002 1.432365e+002 9.887788e+001 1.162136e+002 1.021673e+002 1.018439e+002 1.830996e+002 8.935600e+000 6.025049e+000 6.561496e+000 8.175372e+000 1.008631e+001 9.126750e+000 9.745981e+000 9.178029e+000 8.470516e+000 7.394857e+000 7.766705e+000 7.518152e+000 1.028454e+001 1.417088e+000 8.795313e-001 1.005895e+000 1.466951e+000 1.580855e+000 1.561215e+000 1.659310e+000 1.604350e+000 1.444169e+000 1.300730e+000 1.478859e+000 1.279363e+000 1.322528e+000
<GCONST> 1.650984e+002
<STATE> 3
<MEAN> 39
 -3.884817e+000 -1.515801e+000 -4.811172e+000 -9.564178e+000 -5.060853e+000 -7.749657e+000 -3.728420e+000 -3.263984e+000 -2.484829e+000 -6.833442e+000 -3.580035e+000 -6.094222e+000 6.962586e+001 8.837973e-001 -1.811846e-001 1.142525e-001 -4.380696e-001 -7.433621e-001 4.588747e-002 -4.810300e-001 -2.542434e-001 -4.190330e-001 -6.692356e-001 -2.261790e-001 -1.550321e-001 9.532934e-001 -5.892252e-004 -4.117452e-002 9.137590e-002 1.529742e-001 2.261918e-001 2.135103e-001 3.277583e-002 3.777421e-002 9.271050e-003 1.186634e-001 9.653763e-002 1.980800e-002 -3.568156e-001
<VARIANCE> 39
 1.423122e+002 9.252035e+001 8.928078e+001 8.203551e+001 1.112881e+002 1.226738e+002 1.360615e+002 1.325762e+002 8.786193e+001 1.373212e+002 7.584247e+001 9.429087e+001 1.430982e+002 5.259855e+000 3.425157e+000 4.639019e+000 5.134312e+000 7.735174e+000 6.030385e+000 7.703503e+000 5.974619e+000 5.415197e+000 5.441669e+000 4.754272e+000 3.778279e+000 4.807933e+000 8.732670e-001 5.705878e-001 6.662064e-001 7.909021e-001 1.267826e+000 1.065660e+000 1.197330e+000 1.044202e+000 9.381478e-001 9.246962e-001 8.268815e-001 7.430260e-001 6.933015e-001
<GCONST> 1.523869e+002
<STATE> 4
<MEAN> 39
 -2.981788e+000 -1.795750e+000 -4.979446e+000 -1.094171e+001 -5.355317e+000 -7.691388e+000 -5.037829e+000 -5.431032e+000 -3.392785e+000 -9.895138e+000 -4.096840e+000 -5.431328e+000 7.168391e+001 5.394772e-001 -1.155685e-001 1.408338e-001 6.353213e-003 -1.190531e-001 4.164166e-001 -2.508741e-001 -1.117074e-001 -2.073162e-001 -1.362442e-001 -2.111401e-002 -1.355087e-001 7.598519e-002 -1.417655e-001 2.553904e-002 4.262202e-002 1.662431e-001 1.732837e-001 6.677059e-002 8.404639e-002 4.979992e-002 3.552637e-002 1.774022e-001 9.139086e-002 3.176062e-002 -2.613812e-001
<VARIANCE> 39
 1.220746e+002 9.678841e+001 9.973600e+001 8.228305e+001 1.099335e+002 1.167213e+002 1.185695e+002 1.297741e+002 7.916971e+001 1.667605e+002 7.621609e+001 9.014965e+001 1.509931e+002 2.879531e+000 2.631028e+000 3.317408e+000 3.616293e+000 5.409824e+000 4.409167e+000 5.256982e+000 4.484511e+000 4.196991e+000 3.985994e+000 3.611320e+000 2.989663e+000 3.054745e+000 4.806246e-001 4.191277e-001 4.893850e-001 5.873525e-001 9.439375e-001 7.464175e-001 8.672580e-001 8.381405e-001 7.080338e-001 6.951781e-001 6.076230e-001 5.456492e-001 4.326706e-001
<GCONST> 1.434945e+002
<TRANSP> 5
 0.000000e+000 1.000000e+000 0.000000e+000 0.000000e+000 0.000000e+000
 0.000000e+000 6.460469e-001 3.539531e-001 0.000000e+000 0.000000e+000
 0.000000e+000 0.000000e+000 3.845920e-001 6.154080e-001 0.000000e+000
 0.000000e+000 0.000000e+000 0.000000e+000 4.717189e-001 5.282811e-001
 0.000000e+000 0.000000e+000 0.000000e+000 0.000000e+000 0.000000e+000
<ENDHMM>
~h "v"
<BEGINHMM>
<NUMSTATES> 5
<STATE> 2
<MEAN> 39
 -4.170960e-001 -5.586535e+000 -9.565828e-001 -8.832516e+000 -4.183275e+000 -1.383577e+000 4.283170e+000 -1.381481e-001 -2.426867e-001 8.525569e-001 1.046315e+000 -8.060715e+000 6.205328e+001 -7.103410e-001 -1.038917e-001 -3.542984e-001 5.269984e-001 3.572439e-001 -1.845055e-001 6.699180e-001 5.520207e-001 7.301159e-001 1.761553e-001 1.617538e-001 2.943953e-001 -6.365784e-001 -4.537184e-002 -4.742263e-002 4.196986e-002 -7.626558e-002 -7.730460e-002 -1.136613e-001 -1.081398e-001 -5.874187e-002 -1.298084e-001 -9.573355e-002 -2.693237e-003 -3.525818e-002 7.834421e-002
<VARIANCE> 39
 7.256527e+001 6.388315e+001 1.299508e+002 2.128976e+002 9.852352e+001 1.408049e+002 1.020196e+002 9.049686e+001 5.828336e+001 6.190099e+001 4.305874e+001 3.674219e+001 7.700688e+001 2.944515e+000 1.702216e+000 2.470316e+000 3.075982e+000 6.409597e+000 5.551363e+000 4.510721e+000 5.484683e+000 5.736873e+000 3.209303e+000 2.542153e+000 1.875663e+000 1.431702e+000 3.905936e-001 2.217920e-001 3.222142e-001 5.101160e-001 9.350863e-001 8.344786e-001 7.600940e-001 8.224485e-001 8.551434e-001 5.595006e-001 4.489103e-001 3.573206e-001 1.719518e-001
<GCONST> 1.348726e+002
<STATE> 3
<MEAN> 39
 -1.937330e+000 -6.204785e+000 -7.187850e-001 -5.768994e+000 -5.122236e+000 -4.281108e+000 5.748774e+000 1.456905e+000 5.852531e-001 1.489345e+000 1.380194e+000 -7.535176e+000 5.976548e+001 -5.264310e-001 -9.187242e-002 -1.113932e-001 3.363781e-001 2.289603e-001 -2.853441e-001 2.859916e-001 2.520352e-001 2.167831e-001 -5.640900e-002 -3.312092e-002 1.345893e-001 -4.328601e-001 6.363928e-002 2.384887e-002 7.865411e-002 -9.228259e-003 -2.418137e-002 1.238439e-002 -9.545143e-002 -6.756037e-002 -1.293185e-001 -5.117238e-002 -3.908338e-002 -4.394262e-002 2.582549e-002
<VARIANCE> 39
 6.050632e+001 5.408677e+001 1.061165e+002 1.617551e+002 1.014177e+002 1.214824e+002 9.375645e+001 8.432832e+001 5.701306e+001 6.280954e+001 4.347783e+001 3.506479e+001 6.314955e+001 2.653427e+000 1.606828e+000 2.133174e+000 2.963160e+000 6.323192e+000 5.275713e+000 3.750855e+000 4.580780e+000 5.821019e+000 3.032476e+000 2.197412e+000 1.783639e+000 1.532811e+000 3.538247e-001 2.378310e-001 2.922557e-001 4.666382e-001 1.011490e+000 1.004461e+000 6.155682e-001 7.596366e-001 1.009141e+000 5.927070e-001 4.107859e-001 3.419217e-001 2.005252e-001
<GCONST> 1.325877e+002
<STATE> 4
<MEAN> 39
 -4.133820e+000 -4.717690e+000 -3.730634e+000 -7.234092e+000 -5.214183e-001 -9.405776e-001 6.883349e+000 2.797405e+000 1.329010e+000 -5.831810e-002 1.100646e+000 -6.734861e+000 5.199837e+001 -3.494761e-001 1.806010e-001 2.258489e-001 7.181827e-001 4.280811e-001 2.104673e-002 9.045501e-002 1.384878e-001 4.311162e-002 -1.648216e-001 -2.629330e-001 1.322701e-001 -6.246796e-001 1.157376e-001 2.983775e-002 6.569099e-002 1.005308e-002 -9.029641e-002 -3.755011e-002 -8.463547e-002 -7.165416e-002 -1.314933e-001 -5.205297e-002 -3.502340e-002 -2.185512e-002 6.931143e-002
<VARIANCE> 39
 5.112732e+001 4.216497e+001 8.779240e+001 1.465853e+002 8.817756e+001 9.691292e+001 9.637529e+001 9.139463e+001 5.933891e+001 5.823986e+001 5.905492e+001 5.279906e+001 1.215670e+002 1.709138e+000 1.465065e+000 1.948272e+000 2.862137e+000 4.093529e+000 3.521460e+000 3.760403e+000 4.068503e+000 4.804634e+000 3.664053e+000 3.202648e+000 2.711507e+000 1.061147e+000 2.112147e-001 2.193577e-001 3.313814e-001 4.688796e-001 6.484013e-001 7.044410e-001 6.706222e-001 7.514017e-001 9.109019e-001 6.777134e-001 6.032495e-001 5.325976e-001 1.170851e-001
<GCONST> 1.309016e+002
<TRANSP> 5
 0.000000e+000 1.000000e+000 0.000000e+000 0.000000e+000 0.000000e+000
 0.000000e+000 6.640964e-001 3.359036e-001 0.000000e+000 0.000000e+000
 0.000000e+000 0.000000e+000 7.025329e-001 2.974671e-001 0.000000e+000
 0.000000e+000 0.000000e+000 0.000000e+000 8.417774e-001 1.582226e-001
 0.000000e+000 0.000000e+000 0.000000e+000 0.000000e+000 0.000000e+000
<ENDHMM>
~h "w"
<BEGINHMM>
<NUMSTATES> 5
<STATE> 2
<MEAN> 39
 4.314981e+000 -3.043301e+000 -1.247523e+001 -1.090567e+001 -3.134078e+000 -1.534722e+000 -3.746536e+000 -5.291862e+000 -5.728577e+000 -7.417871e+000 -7.662071e+000 -4.555169e+000 6.990272e+001 -2.213703e-001 -3.106588e-001 -6.268095e-004 -1.202988e-001 3.415479e-001 1.558606e-001 4.188753e-001 2.886294e-001 2.687310e-001 -6.272900e-001 -3.313397e-001 9.681766e-002 4.047429e-001 -2.329496e-002 -3.633729e-003 7.995600e-002 4.684522e-002 -7.495234e-002 1.657907e-002 -2.094955e-002 1.195332e-002 -2.068229e-002 4.402103e-002 1.518593e-001 1.647874e-002 -3.438548e-002
<VARIANCE> 39
 9.475664e+001 9.080576e+001 1.066148e+002 7.884267e+001 1.127543e+002 8.866595e+001 9.248609e+001 6.177478e+001 7.774815e+001 6.656394e+001 1.029030e+002 5.125505e+001 1.208325e+002 1.000365e+000 2.721456e+000 2.054643e+000 3.353297e+000 3.848790e+000 4.272832e+000 3.777964e+000 3.035867e+000 3.670239e+000 3.961572e+000 3.469740e+000 2.910187e+000 1.232492e+000 1.587080e-001 2.828758e-001 2.875515e-001 3.906515e-001 5.426183e-001 6.305798e-001 6.629742e-001 4.873239e-001 6.472797e-001 6.305189e-001 6.083254e-001 4.915700e-001 9.956331e-002
<GCONST> 1.310183e+002
<STATE> 3
<MEAN> 39
 3.005321e+000 -4.141644e+000 -1.003763e+001 -1.170340e+001 -1.961070e+000 -1.177803e+000 -1.447459e+000 -3.523027e+000 -5.018614e+000 -1.027544e+001 -7.597942e+000 -4.175570e+000 7.057378e+001 -2.494846e-001 -4.012276e-001 2.797715e-001 -6.380829e-002 -1.694425e-001 3.273486e-001 3.156313e-001 4.240719e-001 2.046335e-002 -3.522482e-001 2.010862e-001 -4.633734e-002 4.309903e-001 -2.301968e-002 -1.841834e-002 1.001642e-001 7.669745e-002 -7.256103e-002 1.012441e-002 -6.700494e-002 -4.477162e-002 -7.307645e-002 1.566626e-001 1.494275e-001 -9.120707e-002 -3.660697e-002
<VARIANCE> 39
 1.167279e+002 8.236406e+001 1.036099e+002 8.439780e+001 1.215252e+002 9.567648e+001 9.699767e+001 5.749345e+001 6.804311e+001 8.655962e+001 8.961497e+001 6.782404e+001 1.454422e+002 9.403496e-001 2.746488e+000 2.081234e+000 3.519699e+000 4.188325e+000 4.561548e+000 3.985297e+000 3.193783e+000 3.066936e+000 3.855529e+000 3.172535e+000 3.064990e+000 1.387390e+000 1.626719e-001 2.736974e-001 2.771879e-001 4.614904e-001 6.115037e-001 6.282986e-001 6.808392e-001 5.152591e-001 5.707327e-001 5.909876e-001 5.463045e-001 5.282197e-001 1.056243e-001
<GCONST> 1.320415e+002
<STATE> 4
<MEAN> 39
 4.335667e+000 -4.418290e+000 -7.149319e+000 -1.209289e+001 -2.850419e+000 1.254915e+000 -1.173881e-001 -2.031603e+000 -6.119619e+000 -9.778694e+000 -5.540484e+000 -6.781329e+000 7.011398e+001 -3.056911e-001 -6.273814e-001 5.482560e-001 2.210976e-001 -1.542936e-001 2.742015e-001 -1.605681e-001 6.586390e-002 -1.216526e-001 3.051738e-001 5.227491e-001 -5.570025e-001 4.264111e-001 -1.998670e-002 5.016395e-002 9.783686e-002 1.602627e-001 2.012705e-002 -1.835759e-001 -1.295026e-001 -6.684436e-002 2.042956e-002 1.362313e-001 -2.065496e-002 -6.498814e-002 -8.408540e-002
<VARIANCE> 39
 1.287364e+002 9.545285e+001 1.152126e+002 1.083869e+002 1.161502e+002 1.347901e+002 8.546657e+001 5.952118e+001 5.662490e+001 1.178698e+002 7.126862e+001 9.418037e+001 1.372199e+002 1.543518e+000 3.917955e+000 2.703430e+000 3.751809e+000 5.436398e+000 4.660631e+000 5.293670e+000 3.391547e+000 3.349014e+000 3.844796e+000 3.394963e+000 3.779015e+000 2.238058e+000 2.147878e-001 3.104297e-001 3.428464e-001 6.285917e-001 6.435452e-001 8.389162e-001 7.631033e-001 5.741991e-001 5.371072e-001 6.229568e-001 5.656537e-001 5.493009e-001 1.420069e-001
<GCONST> 1.375078e+002
<TRANSP> 5
 0.000000e+000 1.000000e+000 0.000000e+000 0.000000e+000 0.000000e+000
 0.000000e+000 7.738189e-001 2.261811e-001 0.000000e+000 0.000000e+000
 0.000000e+000 0.000000e+000 6.910347e-001 3.089653e-001 0.000000e+000
 0.000000e+000 0.000000e+000 0.000000e+000 6.903542e-001 3.096458e-001
 0.000000e+000 0.000000e+000 0.000000e+000 0.000000e+000 0.000000e+000
<ENDHMM>
~h "z"
<BEGINHMM>
<NUMSTATES> 5
<STATE> 2
<MEAN> 39
 -1.918602e+000 2.082522e+000 -7.859589e+000 -2.175267e+001 -3.977222e+000 1.473599e+000 1.942626e+000 -3.283123e+000 -4.855266e+000 -5.849676e+000 6.106142e-001 -4.798708e+000 6.375030e+001 -1.575832e+000 7.744170e-001 -3.898210e-001 2.628651e-001 1.105407e+000 -4.003361e-001 9.922153e-001 1.702111e-001 4.558914e-001 1.664441e-002 1.810875e-001 1.723945e-001 -5.228908e-001 -1.746565e-001 -3.897975e-002 3.215331e-003 8.390342e-002 8.241110e-002 -1.692203e-002 1.421480e-001 1.250181e-002 5.491450e-002 1.659569e-002 -1.430554e-002 -1.754803e-002 1.112857e-001
<VARIANCE> 39
 2.090823e+002 8.349722e+001 1.515429e+002 2.462230e+002 9.423000e+001 1.987351e+002 1.145854e+002 8.072647e+001 6.159015e+001 5.806556e+001 4.530013e+001 4.393125e+001 5.421857e+001 5.700672e+000 2.462894e+000 4.304988e+000 3.673257e+000 5.638492e+000 5.424975e+000 5.014656e+000 4.362892e+000 3.583359e+000 3.503664e+000 3.123390e+000 2.885303e+000 2.810209e+000 6.877704e-001 3.745145e-001 5.927030e-001 6.341095e-001 7.726477e-001 8.226040e-001 7.961701e-001 7.623301e-001 6.623055e-001 6.342475e-001 5.847340e-001 5.200605e-001 3.277193e-001
<GCONST> 1.419229e+002
<STATE> 3
<MEAN> 39
 -1.527219e+001 7.159298e+000 -4.308224e+000 -1.256181e+001 2.389417e+000 -5.036419e+000 4.208343e+000 -3.270298e+000 -3.883187e-001 -5.417252e+000 1.819815e+000 -3.757040e+000 6.304956e+001 -1.496930e+000 3.933890e-001 -3.520864e-001 8.133436e-001 1.458923e+000 -4.133428e-002 8.741739e-001 3.042589e-001 5.756285e-001 2.751250e-001 1.320705e-001 1.349117e-001 -3.586761e-001 2.322891e-001 -8.667230e-002 1.099939e-001 8.767375e-002 -1.605247e-001 4.471011e-002 -1.552348e-001 -6.488815e-002 -2.833744e-002 1.824896e-002 -1.610971e-002 -2.220283e-002 -2.933645e-002
<VARIANCE> 39
 1.679615e+002 1.098612e+002 1.165203e+002 2.086612e+002 1.139409e+002 1.905181e+002 1.791842e+002 1.018119e+002 6.978887e+001 7.696066e+001 5.712635e+001 4.209879e+001 6.160056e+001 3.539844e+000 2.763387e+000 3.271965e+000 3.353208e+000 4.412831e+000 5.628551e+000 4.657953e+000 4.766866e+000 3.263784e+000 3.148565e+000 3.101019e+000 1.926831e+000 1.536280e+000 4.405492e-001 3.832275e-001 4.058597e-001 5.556291e-001 6.903089e-001 7.920356e-001 8.066278e-001 7.848945e-001 6.191084e-001 5.680890e-001 5.942651e-001 3.782472e-001 1.958328e-001
<GCONST> 1.389287e+002
<STATE> 4
<MEAN> 39
 -2.285093e+001 1.227623e+001 -5.608664e+000 -6.459393e+000 6.952079e+000 -7.618598e+000 5.770873e+000 -3.963706e+000 8.687156e-001 -5.169901e+000 1.269107e+000 -2.562928e+000 6.122511e+001 1.569776e-001 -9.658647e-002 1.127084e-001 4.408357e-001 1.117018e-001 8.314458e-002 4.675949e-002 1.217219e-001 1.780596e-001 2.114440e-001 7.381702e-002 1.279857e-001 -5.405720e-001 1.338511e-001 -5.478358e-002 5.624339e-002 -1.404196e-002 -7.067046e-002 1.076455e-002 -5.392975e-002 1.313229e-003 -3.860325e-002 -2.527044e-003 -1.708345e-002 3.009529e-003 -2.241215e-002
<VARIANCE> 39
 6.809273e+001 7.170477e+001 8.343395e+001 1.286814e+002 1.480296e+002 1.229324e+002 2.296174e+002 6.352765e+001 7.527280e+001 6.553704e+001 5.251083e+001 4.592624e+001 9.901394e+001 1.900014e+000 1.504758e+000 1.725045e+000 2.428050e+000 2.649231e+000 2.869319e+000 2.752844e+000 2.794083e+000 3.065254e+000 2.607785e+000 2.448490e+000 1.901977e+000 8.262911e-001 2.031925e-001 2.308385e-001 2.734623e-001 3.774810e-001 4.152104e-001 4.931925e-001 4.910032e-001 4.975171e-001 5.352747e-001 4.728597e-001 4.597907e-001 3.522536e-001 8.389938e-002
<GCONST> 1.257153e+002
<TRANSP> 5
 0.000000e+000 1.000000e+000 0.000000e+000 0.000000e+000 0.000000e+000
 0.000000e+000 8.124067e-001 1.875933e-001 0.000000e+000 0.000000e+000
 0.000000e+000 0.000000e+000 6.714488e-001 3.285513e-001 0.000000e+000
 0.000000e+000 0.000000e+000 0.000000e+000 9.351613e-001 6.483868e-002
 0.000000e+000 0.000000e+000 0.000000e+000 0.000000e+000 0.000000e+000
<ENDHMM>
~h "aa"
<BEGINHMM>
<NUMSTATES> 5
<STATE> 2
<MEAN> 39
 1.584511e+000 -9.315650e+000 -3.010966e+000 -1.055784e+001 -1.645839e+000 1.329198e-001 1.315854e+000 1.075588e+000 -2.210740e+000 -1.969833e+000 -2.452624e+000 -1.105805e+001 6.714492e+001 6.653376e-001 -6.546794e-001 -6.329479e-001 -6.626190e-001 1.153578e-001 1.232799e+000 -4.406993e-002 2.800052e-001 -3.592279e-001 -1.296298e-001 1.649111e-001 -7.629350e-002 5.881286e-001 5.517188e-002 6.513426e-002 5.380368e-002 2.419431e-002 -1.113050e-001 -5.336896e-002 -6.278981e-002 -7.256007e-002 -4.153091e-002 -3.669467e-002 6.099651e-003 -1.679689e-002 7.839873e-002
<VARIANCE> 39
 8.281576e+001 1.011280e+002 1.295898e+002 1.720084e+002 1.207333e+002 1.215176e+002 1.143601e+002 1.265597e+002 9.964304e+001 1.016554e+002 5.299530e+001 8.961479e+001 2.462162e+002 3.553096e+000 4.223950e+000 5.905163e+000 1.165660e+001 5.532423e+000 7.997022e+000 8.332375e+000 6.027140e+000 5.597582e+000 5.471913e+000 3.427834e+000 3.873545e+000 8.010234e+000 5.526398e-001 5.286785e-001 9.558387e-001 1.708971e+000 8.449377e-001 1.202142e+000 1.501863e+000 1.194701e+000 1.179555e+000 9.316463e-001 6.398675e-001 6.731006e-001 7.501352e-001
<GCONST> 1.546511e+002
<STATE> 3
<MEAN> 39
 3.438475e+000 -1.191544e+001 -4.146569e+000 -1.275506e+001 -2.038683e+000 3.634927e+000 4.906178e-001 9.193003e-001 -3.691689e+000 -2.679341e+000 -1.898023e+000 -1.119844e+001 7.135091e+001 6.179496e-001 7.302139e-002 5.876951e-002 3.188605e-001 -1.267161e-001 2.843132e-001 -3.739502e-001 1.537523e-002 -3.505072e-001 -1.609750e-001 -4.307913e-002 -1.089099e-002 -3.215013e-001 2.851909e-002 2.100107e-001 -1.016114e-002 7.184941e-002 -6.818854e-002 -2.142038e-001 -9.701159e-002 -7.457582e-002 4.882349e-002 2.048694e-002 -5.338469e-002 3.204304e-002 -1.172172e-001
<VARIANCE> 39
 8.757011e+001 7.576938e+001 1.334904e+002 1.560830e+002 1.101678e+002 1.206301e+002 7.937519e+001 9.801439e+001 8.832396e+001 9.799567e+001 4.775905e+001 8.107098e+001 1.550701e+002 2.062072e+000 3.195201e+000 3.332177e+000 5.521915e+000 4.320622e+000 5.500733e+000 3.923892e+000 4.436252e+000 3.698532e+000 3.700881e+000 2.375017e+000 2.990611e+000 3.904562e+000 3.205794e-001 3.477230e-001 5.681611e-001 8.238794e-001 6.581755e-001 9.378006e-001 8.090181e-001 8.205083e-001 6.794779e-001 6.415060e-001 4.554145e-001 5.358846e-001 3.929965e-001
<GCONST> 1.409891e+002
<STATE> 4
<MEAN> 39
 6.884673e+000 -9.574253e+000 -4.849407e+000 -1.393636e+001 -2.556389e+000 5.026493e+000 -4.400011e-001 2.780558e-001 -4.335152e+000 -3.002444e+000 -1.601313e+000 -1.069290e+001 6.867159e+001 2.021883e-001 5.352995e-001 7.254752e-002 4.091340e-001 -2.735618e-001 -5.628777e-001 -3.332925e-001 6.021543e-002 5.277986e-004 -1.193574e-001 -1.214345e-001 2.953873e-002 -5.709777e-001 -1.207214e-001 5.977848e-002 -4.862324e-003 -5.462344e-002 -2.162328e-002 -1.644931e-001 1.088571e-004 4.727607e-003 6.974577e-002 8.487134e-003 -3.396004e-002 -1.515859e-002 6.997913e-002
<VARIANCE> 39
 9.061980e+001 8.438429e+001 1.117408e+002 1.847810e+002 9.820441e+001 1.203879e+002 6.689374e+001 8.656149e+001 8.184029e+001 7.364743e+001 4.483315e+001 6.581937e+001 1.296809e+002 3.127039e+000 3.402534e+000 3.707016e+000 5.473668e+000 4.405185e+000 5.832028e+000 4.765493e+000 4.860204e+000 3.873433e+000 3.373950e+000 3.000786e+000 3.376077e+000 4.068454e+000 4.240389e-001 4.996516e-001 6.116152e-001 7.775886e-001 7.097294e-001 9.954617e-001 9.457918e-001 9.097855e-001 7.260705e-001 5.836023e-001 5.580146e-001 6.077101e-001 5.066538e-001
<GCONST> 1.427952e+002
<TRANSP> 5
 0.000000e+000 1.000000e+000 0.000000e+000 0.000000e+000 0.000000e+000
 0.000000e+000 6.064680e-001 3.935321e-001 0.000000e+000 0.000000e+000
 0.000000e+000 0.000000e+000 5.533097e-001 4.466904e-001 0.000000e+000
 0.000000e+000 0.000000e+000 0.000000e+000 6.839925e-001 3.160075e-001
 0.000000e+000 0.000000e+000 0.000000e+000 0.000000e+000 0.000000e+000
<ENDHMM>
~h "ae"
<BEGINHMM>
<NUMSTATES> 5
<STATE> 2
<MEAN> 39
 -2.074560e-002 -9.336442e+000 -1.106697e-001 -7.019767e+000 -4.927967e+000 -6.018142e+000 4.079192e+000 6.592594e+000 -1.683105e+000 -3.981866e+000 -5.022012e+000 -1.098277e+001 6.267126e+001 1.013884e+000 -1.631563e+000 4.950221e-001 -1.088257e+000 -1.770793e+000 -4.489125e-001 -2.845687e-001 7.490113e-001 -8.228135e-001 -5.934135e-001 -3.702573e-001 -6.171675e-001 2.684287e+000 -2.092922e-001 1.737461e-001 9.424681e-002 2.033597e-001 1.077093e-001 -3.724523e-002 -7.328889e-002 -9.181892e-002 8.302572e-002 1.684031e-001 2.549880e-001 2.578765e-001 -2.072782e-001
<VARIANCE> 39
 1.066994e+002 1.337113e+002 9.735454e+001 1.083397e+002 1.377102e+002 9.412636e+001 1.450524e+002 2.586425e+002 1.065375e+002 1.030614e+002 9.783762e+001 1.138615e+002 2.431689e+002 6.572955e+000 1.051256e+001 5.176339e+000 8.334443e+000 1.202643e+001 8.939757e+000 8.403111e+000 1.325247e+001 8.352589e+000 8.600536e+000 6.848067e+000 6.411870e+000 8.350322e+000 9.782758e-001 1.516431e+000 9.665923e-001 1.417048e+000 1.831445e+000 1.213243e+000 1.541648e+000 2.183016e+000 1.399010e+000 1.549263e+000 1.237657e+000 1.128935e+000 1.172155e+000
<GCONST> 1.661818e+002
<STATE> 3
<MEAN> 39
 1.812385e+000 -1.284695e+001 1.329851e+000 -8.280211e+000 -1.019466e+001 -8.593103e+000 3.671695e+000 9.710567e+000 -3.412972e+000 -4.945820e+000 -5.222401e+000 -1.086825e+001 7.101249e+001 1.984209e-001 7.761187e-002 3.374160e-001 4.012552e-003 -7.315701e-001 -2.852711e-001 -4.535379e-001 -3.011864e-001 1.503584e-001 2.115343e-001 3.387185e-001 4.231966e-001 1.738790e-001 -1.908268e-001 3.956232e-001 -2.404121e-003 2.864170e-001 3.513270e-001 8.686888e-002 -8.157887e-002 -2.211588e-001 1.677845e-001 1.317724e-001 1.003593e-001 7.281014e-002 -5.673361e-001
<VARIANCE> 39
 7.083127e+001 8.537271e+001 1.058120e+002 7.011668e+001 1.081159e+002 9.926597e+001 1.058706e+002 1.655551e+002 9.653916e+001 1.049105e+002 5.787927e+001 6.868087e+001 1.282844e+002 2.690826e+000 5.338977e+000 3.495071e+000 4.387175e+000 6.523474e+000 5.696149e+000 4.668924e+000 6.136918e+000 5.458707e+000 5.148468e+000 3.290205e+000 2.892118e+000 4.412198e+000 5.340123e-001 7.048337e-001 5.772217e-001 7.327105e-001 1.159861e+000 8.817555e-001 7.782182e-001 1.042326e+000 1.014395e+000 9.796109e-001 5.828562e-001 5.715521e-001 5.150867e-001
<GCONST> 1.463592e+002
<STATE> 4
<MEAN> 39
 1.259029e+000 -9.537383e+000 6.587679e+000 -6.138549e+000 -1.227789e+001 -1.163493e+001 2.042863e+000 7.182394e+000 -4.319511e+000 -4.725164e+000 -4.112838e+000 -1.003705e+001 6.823676e+001 -1.611792e-001 4.450159e-001 6.297122e-001 3.105507e-001 7.661322e-002 -3.902866e-002 -5.392221e-001 -4.965516e-001 6.703551e-002 3.055749e-001 3.672929e-001 2.420798e-001 -3.801717e-001 -6.699780e-002 8.064463e-002 -4.156412e-002 1.124568e-001 1.981056e-001 1.139782e-002 3.666152e-002 -3.257729e-002 3.495380e-003 -2.540514e-003 5.300587e-003 -1.309495e-002 -2.096768e-001
<VARIANCE> 39
 7.266851e+001 9.198412e+001 2.166828e+002 8.570731e+001 1.395786e+002 1.641685e+002 1.056728e+002 1.616250e+002 1.377958e+002 1.037397e+002 5.067890e+001 5.791371e+001 1.449752e+002 2.381637e+000 4.121039e+000 7.145966e+000 5.708235e+000 8.574528e+000 5.251681e+000 5.372151e+000 6.613051e+000 7.277919e+000 4.157834e+000 2.793965e+000 3.122910e+000 4.405062e+000 4.178363e-001 7.335951e-001 1.074748e+000 1.024900e+000 1.384055e+000 8.722399e-001 9.592662e-001 1.133406e+000 1.293918e+000 7.320904e-001 5.009740e-001 6.117498e-001 6.478823e-001
<GCONST> 1.505721e+002
<TRANSP> 5
 0.000000e+000 1.000000e+000 0.000000e+000 0.000000e+000 0.000000e+000
 0.000000e+000 7.286682e-001 2.713318e-001 0.000000e+000 0.000000e+000
 0.000000e+000 0.000000e+000 5.880437e-001 4.119563e-001 0.000000e+000
 0.000000e+000 0.000000e+000 0.000000e+000 6.790011e-001 3.209989e-001
 0.000000e+000 0.000000e+000 0.000000e+000 0.000000e+000 0.000000e+000
<ENDHMM>
~h "ah"
<BEGINHMM>
<NUMSTATES> 5
<STATE> 2
<MEAN> 39
 1.588755e+000 -9.984149e+000 -8.121960e+000 -1.301745e+001 -4.341944e-001 7.907858e-001 -3.865510e+000 7.467909e-001 -1.753553e+000 -4.177265e+000 -4.829054e+000 -1.135139e+001 7.694364e+001 9.296115e-003 -5.825306e-001 -1.586084e-001 2.597149e-001 4.873862e-001 4.761875e-001 -9.151080e-002 -4.164760e-002 -2.783789e-001 2.417352e-001 -6.869840e-002 -5.271130e-001 5.084401e-001 6.967936e-002 2.340218e-001 1.603956e-001 1.210316e-001 -4.982916e-002 -1.522776e-001 -1.882464e-002 -8.271848e-002 -1.239118e-002 8.269262e-003 9.925978e-003 1.334208e-001 -3.048368e-001
<VARIANCE> 39
 8.430471e+001 9.130032e+001 6.731774e+001 7.758864e+001 7.377688e+001 1.143711e+002 1.754756e+002 8.890754e+001 6.871019e+001 1.026747e+002 1.083342e+002 1.325225e+002 1.367611e+002 2.760875e+000 3.428624e+000 2.770822e+000 3.646735e+000 3.456715e+000 3.317776e+000 4.189408e+000 3.639064e+000 3.239500e+000 3.427686e+000 3.852303e+000 3.860824e+000 3.856605e+000 3.926817e-001 4.164344e-001 3.959104e-001 6.064757e-001 5.622510e-001 5.272434e-001 7.004674e-001 6.614300e-001 5.484796e-001 5.997037e-001 6.970668e-001 6.704088e-001 2.968803e-001
<GCONST> 1.391053e+002
<STATE> 3
<MEAN> 39
 2.908564e+000 -1.207492e+001 -8.202377e+000 -1.128325e+001 6.809045e-001 1.185700e+000 -3.961359e+000 1.419226e-001 -2.808178e+000 -3.717363e+000 -4.420638e+000 -1.335613e+001 7.703931e+001 4.064921e-001 2.709254e-001 7.401147e-002 3.519863e-001 2.287345e-001 -4.002526e-002 -1.497292e-001 -1.891705e-001 -2.519655e-001 4.261859e-002 -6.236405e-002 -4.183620e-002 -6.692969e-001 3.347236e-002 1.870832e-001 5.858761e-002 1.061846e-002 -4.683911e-002 -1.161186e-001 2.831996e-002 -3.863483e-002 1.054909e-002 -2.841413e-002 -2.425809e-002 9.901033e-002 -1.935504e-001
<VARIANCE> 39
 8.532896e+001 7.894714e+001 6.578271e+001 6.918780e+001 7.120679e+001 9.037492e+001 1.274466e+002 8.509497e+001 7.097699e+001 9.503346e+001 7.843941e+001 1.074081e+002 9.600960e+001 1.375427e+000 1.960964e+000 2.075810e+000 2.152045e+000 2.554035e+000 2.488019e+000 2.806564e+000 2.961135e+000 2.552075e+000 2.448888e+000 2.374971e+000 2.373387e+000 1.461831e+000 2.029520e-001 2.685128e-001 3.061003e-001 3.425276e-001 3.897552e-001 3.688307e-001 4.703624e-001 5.170714e-001 4.324721e-001 4.326698e-001 3.917274e-001 4.056076e-001 1.276554e-001
<GCONST> 1.257015e+002
<STATE> 4
<MEAN> 39
 6.689808e+000 -9.749586e+000 -8.965652e+000 -9.203753e+000 3.361137e+000 9.935253e-001 -2.959669e+000 -7.115297e-001 -3.721704e+000 -3.647188e+000 -6.165184e+000 -1.480370e+001 6.837589e+001 7.592542e-002 8.235898e-001 9.920135e-002 3.395517e-001 -1.787269e-002 -2.774285e-001 1.087721e-001 -2.423332e-001 -4.250332e-003 -1.599372e-001 -1.177214e-001 2.652529e-001 -1.176602e+000 -1.221247e-001 9.836461e-002 4.613046e-002 1.374070e-002 -1.588710e-003 -7.196748e-002 6.664770e-002 -7.003981e-003 4.541022e-002 6.971726e-003 2.811370e-002 5.683601e-002 -4.172156e-002
<VARIANCE> 39
 1.007633e+002 7.859445e+001 6.629173e+001 7.931934e+001 7.933652e+001 9.316783e+001 8.822591e+001 9.040540e+001 8.871721e+001 8.004917e+001 6.799809e+001 8.404095e+001 1.616384e+002 1.518678e+000 1.885961e+000 2.337571e+000 2.181822e+000 2.420786e+000 2.591558e+000 3.240107e+000 3.627677e+000 3.254823e+000 2.932918e+000 2.409039e+000 2.333804e+000 9.412432e-001 1.858453e-001 2.332914e-001 3.228616e-001 3.471065e-001 4.029307e-001 4.210585e-001 5.417703e-001 5.841931e-001 5.606667e-001 5.237808e-001 4.256403e-001 3.876313e-001 8.838581e-002
<GCONST> 1.269182e+002
<TRANSP> 5
 0.000000e+000 1.000000e+000 0.000000e+000 0.000000e+000 0.000000e+000
 0.000000e+000 6.797053e-001 3.202947e-001 0.000000e+000 0.000000e+000
 0.000000e+000 0.000000e+000 7.178169e-001 2.821831e-001 0.000000e+000
 0.000000e+000 0.000000e+000 0.000000e+000 8.481106e-001 1.518894e-001
 0.000000e+000 0.000000e+000 0.000000e+000 0.000000e+000 0.000000e+000
<ENDHMM>
~h "ao"
<BEGINHMM>
<NUMSTATES> 5
<STATE> 2
<MEAN> 39
 2.873146e+000 -5.014430e+000 -1.454725e+001 -1.354396e+001 -4.923986e+000 -2.638531e-001 -5.961277e+000 -6.467903e+000 -3.590698e+000 -2.052981e+000 -1.071072e+000 -5.927944e+000 6.349639e+001 -5.848402e-001 1.763655e-001 6.928826e-001 2.154573e-001 3.382967e-001 -2.242674e-001 1.597463e-002 5.698746e-001 2.246721e-001 7.118189e-002 1.694962e-001 -8.178852e-003 -5.938316e-001 -8.517675e-002 6.779899e-002 1.703239e-001 3.936037e-002 3.797174e-002 -1.067310e-001 2.332247e-002 1.081461e-001 -3.646034e-002 -8.731533e-002 -1.261255e-002 -2.505710e-002 4.428203e-002
<VARIANCE> 39
 1.084763e+002 5.553501e+001 6.755275e+001 6.802737e+001 6.543822e+001 1.144479e+002 1.147158e+002 7.682645e+001 6.757862e+001 1.217225e+002 1.156372e+002 5.702147e+001 1.304777e+002 2.417707e+000 2.471402e+000 3.783207e+000 4.594796e+000 4.775241e+000 6.609854e+000 5.894072e+000 5.841506e+000 5.586244e+000 7.016052e+000 6.276374e+000 4.026357e+000 3.377841e+000 4.463688e-001 4.331586e-001 5.412575e-001 7.556924e-001 7.836866e-001 1.147871e+000 9.472868e-001 1.098878e+000 1.020580e+000 1.337875e+000 1.171361e+000 7.749193e-001 3.936212e-001
<GCONST> 1.459277e+002
<STATE> 3
<MEAN> 39
 -3.573476e+000 -2.769538e+000 -8.179852e+000 -1.151941e+001 -2.727581e+000 -3.396522e+000 -5.910106e+000 -2.997182e+000 -2.487435e+000 -2.934651e+000 -8.677381e-001 -5.421628e+000 6.127493e+001 -5.858372e-001 4.670000e-001 1.124987e+000 3.567627e-001 3.977660e-001 -7.827904e-001 -2.281605e-001 5.571917e-001 -1.316889e-001 -1.409179e-001 -8.242888e-003 -9.307652e-002 9.907010e-002 2.195714e-001 1.334745e-001 -5.758280e-002 -1.754689e-002 -1.190196e-001 -1.051609e-001 -8.860610e-002 -1.841982e-001 -1.204176e-001 -1.213123e-001 -1.296772e-001 8.831633e-003 2.014880e-001
<VARIANCE> 39
 1.005362e+002 5.327341e+001 5.551500e+001 8.685113e+001 7.671954e+001 1.066481e+002 1.112340e+002 9.674411e+001 8.855917e+001 1.302087e+002 1.095663e+002 6.182800e+001 1.198107e+002 4.105135e+000 3.754627e+000 3.814618e+000 5.846771e+000 5.983699e+000 7.348888e+000 8.120640e+000 8.700483e+000 6.875360e+000 7.593569e+000 6.713846e+000 5.142704e+000 4.726225e+000 8.330800e-001 6.847562e-001 6.266441e-001 1.047989e+000 1.096582e+000 1.266791e+000 1.286212e+000 1.682902e+000 1.344280e+000 1.446666e+000 1.294332e+000 8.976777e-001 5.549281e-001
<GCONST> 1.532738e+002
<STATE> 4
<MEAN> 39
 -7.124180e+000 1.795513e+000 -3.442277e+000 -1.087605e+001 -5.576749e+000 -1.188602e+001 -8.365103e+000 -6.600097e+000 -6.632711e+000 -9.252736e+000 -4.750864e+000 -2.578931e+000 6.706960e+001 4.318774e-001 3.848837e-001 1.947428e-001 -1.516231e-001 -1.631298e-001 -5.342605e-001 -1.933437e-001 -2.231203e-001 -1.076724e-001 -4.791040e-001 -2.903759e-001 2.426972e-001 7.576438e-001 1.234025e-001 -7.555871e-002 -1.218849e-001 -4.812487e-002 -2.715020e-002 1.119262e-001 9.628142e-002 -3.855191e-002 7.283711e-002 -3.841904e-002 -5.567584e-002 1.410226e-002 2.840262e-002
<VARIANCE> 39
 1.338523e+002 4.500955e+001 3.653273e+001 6.678337e+001 7.245446e+001 1.221867e+002 9.395056e+001 8.504417e+001 8.647025e+001 1.319480e+002 1.099489e+002 9.414561e+001 1.075415e+002 6.952893e+000 4.647788e+000 3.155244e+000 6.501559e+000 6.113100e+000 9.016380e+000 9.481390e+000 6.969493e+000 8.319795e+000 9.239099e+000 8.376039e+000 7.923941e+000 7.489717e+000 1.191391e+000 7.280009e-001 5.433560e-001 1.212828e+000 1.115865e+000 1.532289e+000 1.475298e+000 1.369071e+000 1.610364e+000 1.655119e+000 1.651163e+000 1.424253e+000 1.105563e+000
<GCONST> 1.573836e+002
<TRANSP> 5
 0.000000e+000 1.000000e+000 0.000000e+000 0.000000e+000 0.000000e+000
 0.000000e+000 7.838492e-001 2.161508e-001 0.000000e+000 0.000000e+000
 0.000000e+000 0.000000e+000 6.606950e-001 3.393050e-001 0.000000e+000
 0.000000e+000 0.000000e+000 0.000000e+000 8.725460e-001 1.274541e-001
 0.000000e+000 0.000000e+000 0.000000e+000 0.000000e+000 0.000000e+000
<ENDHMM>
~h "aw"
<BEGINHMM>
<NUMSTATES> 5
<STATE> 2
<MEAN> 39
 6.540439e+000 -4.442077e+000 -1.536080e+001 -1.089179e+001 -5.992044e+000 1.616871e+000 -6.881008e+000 -5.088575e+000 -4.007405e+000 -3.851870e+000 -2.588511e+000 -6.791120e+000 7.212050e+001 3.075173e-001 1.128014e-001 3.258801e-002 3.932760e-001 -3.939709e-002 -3.082581e-001 -1.951490e-001 -1.156747e-001 -2.178804e-001 2.891639e-001 2.396132e-001 1.595724e-001 -3.933292e-001 -7.081110e-002 3.306901e-002 5.252180e-002 1.372790e-002 -1.035570e-002 -1.067712e-001 3.350187e-002 3.297252e-002 3.233814e-002 -1.151648e-002 -1.046135e-003 2.642041e-002 -2.669825e-002
<VARIANCE> 39
 1.038324e+002 7.238922e+001 5.232099e+001 6.878179e+001 6.585907e+001 1.177328e+002 1.211487e+002 7.058055e+001 6.950449e+001 1.009376e+002 8.368547e+001 4.842772e+001 5.224845e+001 1.242288e+000 2.032211e+000 1.544922e+000 2.375866e+000 2.000967e+000 3.625667e+000 2.859525e+000 3.597703e+000 3.431592e+000 2.746936e+000 2.469635e+000 2.365122e+000 9.938989e-001 1.769640e-001 2.655238e-001 2.284541e-001 3.260944e-001 3.041521e-001 4.612117e-001 4.510140e-001 5.262712e-001 5.586181e-001 4.532796e-001 4.183484e-001 4.084916e-001 1.458696e-001
<GCONST> 1.243380e+002
<STATE> 3
<MEAN> 39
 6.368784e+000 -4.123271e+000 -1.349520e+001 -6.216117e+000 -4.809087e+000 -4.428557e+000 -8.079760e+000 -3.273277e+000 -3.949817e+000 -2.927952e+000 -1.128496e+000 -4.994651e+000 6.817825e+001 -2.367659e-001 4.210038e-001 4.651033e-001 1.222830e-001 8.981621e-002 -2.993823e-001 -5.900082e-002 -3.616157e-002 1.678464e-001 3.962851e-002 9.166469e-002 2.009271e-001 -6.404402e-001 -8.159093e-002 7.629567e-002 5.888133e-002 -1.041658e-001 -1.087120e-002 4.310913e-002 5.488389e-002 -2.133762e-002 -6.112910e-004 -4.133492e-002 -2.884117e-002 -1.140382e-002 -4.421913e-003
<VARIANCE> 39
 1.430457e+002 7.639831e+001 6.229855e+001 5.827368e+001 9.729066e+001 9.103468e+001 8.582460e+001 6.651344e+001 8.661859e+001 7.055953e+001 6.489463e+001 4.665448e+001 6.207719e+001 1.326140e+000 1.965485e+000 1.886379e+000 2.794745e+000 2.702991e+000 3.523027e+000 3.474705e+000 3.939911e+000 4.120176e+000 3.002705e+000 2.824508e+000 2.386262e+000 1.073155e+000 1.926358e-001 2.601947e-001 2.848218e-001 4.070522e-001 4.087934e-001 5.333602e-001 5.550214e-001 6.682236e-001 7.253659e-001 5.355995e-001 4.906930e-001 4.465186e-001 1.493423e-001
<GCONST> 1.277306e+002
<STATE> 4
<MEAN> 39
 2.751212e+000 -1.476788e+000 -1.043849e+001 -6.614130e+000 -4.733169e+000 -5.427932e+000 -8.341036e+000 -3.283315e+000 -3.012255e+000 -3.036196e+000 -1.180806e+000 -4.125135e+000 6.605587e+001 -5.957604e-001 6.524598e-001 6.110904e-001 -3.258694e-001 9.766626e-002 -9.089892e-002 2.949945e-001 -1.037656e-001 -4.174168e-003 -7.969198e-002 4.911227e-002 3.098027e-002 -5.687814e-001 -5.819336e-002 -2.811601e-002 -5.210191e-002 -6.671339e-002 2.546491e-002 5.238472e-002 6.186751e-002 2.477089e-002 -1.350447e-002 -1.942304e-002 -5.124269e-002 -3.399298e-002 6.959986e-002
<VARIANCE> 39
 1.809518e+002 6.687240e+001 6.146794e+001 5.510094e+001 1.202250e+002 7.883434e+001 9.215485e+001 7.574457e+001 9.114538e+001 7.128498e+001 5.722820e+001 5.223862e+001 7.223164e+001 2.053855e+000 2.221360e+000 2.113283e+000 3.320300e+000 4.260396e+000 3.895724e+000 4.006709e+000 4.396784e+000 4.483956e+000 3.553532e+000 3.178495e+000 3.022765e+000 1.451393e+000 3.236971e-001 3.293777e-001 3.426988e-001 5.213718e-001 6.780623e-001 6.307253e-001 6.997517e-001 7.628643e-001 8.389475e-001 6.880552e-001 5.890648e-001 5.288377e-001 1.928028e-001
<GCONST> 1.340235e+002
<TRANSP> 5
 0.000000e+000 1.000000e+000 0.000000e+000 0.000000e+000 0.000000e+000
 0.000000e+000 9.228131e-001 7.718686e-002 0.000000e+000 0.000000e+000
 0.000000e+000 0.000000e+000 7.289214e-001 2.710787e-001 0.000000e+000
 0.000000e+000 0.000000e+000 0.000000e+000 7.138922e-001 2.861077e-001
 0.000000e+000 0.000000e+000 0.000000e+000 0.000000e+000 0.000000e+000
<ENDHMM>
~h "ax"
<BEGINHMM>
<NUMSTATES> 5
<STATE> 2
<MEAN> 39
 -3.096619e-001 1.718333e+000 -5.836292e+000 -8.551423e+000 -5.488172e+000 -6.889035e+000 -8.828106e+000 -6.326948e+000 -5.817528e+000 -7.947451e+000 -5.477950e+000 -5.450201e+000 6.699100e+001 -3.569356e-001 2.744379e-001 2.749756e-001 2.285267e-001 3.644219e-002 3.357142e-001 1.310797e-001 -2.168883e-001 -4.874034e-002 1.382073e-001 -6.263161e-002 9.425477e-002 -3.985148e-001 -1.248702e-001 -1.250599e-001 -1.972403e-002 9.678219e-003 4.072369e-002 -1.358481e-002 9.024373e-002 5.564741e-002 6.160330e-002 3.112194e-002 4.222548e-002 8.759055e-002 1.065323e-001
<VARIANCE> 39
 1.504527e+002 7.025765e+001 5.737759e+001 5.834860e+001 7.979099e+001 8.847659e+001 7.676281e+001 7.603296e+001 7.169608e+001 1.110382e+002 7.246709e+001 6.597334e+001 8.334357e+001 2.836432e+000 2.630916e+000 2.465180e+000 3.671930e+000 4.047275e+000 4.023944e+000 4.628944e+000 4.148327e+000 4.112784e+000 4.407684e+000 3.463093e+000 3.354087e+000 3.661130e+000 3.954215e-001 3.757731e-001 3.899927e-001 5.648359e-001 6.487154e-001 6.434568e-001 7.671082e-001 6.875966e-001 6.941002e-001 7.147244e-001 6.327326e-001 5.925996e-001 4.123393e-001
<GCONST> 1.375760e+002
<STATE> 3
<MEAN> 39
 -8.485083e-001 1.797847e+000 -5.466886e+000 -8.002676e+000 -5.068777e+000 -6.119855e+000 -8.358202e+000 -6.420623e+000 -5.526384e+000 -7.357882e+000 -5.389539e+000 -4.999944e+000 6.656586e+001 -4.599327e-001 2.605933e-002 2.717384e-001 2.724121e-001 8.908191e-002 1.897610e-001 2.946468e-001 -1.016835e-001 3.472323e-002 5.030812e-002 -4.449048e-003 2.006254e-001 -2.513572e-001 -5.646039e-002 -8.769844e-002 2.419837e-003 -1.270872e-002 2.967056e-002 -5.763920e-002 3.347725e-002 6.564436e-002 5.844476e-002 -1.703857e-002 8.544038e-003 1.276971e-002 8.194594e-002
<VARIANCE> 39
 1.562403e+002 7.283398e+001 5.921872e+001 6.012452e+001 7.510203e+001 8.421886e+001 7.298212e+001 7.587298e+001 7.050901e+001 1.142314e+002 7.724799e+001 6.335693e+001 9.818864e+001 2.537000e+000 2.427187e+000 2.299810e+000 3.202600e+000 3.812830e+000 3.599559e+000 4.102936e+000 3.821190e+000 3.856281e+000 4.127697e+000 3.393492e+000 2.901339e+000 2.971666e+000 3.534279e-001 3.450236e-001 3.667782e-001 5.203815e-001 6.003808e-001 6.098250e-001 6.934711e-001 6.323681e-001 6.561420e-001 6.883755e-001 5.927074e-001 5.529377e-001 3.412443e-001
<GCONST> 1.353971e+002
<STATE> 4
<MEAN> 39
 -3.027436e+000 1.539952e-001 -5.552570e+000 -8.300825e+000 -5.919246e+000 -7.733437e+000 -8.288341e+000 -7.511008e+000 -6.270358e+000 -1.090416e+001 -6.931800e+000 -4.432066e+000 6.801109e+001 -4.471994e-001 3.614282e-002 2.625782e-001 2.322239e-001 9.614163e-002 1.025245e-001 1.912517e-001 -1.163279e-002 8.475965e-002 1.041775e-001 7.113503e-002 1.000930e-001 -2.504986e-001 -5.273598e-002 -2.340757e-002 -3.014736e-003 -6.845009e-002 2.455974e-003 -3.653589e-002 -6.739044e-005 4.962919e-002 4.962086e-002 -6.892077e-003 1.576805e-002 -7.351468e-003 1.135717e-001
<VARIANCE> 39
 1.300484e+002 8.040247e+001 5.653742e+001 5.866211e+001 8.243880e+001 7.164918e+001 6.038713e+001 7.104045e+001 7.347961e+001 1.496830e+002 8.117648e+001 5.471037e+001 1.168022e+002 2.274944e+000 2.376103e+000 1.930094e+000 2.409124e+000 3.602085e+000 2.904995e+000 3.354573e+000 3.260260e+000 3.408489e+000 3.912837e+000 3.389117e+000 2.682158e+000 2.243500e+000 3.306173e-001 3.258864e-001 3.245436e-001 4.295903e-001 5.413292e-001 5.127781e-001 5.953766e-001 5.661329e-001 6.148033e-001 6.735391e-001 5.641678e-001 5.108331e-001 3.277771e-001
<GCONST> 1.323129e+002
<TRANSP> 5
 0.000000e+000 1.000000e+000 0.000000e+000 0.000000e+000 0.000000e+000
 0.000000e+000 5.201889e-001 4.798111e-001 0.000000e+000 0.000000e+000
 0.000000e+000 0.000000e+000 5.124321e-001 4.875679e-001 0.000000e+000
 0.000000e+000 0.000000e+000 0.000000e+000 7.462866e-001 2.537134e-001
 0.000000e+000 0.000000e+000 0.000000e+000 0.000000e+000 0.000000e+000
<ENDHMM>
~h "ay"
<BEGINHMM>
<NUMSTATES> 5
<STATE> 2
<MEAN> 39
 -5.615338e+000 -1.100434e+001 -6.078739e+000 -9.923419e+000 -7.438266e+000 -4.551609e+000 -1.383832e-001 1.377787e+000 -2.411436e+000 -8.915668e+000 -6.606693e+000 -5.163610e+000 8.465371e+001 3.042681e-002 6.701282e-002 9.933965e-001 -2.638783e-001 -9.752819e-001 -3.645003e-001 -2.157132e-001 -3.124795e-002 -4.860435e-001 3.882343e-001 1.267965e-001 -5.176821e-002 -2.664886e-001 7.324236e-002 1.564373e-001 1.647309e-001 -8.769262e-002 -8.046079e-002 -3.292577e-002 -1.735174e-001 -1.286178e-001 2.591495e-002 1.434807e-001 1.471182e-002 3.506594e-002 -1.553444e-001
<VARIANCE> 39
 7.227525e+001 7.198789e+001 7.833546e+001 3.848505e+001 1.309556e+002 5.540332e+001 8.010619e+001 1.044935e+002 7.387043e+001 1.229303e+002 4.990055e+001 1.385839e+002 6.939572e+001 6.959958e-001 1.664600e+000 2.061766e+000 1.792243e+000 3.057528e+000 2.495523e+000 3.285693e+000 2.999274e+000 2.892118e+000 3.771127e+000 2.776578e+000 2.090599e+000 4.671008e-001 1.107214e-001 1.709840e-001 2.398088e-001 2.674912e-001 4.065065e-001 3.600973e-001 5.197355e-001 4.957239e-001 5.046065e-001 6.436323e-001 4.860495e-001 3.751064e-001 5.411124e-002
<GCONST> 1.217893e+002
<STATE> 3
<MEAN> 39
 -1.920065e+000 -8.500697e+000 4.514118e+000 -1.140927e+001 -1.495287e+001 -7.495903e+000 -5.023547e+000 9.922512e-001 -4.566019e+000 -3.965100e+000 -4.633911e+000 -6.878841e+000 7.811756e+001 1.416603e-001 8.272802e-001 1.193049e+000 2.384453e-002 -5.208044e-001 -2.255002e-001 -6.984195e-001 -6.557559e-001 -2.888736e-001 2.667812e-001 1.761089e-001 2.052430e-001 -8.941277e-001 5.634156e-003 1.079575e-001 -1.770834e-001 1.568780e-001 2.253383e-001 3.173527e-002 6.888584e-002 3.718425e-004 8.042325e-002 -1.370699e-001 -6.030317e-002 -4.653481e-002 -1.136617e-001
<VARIANCE> 39
 7.982005e+001 1.583200e+002 1.033588e+002 5.549872e+001 1.265180e+002 7.165012e+001 8.372274e+001 1.524426e+002 6.980080e+001 9.409254e+001 5.237539e+001 9.156108e+001 6.111659e+001 7.227651e-001 1.809429e+000 2.193971e+000 2.055136e+000 3.469755e+000 2.475844e+000 3.292138e+000 3.511901e+000 3.290505e+000 3.055477e+000 2.489425e+000 2.231902e+000 5.428253e-001 1.077717e-001 1.923881e-001 2.785202e-001 2.984908e-001 4.752779e-001 4.091851e-001 5.619740e-001 5.806925e-001 5.357358e-001 5.068298e-001 4.713708e-001 3.974930e-001 5.700840e-002
<GCONST> 1.245420e+002
<STATE> 4
<MEAN> 39
 -3.566902e+000 2.236923e+000 5.822478e+000 -8.442674e+000 -1.272336e+001 -6.817055e+000 -8.726050e+000 -3.718785e+000 -4.200738e+000 -6.815065e+000 -5.222482e+000 -5.377872e+000 7.025321e+001 -1.752934e-002 6.519855e-001 -1.121126e-001 7.328794e-001 6.440194e-001 2.307079e-002 2.247187e-001 -3.076034e-002 1.535626e-001 -9.533648e-002 -6.291106e-003 -6.814601e-002 -1.029429e+000 -4.435795e-002 -5.588066e-002 -1.388590e-001 3.682341e-002 1.066205e-001 1.408727e-002 9.103301e-002 6.515746e-002 4.042592e-002 1.502564e-002 1.699535e-002 -1.653535e-002 3.025405e-002
<VARIANCE> 39
 1.201373e+002 1.420238e+002 8.380784e+001 8.693340e+001 8.173320e+001 9.262747e+001 8.400679e+001 1.276572e+002 5.984616e+001 8.968685e+001 4.832364e+001 6.393678e+001 6.807336e+001 1.386157e+000 2.030466e+000 1.871685e+000 2.841040e+000 3.825212e+000 2.846836e+000 3.373441e+000 3.133705e+000 3.221204e+000 2.893236e+000 2.206907e+000 2.471161e+000 1.127790e+000 1.908441e-001 2.311139e-001 3.057792e-001 4.362822e-001 5.342546e-001 4.909112e-001 6.046403e-001 5.829992e-001 5.635175e-001 4.984218e-001 4.146852e-001 4.325218e-001 1.171047e-001
<GCONST> 1.282233e+002
<TRANSP> 5
 0.000000e+000 1.000000e+000 0.000000e+000 0.000000e+000 0.000000e+000
 0.000000e+000 8.618608e-001 1.381392e-001 0.000000e+000 0.000000e+000
 0.000000e+000 0.000000e+000 8.066243e-001 1.933757e-001 0.000000e+000
 0.000000e+000 0.000000e+000 0.000000e+000 8.815682e-001 1.184318e-001
 0.000000e+000 0.000000e+000 0.000000e+000 0.000000e+000 0.000000e+000
<ENDHMM>
~h "ch"
<BEGINHMM>
<NUMSTATES> 5
<STATE> 2
<MEAN> 39
 -1.635507e+001 4.194636e+000 9.054323e+000 -9.527837e+000 3.337082e+000 -7.728944e+000 3.050741e-001 1.731690e-002 1.244687e+000 -4.290210e+000 4.096874e-001 -6.687857e+000 6.181831e+001 -1.294837e+000 -1.050345e-001 6.895734e-001 -1.068237e+000 -1.550580e-001 -4.622917e-001 2.513666e-001 1.225301e-002 1.303068e-001 -5.190561e-001 -1.889449e-002 -2.897802e-001 1.761726e+000 1.877304e-001 -2.320051e-001 -2.195054e-002 6.052202e-002 -2.981572e-001 8.450083e-003 1.470404e-002 -6.333200e-002 -5.284544e-002 -8.524483e-002 7.836657e-003 -5.777277e-002 9.245062e-002
<VARIANCE> 39
 1.948756e+002 8.056638e+001 1.213504e+002 1.159211e+002 1.214199e+002 1.489844e+002 9.624039e+001 1.200443e+002 1.032236e+002 9.632108e+001 9.306119e+001 8.039996e+001 2.156003e+002 1.741090e+001 8.065738e+000 4.480145e+000 1.042311e+001 1.157035e+001 8.794283e+000 6.178219e+000 9.446400e+000 6.365022e+000 6.481202e+000 6.700567e+000 5.596326e+000 5.870260e+000 2.119827e+000 1.032315e+000 7.674381e-001 1.686001e+000 1.663633e+000 1.682434e+000 1.144662e+000 1.777487e+000 1.194731e+000 1.149553e+000 1.255913e+000 9.213765e-001 7.547621e-001
<GCONST> 1.631001e+002
<STATE> 3
<MEAN> 39
 -2.026360e+001 2.060722e+000 1.072295e+001 -1.164632e+001 1.677043e-001 -8.686913e+000 1.793981e-001 -4.422261e-001 1.886249e-001 -6.073950e+000 5.944429e-002 -7.752999e+000 7.099959e+001 3.439158e-001 -9.782055e-001 -2.220615e-001 -5.740331e-002 -8.667563e-001 4.891871e-001 1.649721e-001 1.014692e-001 2.416832e-001 1.042199e-002 1.038305e-002 -2.015581e-001 7.509854e-001 2.276354e-001 -3.995363e-002 -2.106161e-001 1.906944e-001 8.667428e-002 1.747582e-001 -2.547706e-002 6.728549e-002 1.915938e-002 6.638892e-002 -1.750123e-003 -1.659312e-002 -2.358725e-001
<VARIANCE> 39
 1.673536e+002 1.424501e+002 9.708915e+001 5.669988e+001 1.989160e+002 1.325767e+002 9.818785e+001 9.663272e+001 7.778165e+001 1.156318e+002 8.511705e+001 5.337972e+001 9.996653e+001 1.082366e+001 5.842444e+000 3.983602e+000 4.287476e+000 7.782956e+000 5.434097e+000 5.795858e+000 5.643314e+000 3.817836e+000 4.370419e+000 4.211835e+000 3.310914e+000 2.095550e+000 1.347175e+000 9.386189e-001 5.189335e-001 7.803716e-001 1.257488e+000 1.121162e+000 8.468712e-001 1.012006e+000 6.899178e-001 8.007480e-001 7.938795e-001 6.285536e-001 2.702379e-001
<GCONST> 1.491676e+002
<STATE> 4
<MEAN> 39
 -2.283541e+001 -5.971906e-001 6.740603e+000 -1.221902e+001 -2.318744e+000 -1.754882e+000 1.482437e+000 -3.091200e+000 -1.948779e+000 -1.015155e+001 -9.848639e-001 -4.713874e+000 7.518395e+001 6.089395e-001 -6.977354e-001 -2.885887e-001 2.900527e-001 -1.906484e-001 2.278943e-001 1.400388e-001 9.526843e-002 8.760204e-002 -5.295090e-002 7.343572e-002 1.791075e-001 -4.544001e-001 8.313133e-002 1.076239e-001 -3.035047e-002 6.333217e-002 5.557542e-002 -6.595572e-002 -3.377748e-002 -5.903185e-003 -5.600633e-002 3.919819e-003 -3.752917e-002 -1.323606e-002 -1.496391e-001
<VARIANCE> 39
 1.293893e+002 1.146445e+002 9.382188e+001 4.183176e+001 1.066613e+002 1.007897e+002 1.423856e+002 5.576334e+001 1.243724e+002 1.283150e+002 4.120068e+001 5.500867e+001 1.514363e+002 2.570870e+000 1.912841e+000 1.421907e+000 1.819040e+000 2.499751e+000 2.624508e+000 2.367221e+000 2.708383e+000 2.326918e+000 2.262815e+000 1.977118e+000 1.950454e+000 1.336127e+000 3.695098e-001 3.874707e-001 2.160691e-001 3.254605e-001 4.340106e-001 4.272244e-001 3.908747e-001 4.921305e-001 3.959621e-001 4.220396e-001 3.351378e-001 3.882239e-001 1.199280e-001
<GCONST> 1.259449e+002
<TRANSP> 5
 0.000000e+000 1.000000e+000 0.000000e+000 0.000000e+000 0.000000e+000
 0.000000e+000 8.781705e-001 1.218295e-001 0.000000e+000 0.000000e+000
 0.000000e+000 0.000000e+000 6.523347e-001 3.476653e-001 0.000000e+000
 0.000000e+000 0.000000e+000 0.000000e+000 8.457127e-001 1.542872e-001
 0.000000e+000 0.000000e+000 0.000000e+000 0.000000e+000 0.000000e+000
<ENDHMM>
~h "eh"
<BEGINHMM>
<NUMSTATES> 5
<STATE> 2
<MEAN> 39
 -4.782893e+000 -8.158957e+000 -5.632089e+000 -1.239565e+001 -8.091685e+000 -1.131587e+001 6.591476e-001 2.037165e-001 4.226670e-002 -1.308708e+001 -4.843473e+000 -6.868076e+000 8.168463e+001 2.794681e-001 -4.016591e-001 -6.408726e-002 1.167151e-001 4.962694e-001 6.027928e-002 -1.389176e-001 3.729623e-001 8.234723e-002 -1.216713e-001 -3.666011e-002 -2.262811e-002 5.333511e-002 -5.560517e-002 1.358712e-001 7.216960e-002 7.480884e-002 3.203436e-002 -8.700114e-003 -5.329785e-002 -1.028219e-001 -4.819307e-002 9.498615e-002 6.368430e-003 2.643486e-002 -2.492794e-001
<VARIANCE> 39
 7.357398e+001 6.597372e+001 6.317042e+001 4.655209e+001 1.148867e+002 9.090746e+001 7.966602e+001 1.176171e+002 5.902344e+001 2.082918e+002 6.034922e+001 9.635123e+001 6.370761e+001 1.055145e+000 1.433258e+000 1.510441e+000 1.295702e+000 3.108361e+000 2.420570e+000 3.477429e+000 2.463556e+000 2.466182e+000 2.484527e+000 2.130676e+000 1.687780e+000 1.211429e+000 2.478660e-001 2.641691e-001 2.382648e-001 2.774546e-001 6.194800e-001 4.692703e-001 6.291837e-001 4.195352e-001 4.480635e-001 4.285330e-001 3.938189e-001 3.208427e-001 2.062190e-001
<GCONST> 1.240175e+002
<STATE> 3
<MEAN> 39
 -1.018303e+000 -9.624400e+000 -4.809644e+000 -9.795146e+000 -7.027391e+000 -8.943232e+000 -1.320562e+000 2.599538e+000 6.664657e-003 -9.458986e+000 -5.230631e+000 -8.949833e+000 7.777007e+001 3.966766e-001 9.922553e-003 1.747096e-001 2.932548e-001 1.895197e-001 1.593836e-001 -2.204673e-001 -1.444461e-001 -3.090312e-001 1.502793e-001 -6.868216e-002 -6.006057e-002 -7.658651e-001 8.552858e-003 1.408746e-001 -7.668646e-003 7.013103e-002 -1.571850e-002 1.072617e-002 -2.761018e-003 -6.502945e-002 -5.314558e-002 4.914706e-002 -7.363197e-003 1.524017e-002 -2.165272e-001
<VARIANCE> 39
 8.796294e+001 8.264886e+001 7.557873e+001 5.290690e+001 1.208308e+002 9.141534e+001 8.586671e+001 1.074040e+002 6.491410e+001 1.741228e+002 5.730050e+001 1.043588e+002 7.711560e+001 1.093438e+000 1.293545e+000 1.390838e+000 1.468931e+000 3.107348e+000 2.441218e+000 2.927377e+000 2.227399e+000 2.542480e+000 2.316152e+000 1.979988e+000 1.784101e+000 1.715970e+000 1.769319e-001 2.254672e-001 2.432470e-001 2.668819e-001 5.152648e-001 4.906859e-001 5.204827e-001 4.148792e-001 4.777874e-001 4.222498e-001 3.824684e-001 3.533469e-001 1.891511e-001
<GCONST> 1.240819e+002
<STATE> 4
<MEAN> 39
 1.029872e+000 -8.318694e+000 -3.410905e+000 -7.144940e+000 -6.118926e+000 -8.009383e+000 -2.488008e+000 1.918324e+000 -2.838558e+000 -8.111968e+000 -5.674551e+000 -9.856394e+000 7.083830e+001 2.221272e-001 7.250253e-001 -6.330843e-002 5.652811e-001 1.677981e-001 3.093005e-001 -2.473622e-001 -3.093030e-001 -3.426815e-001 3.563717e-001 -4.890257e-002 -2.613636e-002 -1.627311e+000 -1.028889e-001 1.283610e-001 -6.007469e-002 -3.194380e-002 -4.806057e-002 2.125208e-002 6.263389e-002 -3.629121e-002 8.090077e-002 5.388651e-002 4.452160e-002 6.849534e-002 -9.217504e-003
<VARIANCE> 39
 9.364458e+001 9.277478e+001 7.629021e+001 5.488783e+001 9.441463e+001 8.469449e+001 7.142442e+001 9.544814e+001 6.880382e+001 1.158362e+002 6.015473e+001 8.050183e+001 8.222730e+001 1.673887e+000 1.978664e+000 1.777584e+000 2.101050e+000 3.236372e+000 3.485158e+000 2.743149e+000 3.165791e+000 3.065907e+000 3.037655e+000 2.837352e+000 2.668309e+000 2.463268e+000 2.153165e-001 2.933562e-001 2.952353e-001 3.624208e-001 5.298247e-001 6.338719e-001 4.785895e-001 5.786388e-001 5.547812e-001 5.036027e-001 4.939595e-001 4.778428e-001 3.177204e-001
<GCONST> 1.297982e+002
<TRANSP> 5
 0.000000e+000 1.000000e+000 0.000000e+000 0.000000e+000 0.000000e+000
 0.000000e+000 8.284232e-001 1.715768e-001 0.000000e+000 0.000000e+000
 0.000000e+000 0.000000e+000 7.894534e-001 2.105466e-001 0.000000e+000
 0.000000e+000 0.000000e+000 0.000000e+000 7.145691e-001 2.854309e-001
 0.000000e+000 0.000000e+000 0.000000e+000 0.000000e+000 0.000000e+000
<ENDHMM>
~h "er"
<BEGINHMM>
<NUMSTATES> 5
<STATE> 2
<MEAN> 39
 8.574160e+000 -1.146206e+001 -2.848365e+000 -1.714372e+000 -7.055847e+000 -1.265118e+001 -9.486250e+000 6.624800e+000 1.889406e+000 -4.430716e+000 -3.836072e+000 -9.704795e+000 6.910594e+001 4.827726e-001 2.107700e-001 -8.226452e-001 7.913346e-001 2.971621e-001 -1.653490e-001 -3.675146e-001 -1.440906e-001 8.008951e-002 -2.499953e-001 -1.744107e-001 3.635980e-001 -2.523668e-001 -1.912917e-001 1.830043e-001 2.045146e-001 -2.445536e-003 6.279345e-002 -1.406260e-002 2.318912e-002 -1.352351e-001 -5.649825e-002 4.923560e-003 5.732264e-002 1.042748e-001 -2.101583e-001
<VARIANCE> 39
 1.071764e+002 8.510499e+001 1.100118e+002 8.101727e+001 7.967122e+001 9.977843e+001 8.082674e+001 8.698291e+001 7.073575e+001 8.249648e+001 7.767318e+001 7.608516e+001 1.031628e+002 3.003813e+000 3.361660e+000 3.376976e+000 2.826947e+000 2.810466e+000 3.764149e+000 2.969976e+000 4.441468e+000 3.625629e+000 3.184845e+000 3.563240e+000 3.958744e+000 4.216089e+000 4.093401e-001 4.445480e-001 4.730497e-001 5.039269e-001 4.639274e-001 5.496451e-001 5.095043e-001 9.088429e-001 6.987990e-001 5.345140e-001 7.117266e-001 8.561966e-001 3.207887e-001
<GCONST> 1.378696e+002
<STATE> 3
<MEAN> 39
 7.740940e+000 -6.040522e+000 -3.462584e+000 1.171355e+000 -5.560736e+000 -1.481900e+001 -1.280392e+001 3.938239e+000 2.120995e+000 -7.079178e+000 -4.722869e+000 -7.293785e+000 6.303654e+001 -5.463755e-001 9.481590e-001 1.222694e-001 2.286248e-001 3.138757e-001 -7.122437e-002 -8.428565e-002 -5.104344e-001 7.828631e-002 5.925169e-002 2.627624e-002 1.971983e-001 -1.110718e+000 -1.551950e-001 4.291959e-002 1.469931e-001 -1.095415e-001 3.998460e-002 5.201755e-002 1.263172e-001 4.722065e-003 -5.109716e-002 4.068705e-002 5.407507e-002 -7.459255e-002 -6.152132e-003
<VARIANCE> 39
 1.346942e+002 6.714637e+001 8.973904e+001 7.708340e+001 6.857174e+001 1.712646e+002 9.264087e+001 7.216791e+001 6.308625e+001 9.049611e+001 7.222961e+001 5.653130e+001 1.275703e+002 1.931398e+000 2.159343e+000 2.134859e+000 2.826016e+000 2.658027e+000 3.281961e+000 3.403056e+000 3.911786e+000 3.441476e+000 2.817414e+000 3.174715e+000 2.354675e+000 1.348087e+000 2.264763e-001 3.136855e-001 3.265529e-001 4.620244e-001 4.163000e-001 5.138367e-001 5.383816e-001 7.266165e-001 6.556837e-001 4.943399e-001 6.440650e-001 3.947420e-001 1.386730e-001
<GCONST> 1.306946e+002
<STATE> 4
<MEAN> 39
 -6.988290e+000 9.036337e-001 6.664512e-002 -1.410856e+000 -2.792144e+000 -9.398516e+000 -8.107496e+000 1.505633e+000 2.835833e+000 -5.332945e+000 -2.392201e+000 -4.363789e+000 6.023483e+001 -9.533169e-001 5.912506e-001 6.038657e-001 -3.640539e-002 3.864040e-001 3.542320e-001 4.880261e-001 -1.990665e-001 -2.473966e-002 2.033137e-001 2.143352e-001 1.463698e-001 -4.850096e-001 2.474465e-002 -9.614026e-002 7.176907e-002 -7.395776e-002 -7.312655e-003 3.934541e-002 2.372287e-002 4.184891e-003 -6.241810e-002 -3.523968e-002 1.270055e-003 -5.279277e-002 8.064223e-002
<VARIANCE> 39
 2.867506e+002 5.554959e+001 6.489323e+001 8.204839e+001 7.371306e+001 1.327029e+002 9.985836e+001 5.263711e+001 6.443787e+001 7.390867e+001 6.531275e+001 5.739520e+001 2.362408e+002 2.548383e+000 2.044730e+000 1.759367e+000 2.946504e+000 2.847192e+000 2.954396e+000 3.202651e+000 3.803256e+000 3.766063e+000 3.276059e+000 3.608094e+000 2.406179e+000 1.208369e+000 3.486964e-001 3.230527e-001 3.174399e-001 5.790157e-001 4.445834e-001 5.118309e-001 5.386841e-001 7.147726e-001 7.024939e-001 6.349754e-001 7.826158e-001 4.202688e-001 1.480701e-001
<GCONST> 1.324986e+002
<TRANSP> 5
 0.000000e+000 1.000000e+000 0.000000e+000 0.000000e+000 0.000000e+000
 0.000000e+000 7.759602e-001 2.240398e-001 0.000000e+000 0.000000e+000
 0.000000e+000 0.000000e+000 7.469551e-001 2.530449e-001 0.000000e+000
 0.000000e+000 0.000000e+000 0.000000e+000 8.079899e-001 1.920101e-001
 0.000000e+000 0.000000e+000 0.000000e+000 0.000000e+000 0.000000e+000
<ENDHMM>
~h "ey"
<BEGINHMM>
<NUMSTATES> 5
<STATE> 2
<MEAN> 39
 -1.616655e-001 -9.313346e+000 1.165660e+001 -2.821482e+000 -1.440375e+001 -1.505990e+001 -3.136290e+000 2.196942e+000 -4.251204e+000 -5.133433e+000 3.485363e-001 -8.078019e+000 6.915063e+001 5.341322e-001 -1.644378e-001 1.291926e-002 -1.528522e-001 -4.777572e-001 -2.130770e-001 -1.641250e-001 1.069181e-001 -3.963556e-001 -1.665535e-001 2.208609e-001 -1.983495e-002 -8.611854e-002 -4.918144e-002 1.079881e-001 -4.758240e-002 5.242449e-002 1.972146e-001 6.680369e-002 -3.143913e-002 7.477555e-002 4.167202e-002 -5.167358e-002 -5.963772e-002 1.877744e-002 -1.530576e-001
<VARIANCE> 39
 8.231400e+001 9.187448e+001 1.277975e+002 1.023578e+002 1.175157e+002 1.352341e+002 9.779337e+001 1.329543e+002 5.708859e+001 7.711900e+001 6.442283e+001 3.134812e+001 1.141709e+002 2.500006e+000 3.414833e+000 2.795310e+000 4.691151e+000 6.420217e+000 4.614218e+000 3.459672e+000 5.180098e+000 3.696546e+000 3.428187e+000 2.943889e+000 2.049692e+000 2.865752e+000 4.465644e-001 4.546883e-001 4.487949e-001 6.690666e-001 9.572117e-001 6.856956e-001 5.747322e-001 8.789445e-001 6.413099e-001 5.865465e-001 5.333158e-001 3.753726e-001 2.871480e-001
<GCONST> 1.386188e+002
<STATE> 3
<MEAN> 39
